  -0.59377,   0.06629,   0.42514,  -0.60386,   0.74537,   0.31428,  -0.27552,  -0.01569,  -0.11996,  -0.11605,  -0.37623,  -0.17097,  -0.41889,  -0.25805,   0.61828,   0.17824,   0.14703,   0.74335,  -0.05673,  -0.62558,   0.34085,   0.28544,   0.60268,  -0.68691,  -0.64730,   0.57988,  -0.28415,   0.07057,   0.63572,   0.83570,   0.36690,   0.70141,  -0.71991,   0.77590,  -0.29277,  -0.27549,   0.66252,  -0.16295,   0.12153,  -0.29832,   0.50186,   0.71534,  -0.39955,   0.60843,  -0.04917,   0.63788,   0.78632,   0.27302,  -0.36747,   0.48496,   0.41069,  -0.00804,   0.80447,  -0.58399,   0.32966,   0.67400,   0.13574,   0.80724,   0.81558,   0.38143,   0.25219,   0.23828,   0.06373,   0.16662,   0.26577,  -0.50698,   0.21413,   0.34980,   0.30750,  -0.01179,  -0.60324,   0.62431,  -0.63510,   0.36084,   0.49696,   0.26790,   0.72198,  -0.60451,   0.01403,   0.76033,  -0.65686,   0.76847,   0.02052,  -0.36207,  -0.36012,  -0.33518,   0.67231,  -0.39345,   0.81076,  -0.42026,  -0.12116,  -0.35050,  -0.48974,   0.73603,  -0.19759,   0.61697,  -0.17537,   0.04972,  -0.20511,  -0.21614,   0.74416,   0.46838,  -0.67350,   0.70572,   0.37333,  -0.70054,  -0.54851,  -0.49892,   0.41591,  -0.49179,   0.80747,  -0.62066,   0.15150,  -0.56456,   0.16475,  -0.04712,   0.93750,   0.34929,  -0.30725,  -0.22007,   0.07789,  -0.11202,  -0.66113,  -0.43730,  -0.78705,   0.28329,   0.62159,   0.81639
  -0.44812,   0.77619,   0.09558,  -0.62344,   0.30647,   0.70073,  -0.63804,  -0.65030,   0.11420,  -0.67371,  -0.20658,  -0.80595,  -0.43322,  -0.66743,  -0.10529,  -0.41389,   0.27634,   0.72253,  -0.52464,  -0.16383,  -0.42678,   0.55933,  -0.56619,  -0.22237,  -0.64504,   0.25244,  -0.36268,  -0.46488,  -0.16656,   0.59414,  -0.61066,   0.73120,   0.70022,   0.06518,   0.70399,   0.49288,   0.43975,  -0.21895,   0.55083,  -0.40144,   0.86747,   0.42710,   0.10454,  -0.11465,  -0.78290,   0.43168,   0.06619,  -0.01025,  -0.69614,   0.50269,   0.57103,   0.11284,   0.02300,  -0.65982,  -0.05007,   0.81028,   0.72390,   0.28803,   0.85829,   0.52557,   0.59408,   0.26411,  -0.22613,  -0.66154,  -0.59967,  -0.50284,  -0.54607,  -0.25888,  -0.28233,   0.46130,  -0.40497,  -0.17460,  -0.33999,   0.58055,   0.13639,   0.86372,  -0.21151,  -0.82745,   0.49145,   0.04394,  -0.53861,   0.72622,   0.17904,   0.51037,  -0.51534,  -0.07354,  -0.32103,   0.11686,   0.43963,  -0.59755,  -0.47044,   0.33737,  -0.44565,   0.49351,  -0.77709,   0.35064,   0.21382,   0.28024,  -0.63280,  -0.33420,   0.34586,  -0.33011,  -0.31852,  -0.31682,   0.54726,   0.14626,  -0.64098,  -0.72258,  -0.46513,  -0.44177,   0.35002,  -0.57405,   0.56459,   0.04940,  -0.11523,  -0.75139,   0.12549,   0.00941,   0.03980,   0.54716,  -0.06061,  -0.17833,  -0.37619,  -0.09881,   0.39911,   0.34165,   0.43546,  -0.24870
   0.11890,  -0.28225,   0.60799,  -0.73709,   0.86090,   0.25155,  -0.47574,   0.52753,  -0.74758,  -0.51070,   0.56038,  -0.14837,   0.45479,  -0.41032,   0.07490,   0.06440,  -0.45320,  -0.07894,   0.69572,  -0.18711,  -0.55493,   0.22421,  -0.72493,   0.27506,   0.45279,   0.72100,  -0.70062,  -0.34785,  -0.74717,  -0.72211,   0.86757,   0.35665,   0.54678,  -0.12158,   0.45750,   0.34246,   0.41864,   0.39320,   0.92507,  -0.62861,  -0.54888,   0.62804,  -0.04479,  -0.50596,  -0.07249,  -0.45064,   0.74597,  -0.30546,   0.81210,   0.65837,   0.63938,   0.08921,  -0.16079,   0.68658,  -0.56675,  -0.09126,   0.24395,   0.21653,   0.71554,  -0.34003,   0.50696,   0.62031,  -0.17935,  -0.62079,  -0.68930,   0.59036,  -0.63752,   0.44545,  -0.28890,   0.84145,  -0.14565,  -0.66711,   0.52004,   0.70106,   0.40200,  -0.00406,   0.15754,  -0.25921,   0.74742,   0.23230,  -0.39091,   0.64510,   0.11228,  -0.49193,  -0.62441,  -0.48928,  -0.38964,   0.89281,   0.60700,  -0.02543,   0.68377,  -0.20281,   0.93750,   0.61852,  -0.67308,   0.72539,   0.76150,   0.14573,  -0.73343,  -0.15946,  -0.04836,   0.61261,   0.80669,   0.28839,   0.28112,  -0.23255,  -0.54721,  -0.27340,  -0.62086,  -0.22022,   0.69959,  -0.44697,   0.77203,   0.01691,   0.68565,  -0.51498,   0.34524,   0.75153,   0.61258,   0.00368,  -0.74931,  -0.61267,   0.01489,  -0.58337,  -0.14632,   0.77874,  -0.63511,  -0.40623
  -0.57156,  -0.73169,  -0.67111,   0.05915,  -0.59405,  -0.63220,   0.38789,  -0.45489,  -0.35996,   0.70621,  -0.53767,   0.49556,  -0.06453,   0.08387,   0.13150,  -0.69262,  -0.36188,  -0.09359,  -0.32780,  -0.37891,   0.35107,  -0.62718,  -0.06278,   0.19237,  -0.25071,  -0.15838,  -0.37053,   0.26815,  -0.65226,   0.08480,   0.44816,  -0.47996,  -0.57232,   0.40391,  -0.34374,  -0.33760,   0.70769,  -0.51050,  -0.20769,   0.12376,  -0.07191,   0.40163,  -0.59134,  -0.38354,  -0.53125,   0.82580,   0.34370,   0.60147,  -0.86026,   0.24256,  -0.78326,  -0.16235,   0.59904,   0.56494,  -0.24643,   0.55407,   0.53811,   0.42216,  -0.30260,   0.26592,  -0.64470,   0.04534,  -0.65631,   0.17290,   0.87687,  -0.44081,   0.74094,  -0.14135,   0.33599,  -0.29614,   0.85411,   0.90616,   0.68013,  -0.10238,   0.47917,   0.61917,   0.55474,   0.16069,  -0.77363,   0.67853,   0.15116,   0.21661,   0.01343,   0.38352,   0.62910,  -0.48413,   0.11417,   0.38705,  -0.31727,   0.64322,  -0.42201,  -0.40173,  -0.27981,  -0.31577,   0.82775,  -0.54687,  -0.37091,   0.67821,   0.29409,  -0.22620,   0.46866,  -0.59279,  -0.48969,  -0.56878,  -0.58172,   0.11238,  -0.25565,   0.17294,   0.51101,   0.20538,   0.09471,   0.33406,  -0.55917,  -0.50584,  -0.35077,   0.50032,  -0.02714,   0.88982,  -0.73403,   0.71912,   0.09057,   0.48493,  -0.46397,  -0.20186,   0.31592,  -0.54381,   0.27531,   0.50931
  -0.39415,  -0.15186,  -0.08135,   0.31130,  -0.32585,  -0.61924,  -0.44554,   0.21026,  -0.67179,  -0.20910,  -0.33731,   0.33356,   0.31655,  -0.52236,  -0.27029,  -0.39379,  -0.34408,   0.16801,  -0.58809,   0.29516,  -0.10129,   0.15000,  -0.69922,   0.39889,   0.45571,   0.08719,  -0.49011,  -0.87740,  -0.51366,  -0.13240,   0.07868,   0.17176,   0.79769,   0.31800,  -0.35635,  -0.32026,   0.70726,  -0.32812,  -0.44208,  -0.78816,   0.26719,  -0.56478,  -0.50342,   0.07299,  -0.57165,  -0.03776,   0.36871,  -0.54606,  -0.81291,   0.03648,  -0.51345,   0.40914,  -0.13531,   0.39645,   0.15272,  -0.32601,   0.29959,  -0.42437,  -0.07776,  -0.19494,   0.16839,   0.11348,  -0.63272,   0.21502,  -0.69484,  -0.03822,   0.88051,  -0.02141,   0.17961,  -0.12347,   0.09647,   0.36561,   0.71335,  -0.48317,  -0.08160,   0.17101,   0.32785,  -0.70033,   0.44254,   0.04525,  -0.77505,   0.69297,  -0.35947,   0.48511,  -0.09322,   0.19007,  -0.15023,   0.01679,   0.07331,   0.47285,  -0.37379,   0.17530,   0.53314,  -0.47769,  -0.11503,  -0.61035,  -0.02152,   0.80962,  -0.10249,  -0.32205,   0.08325,  -0.23796,   0.63267,  -0.55114,  -0.25520,   0.49652,  -0.50101,  -0.07379,   0.45840,  -0.27155,  -0.27416,   0.11148,  -0.50784,  -0.38697,   0.69283,   0.67880,   0.51235,   0.54749,  -0.40029,   0.85761,  -0.62726,  -0.30364,  -0.01481,  -0.75309,   0.34869,  -0.48648,  -0.33585,  -0.65811
   0.75656,   0.24446,   0.57365,   0.45747,  -0.47039,   0.46965,  -0.25432,  -0.20462,   0.62697,  -0.54412,  -0.35360,   0.39395,   0.34381,  -0.34052,  -0.63484,  -0.22739,  -0.61456,   0.35472,   0.44135,   0.31774,  -0.31907,   0.06641,  -0.19311,  -0.21847,  -0.25273,   0.24664,   0.42041,  -0.74547,  -0.64537,  -0.44328,   0.81914,  -0.23060,   0.24031,  -0.33601,  -0.26006,  -0.02145,   0.83069,   0.44503,   0.22834,  -0.50543,   0.78104,   0.09049,   0.83154,   0.36905,   0.36987,  -0.42924,  -0.50092,  -0.58659,   0.04273,   0.63516,  -0.04399,   0.62817,  -0.42037,   0.80154,  -0.39498,  -0.28513,  -0.00711,  -0.43353,   0.56056,  -0.51342,   0.70550,   0.57300,   0.09341,  -0.56432,  -0.66802,   0.79690,   0.08255,   0.03022,  -0.37806,   0.59788,  -0.05070,  -0.83239,   0.19749,   0.64362,   0.06891,  -0.37251,   0.28188,   0.27802,   0.50120,  -0.26398,  -0.66884,  -0.25800,   0.60539,  -0.48100,  -0.14528,   0.31777,  -0.17572,  -0.03216,  -0.38248,  -0.58474,  -0.29372,   0.62883,   0.62523,  -0.20603,  -0.18004,   0.43157,   0.50962,   0.08597,   0.32485,   0.52816,  -0.48030,   0.17570,   0.36265,   0.09002,   0.14483,   0.40749,   0.11338,   0.32293,  -0.10964,   0.75421,  -0.48125,   0.32541,  -0.26634,   0.25009,   0.21928,  -0.16199,  -0.36948,   0.09435,   0.14194,   0.36486,  -0.59910,  -0.24132,   0.45126,   0.36480,  -0.02874,   0.05139,  -0.44351,  -0.47577
  -0.64903,  -0.71305,  -0.44318,   0.86287,  -0.64624,  -0.65278,   0.41936,  -0.40312,  -0.71411,   0.43080,  -0.06735,  -0.24718,   0.54880,   0.66442,  -0.06906,  -0.39804,   0.62383,  -0.53224,  -0.35678,   0.69529,  -0.29911,  -0.57272,  -0.09274,   0.40184,   0.16816,  -0.60815,   0.60787,   0.22691,   0.73783,   0.16263,   0.85799,  -0.39278,  -0.47092,   0.32487,   0.21875,  -0.62193,  -0.12770,  -0.33756,  -0.73589,   0.35348,  -0.38403,  -0.42739,  -0.11029,   0.64952,  -0.07918,   0.15620,  -0.74958,   0.84302,  -0.46267,  -0.80501,  -0.60324,  -0.45567,   0.55166,   0.28959,   0.81246,  -0.54018,   0.36927,  -0.44469,   0.03685,   0.50734,  -0.37854,  -0.80688,  -0.27117,  -0.06865,   0.46878,   0.22823,  -0.04135,   0.82097,   0.56633,  -0.77758,   0.10727,   0.61968,   0.63827,  -0.36452,  -0.37893,   0.68169,  -0.59378,   0.40397,  -0.59751,   0.17354,   0.41469,  -0.35143,  -0.37000,  -0.38936,   0.47624,  -0.44649,   0.17271,   0.09939,  -0.20362,   0.63984,  -0.09314,  -0.34187,  -0.13547,  -0.65339,   0.38581,  -0.54436,  -0.77959,  -0.29407,   0.86320,   0.93750,   0.70213,  -0.62530,  -0.30400,  -0.26776,   0.79097,  -0.49821,  -0.21401,  -0.01197,   0.73372,  -0.11439,  -0.52255,   0.79099,  -0.18649,  -0.46568,   0.07563,   0.21323,  -0.74132,  -0.05863,  -0.59681,  -0.46295,   0.52823,   0.43665,  -0.36892,   0.87423,   0.59789,  -0.48315,   0.66046,  -0.07493
  -0.61692,  -0.64667,  -0.77517,   0.47072,  -0.71662,  -0.72280,  -0.00496,   0.15017,   0.75351,   0.56005,   0.10156,   0.14610,   0.12246,   0.33355,  -0.14913,  -0.77584,   0.27016,  -0.65388,   0.02986,   0.85588,   0.66571,  -0.29562,  -0.05364,  -0.15084,  -0.16409,  -0.64139,   0.69900,  -0.26887,  -0.60559,  -0.51448,  -0.64573,  -0.56334,   0.67536,  -0.53366,  -0.26778,  -0.48524,  -0.89321,  -0.03513,  -0.90152,  -0.55569,   0.85356,  -0.66829,  -0.22845,  -0.40580,   0.86741,  -0.07315,  -0.80562,   0.26858,   0.24426,  -0.32007,  -0.54904,  -0.68336,   0.50354,  -0.11754,  -0.09318,  -0.69814,  -0.41141,  -0.67414,   0.67786,  -0.19027,  -0.60523,  -0.62602,   0.70668,   0.23764,  -0.51921,   0.56479,   0.26780,   0.19205,   0.59686,  -0.59139,   0.03441,   0.56845,  -0.18548,  -0.70167,  -0.72809,  -0.38745,  -0.62396,   0.29068,  -0.39677,  -0.24975,   0.02575,  -0.55989,  -0.70043,   0.15752,   0.65380,   0.55476,  -0.73338,   0.04570,  -0.23196,   0.82882,  -0.73026,  -0.85106,   0.16412,  -0.75931,   0.60950,  -0.57773,  -0.06306,  -0.11672,   0.63962,  -0.28211,  -0.50532,  -0.46335,   0.01555,  -0.80786,  -0.39976,  -0.40356,  -0.12324,   0.55202,  -0.48751,   0.23791,  -0.74582,   0.68794,  -0.60118,  -0.26889,  -0.49179,   0.25928,  -0.68966,  -0.50679,  -0.03444,   0.49538,   0.07385,   0.22764,   0.44759,   0.63348,  -0.43405,  -0.75080,   0.52976,  -0.00658
   0.13867,   0.48657,  -0.55094,   0.46188,  -0.14664,  -0.43760,   0.59937,   0.93750,   0.52038,  -0.05161,   0.73928,   0.36033,  -0.57049,   0.42157,   0.46531,   0.39225,   0.37476,   0.39006,   0.70840,  -0.25825,  -0.18172,   0.19240,  -0.05731,  -0.63239,  -0.90745,   0.06033,  -0.39680,   0.39482,  -0.07415,  -0.44355,  -0.65651,  -0.74502,  -0.42140,  -0.68877,   0.29486,  -0.12258,  -0.47422,   0.48109,  -0.11325,  -0.58234,   0.38549,  -0.17017,   0.37344,   0.59484,   0.43304,  -0.45355,  -0.64003,   0.17655,   0.88021,   0.12373,   0.42854,  -0.60065,  -0.55069,  -0.26209,  -0.67292,  -0.48217,   0.18230,  -0.44056,   0.25330,  -0.41212,  -0.38711,  -0.15924,   0.92403,   0.57678,   0.50819,   0.55847,  -0.18204,  -0.42370,  -0.43142,  -0.05493,  -0.60921,  -0.07919,  -0.24674,  -0.60756,  -0.53484,  -0.49641,  -0.02804,   0.75320,   0.37892,  -0.09692,   0.80811,  -0.51796,   0.23965,  -0.03004,  -0.02937,   0.57849,  -0.34431,   0.12433,  -0.17360,   0.80810,  -0.78244,  -0.56044,   0.24694,  -0.15067,   0.02037,  -0.55506,  -0.06570,  -0.57977,   0.07462,   0.32270,  -0.33004,   0.09342,   0.12585,  -0.65542,   0.81574,  -0.73092,   0.80341,   0.30901,  -0.02440,   0.78284,  -0.26225,  -0.38443,  -0.38969,   0.77693,  -0.66740,  -0.25472,  -0.72517,  -0.81375,   0.53291,  -0.15977,  -0.37567,  -0.04537,   0.71700,   0.08608,   0.02293,  -0.04180,   0.16089,  -0.00275
   0.74338,   0.27939,   0.54969,  -0.17681,   0.46721,   0.46128,  -0.27542,  -0.80268,   0.80431,   0.23090,  -0.10210,  -0.93661,  -0.22508,   0.19252,  -0.10409,   0.34109,   0.62372,   0.33394,  -0.80638,  -0.47196,   0.10705,  -0.24088,   0.22164,  -0.77787,  -0.28376,   0.19799,  -0.41495,   0.13856,  -0.22484,   0.35966,  -0.25987,   0.74147,  -0.81919,   0.17238,   0.61454,   0.39680,   0.79884,  -0.54013,   0.35466,   0.24886,   0.76053,   0.51414,   0.63587,   0.38282,  -0.46017,   0.57273,   0.46808,   0.45014,   0.27788,  -0.04114,   0.51193,   0.44561,   0.28876,  -0.82404,   0.45212,   0.61615,  -0.42065,   0.13375,  -0.35957,   0.64148,  -0.06404,  -0.50282,  -0.33666,  -0.08723,   0.16408,  -0.36489,   0.38681,  -0.50758,   0.36360,   0.32638,  -0.79759,   0.50129,  -0.14593,   0.29878,   0.42584,   0.74532,  -0.16659,  -0.38851,  -0.05418,  -0.14019,  -0.63441,   0.37481,   0.56676,   0.27426,   0.07959,  -0.31239,   0.53512,  -0.31231,   0.66300,  -0.72881,   0.58312,   0.57010,  -0.77409,   0.77557,  -0.18216,   0.85236,   0.05927,   0.02636,  -0.26460,  -0.18764,  -0.25223,  -0.41685,  -0.41674,  -0.62674,  -0.07429,  -0.56243,  -0.77262,  -0.43919,  -0.01249,  -0.03004,   0.54864,  -0.60641,   0.87728,   0.29952,  -0.10754,   0.10831,   0.93750,  -0.27015,  -0.26835,  -0.45751,   0.15427,   0.60960,  -0.65096,  -0.42535,  -0.74281,   0.61665,  -0.34838,   0.49591
   0.33975,   0.51111,   0.25960,  -0.71755,   0.77266,   0.57722,  -0.65839,  -0.48090,   0.50021,  -0.46517,  -0.68047,  -0.78590,   0.43438,  -0.55635,  -0.21371,   0.16166,  -0.65831,  -0.27339,   0.44262,  -0.07473,  -0.67472,   0.48792,  -0.62168,  -0.39060,   0.54350,   0.58063,  -0.42844,  -0.42186,  -0.36428,  -0.17830,   0.12593,   0.63407,   0.11512,   0.31311,   0.03783,   0.75048,  -0.02951,  -0.13374,   0.02129,  -0.86100,   0.48691,   0.45393,  -0.08050,  -0.26335,  -0.74465,  -0.51170,  -0.34613,  -0.68904,   0.39311,   0.22188,   0.72884,   0.44266,   0.36140,  -0.52228,   0.16947,   0.71384,   0.44274,   0.68610,  -0.13797,  -0.31174,   0.00084,   0.28714,  -0.36934,  -0.71282,   0.48719,  -0.53312,  -0.58251,   0.93280,  -0.32366,   0.87848,  -0.02435,  -0.32766,  -0.39112,   0.52955,   0.73966,  -0.42395,   0.10545,   0.29441,   0.60451,  -0.00208,  -0.54685,   0.75747,   0.53881,  -0.44801,  -0.71447,   0.58039,  -0.07999,   0.47023,   0.76168,  -0.54566,   0.54228,   0.34121,  -0.49677,   0.50841,  -0.34120,   0.86751,  -0.30321,   0.61077,  -0.49303,  -0.50271,  -0.09245,   0.49512,  -0.61364,   0.67778,   0.93750,  -0.52832,  -0.60180,  -0.23830,  -0.50173,  -0.50435,   0.56996,  -0.72971,   0.69423,   0.68009,  -0.37655,  -0.45420,   0.68762,   0.61545,  -0.03983,   0.79632,  -0.72812,  -0.07947,   0.09516,  -0.56857,  -0.32995,   0.18157,   0.38806,   0.28349
   0.32025,   0.37775,   0.79850,  -0.61627,   0.17212,   0.55102,  -0.55131,  -0.11979,  -0.57525,  -0.51413,   0.46267,  -0.27761,   0.56054,  -0.44819,  -0.40499,  -0.25040,  -0.45813,   0.05457,  -0.42816,   0.28196,  -0.64015,   0.49019,   0.61480,  -0.37406,   0.47212,   0.61182,  -0.24462,  -0.57761,  -0.28243,  -0.66818,   0.74468,   0.35659,   0.88427,   0.19805,  -0.31477,   0.83855,   0.53320,   0.46086,   0.92823,   0.42714,  -0.69296,  -0.23630,   0.60318,  -0.56809,  -0.61976,  -0.43609,   0.26576,  -0.58572,   0.39443,   0.44311,   0.44807,   0.04724,  -0.53641,  -0.04913,  -0.63002,   0.46882,  -0.13716,   0.61278,   0.07909,  -0.52610,   0.58681,   0.81292,   0.81897,  -0.42912,   0.19613,  -0.09220,  -0.83981,  -0.17517,  -0.40054,   0.57169,  -0.21184,  -0.64747,   0.13186,   0.53745,   0.64362,  -0.45636,   0.03790,  -0.51504,   0.57424,  -0.62652,  -0.54317,   0.54667,   0.12892,  -0.48953,  -0.71938,   0.80199,  -0.02200,   0.28424,   0.58538,  -0.56537,   0.72461,   0.63929,   0.19675,   0.64696,  -0.93985,   0.61465,   0.72000,   0.19561,  -0.53416,   0.30982,  -0.69890,  -0.18584,   0.48282,   0.70871,   0.60380,  -0.64524,  -0.55725,  -0.12026,  -0.55026,  -0.14162,   0.47803,  -0.31887,   0.60434,  -0.66703,   0.75339,  -0.57580,   0.17055,   0.84851,   0.50872,   0.09599,  -0.81442,  -0.52912,  -0.00395,  -0.61315,   0.74061,   0.68726,  -0.28710,  -0.37152
  -0.69162,   0.20687,  -0.05055,  -0.53305,  -0.11607,  -0.41148,   0.40165,  -0.66562,  -0.02362,   0.19220,  -0.70899,   0.49156,  -0.30351,   0.48823,   0.86483,  -0.06090,  -0.11547,   0.11548,  -0.37652,  -0.51695,  -0.24908,  -0.11883,   0.42940,  -0.39587,  -0.16819,  -0.11626,  -0.37020,   0.49782,  -0.20931,   0.70225,   0.31333,  -0.25217,  -0.27645,   0.18517,   0.70321,  -0.65077,   0.71857,  -0.30008,  -0.18162,  -0.00967,   0.47151,   0.37794,  -0.33377,   0.62490,  -0.59072,   0.54444,  -0.24384,   0.82479,  -0.84448,  -0.36452,  -0.25838,   0.64340,   0.77103,  -0.35235,   0.15454,   0.50211,   0.74247,  -0.54817,   0.11224,   0.28326,  -0.06688,  -0.60380,  -0.45770,   0.20778,   0.65418,  -0.26552,  -0.56064,  -0.14256,   0.87459,  -0.10358,   0.35222,   0.44578,   0.02334,   0.16222,   0.15375,   0.78982,   0.23881,  -0.39951,  -0.54377,   0.67859,  -0.10107,   0.45593,   0.52160,   0.65301,   0.40300,  -0.72759,   0.19689,   0.68196,   0.55832,   0.52328,   0.15384,  -0.58267,  -0.06899,  -0.03444,   0.02058,  -0.47345,  -0.48737,   0.65762,  -0.25720,   0.03072,   0.46346,  -0.51727,  -0.52434,   0.81639,  -0.15536,  -0.38959,  -0.32318,  -0.58987,   0.70077,  -0.31678,   0.16158,   0.09594,   0.49630,  -0.56875,   0.23303,   0.09701,   0.10322,   0.44030,  -0.73984,   0.41213,   0.34664,   0.47788,  -0.43289,  -0.18484,   0.19306,  -0.57333,   0.34168,   0.88467
  -0.57317,   0.70464,  -0.08290,  -0.31218,  -0.46999,  -0.69389,  -0.42938,  -0.78624,   0.56415,  -0.20515,  -0.65383,  -0.05585,   0.69364,  -0.59641,   0.46842,   0.33387,  -0.82094,   0.15687,  -0.39128,   0.18777,   0.18071,   0.26027,  -0.45531,   0.43425,   0.61744,  -0.18128,  -0.02489,   0.10323,  -0.76237,  -0.24486,   0.51036,  -0.51346,  -0.07301,   0.36353,  -0.01071,  -0.37757,   0.06490,  -0.48700,  -0.44579,  -0.27565,   0.08841,   0.06741,   0.03955,   0.19920,  -0.59755,   0.32043,  -0.68128,   0.02447,  -0.33719,   0.13308,  -0.51858,   0.47149,  -0.58566,   0.51942,   0.11390,  -0.31673,   0.16148,   0.13513,  -0.28700,  -0.09690,  -0.13799,  -0.54393,  -0.43405,   0.66293,  -0.21006,  -0.52531,   0.75874,   0.76531,  -0.52336,   0.03260,   0.20510,  -0.30016,   0.04903,  -0.27338,  -0.57987,  -0.40703,   0.81068,  -0.44438,  -0.24556,   0.13298,  -0.26420,   0.67398,  -0.15481,   0.81731,  -0.50079,  -0.08822,  -0.47237,   0.18527,  -0.05991,  -0.44115,  -0.73097,  -0.28339,   0.32752,  -0.23253,   0.56057,  -0.54458,  -0.08287,   0.09780,  -0.53826,   0.22174,  -0.32159,   0.04075,   0.65443,   0.26573,   0.21076,   0.48206,   0.24257,  -0.37813,  -0.49899,   0.12998,  -0.18337,  -0.38995,  -0.14979,   0.26585,   0.14505,  -0.65679,  -0.38179,   0.69778,  -0.63803,  -0.21428,  -0.27964,   0.10326,   0.31906,  -0.44060,  -0.31766,  -0.41809,  -0.03289,  -0.58676
  -0.19987,  -0.03125,  -0.48858,  -0.37648,  -0.18702,   0.72902,  -0.45183,  -0.06519,  -0.15641,  -0.24272,   0.60817,   0.56741,  -0.34371,  -0.43122,  -0.21243,   0.42590,  -0.39142,   0.19764,   0.26718,   0.10428,  -0.58789,  -0.26421,   0.64189,   0.81966,  -0.43407,  -0.35624,  -0.12792,  -0.46163,  -0.48311,  -0.83116,  -0.38091,   0.52918,   0.46545,  -0.17762,   0.07246,  -0.16037,  -0.20997,   0.37260,  -0.43027,  -0.48482,  -0.44366,  -0.44137,   0.70313,  -0.09340,   0.22330,  -0.45594,  -0.54179,  -0.46406,   0.08233,  -0.01438,   0.02728,  -0.49387,  -0.65778,   0.79249,  -0.39230,   0.72804,   0.06460,   0.04403,   0.41223,  -0.38982,  -0.31866,  -0.03448,   0.48802,  -0.55309,   0.49104,  -0.21863,   0.67896,  -0.40487,  -0.44291,   0.44589,   0.13883,  -0.33936,  -0.03601,  -0.40586,  -0.29760,  -0.31600,  -0.10576,  -0.28595,   0.58203,  -0.17710,  -0.55559,  -0.21701,  -0.29425,  -0.23078,   0.08806,   0.11778,  -0.11384,  -0.37672,  -0.32917,   0.30844,  -0.50308,   0.59599,   0.86791,  -0.42282,  -0.63955,  -0.43633,   0.45796,   0.17528,   0.23733,   0.52911,  -0.05371,   0.48681,   0.21696,  -0.54349,  -0.14491,   0.75357,   0.72244,   0.75798,  -0.16897,   0.67587,   0.42862,   0.33679,  -0.13187,   0.74030,   0.53668,  -0.61226,  -0.49479,  -0.32281,   0.60383,  -0.15448,  -0.21164,  -0.54971,   0.82586,  -0.37207,   0.83038,   0.40398,  -0.50367,  -0.04706
  -0.77825,  -0.86777,  -0.75142,   0.60201,  -0.48231,  -0.63102,   0.46397,  -0.38122,   0.13848,   0.25399,  -0.36413,   0.11077,   0.70482,   0.73873,  -0.32979,  -0.17820,  -0.29226,  -0.39030,  -0.65254,   0.39042,   0.63215,  -0.76714,  -0.01163,   0.51177,   0.56907,  -0.56388,   0.31551,   0.52874,   0.24755,   0.78304,   0.02951,  -0.46293,  -0.23456,   0.66662,  -0.45167,  -0.64424,  -0.49172,  -0.46382,  -0.50305,   0.35796,  -0.24938,  -0.69716,  -0.18006,  -0.50126,  -0.10398,  -0.42423,   0.10757,   0.14914,  -0.67654,  -0.71379,  -0.79202,  -0.53067,   0.63833,  -0.10672,   0.51004,  -0.57864,  -0.32417,  -0.68045,  -0.42590,   0.63247,  -0.44670,  -0.63373,  -0.63701,   0.20824,   0.41228,   0.33324,  -0.89119,   0.18015,   0.93112,  -0.65024,   0.29476,   0.72010,   0.93750,  -0.75021,  -0.50446,   0.84192,  -0.86292,  -0.50403,  -0.50833,   0.65256,   0.30361,  -0.08230,  -0.72114,   0.06369,   0.30255,  -0.27373,   0.63045,   0.48362,   0.20561,   0.68808,  -0.46446,  -0.48422,  -0.22353,  -0.62835,  -0.23235,  -0.76117,  -0.50262,  -0.04918,   0.46424,  -0.23156,   0.59573,  -0.59533,  -0.26671,  -0.72087,  -0.82554,  -0.13174,  -0.01611,  -0.35579,   0.65346,  -0.03351,  -0.28530,   0.71960,  -0.59215,  -0.68221,  -0.60325,   0.15423,  -0.37821,  -0.19354,  -0.77027,   0.33269,   0.67087,   0.63819,  -0.27544,   0.41524,   0.70134,  -0.64717,   0.33018,   0.10270
  -0.73139,  -0.12671,  -0.67263,   0.14770,  -0.67266,  -0.69116,   0.21061,   0.02636,   0.09133,   0.74298,  -0.17536,   0.77779,   0.80570,   0.39529,   0.28640,  -0.80892,   0.59402,  -0.85059,  -0.07329,   0.69177,   0.63567,  -0.47916,  -0.46414,   0.70427,  -0.13561,  -0.63221,   0.43186,  -0.10046,  -0.34099,   0.68739,   0.04683,  -0.59370,   0.27184,  -0.53092,   0.51947,  -0.62828,  -0.48353,   0.15520,  -0.46619,  -0.72994,   0.80782,  -0.93750,   0.59187,  -0.48361,   0.12327,  -0.28855,  -0.64290,   0.11876,   0.21089,   0.02216,  -0.81971,  -0.76283,  -0.47661,   0.44061,   0.06022,  -0.64788,  -0.57998,  -0.21400,  -0.36290,   0.06371,  -0.61021,  -0.43877,   0.39215,   0.13177,  -0.30712,   0.39850,  -0.16693,   0.38069,  -0.06563,  -0.42200,  -0.04104,   0.21839,  -0.22609,  -0.66533,  -0.53751,  -0.23034,  -0.06650,  -0.11180,  -0.08398,  -0.02953,  -0.10084,  -0.46416,  -0.92208,   0.62827,   0.38785,   0.49121,  -0.80015,  -0.38886,  -0.62028,  -0.46520,  -0.83904,  -0.91772,   0.34617,  -0.71274,   0.67651,  -0.66115,  -0.26458,  -0.56578,   0.62029,  -0.22112,  -0.34914,  -0.05734,   0.15488,   0.06560,  -0.70314,  -0.26521,   0.31251,   0.70734,   0.07581,  -0.20445,  -0.36511,   0.54012,  -0.72975,   0.31710,  -0.70209,   0.25768,  -0.82044,  -0.47776,  -0.08151,   0.73412,   0.45894,   0.63303,  -0.06232,   0.31987,   0.78932,  -0.59510,   0.24105,  -0.57281
  -0.57442,   0.35186,   0.20692,  -0.50310,   0.08384,  -0.21026,  -0.32849,   0.49807,  -0.06944,   0.46490,   0.77853,  -0.37802,  -0.78202,   0.42582,  -0.72792,  -0.01558,   0.50478,   0.28157,   0.57078,  -0.51688,  -0.20885,   0.53441,   0.69020,  -0.13455,  -0.64677,   0.70060,   0.43985,  -0.56402,  -0.28808,  -0.67557,  -0.62264,   0.39792,  -0.34450,  -0.39609,   0.24464,   0.61317,  -0.58344,   0.83559,  -0.54688,  -0.44429,  -0.30758,  -0.48584,   0.52604,   0.58438,  -0.29857,  -0.02987,  -0.53703,  -0.38884,   0.41925,   0.77455,   0.34130,   0.22236,  -0.22567,  -0.64349,  -0.60336,  -0.29154,  -0.62050,   0.45572,   0.77635,  -0.46325,   0.03085,  -0.47547,   0.58454,   0.13757,   0.19603,   0.82070,  -0.41737,  -0.50147,  -0.45156,  -0.07055,  -0.52272,  -0.33079,  -0.25386,  -0.59054,  -0.16845,  -0.31036,   0.60881,   0.39508,   0.52185,  -0.76502,   0.43908,  -0.39608,  -0.77315,  -0.51207,  -0.20132,   0.42588,   0.03904,  -0.44539,  -0.40489,   0.07439,  -0.03810,  -0.22077,  -0.32802,   0.27323,  -0.26810,   0.20947,   0.28419,  -0.25367,   0.66246,  -0.22824,  -0.49280,  -0.33194,  -0.32807,   0.70138,   0.28468,   0.79311,   0.76458,   0.59092,  -0.25063,   0.93264,  -0.56109,  -0.12584,  -0.57876,   0.75225,  -0.65394,  -0.13212,  -0.65414,  -0.61455,   0.80421,  -0.42054,  -0.02757,  -0.20905,   0.90359,   0.65203,  -0.24690,   0.02460,   0.07403,  -0.61953
  -0.39653,   0.47401,  -0.19513,  -0.50928,   0.40680,   0.37248,  -0.13600,  -0.05676,   0.84014,  -0.78764,  -0.02941,  -0.42935,  -0.40836,   0.14629,   0.50273,   0.46643,   0.87022,   0.54596,  -0.35552,  -0.09440,  -0.40031,  -0.06502,   0.29600,  -0.59739,  -0.69570,  -0.03329,  -0.08487,   0.41291,   0.78173,   0.70061,  -0.61378,   0.75143,  -0.22309,  -0.18812,   0.45043,   0.31135,   0.37926,  -0.56279,   0.32796,   0.69457,   0.50497,   0.66031,  -0.61320,   0.72907,  -0.28289,   0.76386,  -0.18144,   0.15854,  -0.22429,  -0.41467,   0.59191,  -0.17381,   0.32456,  -0.64071,   0.63372,   0.64268,  -0.07224,   0.51444,   0.17704,   0.54434,  -0.06975,   0.51658,   0.07298,   0.34173,  -0.47941,   0.34240,  -0.22862,   0.16394,   0.86608,  -0.27952,  -0.43191,   0.05931,  -0.88127,   0.48021,   0.83389,   0.27004,   0.12019,   0.21825,   0.24448,   0.60156,  -0.01216,   0.49986,   0.14685,   0.30275,  -0.23283,  -0.26403,  -0.17929,  -0.60365,   0.70193,  -0.58250,   0.47649,   0.37615,  -0.70841,   0.50130,  -0.43374,   0.64519,  -0.30352,   0.28816,  -0.19475,  -0.27523,   0.21660,   0.29978,  -0.69478,  -0.24660,   0.89031,  -0.57707,  -0.13626,  -0.63292,   0.22641,  -0.33398,   0.35732,  -0.72637,   0.70372,  -0.30956,   0.08778,   0.03942,   0.45987,  -0.22861,   0.62145,   0.12500,   0.56278,  -0.07856,  -0.57524,  -0.64932,  -0.68644,   0.25480,  -0.43006,   0.08137
   0.31006,   0.46079,  -0.00164,  -0.76629,   0.37538,   0.37372,  -0.47161,  -0.07962,   0.62970,  -0.41806,  -0.51554,  -0.66556,  -0.07497,  -0.62481,  -0.54690,   0.14495,  -0.51435,   0.85973,  -0.81804,   0.47778,  -0.33199,   0.59193,  -0.70748,  -0.50530,   0.25180,   0.73587,  -0.59629,   0.08185,   0.34258,  -0.34014,   0.71704,   0.13259,   0.40144,   0.81212,   0.67812,   0.83689,  -0.21915,  -0.31476,   0.71506,   0.11025,   0.23765,   0.11583,   0.00593,  -0.19860,  -0.40599,   0.04765,  -0.53519,  -0.26968,  -0.12092,   0.70690,   0.62255,   0.65732,   0.40169,  -0.77221,   0.33154,   0.38654,   0.92757,  -0.15761,   0.12877,  -0.50094,   0.59471,  -0.00997,  -0.17022,  -0.44727,  -0.64111,  -0.66349,   0.56555,  -0.07377,   0.92642,   0.73056,  -0.69526,  -0.30166,  -0.54651,   0.76141,   0.93046,  -0.53672,   0.85481,  -0.00173,   0.29048,  -0.40984,  -0.43195,   0.77483,   0.10902,   0.40814,  -0.63949,  -0.34103,   0.18763,  -0.37745,   0.24610,  -0.76141,   0.61698,  -0.21427,  -0.35947,   0.38875,  -0.71951,  -0.07276,   0.24100,   0.92566,  -0.66898,  -0.57137,  -0.13548,   0.07239,  -0.33114,   0.31633,  -0.05162,  -0.49595,  -0.40812,  -0.79722,  -0.54514,  -0.56237,   0.47420,  -0.46711,   0.76120,   0.02634,   0.93447,  -0.71408,   0.70387,   0.19152,  -0.06136,  -0.10237,  -0.54291,   0.20151,   0.11352,  -0.74480,   0.80667,   0.18587,  -0.63328,  -0.52485
   0.49133,  -0.34706,   0.66582,  -0.63886,   0.84001,   0.61531,  -0.42248,   0.21230,  -0.72729,  -0.61734,   0.33048,  -0.57704,   0.04638,  -0.43837,  -0.46103,  -0.26479,  -0.72617,  -0.07763,   0.68686,  -0.05509,  -0.78127,   0.80942,   0.32167,   0.47404,  -0.04087,   0.88104,  -0.57922,  -0.55886,  -0.49457,  -0.54645,  -0.32382,   0.15625,   0.49721,  -0.25937,  -0.66765,   0.86808,   0.35907,   0.49089,   0.67044,  -0.11317,  -0.49722,   0.93320,   0.10166,  -0.70600,  -0.00851,  -0.56552,  -0.37010,  -0.37429,   0.49398,   0.64612,   0.87408,  -0.27159,   0.04230,   0.57873,  -0.26951,   0.68345,   0.86008,   0.31978,  -0.01615,  -0.30006,   0.35216,   0.74226,  -0.09250,  -0.75584,  -0.64947,  -0.32889,  -0.52843,   0.50260,  -0.36729,   0.34957,   0.59552,  -0.59631,   0.62546,   0.70433,   0.44312,  -0.64226,  -0.33815,   0.82129,   0.33094,   0.05263,  -0.24886,  -0.16434,   0.09129,  -0.71776,  -0.53290,  -0.03209,  -0.06592,   0.66484,  -0.08714,  -0.66325,   0.69620,   0.82814,   0.87984,   0.49142,  -0.53809,   0.25628,   0.72372,   0.64960,  -0.75122,  -0.44901,  -0.42720,   0.93394,   0.20078,   0.62592,   0.28727,   0.87133,   0.54408,   0.04903,  -0.61669,  -0.35124,  -0.23845,  -0.33947,   0.64514,  -0.34166,   0.71321,  -0.25078,   0.10476,   0.66953,   0.69108,   0.36214,  -0.44228,  -0.60204,   0.65386,  -0.54967,   0.48217,   0.55477,  -0.53543,  -0.44338
  -0.34167,  -0.64154,  -0.59993,   0.40248,   0.31019,  -0.07849,   0.41362,  -0.19237,  -0.71150,  -0.08913,  -0.08897,   0.68285,  -0.01135,  -0.10337,   0.77527,  -0.71406,   0.07217,  -0.19476,  -0.58974,  -0.11878,   0.31185,  -0.47913,   0.63350,  -0.38311,   0.63441,  -0.07573,   0.32745,   0.89811,   0.80916,   0.72524,   0.13367,  -0.50568,  -0.76556,   0.79906,   0.13551,  -0.33190,   0.17767,  -0.39988,   0.21467,  -0.41119,   0.38899,   0.64344,  -0.59422,   0.10113,  -0.06581,   0.05779,  -0.29195,   0.74423,  -0.62426,  -0.46985,  -0.77061,  -0.42636,   0.24438,  -0.16491,   0.36399,   0.38938,   0.37175,  -0.27677,   0.58389,   0.16096,  -0.19912,   0.30659,  -0.40259,   0.52631,   0.34183,  -0.42201,   0.04811,   0.11481,   0.47383,  -0.54018,  -0.08512,   0.52296,   0.13212,  -0.22645,   0.28032,   0.45534,  -0.27388,  -0.69678,  -0.75290,   0.77216,   0.00672,   0.55757,   0.42856,   0.56190,   0.45311,  -0.36209,   0.15630,   0.35083,   0.92608,   0.08334,   0.28905,  -0.61200,  -0.67677,   0.61010,   0.26542,   0.49665,  -0.62238,   0.26972,   0.34218,   0.47367,   0.69406,  -0.08950,  -0.75681,   0.62384,  -0.06629,  -0.35028,  -0.33036,  -0.19885,   0.53037,  -0.37632,  -0.11701,   0.58559,   0.52807,  -0.16253,   0.23618,   0.51617,   0.34989,   0.13869,  -0.74555,  -0.56579,   0.06941,   0.63480,  -0.70247,  -0.52314,  -0.23255,  -0.49698,   0.34969,   0.03745
   0.02477,   0.41963,  -0.66138,  -0.44644,   0.11860,  -0.11517,   0.13580,  -0.57634,  -0.70674,  -0.47449,  -0.59270,  -0.09014,   0.06024,  -0.31810,  -0.49569,   0.14832,  -0.67890,  -0.04488,  -0.56014,  -0.27837,  -0.74103,  -0.12563,  -0.51120,   0.17914,   0.29093,  -0.23172,   0.14201,   0.01317,  -0.48276,  -0.27279,   0.28401,  -0.52633,   0.39655,  -0.10646,   0.16479,  -0.69767,  -0.08234,  -0.28680,  -0.55290,   0.08268,  -0.50883,  -0.43475,   0.45909,  -0.61923,  -0.58089,   0.20248,  -0.16980,  -0.37473,  -0.26638,   0.20807,  -0.27173,   0.45515,   0.37249,   0.60692,  -0.05345,  -0.36490,   0.52935,  -0.77395,   0.64829,   0.76335,   0.18469,  -0.40467,  -0.36196,  -0.45196,  -0.71440,   0.44472,   0.41733,   0.29499,  -0.16199,   0.02851,   0.53459,  -0.31397,   0.84246,   0.13339,  -0.44224,   0.21720,   0.21875,  -0.75214,  -0.40273,  -0.39984,  -0.18045,   0.22913,  -0.40998,   0.48276,  -0.50439,  -0.40739,   0.15421,   0.38299,   0.08999,   0.69383,  -0.24421,  -0.51714,   0.80040,  -0.46350,  -0.08996,  -0.23923,   0.10436,   0.28281,  -0.44592,  -0.15656,   0.23831,  -0.00382,  -0.44699,  -0.66728,   0.07879,   0.60117,   0.60658,   0.46949,  -0.05065,   0.07417,   0.45368,  -0.23311,  -0.32996,   0.44143,  -0.63427,  -0.21606,  -0.17352,   0.19886,  -0.76186,   0.38967,  -0.62853,  -0.44549,   0.10391,  -0.51528,   0.08097,  -0.36832,  -0.25394,  -0.12034
   0.01745,   0.56845,   0.50294,  -0.02337,  -0.35469,   0.67643,   0.48580,  -0.14400,   0.54110,  -0.32489,   0.00315,   0.32794,   0.41056,  -0.45558,  -0.31790,  -0.03130,  -0.12764,   0.57052,  -0.10397,   0.10731,  -0.27901,   0.26347,  -0.78626,   0.38538,   0.67284,   0.40979,  -0.14467,  -0.46193,   0.12214,  -0.26911,  -0.52295,  -0.63562,  -0.64529,  -0.07631,  -0.63470,   0.62540,  -0.34636,   0.60201,  -0.12970,  -0.54864,  -0.55214,  -0.06457,   0.17748,   0.24139,   0.22186,  -0.30651,  -0.18777,  -0.60375,   0.07611,   0.12051,  -0.15783,   0.29564,  -0.15139,   0.37734,  -0.70484,   0.21695,  -0.01746,   0.03967,  -0.01560,  -0.50995,   0.45050,   0.28455,   0.14219,  -0.71590,  -0.35409,   0.93750,   0.47878,  -0.33977,  -0.38781,   0.47301,   0.11956,  -0.43010,  -0.37630,  -0.58998,  -0.24041,  -0.31062,   0.05833,   0.58284,   0.40828,  -0.25960,  -0.34894,  -0.27255,  -0.15795,  -0.40102,  -0.16703,   0.86390,  -0.05834,  -0.53237,  -0.42220,  -0.44139,  -0.72935,  -0.37470,   0.58022,  -0.58884,   0.66912,  -0.15444,   0.75626,   0.00571,  -0.26457,   0.58328,  -0.50179,   0.37810,  -0.46677,  -0.06440,  -0.04865,   0.65881,   0.24819,   0.25555,  -0.37463,   0.58993,  -0.44427,   0.20597,  -0.05918,   0.09405,   0.03797,  -0.37546,   0.23726,   0.46361,   0.77824,  -0.55401,  -0.50062,  -0.42141,   0.42601,   0.75142,  -0.51080,   0.40090,  -0.63518,   0.24418
  -0.80702,  -0.59441,  -0.71993,   0.60324,  -0.27548,  -0.56278,   0.15808,  -0.54128,  -0.46000,   0.63608,  -0.68852,   0.56442,   0.89498,   0.50421,   0.82713,   0.41392,  -0.50145,  -0.28874,   0.17733,  -0.57613,   0.69559,  -0.86306,   0.48679,   0.61105,   0.75119,  -0.56585,   0.54430,   0.10967,   0.44084,   0.12738,   0.50324,  -0.42987,  -0.02527,   0.77036,  -0.32643,  -0.54642,  -0.42966,  -0.13908,  -0.62297,   0.69606,  -0.50565,  -0.71190,  -0.86148,  -0.77704,   0.54659,   0.75688,  -0.17557,   0.35548,  -0.68075,  -0.79322,  -0.55234,  -0.75998,   0.55854,   0.50828,   0.70810,  -0.51549,  -0.37111,  -0.26765,  -0.33600,   0.83616,  -0.60005,  -0.75229,  -0.21996,   0.35492,   0.43527,  -0.34090,  -0.46747,   0.06429,   0.45675,  -0.66174,  -0.19666,   0.46681,   0.82433,  -0.61825,  -0.25923,   0.03018,  -0.61277,  -0.57982,  -0.79665,   0.87196,   0.22667,  -0.07138,   0.05363,  -0.28794,   0.28330,  -0.39897,   0.52244,   0.53604,   0.71351,   0.02716,  -0.45423,  -0.73878,  -0.40083,  -0.63602,  -0.29855,  -0.64527,  -0.47558,  -0.04328,   0.52080,   0.52302,   0.17678,  -0.30278,  -0.64676,  -0.75572,  -0.58306,  -0.45498,   0.14914,   0.57022,   0.58574,  -0.27850,  -0.09221,   0.19482,  -0.41142,  -0.45563,  -0.24840,  -0.01382,  -0.58349,  -0.19721,  -0.46467,  -0.11046,   0.75864,   0.20139,   0.05183,   0.41833,   0.43463,  -0.56830,   0.54413,   0.42248
  -0.74528,   0.41196,  -0.66330,   0.75821,  -0.77699,  -0.71476,   0.50163,  -0.40260,   0.62329,   0.50825,   0.56085,   0.37983,   0.56671,   0.37310,   0.06465,   0.73719,   0.76244,   0.58832,  -0.32289,   0.52864,   0.50926,  -0.69642,   0.25659,   0.58937,   0.20371,  -0.82707,   0.16952,  -0.36555,  -0.73641,  -0.08323,   0.11913,  -0.69224,  -0.37473,  -0.28050,   0.41774,  -0.87482,  -0.56021,   0.79471,  -0.44183,  -0.53739,   0.86684,  -0.78970,  -0.22950,  -0.08081,   0.47643,   0.68071,  -0.19692,   0.27896,  -0.44609,  -0.54629,  -0.10768,  -0.46387,  -0.12751,  -0.22362,  -0.11940,  -0.61219,  -0.48251,  -0.51253,   0.16086,   0.56974,  -0.48614,  -0.74447,  -0.01848,   0.76593,   0.03020,  -0.30628,  -0.14847,   0.87823,  -0.02232,  -0.51745,   0.67569,   0.38987,  -0.17545,  -0.65026,  -0.41271,  -0.38790,  -0.48136,  -0.62344,  -0.09701,  -0.56085,  -0.07151,  -0.49295,  -0.65337,   0.51253,   0.01096,   0.20221,  -0.49566,  -0.23942,  -0.48098,   0.11543,  -0.27592,  -0.62670,   0.71322,  -0.71302,  -0.50361,  -0.59794,  -0.32353,  -0.67688,   0.80950,   0.00354,  -0.02447,  -0.37974,  -0.22586,  -0.22783,  -0.42072,   0.01636,   0.16111,   0.71430,   0.36385,   0.77253,  -0.61402,   0.07337,  -0.86239,   0.48819,  -0.59198,   0.79783,  -0.69623,  -0.37974,  -0.46122,  -0.00693,  -0.06148,   0.86138,   0.19430,   0.31172,  -0.31403,  -0.43875,  -0.49519,  -0.22446
   0.39017,   0.07744,   0.11343,   0.50606,  -0.30429,  -0.66699,   0.59793,   0.43932,   0.60304,   0.29232,   0.44388,  -0.72444,  -0.29187,  -0.06656,  -0.40418,  -0.10258,   0.49309,  -0.39398,   0.62440,  -0.42136,   0.32095,  -0.09249,  -0.03561,   0.42418,   0.26107,   0.02288,   0.05956,  -0.66912,  -0.56555,  -0.40472,  -0.68981,  -0.55196,   0.62343,  -0.40997,   0.33205,  -0.16261,  -0.63892,   0.78028,  -0.38980,   0.01008,  -0.02828,  -0.73411,   0.16943,   0.55455,   0.18539,   0.17802,  -0.53838,  -0.19416,   0.39752,  -0.33743,  -0.01425,  -0.25683,  -0.52856,   0.19074,  -0.36360,  -0.45568,  -0.52865,  -0.54263,  -0.03145,  -0.02686,   0.30321,  -0.02916,   0.92460,  -0.12019,   0.44280,   0.84632,  -0.15563,   0.02542,  -0.30050,   0.59914,  -0.74851,  -0.59389,  -0.66645,  -0.08206,  -0.50981,  -0.75885,   0.46928,   0.53166,  -0.10222,   0.08564,   0.74665,  -0.61135,  -0.58298,   0.01172,   0.66112,   0.47585,  -0.47227,  -0.10866,  -0.32897,   0.16858,  -0.51030,   0.07585,  -0.38476,  -0.51367,   0.41334,  -0.55254,   0.81306,  -0.59515,   0.58950,   0.42762,  -0.47449,  -0.32538,  -0.39397,  -0.55631,   0.36135,   0.33472,   0.61922,   0.37312,  -0.17398,   0.84516,  -0.40576,   0.13031,  -0.51916,   0.73954,  -0.27424,   0.25753,  -0.58529,  -0.62027,   0.05662,   0.14262,  -0.66336,  -0.43930,   0.69230,   0.59763,  -0.69831,   0.04641,  -0.14305,  -0.69296
