   0.05592,  -0.75188,   0.93750,   0.12826,   0.25843,   0.28932,  -0.30758,   0.33034,  -0.78028,  -0.28888
  -0.18110,   0.16893,  -0.93543,   0.37373,   0.04674,   0.51114,   0.63975,   0.93750,   0.78028,  -0.61239
   0.93750,   0.93750,  -0.08653,   0.36993,  -0.93750,  -0.30893,   0.93750,  -0.01423,   0.93750,   0.93750
  -0.87399,  -0.20903,  -0.35550,   0.32102,  -0.93750,  -0.54771,   0.03728,  -0.44288,  -0.16438,  -0.87033
   0.91612,   0.61264,  -0.50124,  -0.48813,   0.75118,  -0.86632,   0.93077,   0.42928,   0.41082,  -0.58558
  -0.70133,   0.13191,   0.45569,   0.27368,   0.80392,   0.93750,  -0.35566,  -0.54849,  -0.87279,   0.67533
   0.19650,   0.48694,  -0.80252,   0.27460,   0.07948,  -0.89435,  -0.31892,   0.92141,   0.32386,  -0.93750
   0.60368,   0.39879,   0.23874,   0.54575,  -0.28185,   0.33788,  -0.16787,   0.28541,   0.17049,  -0.36791
  -0.56673,  -0.70331,   0.64730,  -0.80038,   0.93750,  -0.56342,  -0.88612,  -0.80334,  -0.89556,   0.65458
  -0.40329,   0.93750,  -0.78416,   0.55705,   0.87095,  -0.88772,  -0.44593,  -0.93750,  -0.93750,  -0.93750
  -0.62785,  -0.44889,   0.53286,   0.93750,  -0.70280,   0.69535,  -0.87309,  -0.56925,  -0.32106,  -0.84309
   0.26196,  -0.67006,  -0.44417,   0.93119,   0.87133,  -0.75703,  -0.86475,  -0.34297,  -0.79742,   0.93750
  -0.03567,   0.87842,   0.12188,   0.77523,   0.93750,  -0.93750,  -0.87439,   0.93750,  -0.71406,   0.12655
   0.92441,   0.88571,  -0.79487,  -0.42909,   0.04719,  -0.86564,  -0.46645,  -0.03334,   0.93563,  -0.93750
   0.84264,   0.27702,   0.73367,   0.02269,   0.58203,   0.87975,  -0.40538,  -0.29064,   0.35861,   0.91644
  -0.28904,  -0.06238,  -0.37528,  -0.93673,   0.74071,   0.93750,   0.68782,   0.93750,  -0.63923,  -0.74544
  -0.64083,  -0.46763,  -0.84718,   0.87556,  -0.80564,   0.81724,   0.93750,  -0.60943,  -0.67550,  -0.19736
  -0.90901,   0.50601,  -0.54516,  -0.76257,  -0.69799,   0.76497,  -0.48525,  -0.84578,   0.87316,  -0.52324
   0.11597,   0.63788,  -0.25550,   0.92373,   0.00185,  -0.32104,  -0.40189,  -0.41662,  -0.93561,   0.92514
   0.37924,   0.21460,   0.02903,   0.30381,   0.93523,   0.68179,  -0.10143,   0.03740,  -0.28052,  -0.12146
  -0.31773,  -0.93750,   0.79320,  -0.93750,   0.93750,  -0.10866,   0.12673,  -0.72558,   0.67595,   0.93750
  -0.27606,  -0.73758,  -0.43354,   0.45273,  -0.93750,   0.12895,  -0.09214,  -0.86443,   0.16944,  -0.68068
   0.66100,  -0.81891,   0.24407,  -0.41550,   0.85893,   0.44048,  -0.88364,  -0.86850,   0.56199,  -0.75139
  -0.48230,   0.93750,  -0.93750,  -0.09547,   0.23108,  -0.25359,   0.93750,   0.93750,   0.46036,  -0.41619
  -0.57271,   0.68629,   0.73289,  -0.42178,   0.87645,   0.09210,  -0.60037,  -0.31810,   0.88684,  -0.69299
  -0.93750,   0.66156,   0.46078,   0.64835,   0.40716,  -0.18284,  -0.87975,  -0.66561,  -0.09454,  -0.24395
  -0.82586,  -0.78991,  -0.39867,  -0.67124,   0.75963,  -0.10862,  -0.11877,   0.93750,   0.18852,  -0.93750
   0.32968,   0.88254,  -0.93750,   0.93750,  -0.93750,  -0.87444,   0.80589,  -0.93750,   0.93750,  -0.74172
  -0.93750,  -0.13524,  -0.93750,   0.05441,  -0.87383,  -0.01110,  -0.82962,   0.80769,   0.14810,   0.18452
  -0.47687,   0.66262,  -0.31769,  -0.62971,   0.70613,  -0.79736,   0.03224,  -0.33838,   0.93750,   0.81612
   0.93750,  -0.87640,   0.93750,  -0.86435,  -0.93750,  -0.47946,  -0.72846,   0.73174,  -0.31377,  -0.68014
   0.75644,   0.52280,   0.31687,   0.52977,  -0.09736,   0.06381,   0.68113,  -0.93750,   0.69196,   0.93750
   0.93750,  -0.93750,  -0.06848,  -0.37978,   0.93750,   0.79268,   0.93750,  -0.29027,  -0.20908,  -0.26535
   0.41611,   0.51402,  -0.74619,  -0.19843,   0.85873,   0.30989,  -0.79447,  -0.24546,  -0.83773,  -0.86413
   0.05904,   0.03802,  -0.27244,   0.18108,   0.55539,   0.31795,   0.81467,   0.21377,   0.39036,  -0.47574
  -0.42748,   0.17130,  -0.42672,   0.56454,  -0.30104,   0.76542,   0.92949,  -0.43456,  -0.54843,   0.48470
   0.38838,   0.93750,   0.75647,  -0.93750,  -0.93750,  -0.27903,  -0.13082,  -0.21610,  -0.18646,   0.87814
   0.01644,   0.41574,  -0.22337,  -0.40889,  -0.63163,  -0.62646,  -0.16633,   0.87253,   0.65292,   0.79949
  -0.43108,   0.73140,   0.93750,  -0.93750,   0.39593,  -0.52571,  -0.71748,  -0.11188,  -0.55207,  -0.11695
   0.40732,   0.64863,   0.71632,  -0.57863,   0.39036,  -0.73616,   0.66022,  -0.47476,   0.52713,  -0.61839
   0.92149,  -0.67526,  -0.49267,   0.21570,   0.25301,  -0.47229,   0.29365,   0.88587,   0.52661,   0.13356
  -0.35391,   0.26073,   0.82738,  -0.47262,   0.51574,  -0.77920,   0.61211,  -0.71073,   0.39618,   0.93750
  -0.59520,  -0.32163,   0.25447,  -0.18440,   0.55642,   0.14430,   0.71841,  -0.63190,  -0.71177,   0.81411
   0.93750,   0.82951,   0.67799,   0.27623,   0.93750,  -0.87902,   0.87963,   0.87262,   0.28258,   0.93750
  -0.58411,  -0.72709,  -0.86485,  -0.54393,   0.92496,   0.87216,  -0.42704,   0.44078,   0.56214,  -0.60575
  -0.48383,   0.22867,   0.67155,  -0.47437,   0.93750,  -0.08181,   0.21568,  -0.15718,   0.25504,   0.56547
   0.41996,   0.52401,  -0.55667,  -0.30049,   0.50682,   0.74956,  -0.01493,  -0.41133,  -0.11123,   0.93750
  -0.48247,  -0.46584,   0.02009,   0.60984,   0.88256,   0.48071,   0.72358,   0.07060,   0.44036,  -0.51393
  -0.00900,   0.74582,  -0.93750,  -0.88065,   0.92785,  -0.57554,   0.54807,   0.93188,  -0.93600,   0.08238
  -0.17899,   0.93750,   0.20752,  -0.43510,   0.26712,   0.01595,  -0.93750,   0.00315,  -0.87029,  -0.87952
  -0.93750,  -0.93750,  -0.16763,  -0.12889,   0.54583,  -0.49353,   0.44358,  -0.70036,   0.30921,   0.52376
   0.57173,   0.51547,  -0.67170,   0.31877,  -0.27055,   0.24313,   0.55166,   0.29559,   0.71552,   0.55539
   0.68771,   0.18207,  -0.13805,  -0.09326,  -0.03525,   0.34078,   0.54868,  -0.16844,  -0.41097,   0.31280
  -0.51406,   0.80860,  -0.74030,  -0.18988,  -0.85116,  -0.85770,  -0.10384,  -0.50760,   0.12507,  -0.49952
  -0.72130,   0.86484,  -0.67958,  -0.87280,   0.34970,   0.53808,  -0.25424,   0.65678,  -0.70124,   0.19111
  -0.52524,   0.77699,  -0.86211,  -0.47280,   0.62102,   0.88655,  -0.26282,   0.82518,   0.16794,   0.14143
  -0.35068,   0.35573,   0.38489,  -0.05335,  -0.25864,   0.74617,   0.15122,  -0.15553,   0.85621,  -0.51620
  -0.44035,  -0.93750,  -0.92093,  -0.73942,   0.16848,  -0.93750,   0.93750,  -0.93750,   0.93750,  -0.93750
  -0.93750,  -0.05943,   0.09494,  -0.63534,  -0.93750,  -0.43527,  -0.93750,  -0.93750,   0.33034,  -0.93750
  -0.57478,  -0.93750,  -0.93750,  -0.93750,  -0.84723,   0.93750,  -0.93750,  -0.87408,  -0.90707,  -0.08282
  -0.04436,   0.25245,  -0.16345,  -0.07136,   0.56409,   0.13507,   0.04844,   0.40407,   0.38146,   0.34957
  -0.52427,  -0.61551,  -0.86148,   0.93750,   0.79632,  -0.70383,   0.69610,  -0.32978,   0.23156,  -0.55810
  -0.75111,   0.41521,   0.85893,   0.09959,   0.57330,   0.37976,   0.83147,   0.65764,  -0.64752,  -0.72283
   0.79449,  -0.62330,   0.93750,  -0.93750,   0.42469,  -0.02765,   0.07377,  -0.67039,  -0.76413,   0.29819
  -0.93750,  -0.09695,   0.93750,  -0.93750,  -0.93750,  -0.93750,  -0.28890,   0.93750,  -0.24152,  -0.02780
  -0.25655,  -0.84466,  -0.89244,  -0.62713,  -0.69498,   0.78843,  -0.79261,   0.93750,   0.86945,   0.34370
  -0.68387,  -0.55275,   0.81543,  -0.14280,  -0.13938,  -0.71941,  -0.12827,   0.82604,   0.52485,  -0.50122
   0.21532,  -0.16829,   0.44849,   0.21022,   0.58701,   0.54188,  -0.23218,  -0.55992,   0.83543,   0.41983
  -0.42814,   0.93750,  -0.93647,  -0.80153,  -0.92081,  -0.86792,  -0.07434,   0.54567,  -0.81060,   0.65293
  -0.79855,   0.58765,   0.93750,   0.93616,   0.31378,  -0.82268,  -0.70247,  -0.61576,  -0.57914,  -0.14322
   0.85561,  -0.80324,  -0.46069,  -0.07708,   0.81526,  -0.08127,   0.81371,  -0.74036,   0.19019,  -0.60342
   0.76416,   0.44487,   0.92845,  -0.30887,  -0.08180,  -0.11740,  -0.69989,  -0.74578,  -0.81573,   0.41465
   0.22626,  -0.93750,  -0.56307,  -0.37565,  -0.93750,  -0.83542,   0.33777,  -0.41369,  -0.93750,   0.93750
  -0.87230,  -0.87460,  -0.93134,   0.93750,  -0.50414,   0.85307,  -0.88848,   0.93750,   0.49160,  -0.54351
  -0.74139,   0.75402,   0.28390,   0.54162,  -0.72773,  -0.48360,   0.00753,  -0.83568,  -0.59449,   0.14449
  -0.10808,   0.93750,  -0.27799,  -0.78171,  -0.83357,  -0.93750,   0.25761,   0.92315,  -0.76581,  -0.68038
  -0.70072,   0.80556,  -0.65436,  -0.80940,  -0.88087,  -0.93069,   0.77057,   0.59898,   0.31745,   0.08164
  -0.89713,   0.93750,   0.59970,  -0.86994,   0.93750,   0.92525,  -0.30451,   0.93086,  -0.03070,  -0.41519
  -0.88360,  -0.56517,   0.55194,   0.72962,   0.49049,  -0.62623,   0.41850,   0.87010,  -0.84575,   0.92950
   0.48442,  -0.35016,  -0.53433,  -0.20206,  -0.07577,   0.93750,  -0.33176,  -0.19851,   0.45924,   0.70179
   0.80915,   0.50979,  -0.79218,  -0.92252,  -0.79211,  -0.33133,   0.12315,  -0.30914,   0.92106,   0.83234
   0.73390,  -0.91499,   0.18517,  -0.60527,  -0.89319,  -0.61344,   0.82968,  -0.67172,  -0.83838,  -0.86463
  -0.03728,   0.02098,  -0.23331,   0.22330,   0.93750,  -0.79891,  -0.46591,  -0.57142,   0.82002,  -0.67630
   0.08784,  -0.93750,   0.33302,  -0.05014,  -0.15776,  -0.93750,  -0.17912,  -0.74025,   0.87695,  -0.87500
   0.23613,   0.62585,  -0.82044,  -0.61489,   0.57109,  -0.82574,   0.80846,  -0.81815,   0.20648,  -0.68294
   0.54472,  -0.56603,  -0.74531,   0.91274,   0.42494,   0.93568,  -0.55225,   0.83314,  -0.72467,  -0.79353
   0.41531,   0.48883,  -0.32842,  -0.54144,   0.09572,  -0.86518,   0.18163,  -0.37922,  -0.56250,  -0.68018
  -0.81138,   0.48715,   0.03219,  -0.78573,   0.69392,  -0.58442,   0.75494,  -0.58505,  -0.79007,   0.93157
   0.24012,   0.70892,  -0.02589,   0.47194,  -0.41748,  -0.32257,  -0.74125,   0.63990,   0.93342,  -0.47606
   0.80375,  -0.33974,  -0.49231,   0.93750,  -0.30869,  -0.68100,   0.86402,  -0.77253,  -0.04843,  -0.61113
  -0.93750,   0.93750,   0.93750,  -0.93750,   0.70395,  -0.93750,  -0.28794,   0.93750,  -0.50725,  -0.78129
   0.65002,   0.19038,  -0.65241,   0.80718,  -0.70262,  -0.77473,   0.82681,   0.87511,   0.42950,   0.53569
  -0.45762,   0.93750,  -0.93750,  -0.72995,  -0.93750,  -0.73812,  -0.55486,   0.93750,  -0.87193,  -0.32283
  -0.00342,  -0.60616,  -0.58312,  -0.55504,   0.28618,  -0.82162,  -0.64621,  -0.48515,   0.93750,   0.93750
   0.05145,   0.55735,   0.31876,   0.11448,  -0.16901,   0.18983,  -0.17657,   0.08725,   0.08368,  -0.05166
   0.76837,  -0.62602,  -0.57812,  -0.09034,   0.93006,  -0.05654,  -0.44567,  -0.81082,  -0.65988,  -0.74172
  -0.62774,  -0.01357,   0.93750,  -0.02812,  -0.65124,   0.74508,  -0.44077,  -0.83845,  -0.81107,   0.48818
  -0.43961,  -0.23063,   0.43942,   0.81274,  -0.01043,   0.12509,  -0.02628,  -0.17393,   0.38870,  -0.74410
  -0.53366,   0.53890,   0.91633,  -0.48700,   0.85759,  -0.07944,  -0.69252,  -0.70230,   0.19476,  -0.75387
   0.73582,   0.33876,  -0.04917,  -0.46519,  -0.50467,   0.49864,   0.21414,  -0.73522,  -0.03065,   0.93750
  -0.41883,   0.86460,   0.63860,   0.36608,   0.33180,  -0.86098,  -0.81538,   0.02233,  -0.60673,  -0.52809
  -0.85901,  -0.57765,   0.93750,   0.87302,  -0.89011,   0.53409,  -0.74667,   0.93750,  -0.21472,  -0.67413
  -0.80061,  -0.81133,   0.93750,  -0.79549,  -0.14882,   0.09135,  -0.76161,  -0.81274,   0.00327,   0.78462
  -0.61638,   0.76833,   0.63103,  -0.93750,  -0.93750,  -0.02688,  -0.06287,   0.00208,  -0.93750,  -0.63446
   0.93750,   0.23174,  -0.44820,  -0.09422,   0.81296,  -0.51539,   0.71307,  -0.10478,  -0.60842,  -0.41814
   0.41271,   0.47945,  -0.93750,  -0.63164,   0.15986,   0.06383,   0.93750,  -0.53489,  -0.93750,   0.45562
  -0.08296,  -0.93750,   0.92798,   0.53556,   0.76651,  -0.82172,   0.66909,  -0.63708,  -0.86718,   0.61626
   0.55782,   0.00242,   0.70452,  -0.93750,  -0.28292,   0.01058,  -0.63184,   0.93750,  -0.00939,   0.40039
   0.93750,  -0.93750,   0.69751,  -0.47030,   0.87688,   0.13633,  -0.20452,   0.22057,  -0.93750,   0.21851
   0.68401,  -0.70677,  -0.61883,   0.73754,   0.93650,  -0.85541,  -0.81732,  -0.55222,   0.81189,  -0.79635
  -0.87164,  -0.83239,  -0.93750,  -0.28136,   0.93750,  -0.86760,   0.63482,   0.25182,  -0.75390,   0.92626
   0.88412,  -0.93750,  -0.02936,  -0.52334,  -0.93750,  -0.93750,  -0.73656,  -0.73085,  -0.29856,   0.93750
   0.15764,   0.64170,  -0.82756,   0.60562,   0.70942,  -0.77137,   0.41258,   0.93752,   0.81028,  -0.81724
   0.93750,   0.05292,   0.37900,   0.93750,  -0.08213,  -0.44228,   0.93750,  -0.93750,   0.47621,  -0.13603
   0.34989,   0.15371,   0.48849,  -0.44707,  -0.06960,   0.03342,   0.19756,  -0.55964,   0.09438,   0.65434
  -0.56186,   0.67548,  -0.39392,  -0.12247,   0.87809,   0.00199,   0.32131,   0.28125,   0.90666,  -0.74293
   0.54462,   0.67795,   0.31269,  -0.79788,   0.75403,  -0.21042,   0.08328,  -0.76505,  -0.52399,  -0.85136
   0.75888,  -0.43456,  -0.69405,  -0.50938,  -0.49359,   0.70945,   0.70040,   0.20180,   0.93750,  -0.46275
   0.93750,  -0.71517,   0.81510,   0.93750,  -0.21066,  -0.36939,   0.78668,  -0.86668,  -0.41048,   0.14274
   0.93750,  -0.12339,   0.52521,   0.54253,  -0.01125,  -0.93750,  -0.83708,   0.15110,  -0.93750,  -0.85408
  -0.25045,   0.67534,  -0.63359,   0.93750,   0.09993,  -0.44428,   0.68080,   0.93750,   0.84195,  -0.64853
  -0.53750,  -0.66570,   0.84913,  -0.63973,   0.61346,  -0.47678,  -0.29332,  -0.54946,  -0.53036,   0.93750
   0.93750,   0.93750,  -0.93750,  -0.93750,   0.16530,  -0.93750,   0.86904,   0.80588,   0.93750,   0.93750
  -0.93750,  -0.32286,   0.26447,  -0.93750,  -0.93750,  -0.90261,  -0.93750,  -0.06744,  -0.75496,   0.93750
  -0.93750,  -0.81634,   0.93750,   0.03295,  -0.09359,   0.23133,   0.19249,   0.93750,  -0.93750,   0.93750
  -0.68434,  -0.93750,  -0.81703,   0.75924,  -0.09142,  -0.69898,   0.87657,   0.45836,   0.82079,  -0.74383
  -0.14503,   0.33090,   0.76042,   0.93750,  -0.62019,  -0.19883,   0.75258,  -0.18165,   0.79207,  -0.56257
   0.54457,  -0.90321,   0.23264,   0.08425,   0.56185,  -0.80864,  -0.58259,   0.38937,   0.79139,  -0.27062
   0.53685,  -0.61207,  -0.62657,  -0.07153,   0.57893,   0.75834,   0.11338,   0.79535,   0.69758,  -0.47337
   0.63676,   0.51913,  -0.77139,   0.87009,  -0.59703,  -0.09622,   0.70817,  -0.34999,  -0.74725,   0.93750
   0.80851,  -0.76363,  -0.54833,   0.66554,   0.93353,  -0.51059,  -0.31540,  -0.57006,   0.81623,  -0.44945
  -0.20921,   0.21228,  -0.90720,  -0.43263,  -0.74686,   0.80537,   0.93750,   0.86734,   0.54441,  -0.54180
  -0.31937,  -0.79351,   0.93553,  -0.86776,  -0.86812,   0.86874,  -0.60534,  -0.80605,   0.41278,  -0.57288
   0.93750,  -0.14340,  -0.90958,  -0.30421,   0.23505,  -0.47271,  -0.53169,   0.71167,   0.47553,   0.29252
  -0.88001,  -0.11337,   0.06737,  -0.91518,   0.82255,  -0.62593,   0.79006,  -0.79870,  -0.73499,  -0.66911
   0.77785,  -0.12005,   0.04811,  -0.06631,   0.93459,  -0.65873,   0.50796,   0.46464,   0.91422,  -0.40701
   0.37904,   0.22230,  -0.93750,   0.87500,  -0.50595,  -0.24714,  -0.67966,  -0.67774,   0.22456,  -0.65716
  -0.06813,   0.65203,  -0.87967,   0.91340,  -0.44397,   0.76429,  -0.55584,  -0.09716,   0.46205,  -0.75294
  -0.93750,  -0.78733,  -0.93750,  -0.38983,  -0.87917,  -0.93750,   0.42674,  -0.28466,   0.93750,  -0.93750
   0.34534,  -0.23210,  -0.44017,   0.93390,  -0.93750,  -0.85307,  -0.02417,   0.93750,  -0.04436,  -0.09977
   0.11787,  -0.12388,   0.61816,   0.68177,   0.34545,   0.81441,  -0.26037,   0.88675,   0.72681,   0.22740
   0.93715,   0.93750,  -0.63475,   0.84472,   0.48494,   0.26362,  -0.29088,  -0.86612,  -0.74202,  -0.54307
   0.88998,   0.04390,   0.48630,   0.15317,  -0.70277,   0.32544,  -0.16158,  -0.09730,  -0.15080,   0.54183
  -0.86307,   0.77086,  -0.33541,  -0.60651,  -0.21501,  -0.02551,   0.87256,  -0.09724,  -0.81885,   0.54511
   0.66965,  -0.28024,   0.39518,   0.78197,  -0.12261,  -0.01106,   0.13992,  -0.60762,   0.08915,   0.93750
   0.77088,   0.02517,   0.40322,  -0.42743,   0.53089,   0.67255,  -0.36699,  -0.93750,  -0.78726,   0.63676
  -0.58616,   0.21837,   0.93750,  -0.00637,   0.93750,  -0.68610,  -0.37793,   0.77622,   0.15028,   0.93750
   0.05766,  -0.67153,  -0.83805,  -0.71483,   0.74570,  -0.92019,  -0.44634,   0.01993,   0.93378,  -0.61018
   0.67736,  -0.41792,  -0.58370,   0.93750,  -0.93750,  -0.05299,   0.93750,  -0.33989,  -0.93750,  -0.93750
   0.86456,  -0.93750,   0.54520,  -0.93750,  -0.77059,   0.60190,   0.80668,  -0.93750,   0.31787,   0.93750
  -0.90906,  -0.74836,  -0.90153,   0.54906,  -0.93750,  -0.33433,   0.28547,   0.92828,  -0.53715,  -0.43957
   0.80695,   0.73454,   0.00429,  -0.16283,   0.33570,   0.35417,  -0.09138,   0.16138,   0.55231,  -0.66908
  -0.76686,  -0.56728,  -0.86653,  -0.01431,  -0.77396,   0.40168,  -0.23575,  -0.09022,   0.93402,   0.88379
  -0.85699,   0.93750,  -0.93750,   0.88738,   0.40429,   0.93750,  -0.51161,  -0.10293,  -0.34612,   0.87911
   0.43324,  -0.47820,  -0.60460,   0.59346,   0.86405,  -0.80395,   0.92848,   0.04678,   0.52260,  -0.69382
  -0.55319,   0.64939,   0.63117,   0.81958,  -0.91298,   0.20690,   0.65992,  -0.70230,  -0.53686,   0.93750
  -0.65965,   0.63001,   0.87299,   0.19265,   0.42312,  -0.02197,  -0.15672,   0.90862,   0.69709,  -0.89087
   0.69525,  -0.14592,  -0.59097,  -0.24424,   0.13812,   0.84145,  -0.26851,  -0.11135,  -0.23942,   0.08408
   0.50875,   0.93750,   0.75796,  -0.92709,   0.54231,   0.92438,  -0.06349,   0.82912,  -0.22959,  -0.93511
   0.70975,   0.47578,  -0.65598,  -0.31840,   0.86522,  -0.88327,  -0.71940,   0.74937,   0.72055,  -0.81958
   0.93750,   0.66298,  -0.93750,  -0.53321,  -0.93124,  -0.51411,  -0.06903,   0.06020,   0.24490,   0.45684
  -0.05013,  -0.75879,   0.42386,  -0.82040,   0.25953,  -0.81475,   0.87555,  -0.14795,  -0.93750,  -0.04433
   0.20164,  -0.67989,   0.49795,   0.52542,   0.92231,   0.73164,  -0.80898,  -0.50048,  -0.66640,  -0.64778
   0.18028,  -0.55313,   0.51106,   0.17589,  -0.13592,   0.01034,   0.80691,   0.31014,   0.49823,   0.15516
  -0.37529,  -0.24214,  -0.88596,   0.80765,  -0.72559,  -0.69095,   0.93750,   0.35846,   0.46814,   0.30259
   0.92565,   0.65571,  -0.03519,   0.87557,   0.49277,   0.47591,  -0.48710,   0.69078,  -0.90304,   0.41332
   0.40140,   0.23270,  -0.81771,  -0.67784,  -0.46877,   0.45064,   0.93750,  -0.93750,  -0.32781,   0.83213
   0.65671,   0.79463,  -0.48368,   0.59759,  -0.33672,  -0.93750,   0.46736,   0.12659,  -0.49261,   0.44222
  -0.58036,  -0.32097,   0.93750,   0.93750,   0.61407,  -0.93750,  -0.48092,  -0.22884,  -0.92447,  -0.09242
  -0.44234,   0.83734,   0.16959,  -0.59598,   0.20493,   0.25512,  -0.93322,   0.91644,   0.73172,  -0.51244
   0.93750,  -0.19664,  -0.93750,  -0.42408,   0.93750,  -0.93750,  -0.20989,  -0.93750,  -0.75850,  -0.87147
   0.93750,  -0.43568,  -0.52879,   0.31766,  -0.12199,  -0.50072,  -0.33031,  -0.33379,   0.35551,  -0.20629
  -0.74572,  -0.53459,   0.73615,   0.43681,   0.87799,   0.28893,  -0.21122,   0.84062,  -0.22660,  -0.82651
   0.11067,  -0.51824,  -0.52726,   0.93750,  -0.62780,   0.18630,  -0.29172,   0.45860,  -0.09716,  -0.19299
  -0.39025,  -0.05674,  -0.55359,   0.85951,  -0.52765,  -0.47671,   0.81587,  -0.12110,   0.47040,   0.52571
   0.31301,   0.78425,   0.13597,   0.31364,  -0.70198,  -0.48050,   0.93750,   0.40650,   0.04244,  -0.47093
  -0.36999,  -0.34641,  -0.27664,   0.21668,   0.08524,  -0.87540,   0.92325,   0.20146,   0.93750,   0.80606
  -0.66510,   0.02442,   0.71068,   0.09785,   0.93750,  -0.77000,   0.02449,   0.70132,   0.93750,   0.09210
   0.44476,  -0.30496,   0.09948,  -0.11544,  -0.21208,   0.20306,  -0.07168,   0.16381,   0.03253,  -0.25038
  -0.93645,   0.18001,   0.27496,  -0.81677,   0.93750,  -0.03731,  -0.93750,   0.83024,  -0.47815,   0.80163
  -0.11909,  -0.78771,   0.85965,  -0.88124,  -0.63291,   0.80547,  -0.29723,   0.50776,  -0.56512,   0.29694
   0.79638,  -0.92242,   0.93750,   0.68263,   0.93750,   0.53205,   0.89919,  -0.57708,  -0.90164,  -0.27040
   0.00928,  -0.87087,  -0.93750,   0.60522,  -0.76690,  -0.56499,   0.08862,  -0.53233,  -0.72045,  -0.51397
  -0.74379,  -0.93750,   0.00801,  -0.93750,   0.93750,  -0.38001,   0.22035,   0.60886,   0.70660,   0.30203
   0.63826,   0.15600,  -0.09358,  -0.60832,  -0.85141,   0.46109,   0.65480,  -0.81458,   0.93750,   0.93643
  -0.75095,  -0.33433,   0.59474,   0.93750,  -0.93750,  -0.82526,   0.15636,   0.93750,   0.30671,   0.93750
  -0.93750,  -0.48734,  -0.19653,  -0.93750,  -0.46340,   0.93750,  -0.93750,  -0.40158,   0.35101,  -0.77684
  -0.65872,  -0.43992,  -0.93025,   0.58706,  -0.93137,  -0.39325,   0.32222,  -0.45127,   0.81935,   0.92062
   0.37007,  -0.56328,   0.65829,  -0.38929,  -0.17514,   0.41207,   0.48669,  -0.32579,   0.49921,   0.00497
  -0.39533,  -0.93750,   0.47252,  -0.39340,  -0.93750,   0.42523,  -0.02573,   0.14064,  -0.20703,  -0.93750
  -0.65494,  -0.62555,  -0.68409,  -0.50801,  -0.85894,  -0.70357,  -0.61283,   0.80790,   0.54393,   0.93044
  -0.60060,   0.66870,   0.08725,   0.92740,  -0.75451,   0.36035,   0.87847,  -0.24296,  -0.77384,   0.86892
   0.63952,  -0.12030,  -0.05266,  -0.57976,  -0.93750,   0.53257,  -0.70287,   0.22270,  -0.63168,   0.93750
   0.70159,   0.56215,  -0.31373,   0.18653,   0.74800,  -0.38967,  -0.80600,  -0.50543,  -0.10579,  -0.86491
  -0.80599,   0.74137,  -0.04781,  -0.58502,  -0.84915,   0.91820,   0.80039,   0.14842,  -0.68126,  -0.26081
   0.80763,   0.67166,   0.68850,   0.93750,  -0.58048,  -0.40666,   0.09053,  -0.34779,  -0.75558,  -0.11241
  -0.32959,  -0.31990,   0.54573,   0.93750,   0.86666,  -0.27582,  -0.26790,  -0.38147,  -0.64672,  -0.86630
  -0.48718,   0.68039,   0.85352,  -0.72413,  -0.08620,  -0.01672,  -0.64817,   0.36786,   0.86107,   0.93750
  -0.75973,   0.25218,  -0.28579,   0.27663,   0.93750,  -0.19193,   0.37591,   0.09321,  -0.19164,  -0.93750
   0.65242,  -0.76846,   0.58149,   0.64180,   0.52360,   0.37105,   0.39381,   0.12190,   0.51991,   0.36483
   0.16393,  -0.28557,   0.56079,  -0.46785,   0.31209,   0.25269,   0.06196,   0.03574,  -0.06321,   0.82645
  -0.00063,  -0.67845,   0.74299,  -0.46025,  -0.29351,  -0.91200,   0.13030,  -0.45880,   0.55811,  -0.92330
   0.22842,  -0.89338,   0.93750,  -0.92768,   0.27606,   0.92440,  -0.65442,   0.14895,  -0.22530,  -0.42283
  -0.52431,   0.84376,  -0.73894,   0.93750,   0.34697,  -0.57198,  -0.08717,  -0.68881,   0.02914,  -0.36360
  -0.67602,   0.92316,   0.81663,  -0.36225,   0.89467,  -0.93750,   0.60061,  -0.86804,  -0.71467,  -0.92982
  -0.67468,   0.60349,   0.74376,  -0.24813,  -0.73922,  -0.81681,   0.93750,  -0.56753,  -0.47677,  -0.16202
  -0.41741,   0.49558,   0.56088,  -0.64187,   0.75229,  -0.79579,  -0.23489,   0.93301,  -0.70264,  -0.40968
  -0.19721,  -0.93006,   0.75307,  -0.83263,  -0.87159,  -0.93750,  -0.75011,  -0.93750,   0.93750,  -0.68333
  -0.70773,  -0.65585,   0.85090,   0.71890,   0.72311,   0.83538,  -0.77761,   0.54748,  -0.12534,   0.78290
  -0.77908,  -0.49855,  -0.08359,   0.76372,  -0.93750,  -0.10194,   0.35546,   0.25650,   0.60978,  -0.53134
  -0.11734,  -0.65081,  -0.46955,   0.56288,  -0.17675,   0.93750,  -0.68041,   0.32883,  -0.71287,   0.51397
   0.93750,   0.93429,  -0.28909,  -0.92773,  -0.93750,  -0.36567,  -0.70325,  -0.64445,  -0.31296,   0.45609
   0.86874,   0.42207,  -0.87971,  -0.49999,   0.65981,  -0.58867,   0.56394,   0.79529,  -0.93750,   0.49069
   0.12165,  -0.39821,   0.93546,   0.63335,  -0.91365,  -0.92023,  -0.68341,   0.17458,  -0.69655,   0.80324
   0.73356,  -0.13147,   0.81705,   0.82839,   0.28237,   0.48198,  -0.44446,  -0.02126,  -0.91881,  -0.19353
   0.58056,  -0.60147,   0.73390,   0.15908,   0.55009,  -0.53306,   0.56568,  -0.78246,  -0.54942,   0.92655
  -0.44694,  -0.65050,  -0.65281,  -0.84910,  -0.71163,  -0.61946,   0.12518,   0.93750,  -0.50951,  -0.54296
   0.87086,   0.87525,  -0.11061,  -0.08855,  -0.72751,   0.20911,   0.75735,  -0.53870,  -0.77553,   0.12445
   0.83917,   0.93750,  -0.12104,  -0.93750,   0.31419,  -0.92362,   0.19465,  -0.39054,  -0.16812,   0.93750
   0.61990,  -0.68062,  -0.12421,  -0.09090,  -0.81635,   0.87227,  -0.52881,  -0.93750,   0.80513,   0.93434
   0.93750,   0.93750,   0.47012,  -0.93750,  -0.30511,  -0.93750,  -0.59420,   0.69477,   0.93750,  -0.82385
   0.93750,  -0.74773,   0.09221,   0.43770,   0.76723,  -0.67468,   0.72339,   0.81293,  -0.06310,   0.67504
  -0.79302,  -0.39582,  -0.22940,  -0.70744,  -0.14343,   0.87021,  -0.78665,   0.92338,  -0.09952,  -0.81309
  -0.80410,   0.64869,  -0.93750,  -0.93750,   0.15480,   0.81105,   0.59162,  -0.10446,  -0.91531,   0.65697
  -0.29196,   0.40262,  -0.93750,   0.10683,   0.75629,  -0.85621,  -0.26938,  -0.93750,  -0.51340,  -0.87920
   0.91450,   0.66243,   0.84466,  -0.33847,   0.93750,  -0.79354,  -0.07341,   0.93750,  -0.04626,  -0.75742
   0.54974,  -0.88711,   0.62926,   0.81610,   0.34745,  -0.70383,   0.82089,  -0.68639,  -0.80513,   0.93750
  -0.70833,   0.87699,  -0.53104,  -0.79391,  -0.62486,   0.93750,  -0.37723,   0.93385,   0.28923,  -0.80087
  -0.59939,  -0.83685,  -0.68084,  -0.87647,  -0.85850,  -0.86836,   0.39249,   0.01283,  -0.80648,   0.93011
  -0.87767,   0.38332,   0.53250,  -0.68061,  -0.83985,   0.77294,   0.93750,  -0.57313,  -0.43090,   0.45273
   0.64630,  -0.92846,  -0.92651,  -0.67709,  -0.86220,   0.22946,  -0.74036,   0.93750,   0.13127,  -0.20297
  -0.72779,  -0.72104,  -0.66415,   0.93750,   0.51789,  -0.78499,   0.27436,  -0.26835,  -0.06949,  -0.93750
   0.18087,   0.16515,   0.61002,   0.93750,  -0.53184,   0.69026,   0.63051,  -0.22580,  -0.89264,   0.54114
   0.86536,   0.48668,   0.56856,  -0.47319,   0.11516,   0.47811,   0.86389,  -0.72847,  -0.48323,  -0.02783
  -0.86303,  -0.17848,   0.43135,   0.81755,   0.57880,  -0.16305,   0.26542,   0.93750,  -0.91553,  -0.37896
   0.45983,   0.70777,   0.92845,  -0.67497,   0.81171,   0.43484,   0.58934,  -0.87357,  -0.93750,  -0.16673
   0.15613,   0.67645,  -0.71128,  -0.75189,   0.93750,   0.41044,  -0.89628,   0.65955,  -0.88205,  -0.93750
   0.44824,  -0.36610,   0.71190,   0.02621,   0.55554,   0.39217,  -0.06010,   0.67906,   0.34558,  -0.38807
  -0.60729,  -0.33285,   0.18559,  -0.10376,  -0.82623,   0.79019,   0.28033,   0.54508,  -0.25112,   0.92922
   0.86534,   0.17061,  -0.25869,  -0.92544,   0.30232,   0.81045,   0.57307,  -0.35994,   0.75799,   0.47471
  -0.63280,  -0.38519,   0.87772,   0.86101,  -0.25478,   0.93750,   0.23830,  -0.37744,  -0.75581,  -0.75514
   0.20180,   0.84299,   0.56520,  -0.38562,  -0.63256,   0.58646,   0.16391,   0.17534,  -0.59104,   0.69579
  -0.55873,  -0.56943,  -0.05797,  -0.36080,  -0.93750,   0.53061,  -0.60108,  -0.14870,   0.39276,   0.93261
   0.93750,   0.93750,  -0.81668,  -0.86549,   0.74247,  -0.11104,   0.36590,   0.39503,   0.61176,  -0.76086
  -0.60496,  -0.05019,  -0.67580,  -0.45194,  -0.69816,   0.80319,  -0.42816,  -0.70239,   0.92804,   0.62473
   0.69149,  -0.51257,  -0.11944,   0.77984,   0.87017,  -0.29793,  -0.74461,   0.93750,   0.28048,  -0.83004
   0.76786,   0.03409,  -0.38241,   0.07703,   0.83291,   0.04768,   0.58467,  -0.77707,  -0.28185,  -0.34284
   0.39425,  -0.20356,  -0.18112,   0.84968,  -0.65555,  -0.59776,   0.68625,   0.41486,   0.59326,  -0.51176
   0.43960,   0.78419,  -0.78323,   0.93693,   0.04496,  -0.60885,  -0.36015,   0.87500,  -0.35245,  -0.34434
   0.64763,   0.31113,  -0.48111,  -0.00172,   0.93750,   0.00016,  -0.20517,  -0.07747,   0.80588,  -0.87385
   0.93750,  -0.04983,   0.18981,  -0.88377,   0.80826,  -0.87090,  -0.93750,  -0.01758,  -0.68063,   0.93750
   0.73321,  -0.40067,  -0.04864,  -0.30769,   0.31155,   0.80441,   0.14299,  -0.47323,  -0.87538,   0.33188
   0.60533,  -0.71525,  -0.36776,  -0.15921,   0.33011,  -0.80440,   0.93750,  -0.80185,   0.81418,   0.88321
   0.68230,  -0.10887,  -0.10997,   0.23610,   0.56738,  -0.53489,   0.31222,  -0.53198,  -0.51475,   0.77754
  -0.09090,  -0.75949,  -0.51864,   0.84020,   0.93750,   0.17305,  -0.50849,  -0.23124,  -0.82321,  -0.86758
   0.08804,  -0.93750,  -0.82818,   0.34924,   0.90832,   0.93750,   0.93750,  -0.55797,  -0.93750,  -0.93750
  -0.39721,  -0.70835,  -0.86943,   0.83430,  -0.93750,  -0.87144,  -0.17045,   0.79104,  -0.57029,   0.30082
   0.86831,   0.52288,  -0.42804,   0.37427,   0.70448,  -0.55126,  -0.89672,  -0.41674,  -0.52766,   0.93750
   0.66256,  -0.61457,   0.21058,   0.00468,   0.41574,  -0.19192,   0.54899,  -0.00061,   0.11886,   0.54509
  -0.58122,   0.57182,  -0.46696,  -0.12418,  -0.58379,  -0.47053,  -0.12382,  -0.25875,  -0.42840,  -0.18763
   0.62264,   0.45909,   0.91568,  -0.83230,  -0.87312,  -0.90395,  -0.80735,   0.69777,  -0.54559,   0.60789
  -0.73919,   0.34727,  -0.64287,   0.27644,   0.74791,  -0.79832,   0.79787,   0.65431,  -0.75458,  -0.52911
   0.68847,  -0.87963,   0.93750,  -0.93304,  -0.93750,   0.88172,  -0.05797,  -0.93750,  -0.43478,  -0.59747
   0.27425,  -0.54348,   0.14833,   0.62924,   0.86277,  -0.27073,   0.33844,   0.87163,   0.28141,  -0.26354
  -0.74465,  -0.41541,  -0.33353,   0.12172,  -0.02910,  -0.93750,   0.77883,   0.73944,   0.66785,  -0.87121
  -0.75162,  -0.93750,  -0.76052,   0.55845,   0.93750,  -0.93750,  -0.68263,  -0.49504,  -0.55785,   0.93750
   0.21820,  -0.87620,   0.34739,  -0.74216,   0.68942,  -0.62806,   0.85692,   0.32491,   0.67749,   0.25235
  -0.75991,  -0.93750,   0.63409,  -0.93750,   0.33141,  -0.18566,  -0.75607,   0.93750,  -0.07584,   0.76936
  -0.92530,   0.73855,   0.93750,   0.93570,  -0.65503,  -0.61439,  -0.71750,  -0.80967,  -0.78736,  -0.34893
   0.83644,   0.08129,  -0.75136,   0.77778,  -0.56271,  -0.93750,   0.93696,  -0.93458,   0.63131,   0.67786
  -0.93750,  -0.72977,  -0.45572,   0.93750,   0.93750,   0.86612,   0.80310,   0.48041,   0.62833,  -0.86570
  -0.55200,  -0.40718,   0.54296,   0.75498,  -0.58146,   0.93749,  -0.78082,   0.93750,  -0.92413,   0.42816
  -0.37082,  -0.71227,   0.16336,  -0.07921,   0.87712,  -0.39185,   0.05623,   0.89226,  -0.22949,  -0.35030
   0.31128,  -0.14020,   0.93750,   0.48450,  -0.93750,   0.79388,   0.01169,  -0.93750,   0.26664,   0.24528
   0.72721,   0.07566,   0.81411,  -0.21381,  -0.20190,   0.00702,   0.31217,  -0.27072,   0.04881,   0.69917
  -0.71076,   0.93750,   0.93750,  -0.69850,  -0.12194,   0.74940,  -0.30367,   0.62481,  -0.44739,   0.84265
  -0.93750,   0.93750,  -0.93750,   0.93750,   0.22183,  -0.93750,  -0.93750,   0.93750,  -0.46608,  -0.93750
  -0.80911,  -0.62098,  -0.76475,   0.66900,  -0.53372,  -0.47704,   0.40361,  -0.18997,  -0.01744,   0.81210
  -0.45197,   0.41823,  -0.84120,  -0.28234,  -0.91175,   0.02861,  -0.49729,   0.84171,   0.73511,   0.93349
   0.31927,  -0.83874,   0.59489,  -0.04743,   0.59667,  -0.71109,  -0.63180,   0.15244,   0.62300,   0.36749
   0.80100,  -0.76039,  -0.59353,   0.87455,  -0.49251,   0.93750,   0.92853,   0.83145,  -0.85060,   0.04988
  -0.50938,  -0.09007,   0.32137,   0.07246,   0.12676,   0.92049,   0.08565,   0.13275,   0.82817,   0.71737
   0.68020,  -0.46231,  -0.86225,  -0.93750,   0.50981,  -0.93750,   0.35262,  -0.23530,   0.74564,   0.86562
   0.93146,  -0.38064,   0.92610,  -0.93750,   0.53314,   0.07856,  -0.62143,  -0.88068,  -0.86751,  -0.48545
  -0.93750,  -0.34457,   0.44749,   0.18317,  -0.68764,  -0.93750,   0.49297,  -0.15329,  -0.66421,   0.77430
  -0.80656,  -0.72734,  -0.75219,  -0.77801,   0.92190,   0.62839,   0.78555,  -0.26631,   0.28352,  -0.78965
  -0.26800,   0.30705,  -0.93750,  -0.77883,   0.45273,   0.93750,   0.69206,  -0.47398,  -0.88510,  -0.93750
   0.60862,  -0.75980,   0.93750,  -0.87319,  -0.90890,   0.86899,  -0.72171,  -0.93750,   0.87739,  -0.58524
   0.35681,   0.72801,   0.87090,  -0.93750,  -0.74631,  -0.91293,   0.05134,   0.38247,   0.26094,  -0.59230
  -0.57920,   0.09440,  -0.59610,   0.12271,   0.07225,  -0.30101,   0.01648,  -0.54131,   0.57629,   0.66900
   0.81804,  -0.76693,   0.93750,   0.01414,   0.02338,   0.37633,   0.65174,  -0.61004,  -0.88358,   0.00022
  -0.29600,   0.73435,   0.59958,  -0.93750,   0.16819,  -0.83210,   0.59924,  -0.93750,  -0.93750,  -0.93750
  -0.19474,   0.31717,   0.93750,   0.88923,  -0.93750,   0.27578,   0.93750,  -0.93750,  -0.93750,  -0.93750
   0.03983,   0.93750,   0.93750,   0.87119,   0.93750,  -0.93750,   0.81371,   0.93750,   0.86256,  -0.93750
  -0.72579,  -0.76194,  -0.92075,   0.87052,   0.50298,   0.93750,   0.52353,  -0.12351,   0.43018,  -0.30842
  -0.41498,   0.48311,  -0.05073,  -0.46291,  -0.52289,  -0.83222,   0.46897,   0.79018,  -0.70375,   0.93750
   0.10305,  -0.45459,   0.67636,  -0.74747,   0.93399,  -0.31760,   0.53744,   0.37647,   0.87479,  -0.62538
   0.79451,   0.93750,  -0.93750,   0.08966,   0.93750,   0.15559,   0.93750,   0.30577,   0.93750,  -0.93750
  -0.60907,   0.48661,   0.57999,  -0.66250,  -0.93750,  -0.48505,   0.73993,  -0.74661,  -0.86952,   0.93750
   0.35406,   0.72531,   0.69895,  -0.64375,  -0.64241,   0.86210,  -0.06483,  -0.87615,   0.68806,   0.19746
   0.17880,   0.38219,   0.93750,  -0.56420,   0.32151,  -0.23674,   0.92403,  -0.89188,  -0.82102,   0.80120
  -0.93750,  -0.57314,   0.03382,  -0.49274,  -0.93750,   0.55646,  -0.11871,   0.73512,  -0.64632,  -0.10082
   0.56088,  -0.62903,   0.81087,   0.16601,  -0.27758,  -0.44554,   0.89337,   0.02952,  -0.86358,  -0.14581
  -0.93750,   0.45946,   0.93750,  -0.64265,  -0.16387,  -0.50823,  -0.79128,  -0.93750,  -0.11069,  -0.93750
  -0.21886,  -0.19560,  -0.93750,  -0.93750,   0.93750,   0.93750,  -0.01693,  -0.54455,  -0.75860,   0.87068
   0.51676,  -0.86387,   0.93750,   0.81977,   0.07017,   0.86896,   0.33604,  -0.26715,  -0.85891,   0.45690
  -0.46647,  -0.25860,   0.83877,   0.38167,  -0.68845,   0.51355,  -0.50717,   0.75906,   0.78724,   0.80217
  -0.46573,  -0.54989,  -0.66424,  -0.90810,   0.62434,  -0.92189,   0.11901,  -0.38731,   0.93750,  -0.29915
  -0.46327,  -0.81374,   0.93750,  -0.88500,  -0.93750,  -0.55114,  -0.81242,  -0.80903,   0.24531,  -0.93750
   0.19072,   0.36986,   0.21670,  -0.57666,  -0.75597,  -0.80530,  -0.75830,   0.93750,   0.92565,  -0.00370
  -0.52131,   0.78905,   0.85879,  -0.70374,  -0.80147,  -0.89978,   0.20416,   0.93750,  -0.65911,  -0.53852
   0.72254,  -0.54758,  -0.66216,   0.51409,  -0.80605,  -0.60448,   0.86241,  -0.58285,  -0.91406,   0.81204
  -0.24068,   0.21834,   0.07471,   0.40782,  -0.50343,   0.25039,   0.22495,   0.76805,   0.24704,  -0.04293
  -0.42709,  -0.41690,  -0.00821,   0.26097,   0.03029,   0.22957,  -0.43808,   0.21853,   0.27825,   0.26659
   0.70496,   0.48468,   0.24743,   0.09437,  -0.24440,   0.69821,   0.16177,  -0.10427,   0.52772,  -0.32660
  -0.45594,   0.81154,  -0.50927,  -0.60466,   0.55984,  -0.70150,  -0.79135,  -0.93750,  -0.83136,   0.87597
  -0.90287,   0.84117,  -0.47670,   0.37307,   0.65287,   0.37384,   0.67639,  -0.74625,  -0.25228,   0.85483
  -0.74485,   0.71472,   0.00124,   0.68619,   0.71501,   0.88395,  -0.29923,  -0.54324,   0.70707,  -0.01033
  -0.49745,  -0.66194,   0.83609,  -0.85610,  -0.81991,  -0.91854,  -0.26393,   0.82157,  -0.65066,  -0.49821
  -0.80726,  -0.69488,   0.93750,  -0.84216,   0.18040,   0.38998,  -0.80850,  -0.74812,  -0.02599,  -0.01511
  -0.39160,  -0.81356,  -0.92498,  -0.06881,  -0.83679,   0.10952,   0.58668,   0.93750,  -0.53600,  -0.78101
   0.69019,  -0.33174,   0.68808,   0.18925,  -0.84931,   0.44850,   0.70373,   0.04812,  -0.93750,  -0.91280
  -0.23563,  -0.49440,   0.36670,   0.93750,   0.02189,   0.18741,   0.27290,   0.46261,   0.54552,   0.23170
  -0.71219,   0.26885,  -0.16522,  -0.02715,   0.15741,   0.52302,  -0.61556,  -0.04182,   0.93559,   0.50574
  -0.33050,   0.75505,  -0.93750,   0.45876,   0.91238,  -0.51139,  -0.93750,  -0.85978,  -0.33232,   0.32717
   0.25618,   0.05911,   0.41521,  -0.80591,   0.93750,  -0.87552,  -0.57141,  -0.75666,  -0.03332,  -0.73634
   0.00983,  -0.54291,   0.78798,   0.39618,   0.75491,   0.51485,   0.39993,   0.58763,  -0.82290,   0.68592
   0.81306,   0.81508,  -0.89022,   0.52192,  -0.82572,  -0.91882,  -0.81939,  -0.66597,  -0.87498,  -0.42747
  -0.93750,  -0.28741,   0.35931,  -0.81592,  -0.59398,  -0.93750,  -0.93750,  -0.93750,  -0.93750,  -0.22471
   0.86290,   0.01305,   0.91622,  -0.61720,  -0.63994,   0.05382,  -0.61538,  -0.59606,  -0.66235,  -0.52061
   0.34803,  -0.65590,  -0.54913,   0.93686,   0.92496,  -0.60080,  -0.18457,  -0.39186,   0.32008,  -0.75367
  -0.92330,   0.76355,   0.53406,   0.55684,   0.27759,  -0.05192,  -0.69690,   0.79713,   0.93750,   0.07525
  -0.27171,   0.69716,  -0.67065,  -0.70233,   0.69531,  -0.87407,   0.70841,   0.93750,  -0.57448,  -0.61767
  -0.79827,  -0.11536,   0.61038,   0.24044,   0.25259,   0.90325,  -0.27175,  -0.42950,  -0.86502,   0.92868
  -0.76459,   0.14623,   0.48409,   0.88078,  -0.24921,   0.86895,   0.92871,  -0.32722,  -0.93750,  -0.01373
  -0.45292,  -0.84743,  -0.05906,  -0.28699,   0.18026,   0.63613,  -0.00998,  -0.08796,   0.29248,  -0.06266
  -0.31997,   0.38453,  -0.44215,   0.71004,   0.62638,   0.73060,   0.65566,  -0.32468,   0.35775,  -0.49551
   0.93750,   0.06728,  -0.44844,  -0.79650,  -0.48281,  -0.20821,   0.92091,   0.50730,  -0.87500,   0.46926
  -0.93750,  -0.57438,   0.41962,  -0.92121,   0.25741,  -0.93750,  -0.80297,   0.93750,  -0.80215,  -0.93750
   0.56634,  -0.58796,  -0.55316,   0.64027,  -0.39050,   0.10602,  -0.14182,   0.06884,   0.70865,   0.39421
   0.38823,   0.51247,  -0.75912,  -0.59420,   0.88344,  -0.93141,  -0.28517,   0.93750,  -0.01798,  -0.93750
   0.23751,   0.79312,   0.66261,   0.80391,  -0.29230,   0.47949,   0.82184,  -0.46065,  -0.82521,  -0.13634
  -0.33513,  -0.58600,   0.47440,  -0.73180,   0.93750,  -0.51168,  -0.79888,  -0.20414,   0.45432,   0.93750
  -0.60430,  -0.93750,  -0.52258,  -0.09463,   0.20090,   0.93750,   0.93750,   0.10602,   0.57500,  -0.93750
  -0.80074,  -0.71216,  -0.53674,   0.93750,   0.75326,  -0.70407,  -0.87971,  -0.57856,  -0.76457,   0.84869
   0.62834,  -0.45812,   0.81827,  -0.54493,  -0.93750,   0.92679,   0.30792,   0.49386,   0.93750,  -0.02250
   0.20904,  -0.64697,   0.28407,   0.77849,  -0.65597,  -0.62582,   0.09461,   0.12614,   0.54939,   0.43462
  -0.22073,   0.63019,   0.80748,   0.45723,   0.82174,   0.46171,  -0.87923,  -0.04341,  -0.34780,  -0.76346
   0.11735,  -0.75222,   0.82873,  -0.29849,  -0.71194,   0.76640,  -0.68872,   0.68476,   0.65064,  -0.35512
  -0.55770,   0.56577,  -0.75513,   0.57533,  -0.15827,   0.30262,  -0.56125,  -0.05657,  -0.75609,   0.93750
  -0.15337,  -0.75874,  -0.48838,  -0.18956,  -0.00085,  -0.28059,   0.00952,   0.92803,  -0.73057,   0.89626
   0.06190,  -0.05018,  -0.36914,   0.58780,  -0.03545,   0.76200,   0.32716,   0.07558,   0.81397,  -0.90989
   0.23589,  -0.79414,   0.86969,   0.93336,  -0.56191,  -0.66271,   0.53026,   0.18573,  -0.73507,   0.12248
  -0.30523,   0.80931,   0.87526,   0.26784,  -0.83219,   0.14746,  -0.22820,   0.70044,   0.80089,   0.35935
   0.09782,   0.93700,  -0.85371,  -0.55159,   0.35066,   0.52962,  -0.32909,   0.92988,  -0.44378,  -0.62937
   0.32610,   0.93750,  -0.93750,  -0.93750,  -0.48189,   0.93750,  -0.65582,  -0.86681,  -0.26593,   0.93750
  -0.38820,   0.87344,  -0.76497,   0.81392,  -0.66730,   0.71097,   0.17724,   0.20500,   0.54765,  -0.29255
  -0.63645,  -0.52088,  -0.80214,  -0.60565,   0.56556,   0.79895,  -0.61603,   0.41472,  -0.27582,   0.73191
   0.66357,   0.19415,  -0.06873,   0.00468,   0.51406,  -0.77887,  -0.16336,   0.28926,  -0.74153,   0.78866
  -0.49087,  -0.70414,  -0.36960,   0.16810,   0.73983,   0.90352,   0.87977,  -0.51218,  -0.30102,   0.93750
   0.91224,  -0.71340,   0.34442,   0.91978,   0.85443,   0.60842,  -0.65396,   0.28937,  -0.50312,  -0.36757
   0.47217,   0.04022,   0.42259,   0.81154,   0.01359,   0.61515,   0.11155,  -0.31657,  -0.75004,   0.93069
  -0.03870,  -0.66845,   0.08322,   0.80979,   0.92212,   0.11218,  -0.09742,   0.17223,  -0.85920,  -0.72210
  -0.51933,  -0.71051,  -0.73380,   0.93750,  -0.53420,  -0.74404,   0.72426,  -0.16822,  -0.75397,  -0.93663
   0.76619,  -0.32028,   0.89275,   0.19732,  -0.41804,  -0.73637,  -0.48305,  -0.74391,   0.30173,   0.63662
   0.14213,   0.23052,   0.75204,  -0.43797,  -0.76037,  -0.74220,   0.63551,  -0.46333,   0.75478,  -0.02174
   0.51184,   0.87065,   0.62289,   0.92400,  -0.38580,  -0.64953,  -0.89637,  -0.60749,  -0.05920,   0.81343
   0.69408,   0.22645,   0.92167,  -0.45509,   0.41240,  -0.77177,  -0.44878,  -0.86722,  -0.92048,   0.85696
  -0.89701,   0.08198,  -0.33306,  -0.86851,   0.80295,  -0.58984,   0.93750,   0.01602,  -0.86065,  -0.37342
   0.53102,   0.12346,  -0.93750,   0.12862,   0.26551,  -0.93750,   0.54089,   0.34610,   0.49206,  -0.57690
  -0.93322,   0.32616,  -0.61535,   0.87779,   0.40583,  -0.59943,   0.93750,   0.93750,   0.33756,  -0.78080
   0.93605,   0.80741,  -0.87472,  -0.72621,  -0.87525,  -0.39054,  -0.64808,   0.23725,  -0.50656,   0.60056
   0.85709,   0.00873,   0.91384,  -0.65500,   0.31269,  -0.56296,  -0.86751,  -0.86976,  -0.67037,   0.14791
  -0.75396,  -0.49985,   0.69832,  -0.40182,   0.67858,   0.01583,   0.71167,  -0.57703,   0.69596,  -0.12036
   0.47203,   0.59674,  -0.64887,   0.14942,  -0.60264,   0.59817,  -0.02293,   0.88905,   0.93750,  -0.03438
  -0.39402,  -0.88382,  -0.13895,  -0.05031,   0.92820,   0.59059,  -0.37480,   0.57369,   0.93750,  -0.25099
   0.23461,   0.80610,   0.06915,   0.49643,  -0.80212,  -0.13034,   0.59110,  -0.05841,  -0.41445,   0.47337
   0.78211,   0.28367,   0.49402,   0.38956,   0.38132,   0.79279,  -0.06912,   0.02173,  -0.61188,   0.39060
  -0.74237,  -0.92001,   0.73854,   0.51329,   0.36554,   0.50505,   0.37339,   0.82462,  -0.73554,  -0.48693
  -0.57820,  -0.25290,  -0.16827,  -0.20742,  -0.32333,  -0.35726,   0.29003,  -0.63667,   0.93750,   0.73619
   0.79589,  -0.00487,  -0.68187,  -0.71005,  -0.22662,  -0.50295,   0.91476,  -0.26120,  -0.67248,  -0.06460
   0.93750,   0.36571,   0.93750,   0.82818,   0.54476,  -0.72195,   0.68499,  -0.10598,  -0.80065,  -0.60696
   0.82105,  -0.56084,  -0.56842,   0.66681,  -0.66652,  -0.28365,  -0.62963,  -0.87270,  -0.84870,  -0.26647
   0.73844,   0.60094,  -0.62423,   0.18920,  -0.52043,  -0.87306,   0.72979,  -0.24729,  -0.83078,  -0.81240
  -0.71450,  -0.93750,   0.43627,  -0.33745,   0.08155,   0.93750,   0.93750,  -0.93750,  -0.85042,   0.90150
   0.66835,   0.85166,   0.93750,   0.90557,  -0.67548,  -0.93723,  -0.82011,  -0.80320,   0.68935,  -0.90372
   0.93750,   0.80772,  -0.93750,  -0.68992,   0.84423,   0.27844,  -0.59243,  -0.75998,  -0.21586,  -0.48553
  -0.51738,   0.49969,   0.22164,   0.27983,   0.88249,  -0.53751,   0.27038,  -0.93750,  -0.21044,   0.74132
   0.01646,  -0.40070,   0.13064,  -0.28849,   0.34888,   0.77176,   0.04038,  -0.00144,   0.31256,   0.49342
  -0.33058,   0.33896,  -0.13732,  -0.00149,  -0.62456,   0.93750,  -0.86947,  -0.21610,   0.71896,  -0.36900
  -0.23588,   0.00411,   0.16166,  -0.38086,  -0.11966,  -0.43419,  -0.82305,   0.93750,  -0.80520,   0.68228
  -0.79626,   0.10981,  -0.47641,   0.26820,   0.42682,  -0.63147,   0.93750,  -0.68153,  -0.68442,  -0.12435
   0.93750,   0.12948,  -0.14070,   0.69203,   0.53637,  -0.32123,  -0.01347,  -0.82370,  -0.90774,   0.47914
   0.87943,   0.04631,  -0.89531,  -0.12581,   0.40451,  -0.93750,  -0.68985,   0.24051,  -0.93750,  -0.75029
  -0.74485,  -0.86718,   0.88617,   0.04602,  -0.88718,  -0.30469,  -0.27647,   0.93396,  -0.66633,   0.93016
   0.88673,   0.19662,   0.67142,   0.52526,  -0.87157,  -0.91923,   0.30101,  -0.76157,  -0.92987,   0.92941
  -0.92692,  -0.03446,   0.86912,   0.47093,   0.00997,  -0.93750,   0.49291,  -0.93750,  -0.93750,   0.87338
  -0.93750,  -0.93750,  -0.35812,  -0.93750,  -0.64139,   0.57723,   0.15249,  -0.93750,   0.67917,  -0.93750
  -0.65888,   0.93524,  -0.74028,   0.87768,  -0.46508,   0.76888,  -0.80873,  -0.83597,   0.14218,   0.68635
  -0.72032,   0.36141,  -0.47014,   0.34590,   0.83568,  -0.71747,   0.93750,  -0.08550,  -0.70921,   0.43493
  -0.68975,   0.07041,   0.27973,   0.79568,  -0.51357,  -0.73055,  -0.70681,   0.75364,   0.63427,  -0.44201
   0.87439,  -0.15368,  -0.73623,  -0.61680,  -0.33790,  -0.37026,  -0.75242,   0.76052,   0.92668,  -0.27197
   0.93750,   0.00192,   0.93750,  -0.28592,   0.00345,  -0.46026,  -0.45732,   0.87651,   0.93750,   0.44305
   0.07544,  -0.86950,  -0.41711,  -0.36953,  -0.93750,  -0.13023,   0.72372,   0.93750,   0.10674,  -0.93750
   0.00904,  -0.60357,   0.03410,   0.65240,  -0.86362,  -0.72124,   0.92869,   0.11830,  -0.93750,   0.93125
   0.47865,  -0.71665,  -0.60694,   0.33073,   0.14261,  -0.14825,  -0.62152,   0.87525,   0.09203,   0.64002
  -0.09387,   0.20828,   0.36141,  -0.37367,   0.39032,   0.92122,   0.32843,  -0.43275,  -0.54224,   0.86200
  -0.11389,   0.92801,  -0.04875,  -0.93750,  -0.93750,  -0.38350,  -0.93750,   0.14413,  -0.74568,   0.02828
  -0.55546,  -0.65513,  -0.93750,   0.68857,  -0.82429,   0.07096,   0.93750,   0.20208,  -0.18467,   0.93750
  -0.77555,  -0.65497,   0.57912,  -0.39005,   0.61560,  -0.40247,   0.92322,  -0.68296,   0.87779,  -0.65500
  -0.79497,   0.75374,  -0.93750,  -0.84281,   0.14990,   0.17460,  -0.53029,   0.38479,  -0.56074,  -0.88252
   0.63190,  -0.78252,  -0.64190,   0.87065,   0.61069,  -0.77391,  -0.19712,  -0.78847,  -0.33827,   0.78962
   0.93750,  -0.93750,  -0.79391,   0.62882,  -0.84404,  -0.93750,   0.93750,  -0.30729,  -0.42331,  -0.14340
   0.39483,   0.88296,  -0.76477,  -0.80961,  -0.26494,  -0.93750,   0.93750,  -0.12809,   0.61879,   0.45604
  -0.91966,   0.71287,  -0.18767,  -0.28671,  -0.32363,  -0.70626,   0.87757,   0.40801,   0.86368,   0.05862
   0.61129,   0.03458,  -0.68347,   0.93750,   0.74992,  -0.86702,   0.17457,  -0.65669,  -0.00246,  -0.43006
   0.66792,  -0.58416,  -0.77901,  -0.57780,   0.49835,  -0.47773,   0.89610,  -0.61503,   0.83661,  -0.37570
  -0.93750,  -0.17305,  -0.67425,  -0.39273,  -0.78337,   0.87634,   0.76079,  -0.93750,  -0.87694,   0.93750
   0.93750,   0.04158,   0.93750,  -0.83999,   0.27818,  -0.89745,  -0.39231,   0.59876,  -0.25469,   0.93076
  -0.14368,  -0.65007,   0.93750,   0.16901,   0.93750,  -0.92513,   0.88886,   0.38550,  -0.17886,   0.86610
  -0.70396,  -0.20546,   0.93750,  -0.86287,  -0.09112,  -0.77407,   0.44518,  -0.93750,  -0.87913,   0.76609
  -0.93750,  -0.71904,  -0.78650,  -0.93750,   0.19040,  -0.85136,  -0.26897,  -0.93750,  -0.29717,  -0.75745
   0.76771,   0.69722,  -0.93750,   0.65529,  -0.51182,  -0.13763,   0.84181,   0.29370,  -0.91358,  -0.56720
   0.48018,  -0.27629,   0.13282,  -0.09918,  -0.43628,   0.59459,   0.48926,   0.33980,   0.44989,   0.86753
  -0.17846,  -0.33678,   0.08209,   0.93750,  -0.24553,   0.35102,  -0.57812,  -0.93750,   0.37836,   0.93750
  -0.50854,  -0.00350,   0.35300,  -0.33266,   0.46577,   0.93167,   0.93618,   0.46806,  -0.76101,  -0.85093
  -0.48822,  -0.06125,   0.85912,   0.93750,  -0.68040,  -0.79441,  -0.76673,  -0.86445,  -0.75619,  -0.36349
  -0.80034,  -0.93476,   0.10843,   0.31174,  -0.93750,  -0.67057,   0.71282,   0.87613,   0.87280,   0.73143
  -0.92957,   0.87998,   0.21513,   0.39527,   0.29053,  -0.38412,  -0.69125,   0.27409,   0.86224,  -0.40414
   0.49459,  -0.62307,   0.90488,   0.93070,  -0.18947,  -0.35868,   0.93750,  -0.57504,   0.10960,  -0.57121
   0.84715,   0.93750,  -0.93750,  -0.61396,   0.93750,  -0.21456,  -0.52010,   0.45185,  -0.59000,   0.93750
  -0.29456,  -0.28830,  -0.54109,  -0.29155,  -0.31381,  -0.86951,   0.93750,   0.34257,  -0.70004,   0.24813
  -0.16488,   0.55884,  -0.33295,  -0.15335,   0.93750,  -0.14285,  -0.01681,  -0.63227,   0.49905,  -0.59962
  -0.68257,   0.14013,   0.68431,  -0.55289,   0.73840,  -0.82252,   0.01175,   0.27032,  -0.66076,   0.86482
   0.88082,  -0.12437,  -0.74510,  -0.28712,  -0.64212,  -0.55204,   0.69710,  -0.58985,  -0.58183,  -0.67054
   0.58062,  -0.52977,  -0.93750,   0.12265,   0.64020,   0.87436,  -0.35140,  -0.64930,  -0.17497,   0.93750
  -0.82017,   0.21567,  -0.49678,  -0.24132,  -0.44387,   0.71943,   0.93750,  -0.93750,  -0.93750,  -0.61193
   0.09481,  -0.12430,  -0.27574,   0.92530,  -0.12806,  -0.24025,   0.21611,   0.65108,  -0.84314,   0.55407
   0.40679,  -0.60322,   0.92481,   0.08810,  -0.93750,   0.92257,  -0.46047,  -0.88535,   0.22969,  -0.85689
   0.69463,   0.73312,   0.86738,   0.93409,  -0.64629,  -0.30324,  -0.81370,   0.68303,  -0.52004,  -0.30917
  -0.93750,  -0.64489,   0.93750,  -0.82420,   0.88657,  -0.86642,  -0.91140,   0.62039,  -0.83116,   0.86630
  -0.19002,   0.79784,   0.88821,   0.42866,  -0.38344,  -0.74263,  -0.65745,  -0.79002,  -0.52920,  -0.43150
  -0.70599,   0.93750,  -0.93750,  -0.00210,  -0.06387,   0.09085,  -0.29632,  -0.26636,  -0.92150,  -0.58365
   0.29618,   0.01613,   0.72034,   0.27283,   0.16913,   0.42609,   0.86369,  -0.52051,  -0.01335,  -0.61468
  -0.47635,  -0.74642,   0.67946,   0.93070,   0.45571,   0.11042,  -0.30950,   0.70682,   0.00076,  -0.24552
   0.09619,   0.92199,   0.87211,   0.83486,  -0.13385,  -0.34017,   0.33827,  -0.64283,  -0.49908,   0.74171
  -0.61496,  -0.27042,  -0.30253,   0.90404,  -0.93750,  -0.93750,   0.82591,  -0.34685,  -0.93429,   0.93737
  -0.34674,   0.24327,  -0.93750,  -0.76007,  -0.44465,   0.77828,  -0.91978,  -0.35142,  -0.93750,  -0.93750
   0.10991,   0.25757,   0.31729,   0.14243,  -0.78147,  -0.85676,   0.28243,  -0.88848,   0.86194,   0.21935
   0.46888,   0.88118,  -0.93250,  -0.28388,  -0.82161,  -0.61447,  -0.39270,  -0.33209,  -0.59697,   0.61647
   0.63304,  -0.93750,   0.44370,  -0.93750,  -0.78261,   0.27342,   0.30414,   0.05392,  -0.00679,   0.12293
  -0.32831,  -0.73101,   0.69863,   0.14922,   0.15800,  -0.54112,   0.82357,   0.28687,   0.28886,  -0.71382
  -0.61728,   0.86053,  -0.04288,   0.56766,  -0.03710,  -0.80274,  -0.93750,   0.93750,  -0.31168,   0.27744
  -0.81751,  -0.87600,   0.93750,  -0.93750,  -0.92547,  -0.93750,  -0.62069,  -0.54042,  -0.07679,  -0.78297
   0.04498,  -0.20624,  -0.22577,   0.27029,   0.45212,   0.70770,  -0.02609,  -0.07182,   0.40429,  -0.04395
   0.54238,  -0.44756,   0.54928,   0.03073,   0.00957,  -0.49146,   0.29730,  -0.21398,   0.75110,  -0.80411
   0.40198,   0.60953,   0.93750,  -0.93750,   0.73383,  -0.93026,  -0.87835,  -0.93750,  -0.00624,   0.93750
  -0.24474,   0.47287,  -0.24423,   0.83373,   0.29377,   0.94531,  -0.77288,   0.71568,  -0.30059,  -0.64253
   0.67714,  -0.43020,  -0.88837,  -0.24507,   0.54396,  -0.68974,   0.56810,  -0.58005,   0.83468,   0.66758
  -0.93750,  -0.93750,  -0.93750,  -0.01473,  -0.16287,   0.18336,  -0.18339,  -0.02562,   0.74042,   0.14310
  -0.71705,  -0.01221,   0.75389,   0.12090,  -0.82288,   0.03233,   0.85133,  -0.68155,  -0.78774,   0.79824
   0.08800,   0.39119,   0.69285,   0.73204,   0.45287,   0.85233,   0.06282,   0.08803,  -0.93750,   0.59667
   0.69190,  -0.69879,   0.01353,   0.86861,   0.81704,  -0.78513,   0.70988,   0.93750,  -0.86902,   0.93340
   0.01517,  -0.13685,  -0.63710,   0.21779,   0.11705,  -0.80801,   0.93750,   0.35601,  -0.93750,  -0.47500
  -0.93750,  -0.90182,  -0.64755,  -0.90757,  -0.90395,   0.21082,  -0.69752,   0.34853,  -0.46910,  -0.93750
   0.87332,   0.56066,  -0.93750,  -0.47170,  -0.69267,   0.25952,  -0.03110,   0.00480,  -0.79241,  -0.93750
  -0.45692,   0.93750,   0.47908,  -0.78550,   0.82999,   0.92217,  -0.56998,  -0.63084,  -0.84538,   0.68628
  -0.51034,  -0.80368,  -0.93750,   0.46783,   0.61912,   0.10225,  -0.93750,   0.93750,   0.03119,  -0.16424
  -0.93750,   0.40378,   0.51868,   0.68182,  -0.48533,  -0.85647,  -0.69971,   0.93750,  -0.04872,   0.09982
   0.93750,  -0.93750,  -0.83466,  -0.10008,   0.30064,  -0.10412,  -0.93750,   0.93750,   0.65816,   0.19784
  -0.58048,   0.32166,  -0.29754,   0.23591,  -0.68852,   0.66557,  -0.87137,   0.28925,   0.93750,   0.09602
   0.93750,  -0.43258,  -0.93750,   0.60791,  -0.93750,   0.93750,  -0.93750,  -0.33107,   0.61963,  -0.15850
   0.74503,   0.70533,   0.68158,  -0.86010,  -0.60330,   0.92973,  -0.69865,  -0.61641,  -0.26872,  -0.88461
   0.85772,   0.65678,   0.46660,  -0.18532,  -0.18667,  -0.13336,   0.12609,   0.93750,  -0.80247,  -0.64225
   0.07190,   0.93750,  -0.93750,   0.08738,  -0.93750,  -0.93750,  -0.93750,  -0.68655,  -0.93750,  -0.76208
  -0.49026,  -0.46832,  -0.78594,  -0.39564,   0.30045,   0.24155,  -0.79307,   0.93750,  -0.70539,  -0.44109
  -0.61118,   0.69831,  -0.79320,   0.41079,  -0.20202,  -0.26648,  -0.80846,  -0.02662,   0.65098,   0.87505
  -0.93750,   0.93750,   0.85464,  -0.93750,   0.32645,  -0.70905,   0.75843,  -0.93750,   0.93750,  -0.51221
   0.51555,  -0.87726,  -0.77445,  -0.92188,  -0.93750,  -0.75132,   0.43337,  -0.81077,  -0.73279,   0.93750
   0.48329,  -0.55883,  -0.05623,  -0.17830,   0.10309,   0.93233,   0.17061,  -0.52134,   0.05851,  -0.66726
   0.60188,  -0.03975,  -0.93750,  -0.51220,  -0.93750,  -0.93750,  -0.80402,  -0.30531,   0.93750,  -0.16896
   0.78771,   0.30701,  -0.88471,   0.93197,  -0.67746,  -0.54146,   0.77124,   0.63483,  -0.93750,   0.07817
  -0.44491,   0.88393,   0.07764,  -0.93750,   0.93750,  -0.63361,   0.74537,  -0.40573,  -0.68820,  -0.87355
  -0.69623,  -0.13429,   0.93750,  -0.93750,   0.93750,   0.83255,  -0.10211,   0.14185,  -0.93750,  -0.93750
   0.78953,  -0.75698,  -0.92033,  -0.82283,  -0.80314,  -0.62170,  -0.64262,   0.89198,   0.85570,  -0.27210
  -0.62710,   0.80785,  -0.75791,  -0.35406,  -0.71834,   0.93750,  -0.31353,  -0.61708,  -0.20677,   0.15553
   0.93750,  -0.11871,  -0.50977,  -0.90298,   0.13551,  -0.41530,  -0.07029,  -0.39685,   0.39124,  -0.83808
  -0.40328,   0.76346,  -0.92337,   0.24448,   0.40864,  -0.81951,  -0.88599,  -0.52826,  -0.39046,   0.19988
  -0.62564,  -0.69981,   0.87311,  -0.05436,  -0.85475,   0.48967,   0.04274,  -0.88530,  -0.66962,   0.93750
   0.93750,  -0.93750,   0.44118,  -0.93750,   0.89520,   0.08576,   0.51009,  -0.93750,  -0.63015,  -0.21704
   0.51499,  -0.13812,  -0.93750,  -0.72332,  -0.15513,  -0.89772,   0.69724,  -0.13807,  -0.93750,  -0.93750
  -0.67882,   0.78450,   0.70024,   0.26918,  -0.86790,  -0.82147,   0.69311,  -0.28274,  -0.64235,   0.81780
  -0.62149,   0.27987,   0.93750,   0.65299,   0.19108,   0.81325,  -0.44046,   0.19412,  -0.20299,  -0.68640
   0.06425,   0.04368,   0.02742,  -0.92990,   0.71523,   0.92870,  -0.44863,  -0.92347,  -0.80295,  -0.93750
  -0.93750,  -0.93750,   0.47480,   0.61656,  -0.62551,  -0.66494,  -0.65003,   0.93750,  -0.80411,  -0.86847
   0.79649,  -0.33874,  -0.42717,  -0.81238,  -0.93750,   0.79076,  -0.57867,   0.49509,  -0.77916,  -0.86696
  -0.19130,   0.56083,  -0.72608,   0.10822,   0.52938,   0.08160,  -0.64368,  -0.03239,   0.86222,  -0.93750
  -0.13286,  -0.40576,  -0.74791,  -0.37677,   0.93750,  -0.57264,  -0.06971,  -0.93750,  -0.12383,  -0.44685
   0.19988,   0.36601,  -0.82201,   0.87738,   0.54559,  -0.87661,  -0.82015,  -0.86828,   0.87201,   0.93274
   0.87751,  -0.28199,  -0.93750,   0.35587,   0.93750,  -0.81191,   0.93750,  -0.59130,  -0.85781,  -0.62195
   0.87467,   0.93750,  -0.07544,   0.93750,   0.53148,  -0.82791,   0.54391,   0.93750,  -0.83208,  -0.87183
   0.75680,  -0.91552,   0.61165,   0.01529,   0.59859,  -0.43295,  -0.35701,   0.45464,   0.50627,   0.20965
   0.93750,   0.20781,   0.12700,  -0.55425,   0.93750,  -0.88284,   0.93750,  -0.93750,  -0.93750,  -0.93750
  -0.69925,   0.27901,   0.28505,   0.52976,   0.87256,  -0.32945,   0.55947,  -0.20785,  -0.78799,   0.61433
  -0.33518,  -0.86764,   0.82456,  -0.93161,   0.11163,   0.93750,  -0.80111,   0.86463,  -0.80804,  -0.41065
   0.82902,  -0.08711,  -0.62537,   0.69949,  -0.39553,  -0.48381,   0.72332,  -0.14090,  -0.84945,   0.62233
  -0.66387,   0.83248,   0.50944,  -0.57127,  -0.74818,  -0.35330,  -0.59640,  -0.55761,   0.86557,  -0.00382
  -0.87563,   0.93750,  -0.74513,  -0.82292,  -0.22199,  -0.81012,   0.39371,   0.93674,   0.09315,  -0.74986
  -0.50347,   0.38672,  -0.75123,   0.53192,   0.11147,   0.93750,   0.80627,   0.29956,  -0.64072,  -0.91962
   0.68643,   0.59827,  -0.85100,   0.21047,  -0.91796,  -0.81451,  -0.70373,  -0.16814,   0.88030,   0.09807
  -0.66095,  -0.50057,   0.92614,  -0.30041,   0.03512,  -0.40232,   0.48752,   0.79533,   0.66167,  -0.41680
   0.87377,  -0.93750,   0.04855,   0.23967,   0.33509,   0.58551,   0.89961,   0.38148,  -0.40815,   0.00641
  -0.43247,   0.44804,   0.79454,   0.35143,   0.20136,   0.77194,  -0.03676,  -0.92080,  -0.30394,   0.56636
  -0.55257,  -0.93750,  -0.87261,   0.10509,   0.49527,   0.68334,   0.81108,   0.93750,   0.82631,   0.15897
  -0.72465,  -0.02357,   0.45605,  -0.30769,  -0.43261,  -0.34592,  -0.09560,   0.87705,  -0.55290,   0.93750
   0.67844,   0.50245,   0.28992,  -0.30563,  -0.14706,  -0.51863,   0.21486,  -0.10936,   0.85501,  -0.92436
   0.33183,   0.03634,   0.81347,   0.93750,   0.57366,  -0.89324,   0.06739,  -0.43744,  -0.27519,  -0.68575
   0.60998,   0.06226,   0.93750,   0.87361,  -0.87667,  -0.52796,   0.87644,   0.81887,  -0.62078,  -0.93750
   0.88523,   0.86144,   0.28251,   0.09972,  -0.19518,   0.39362,  -0.25321,  -0.50643,  -0.67924,  -0.14842
  -0.12777,  -0.14215,  -0.12175,   0.93750,  -0.93750,   0.25881,  -0.00301,  -0.93750,   0.93750,  -0.74248
  -0.42654,  -0.67693,  -0.65445,  -0.37554,  -0.42161,   0.02742,   0.29340,   0.17611,   0.85461,   0.40384
  -0.51381,   0.60606,  -0.70784,   0.93750,  -0.93750,  -0.93750,  -0.93750,  -0.93750,   0.92135,   0.93750
   0.86649,   0.86356,   0.07187,   0.54510,  -0.24275,   0.42296,  -0.85739,  -0.74565,  -0.92501,  -0.00790
  -0.74184,  -0.40168,  -0.86168,  -0.55962,   0.52839,  -0.92793,   0.76863,  -0.04235,   0.89743,  -0.78990
   0.89944,  -0.72689,  -0.65183,   0.08043,   0.63117,   0.52196,   0.48447,  -0.21570,  -0.41770,   0.77251
  -0.52965,  -0.49178,   0.11462,  -0.20751,   0.47940,   0.75969,  -0.61581,  -0.48860,   0.91550,  -0.66472
   0.22538,  -0.62654,   0.56966,  -0.93750,  -0.27760,  -0.93750,  -0.86786,   0.18945,   0.04635,   0.62285
   0.66601,   0.23638,  -0.93750,   0.36115,   0.75124,   0.28006,  -0.66160,   0.89105,   0.68493,   0.61677
  -0.25010,  -0.66620,   0.85290,  -0.29324,   0.75144,  -0.47661,  -0.40676,   0.93750,  -0.51564,   0.93126
  -0.53275,   0.40534,   0.93750,  -0.38350,   0.94021,  -0.81196,   0.60316,   0.08760,  -0.23645,   0.30769
  -0.30309,  -0.68050,  -0.57995,   0.74642,  -0.93750,  -0.34865,  -0.37982,  -0.93750,   0.02003,  -0.45448
  -0.16931,   0.77220,  -0.12654,  -0.20651,   0.18429,   0.63655,   0.02921,   0.66100,   0.72739,  -0.75469
   0.81044,  -0.03547,   0.91329,  -0.47557,  -0.81404,  -0.67893,  -0.74165,   0.45661,   0.80331,   0.22829
   0.62714,   0.57296,   0.11086,   0.32661,  -0.33952,   0.44290,  -0.41866,   0.56482,  -0.06654,  -0.35438
   0.81970,  -0.74734,  -0.69182,   0.81522,   0.46235,  -0.26227,  -0.35973,  -0.80520,   0.84519,  -0.43388
  -0.93750,   0.78406,   0.93665,   0.93750,  -0.56189,   0.93750,   0.93750,  -0.93750,   0.91502,  -0.18580
   0.93750,  -0.46483,   0.93750,   0.38706,   0.55585,  -0.93750,   0.39835,  -0.93750,  -0.57339,  -0.93750
  -0.53124,   0.03037,   0.93750,   0.52062,  -0.45801,  -0.57887,   0.93750,  -0.86068,   0.33388,  -0.44025
  -0.34690,  -0.93750,  -0.93750,  -0.68997,   0.93750,   0.33321,   0.90992,   0.93750,  -0.08185,   0.93750
   0.14722,  -0.89178,   0.09335,   0.56941,   0.63218,  -0.93750,  -0.90098,   0.93750,   0.60149,  -0.80110
   0.05211,  -0.43660,   0.93750,  -0.76055,   0.61909,   0.93750,  -0.52478,   0.68881,   0.30239,   0.26420
  -0.93750,   0.41948,  -0.26896,  -0.21886,   0.92323,  -0.87605,   0.82516,   0.82239,  -0.71131,   0.23478
   0.51729,   0.85775,  -0.45479,   0.81113,   0.42411,  -0.55230,   0.71600,   0.69646,  -0.92974,  -0.56025
   0.33602,   0.37077,   0.43274,  -0.41159,  -0.17115,   0.52895,  -0.39521,   0.21702,   0.87238,  -0.53270
   0.48787,  -0.81976,   0.85473,  -0.82533,   0.73440,  -0.06012,   0.54846,   0.93750,  -0.34102,  -0.10655
   0.66934,  -0.79541,   0.93549,   0.89304,  -0.81488,  -0.93750,   0.88084,  -0.33494,  -0.89277,  -0.33855
   0.29211,   0.93750,  -0.65652,   0.83016,  -0.82389,   0.93493,  -0.42627,  -0.74684,  -0.65598,  -0.71468
  -0.16637,   0.37915,   0.54287,   0.90961,  -0.13814,   0.61964,   0.06147,  -0.38801,  -0.68441,   0.11562
   0.62871,  -0.37473,   0.88480,  -0.08215,   0.54036,  -0.28168,   0.65503,   0.29272,  -0.86801,   0.10622
   0.40694,  -0.93750,   0.11109,   0.08483,  -0.73444,  -0.93750,  -0.64087,  -0.67548,  -0.93750,  -0.68507
  -0.78626,   0.01192,  -0.30127,  -0.65013,   0.80121,  -0.73275,   0.79881,   0.66924,  -0.54607,  -0.63454
  -0.13031,  -0.56671,  -0.40802,  -0.26933,   0.63840,  -0.37319,  -0.33329,   0.86666,   0.75853,   0.67784
  -0.09716,   0.79779,   0.30604,   0.21268,  -0.93750,   0.57278,  -0.10773,  -0.32586,  -0.16651,  -0.93750
  -0.84009,   0.68601,  -0.07672,   0.65124,   0.74041,   0.85800,  -0.72347,  -0.91609,  -0.69153,   0.75404
  -0.33995,  -0.25495,  -0.28604,  -0.31101,   0.68050,  -0.74158,  -0.69899,  -0.93750,   0.47672,  -0.93750
   0.93209,  -0.17970,  -0.16505,  -0.67083,  -0.43058,   0.93671,   0.53517,  -0.42571,  -0.46140,  -0.74042
  -0.18916,  -0.51689,  -0.71179,   0.93750,   0.63589,   0.66096,  -0.73230,   0.87500,   0.49056,  -0.37102
   0.61666,  -0.16190,   0.09888,  -0.93750,   0.23698,  -0.29649,   0.93750,  -0.93750,  -0.93750,  -0.93750
   0.65983,   0.15636,   0.93750,   0.45263,   0.67627,  -0.65939,  -0.30637,  -0.61831,  -0.23413,  -0.35878
   0.73013,   0.81756,   0.87944,   0.93750,  -0.92190,  -0.93750,   0.92926,   0.74539,  -0.45161,  -0.64956
  -0.73867,  -0.26976,   0.86996,   0.63374,  -0.45050,   0.58416,  -0.59361,  -0.93750,  -0.24771,   0.81739
   0.48384,  -0.52054,   0.64733,  -0.47421,  -0.65641,  -0.80344,   0.11333,  -0.54974,  -0.17940,   0.04534
   0.41763,   0.13797,  -0.68923,   0.87779,   0.22250,  -0.87500,   0.12163,  -0.21913,  -0.66347,   0.74527
  -0.04753,  -0.54012,   0.39602,  -0.71754,   0.54474,   0.53658,   0.36500,  -0.55244,   0.26333,   0.55112
  -0.83749,  -0.15564,   0.49365,  -0.76059,  -0.12808,   0.75599,   0.78424,   0.79164,   0.15801,   0.93558
   0.74263,   0.88087,  -0.92447,  -0.79530,   0.79580,  -0.38591,  -0.89624,   0.91500,   0.86984,   0.29229
  -0.17558,   0.20024,  -0.32275,   0.44987,   0.19268,  -0.93750,   0.35105,   0.88258,  -0.84154,  -0.40603
   0.62067,  -0.19703,   0.43618,   0.33623,   0.92933,   0.56830,   0.24395,  -0.92820,  -0.63914,  -0.93750
   0.29965,  -0.41912,  -0.93750,  -0.72920,   0.93750,  -0.93750,  -0.93750,  -0.87420,   0.02839,   0.48881
  -0.80738,  -0.40676,  -0.15763,   0.62359,   0.15662,   0.07533,   0.61762,   0.86272,  -0.11153,   0.18460
  -0.45973,   0.93750,   0.62276,  -0.13087,   0.92666,   0.92971,  -0.64815,  -0.54950,  -0.86488,   0.64457
   0.32728,  -0.88619,   0.93750,  -0.69012,   0.89860,  -0.00561,   0.39501,  -0.86733,  -0.32183,   0.60176
  -0.93750,   0.93750,   0.93750,  -0.31449,   0.20375,  -0.42587,  -0.05922,  -0.40492,  -0.93750,  -0.30768
  -0.21202,  -0.07386,   0.44312,   0.52365,  -0.05917,   0.34197,   0.12160,   0.69234,   0.88684,   0.66023
  -0.80321,  -0.72005,  -0.37456,  -0.74380,  -0.87254,   0.93750,   0.69547,  -0.50615,  -0.86868,  -0.93400
  -0.93750,   0.86164,   0.93750,  -0.93750,  -0.93750,   0.90177,  -0.93750,  -0.93750,   0.93750,  -0.93750
  -0.50466,  -0.84963,  -0.93750,   0.93750,   0.93750,  -0.93750,  -0.93750,  -0.93750,   0.93750,   0.46655
   0.24373,  -0.62378,  -0.52082,   0.80649,  -0.66178,   0.84242,  -0.37716,   0.18888,   0.93459,  -0.93357
   0.08561,   0.48224,   0.38515,   0.93465,  -0.81596,  -0.29188,  -0.91187,   0.17268,  -0.53909,   0.87135
  -0.48650,   0.41136,  -0.82019,   0.83397,   0.29112,  -0.82328,  -0.42589,  -0.63950,   0.93750,  -0.31095
   0.61198,  -0.57927,   0.93627,  -0.66395,   0.45248,  -0.87300,  -0.82728,   0.06280,   0.93750,  -0.40669
   0.58407,   0.59171,   0.52309,   0.72623,   0.35215,   0.57921,  -0.05787,   0.91236,   0.42475,   0.85332
   0.87625,   0.48560,  -0.93750,  -0.93750,  -0.82801,   0.25342,   0.93750,   0.93750,  -0.03410,   0.86972
  -0.82758,   0.69153,   0.74099,   0.38242,   0.79761,   0.44617,   0.68340,  -0.61948,  -0.42784,  -0.47104
   0.18125,  -0.93750,   0.93750,   0.84949,   0.07396,  -0.93750,   0.86291,  -0.93750,   0.93750,   0.54850
  -0.32596,  -0.93750,   0.60518,  -0.93750,  -0.34590,  -0.91279,   0.47582,   0.62917,   0.27293,   0.22296
  -0.93750,   0.92642,   0.40806,   0.21358,  -0.85186,   0.93750,   0.12717,  -0.93750,  -0.93750,  -0.93750
   0.68371,  -0.67572,  -0.06545,  -0.45212,  -0.20078,   0.36597,  -0.73031,  -0.37685,   0.93368,  -0.78131
  -0.66199,  -0.93750,   0.40697,  -0.48588,  -0.93750,   0.10996,  -0.81780,   0.71913,   0.07287,  -0.93750
   0.54371,  -0.70039,   0.93750,   0.83396,   0.79368,   0.04159,  -0.87661,  -0.87590,  -0.61273,  -0.46380
   0.15630,  -0.27470,  -0.27121,   0.36530,  -0.03466,   0.25389,  -0.46975,   0.93750,  -0.04877,   0.15571
  -0.79191,   0.79389,   0.53040,   0.70857,   0.89141,   0.93750,  -0.55306,  -0.08121,  -0.69075,  -0.93750
  -0.09437,  -0.66723,  -0.89403,  -0.29327,  -0.75894,  -0.23700,  -0.43972,   0.29265,  -0.76060,   0.93609
  -0.11561,  -0.66867,   0.81508,   0.04340,  -0.93750,  -0.79930,  -0.03491,  -0.40114,  -0.68040,   0.93425
   0.01251,   0.58696,  -0.13939,  -0.75893,  -0.26686,   0.51633,   0.06961,   0.83070,   0.91546,  -0.55252
   0.79541,   0.93524,  -0.75747,  -0.38457,  -0.75547,  -0.33391,  -0.79603,  -0.77988,  -0.11966,  -0.47975
   0.48253,  -0.30509,   0.75143,   0.09206,  -0.56894,   0.53274,  -0.38062,  -0.16816,   0.56066,  -0.17512
   0.78748,  -0.73744,   0.86454,   0.89396,   0.57695,  -0.58828,  -0.51811,  -0.14419,  -0.30241,   0.72921
  -0.43546,  -0.91599,   0.77595,   0.15209,   0.93232,  -0.48573,   0.15580,   0.15159,   0.61442,   0.38783
  -0.93750,  -0.93750,   0.34114,   0.93750,   0.69420,   0.77742,  -0.32739,  -0.07530,   0.87740,  -0.93750
  -0.41441,  -0.36730,   0.67864,  -0.57794,   0.80955,  -0.54803,   0.82002,  -0.58962,   0.28527,  -0.51354
   0.66178,  -0.35686,  -0.57336,   0.11645,   0.83731,  -0.76118,   0.79275,  -0.11252,  -0.75767,  -0.21308
   0.68896,  -0.72462,   0.63715,  -0.19193,   0.60822,  -0.15756,  -0.26211,   0.93750,  -0.76496,   0.88655
   0.75438,   0.71335,  -0.06196,  -0.27359,  -0.48374,  -0.38668,  -0.80681,   0.65309,  -0.66612,   0.93750
   0.88452,  -0.59690,  -0.57363,  -0.17074,   0.67305,  -0.75647,   0.82726,  -0.49289,  -0.25618,  -0.72615
   0.44760,   0.57881,   0.68958,   0.22254,   0.23702,  -0.05311,   0.05675,   0.16863,   0.55160,  -0.67826
  -0.72536,   0.93750,  -0.81544,   0.90601,   0.39286,   0.93750,   0.34026,   0.93750,   0.40741,  -0.80295
   0.37646,   0.56526,   0.56130,   0.40778,   0.04485,   0.26830,  -0.57524,   0.93750,   0.63156,  -0.64886
  -0.93750,  -0.75262,  -0.92060,   0.35285,  -0.63675,  -0.12149,   0.93750,   0.86426,  -0.40905,   0.81294
   0.87653,   0.69044,   0.93750,  -0.82289,   0.32645,   0.23758,  -0.16672,  -0.09806,  -0.74842,  -0.50586
   0.26232,   0.56087,  -0.71122,  -0.50438,  -0.69666,   0.48079,  -0.14189,  -0.52044,   0.78572,   0.91728
  -0.93750,   0.09035,   0.74852,   0.18815,  -0.93750,  -0.88459,   0.22736,  -0.44755,  -0.21793,  -0.93750
   0.02769,  -0.61901,  -0.04524,   0.93750,   0.93750,  -0.80991,   0.93750,   0.71063,   0.93750,   0.26080
   0.82316,   0.92379,  -0.41246,   0.93750,  -0.52942,  -0.82622,  -0.76824,   0.41860,  -0.93009,   0.19607
   0.92209,   0.79584,  -0.23315,  -0.62640,  -0.53967,   0.08427,   0.75280,   0.90770,  -0.82286,   0.93750
  -0.43439,   0.71944,   0.88004,   0.42270,   0.50841,   0.30456,   0.36335,   0.72555,  -0.41487,  -0.55193
   0.78875,  -0.41104,  -0.83730,  -0.90786,  -0.73727,  -0.39964,  -0.67652,  -0.65664,   0.79634,   0.81374
  -0.16235,  -0.45324,   0.33826,   0.63877,   0.93750,   0.59196,  -0.71716,  -0.22992,   0.88138,  -0.17826
  -0.04759,   0.49621,  -0.39106,  -0.81056,   0.14819,   0.93750,  -0.29094,  -0.64414,  -0.86049,   0.91522
   0.69008,   0.16279,  -0.92352,  -0.92669,   0.81341,   0.76659,  -0.37017,   0.36702,  -0.91574,  -0.69293
   0.49386,  -0.86690,   0.64072,   0.10756,   0.67564,  -0.03863,   0.67266,   0.39440,  -0.80739,   0.41351
   0.91956,  -0.87664,  -0.78969,  -0.09269,   0.18925,   0.79818,  -0.75482,   0.21761,  -0.91714,  -0.59146
   0.54482,  -0.00741,  -0.73426,  -0.04250,   0.85784,   0.53167,   0.81297,  -0.58955,  -0.80985,  -0.72554
   0.09924,  -0.93750,   0.93750,  -0.39596,   0.81414,  -0.74536,   0.40577,   0.62571,  -0.19365,  -0.54132
   0.92172,   0.64081,  -0.07861,   0.17190,   0.37083,   0.37135,  -0.26273,   0.65583,  -0.87877,  -0.91283
   0.27661,   0.58062,   0.05901,  -0.24798,   0.92839,  -0.27493,   0.86788,  -0.71021,   0.60078,  -0.86420
  -0.19427,  -0.00383,   0.07251,  -0.11674,  -0.43920,   0.28992,  -0.08620,  -0.02030,   0.44096,   0.76553
  -0.35881,   0.48786,   0.93750,  -0.61978,   0.74929,   0.93571,  -0.43366,   0.88746,  -0.57302,  -0.77673
   0.53178,  -0.30552,   0.06536,   0.88884,   0.35124,  -0.12605,  -0.66604,  -0.15704,   0.55797,  -0.41562
  -0.93257,  -0.76434,   0.88048,   0.48568,   0.22294,  -0.25829,  -0.02247,   0.81801,   0.89564,  -0.93305
  -0.73946,  -0.55640,  -0.15789,   0.74764,  -0.78657,  -0.26390,   0.12816,  -0.45118,   0.27246,  -0.45037
  -0.30430,  -0.22592,  -0.93750,  -0.27050,   0.93750,  -0.93750,   0.73362,  -0.93750,   0.71088,   0.06202
  -0.86899,  -0.64566,   0.93750,  -0.69830,   0.63842,   0.05958,  -0.52822,  -0.85324,  -0.90600,  -0.61923
   0.63190,  -0.47265,   0.89596,  -0.19207,   0.88355,   0.93750,   0.93750,   0.62714,  -0.93750,  -0.45087
   0.93750,  -0.54056,   0.38026,   0.11200,   0.75895,  -0.09663,  -0.10433,   0.48393,  -0.41057,   0.71334
   0.34725,  -0.93750,  -0.93750,  -0.34143,   0.14422,  -0.93750,  -0.64490,  -0.85283,  -0.93750,  -0.93750
   0.87191,  -0.73250,  -0.93750,  -0.60098,  -0.43555,  -0.80655,  -0.49455,   0.00053,  -0.41191,   0.93750
  -0.38306,  -0.08080,   0.67257,   0.53479,   0.72414,   0.82627,  -0.55670,   0.52069,   0.21862,  -0.24526
  -0.23128,   0.58818,  -0.93750,  -0.93750,  -0.21573,   0.76352,  -0.93750,  -0.88434,   0.93750,   0.42953
   0.35861,  -0.73750,   0.79204,   0.55869,   0.78509,   0.09692,   0.32963,   0.01856,   0.71153,  -0.36067
  -0.58034,  -0.52896,  -0.22886,   0.92261,   0.57459,  -0.26358,   0.19391,   0.92787,   0.77958,  -0.12172
   0.42600,   0.17658,   0.14309,  -0.32566,  -0.89781,   0.91076,   0.27279,  -0.29307,  -0.87097,   0.91836
  -0.58689,   0.93750,   0.87392,  -0.20600,   0.77431,  -0.09242,   0.17614,  -0.93580,  -0.34330,  -0.82589
  -0.29054,  -0.93154,   0.60570,   0.12200,   0.48478,  -0.47744,  -0.71784,   0.15928,   0.44239,   0.93750
  -0.80836,  -0.63699,  -0.37338,   0.15238,   0.09988,  -0.54313,   0.92079,   0.06046,   0.18529,   0.62964
   0.28490,  -0.24458,  -0.19782,   0.03523,   0.87829,   0.22395,  -0.05331,   0.84252,  -0.81839,   0.93750
   0.36729,   0.93057,   0.32151,  -0.93750,   0.93750,  -0.93750,  -0.44817,   0.46791,   0.61558,  -0.93750
  -0.81494,   0.87569,   0.30726,  -0.70532,  -0.93750,  -0.70096,  -0.83615,  -0.67837,   0.87869,  -0.93750
   0.93750,   0.38981,  -0.89430,   0.82625,   0.21766,  -0.78677,  -0.52058,   0.93144,  -0.67624,  -0.75037
  -0.92886,   0.01900,  -0.22442,  -0.83714,   0.93750,  -0.77573,   0.86192,  -0.81282,  -0.67475,   0.69041
   0.86885,   0.16439,  -0.82886,  -0.56061,  -0.41369,  -0.75804,   0.25157,  -0.37016,   0.93750,  -0.71704
  -0.49260,  -0.70046,   0.93620,  -0.36958,   0.81658,  -0.88720,  -0.16931,   0.93750,   0.43570,  -0.74007
   0.74885,  -0.27633,   0.12741,   0.60268,  -0.93750,   0.93750,   0.83321,   0.93750,  -0.93750,   0.81179
  -0.84664,   0.67026,  -0.52029,  -0.22572,   0.75397,   0.93750,   0.59343,   0.04200,  -0.10614,  -0.87562
   0.93515,   0.62355,  -0.88896,  -0.61645,   0.72652,   0.27325,  -0.70397,   0.93750,  -0.58898,  -0.75500
  -0.35766,   0.93750,   0.27595,  -0.44964,   0.15010,  -0.03065,  -0.26991,  -0.41621,  -0.46808,   0.21705
   0.34074,  -0.37151,   0.93750,   0.93750,   0.93750,   0.38790,   0.81403,  -0.16307,  -0.20625,  -0.62927
  -0.93750,  -0.10095,  -0.62134,   0.93750,  -0.02624,  -0.67438,  -0.77718,  -0.09997,  -0.83638,  -0.93750
  -0.52270,  -0.93750,  -0.32248,  -0.87535,  -0.93750,  -0.62359,   0.30112,   0.93750,  -0.46762,   0.51346
  -0.67497,  -0.80437,  -0.58857,   0.33889,   0.75721,  -0.85065,  -0.62061,  -0.49320,  -0.85284,  -0.65166
  -0.82556,   0.76875,   0.26234,   0.23434,  -0.29324,  -0.88496,  -0.93750,  -0.44646,   0.93750,  -0.60108
   0.01239,  -0.20436,   0.01412,   0.17542,  -0.38425,   0.49087,   0.40098,   0.43773,   0.05478,   0.76159
   0.32231,  -0.73893,   0.68015,  -0.48263,  -0.53768,   0.62278,   0.02997,   0.19551,  -0.06098,  -0.35219
   0.21122,   0.93165,  -0.87804,   0.92967,  -0.29867,   0.84344,  -0.86263,  -0.14655,   0.07482,  -0.87821
  -0.71553,   0.04135,  -0.90230,   0.93633,   0.17048,   0.93750,  -0.68172,  -0.81505,  -0.89969,  -0.31350
   0.93750,  -0.79517,  -0.93750,   0.70610,  -0.93750,  -0.60058,   0.77570,   0.90809,   0.33924,  -0.93750
   0.29204,  -0.93750,   0.63841,   0.81670,  -0.67294,  -0.93750,   0.87550,   0.41806,  -0.73336,   0.34445
   0.31351,  -0.81009,   0.74551,  -0.01813,  -0.87800,  -0.93750,  -0.64163,   0.79993,  -0.71036,  -0.93750
   0.25075,  -0.73719,   0.83867,  -0.75456,   0.79252,   0.93750,  -0.72207,   0.67045,  -0.84700,   0.21129
   0.92092,   0.56439,   0.86448,  -0.18406,   0.83349,  -0.54498,   0.33895,  -0.83980,  -0.82898,  -0.74757
   0.41066,  -0.81388,  -0.50650,   0.93750,   0.93750,   0.47076,   0.93750,   0.13025,   0.25905,   0.53171
   0.80948,   0.78972,   0.92661,  -0.79571,  -0.15633,  -0.29814,  -0.69145,  -0.21943,  -0.84619,   0.50232
   0.30430,  -0.93750,   0.18050,  -0.16583,  -0.24651,  -0.49103,   0.25679,   0.93750,  -0.93750,   0.41745
  -0.54059,   0.02763,  -0.21654,   0.93750,   0.93750,  -0.88544,  -0.93750,  -0.83035,   0.00873,  -0.87918
   0.50356,   0.12652,  -0.55297,   0.25300,   0.54737,   0.87947,   0.76476,  -0.38474,  -0.77309,  -0.30114
   0.82391,   0.15142,   0.87778,   0.90451,  -0.78425,   0.59827,  -0.76608,   0.88020,   0.88522,   0.68506
  -0.88041,  -0.77034,   0.87196,   0.36386,  -0.43119,  -0.55996,   0.92900,   0.08376,   0.51565,  -0.44779
   0.20705,   0.81105,   0.56121,  -0.52332,  -0.71967,   0.14195,   0.03105,  -0.56128,   0.16396,  -0.88721
  -0.39283,   0.17081,   0.86206,  -0.80505,   0.55432,  -0.34377,   0.86146,  -0.50524,  -0.66078,  -0.65443
  -0.04089,   0.10527,  -0.81668,   0.89471,   0.74933,  -0.88880,   0.79555,   0.68366,   0.67247,   0.45713
   0.87699,  -0.81027,   0.82038,   0.86872,  -0.93750,   0.18527,  -0.25919,  -0.60499,   0.39658,   0.81418
  -0.82009,  -0.75508,   0.09084,   0.87344,  -0.42091,  -0.93750,  -0.89747,   0.84687,   0.37737,  -0.35596
   0.29111,   0.72552,  -0.75416,   0.93619,  -0.46261,  -0.06875,  -0.57867,   0.76069,  -0.40978,   0.14865
  -0.40465,   0.87040,  -0.93750,   0.44748,   0.81399,  -0.87030,  -0.42571,   0.25179,  -0.38774,   0.29654
  -0.10802,  -0.16666,  -0.30532,  -0.48127,  -0.30995,   0.86032,   0.51540,   0.31105,   0.40967,   0.78537
  -0.93750,  -0.78573,   0.90916,  -0.93750,   0.62819,   0.93750,   0.74266,   0.93750,   0.88398,   0.68052
   0.76837,  -0.01686,  -0.45231,  -0.76116,  -0.78868,   0.48858,   0.23739,  -0.23461,  -0.86180,   0.91790
  -0.41501,   0.57013,  -0.87462,   0.63540,   0.62514,  -0.63978,   0.04519,   0.59929,  -0.33849,   0.79560
  -0.59511,  -0.87217,   0.69516,  -0.68972,  -0.22405,   0.64072,  -0.66267,  -0.93750,   0.76783,  -0.76267
  -0.19030,  -0.25051,   0.81475,   0.33814,   0.26065,  -0.34378,   0.30958,   0.39123,  -0.72224,   0.69601
  -0.93750,   0.21185,  -0.25948,  -0.46551,  -0.93750,   0.93750,  -0.23753,   0.30157,   0.51454,  -0.93750
   0.25864,   0.36257,   0.22828,  -0.64177,  -0.55542,   0.01068,  -0.22177,  -0.72292,  -0.04518,   0.85925
  -0.16323,   0.67362,  -0.39618,  -0.27539,  -0.29503,  -0.85841,  -0.69015,   0.91990,  -0.93507,  -0.57040
   0.17217,   0.69816,   0.00192,  -0.53589,   0.23394,   0.86264,   0.73479,  -0.41679,  -0.54852,  -0.81152
  -0.53799,   0.40886,   0.54533,   0.10311,  -0.85594,   0.68278,  -0.13366,  -0.78743,  -0.12708,   0.93750
  -0.64947,   0.66358,   0.48259,   0.22348,  -0.67223,   0.11874,  -0.34862,   0.27058,   0.59838,   0.51141
   0.18866,   0.80122,   0.59100,   0.21898,  -0.26143,   0.63364,   0.13186,   0.34059,  -0.88130,  -0.62366
   0.87947,  -0.39623,  -0.45988,   0.86726,   0.19777,  -0.68394,  -0.93750,   0.01989,   0.80293,  -0.93750
  -0.60581,  -0.36050,  -0.93750,  -0.93750,   0.18554,   0.93750,  -0.78539,  -0.93750,   0.93750,  -0.30795
  -0.74036,   0.90001,  -0.87314,   0.64822,  -0.73049,   0.40173,   0.86852,   0.30387,   0.44461,  -0.45540
   0.85409,   0.30860,  -0.90650,  -0.58243,  -0.92133,   0.43793,   0.87786,   0.67165,   0.78732,   0.26231
  -0.80413,  -0.93750,  -0.00760,  -0.66323,   0.57593,   0.82124,   0.93750,   0.93750,   0.16047,   0.91200
  -0.68715,   0.63252,   0.13107,   0.50487,   0.56821,   0.16903,  -0.18390,  -0.53166,   0.40641,   0.57929
   0.11079,  -0.77150,  -0.93750,   0.93750,  -0.82045,  -0.56484,  -0.23425,   0.93750,  -0.45173,  -0.68988
   0.88026,   0.88605,  -0.02223,  -0.14419,   0.38009,  -0.89395,  -0.80769,  -0.49791,   0.81615,  -0.11085
  -0.40447,  -0.34551,   0.93750,   0.63562,  -0.57461,  -0.66142,  -0.19061,   0.52119,   0.08224,   0.08092
   0.87982,  -0.66273,  -0.87578,  -0.87218,   0.12750,  -0.86826,  -0.49357,  -0.42742,  -0.68700,  -0.56398
  -0.25370,   0.75692,  -0.83627,  -0.42260,  -0.77838,  -0.34972,  -0.12869,  -0.12463,  -0.33666,   0.88126
  -0.59307,  -0.02651,  -0.23829,  -0.87775,   0.41657,  -0.70263,   0.83662,   0.72530,   0.93208,  -0.06506
   0.08533,  -0.00242,  -0.02237,   0.41355,  -0.42490,   0.55096,  -0.29626,  -0.77195,   0.61173,   0.02931
  -0.23833,   0.87825,  -0.54469,   0.45554,   0.33630,  -0.41332,  -0.63765,   0.55458,   0.49153,  -0.41675
   0.28690,  -0.93750,  -0.51363,   0.93750,   0.93750,  -0.93750,   0.84384,   0.22511,   0.60095,  -0.93750
   0.93002,  -0.15574,  -0.01798,  -0.20170,   0.76548,   0.93750,  -0.74952,   0.55578,   0.25534,   0.93750
  -0.66876,  -0.18717,  -0.67859,   0.93750,  -0.28457,  -0.81441,   0.72196,  -0.68390,  -0.78198,  -0.80686
  -0.24838,  -0.75354,   0.93479,  -0.60345,   0.52787,  -0.36501,  -0.16074,   0.93750,   0.33256,   0.03052
  -0.61825,  -0.46467,  -0.30963,  -0.55784,   0.50928,   0.75646,  -0.80046,  -0.18684,   0.79613,   0.87647
  -0.64406,   0.61285,  -0.20088,  -0.41792,   0.60831,  -0.55914,   0.68489,  -0.44617,  -0.61052,   0.93058
  -0.40007,   0.81009,  -0.80927,   0.72904,  -0.66774,   0.79514,   0.12361,  -0.80889,   0.89373,  -0.14667
  -0.57720,   0.78426,  -0.82194,  -0.22979,   0.88417,   0.00767,  -0.72901,  -0.50423,  -0.14058,  -0.12667
  -0.75121,  -0.55711,  -0.53297,   0.56584,  -0.75316,   0.93750,  -0.62574,   0.93750,  -0.68332,  -0.78513
   0.39454,  -0.44421,  -0.21100,   0.35704,  -0.85742,   0.93405,  -0.44081,   0.31298,  -0.20947,   0.47426
  -0.87635,   0.93750,   0.57976,  -0.93750,   0.51445,  -0.00485,   0.68596,  -0.86545,  -0.81099,   0.93750
   0.87068,  -0.16170,  -0.08814,   0.77300,  -0.86911,  -0.74910,   0.93209,  -0.25728,   0.65945,   0.72712
  -0.93750,   0.02273,   0.74896,   0.48486,  -0.93750,   0.93750,  -0.25146,  -0.87226,   0.05642,  -0.02103
   0.85688,  -0.59910,   0.79864,   0.04960,   0.06250,   0.06209,  -0.22030,   0.93396,   0.42469,  -0.37555
   0.81246,   0.93750,  -0.93750,  -0.92223,  -0.77546,   0.63037,  -0.93750,  -0.32540,  -0.93750,   0.11028
   0.34858,  -0.81144,  -0.12964,  -0.39536,   0.82409,  -0.93750,  -0.73048,   0.87381,   0.75457,   0.87313
  -0.44400,   0.27420,  -0.67556,  -0.62553,   0.82217,   0.17604,   0.18258,  -0.93750,   0.48637,  -0.49072
   0.87729,  -0.57621,   0.50609,  -0.05802,   0.11099,   0.16508,  -0.10160,   0.52992,  -0.55557,   0.38900
  -0.62107,   0.48944,  -0.88362,  -0.81134,  -0.32957,  -0.02833,  -0.86231,   0.93750,  -0.93750,   0.93750
   0.64624,   0.03208,   0.07269,   0.92481,  -0.19564,   0.89055,   0.41368,  -0.52428,   0.18428,  -0.38565
  -0.77956,   0.65856,   0.50828,  -0.43807,  -0.78797,   0.93707,  -0.28191,  -0.50455,  -0.89130,  -0.82215
  -0.61139,  -0.93660,  -0.80069,   0.17926,   0.82497,   0.93490,   0.09314,   0.93664,  -0.93750,  -0.63472
  -0.67102,   0.63214,  -0.71871,  -0.16898,   0.86246,  -0.73327,  -0.70524,  -0.20536,  -0.66045,  -0.92323
   0.29798,  -0.48194,   0.11821,   0.46642,  -0.93750,  -0.93750,  -0.72202,   0.46952,  -0.93750,  -0.60882
  -0.93750,   0.93750,  -0.61757,  -0.60663,  -0.87670,  -0.87145,  -0.93750,  -0.81117,  -0.73997,  -0.45796
   0.93750,  -0.36078,   0.93750,  -0.73648,  -0.64963,   0.74346,  -0.53945,   0.88289,  -0.16829,  -0.35520
  -0.55361,   0.93750,   0.79839,   0.86812,  -0.45551,   0.15398,   0.93750,  -0.69474,   0.26784,   0.93750
   0.70767,   0.84413,   0.92890,  -0.10120,   0.21173,  -0.65759,   0.80965,  -0.74284,  -0.74504,  -0.27215
   0.86326,   0.87464,  -0.79751,  -0.59575,   0.17221,   0.81983,  -0.86961,   0.00481,   0.89458,  -0.56928
  -0.20397,  -0.87871,   0.81167,  -0.87767,   0.59598,  -0.59955,   0.23145,   0.93750,  -0.52596,   0.93750
   0.93750,  -0.60505,  -0.22765,  -0.70928,  -0.19848,   0.32565,  -0.85251,  -0.18757,  -0.75475,  -0.22866
   0.14504,   0.93750,   0.93750,  -0.32652,   0.85248,  -0.75380,  -0.93750,  -0.34543,  -0.93750,   0.01427
  -0.68586,  -0.93750,   0.67765,  -0.87068,  -0.85880,   0.42045,  -0.93750,  -0.62168,  -0.92136,   0.34037
   0.93750,  -0.93750,   0.08405,  -0.90602,  -0.93750,  -0.63048,  -0.20097,  -0.28153,  -0.93750,   0.61616
   0.92954,  -0.93750,   0.80239,   0.93750,   0.81421,  -0.93750,  -0.93750,   0.80586,   0.79572,   0.76141
  -0.41279,   0.59588,   0.80324,  -0.04253,   0.36769,   0.87556,  -0.86628,  -0.81675,   0.34684,  -0.93750
   0.82371,   0.80547,  -0.93750,  -0.20216,  -0.74527,  -0.68201,   0.82061,   0.93750,  -0.88839,  -0.12022
   0.93750,   0.71588,   0.03787,  -0.58809,  -0.64806,  -0.64663,   0.76028,  -0.62292,   0.72532,   0.13160
   0.48100,   0.10920,  -0.54459,  -0.40041,  -0.29249,   0.67582,   0.76941,   0.82774,  -0.90282,   0.76033
   0.93750,  -0.93750,   0.76602,   0.39479,   0.93750,   0.68474,  -0.88024,  -0.44331,   0.33050,  -0.33763
   0.06233,  -0.55438,  -0.92967,   0.91477,   0.28383,   0.93478,   0.84873,  -0.69432,  -0.92745,  -0.59495
  -0.37724,   0.37337,   0.86837,   0.41723,  -0.60711,   0.32985,   0.82238,   0.87823,  -0.74643,   0.10248
   0.27136,   0.27621,   0.36576,   0.17270,  -0.17488,   0.61534,   0.90653,   0.88449,  -0.46170,   0.01234
   0.45975,   0.15445,  -0.69673,   0.74459,   0.79199,  -0.87262,  -0.56093,  -0.54544,   0.30261,   0.91989
   0.81936,  -0.76402,   0.08873,  -0.44584,  -0.65972,   0.25820,  -0.16738,   0.93750,   0.39687,   0.28816
  -0.49179,  -0.92365,  -0.42942,  -0.79785,   0.05387,   0.92677,  -0.59564,  -0.72382,  -0.93388,  -0.57876
   0.38003,   0.34469,   0.93750,  -0.28198,  -0.93750,  -0.17162,   0.02822,  -0.30590,  -0.32199,  -0.93750
   0.81244,  -0.62892,   0.78810,   0.92916,   0.89737,  -0.93070,  -0.72243,  -0.86677,  -0.76372,   0.31363
  -0.77158,  -0.00465,   0.15079,  -0.87376,  -0.93750,  -0.59858,   0.93750,  -0.69019,   0.00183,  -0.93750
   0.79947,  -0.83224,  -0.30197,  -0.66280,   0.93198,  -0.81101,   0.93381,   0.68406,  -0.93750,  -0.87376
   0.93750,   0.93560,   0.93750,  -0.93750,  -0.83152,   0.58233,   0.87327,  -0.89626,  -0.85687,   0.92391
  -0.57072,   0.86047,  -0.88922,   0.92807,  -0.56621,  -0.70072,   0.55895,  -0.55443,  -0.88515,   0.00667
   0.48613,   0.55625,  -0.87650,  -0.75710,  -0.41449,   0.54634,   0.01850,   0.61860,  -0.54175,   0.92611
  -0.73566,  -0.50601,  -0.92452,   0.39977,  -0.92919,   0.58819,  -0.86856,   0.93288,  -0.66679,  -0.67744
   0.32405,  -0.70293,  -0.83599,   0.07822,   0.61927,  -0.48393,   0.40959,   0.35135,   0.59010,   0.09950
   0.14024,  -0.05544,  -0.13108,  -0.22783,   0.30984,   0.67744,   0.02873,  -0.13494,   0.73601,  -0.42595
   0.42943,   0.75906,  -0.62981,  -0.07862,   0.74686,  -0.53853,  -0.35701,   0.69131,  -0.09996,   0.80881
  -0.58919,   0.74626,  -0.33735,   0.49654,   0.92065,   0.72437,   0.86620,   0.34626,   0.42782,  -0.64528
   0.52979,  -0.36915,   0.61593,  -0.65019,  -0.05732,  -0.56769,  -0.69909,  -0.38447,   0.85819,  -0.81745
   0.70758,  -0.12879,   0.49116,   0.80763,  -0.05932,  -0.21044,  -0.75222,  -0.04946,   0.28680,   0.42010
  -0.93750,  -0.80871,   0.52574,  -0.49029,   0.93750,   0.93750,   0.82033,   0.93750,   0.17073,   0.88823
   0.91135,   0.87073,   0.32297,  -0.67586,  -0.93750,   0.29947,  -0.93750,   0.44975,   0.90401,  -0.93750
   0.66172,   0.60271,   0.76953,  -0.56972,   0.72564,   0.69769,   0.23317,  -0.86219,   0.40231,  -0.54947
   0.61780,   0.87791,   0.36410,  -0.69831,  -0.24914,  -0.15009,  -0.73397,  -0.59896,  -0.54839,  -0.33443
  -0.93750,   0.29730,   0.80374,   0.17550,   0.00850,   0.12129,  -0.93750,  -0.57460,  -0.88709,  -0.11845
   0.27205,   0.81209,  -0.59246,  -0.46136,  -0.82622,  -0.02861,  -0.64452,  -0.56105,   0.76677,   0.55976
  -0.88636,   0.93750,   0.43895,  -0.82302,   0.07489,  -0.74886,   0.68515,  -0.71114,   0.34879,  -0.76171
   0.87266,  -0.40760,  -0.66261,   0.47835,   0.47465,  -0.82805,  -0.29017,  -0.69460,   0.00793,  -0.80472
   0.93750,  -0.55524,  -0.81201,  -0.76188,  -0.91428,  -0.64760,   0.92610,   0.93750,  -0.73435,   0.31842
   0.42986,  -0.93750,   0.75373,   0.20480,   0.01448,   0.06221,  -0.18987,   0.78421,   0.34454,  -0.73052
   0.79986,  -0.68838,  -0.73823,  -0.35749,   0.12385,  -0.93750,   0.93750,  -0.87730,   0.76368,   0.33487
   0.93750,  -0.93750,   0.07058,  -0.93750,   0.24512,   0.93750,  -0.37465,  -0.93750,  -0.93750,  -0.64307
   0.13064,  -0.70362,   0.76621,  -0.50720,  -0.44156,   0.12099,   0.48065,  -0.88407,   0.85920,  -0.93728
   0.34662,   0.75844,  -0.01758,  -0.73587,  -0.00268,   0.37954,  -0.03146,   0.93750,  -0.03659,  -0.79602
  -0.73825,  -0.38434,   0.66325,   0.54749,   0.50221,   0.67575,   0.79037,  -0.53380,   0.29857,   0.76860
   0.34423,  -0.58093,  -0.60171,  -0.10406,   0.56904,   0.87810,   0.22583,   0.12436,  -0.12644,   0.36921
  -0.75607,  -0.34098,   0.64631,   0.69722,   0.49666,   0.85730,   0.20709,  -0.53261,   0.47141,   0.17308
  -0.08840,   0.02732,  -0.16554,  -0.18131,   0.15897,   0.44290,   0.11831,  -0.80515,   0.03821,   0.30694
   0.00183,  -0.89899,  -0.59152,  -0.62242,  -0.59409,   0.93750,   0.93750,  -0.93750,  -0.03247,  -0.53751
  -0.28451,   0.93750,  -0.93750,   0.01278,  -0.63613,  -0.67976,  -0.29577,   0.27888,  -0.37765,  -0.93750
  -0.80596,   0.83096,  -0.82035,  -0.75549,  -0.93750,  -0.49406,   0.49886,   0.25565,   0.49308,  -0.61164
   0.87391,  -0.47405,   0.43108,  -0.07835,   0.11831,  -0.34136,   0.43353,  -0.71704,   0.79677,  -0.79864
  -0.67231,  -0.29169,  -0.74793,  -0.40742,   0.93750,  -0.41589,   0.73936,   0.54151,  -0.93750,   0.80744
   0.09786,  -0.87208,   0.10117,   0.54217,  -0.93750,   0.93750,  -0.93750,  -0.93750,  -0.93750,  -0.93750
   0.28333,   0.11147,   0.39265,  -0.26094,   0.37998,   0.17263,  -0.33862,   0.33788,   0.32142,  -0.01201
   0.41523,  -0.16852,  -0.60813,   0.01067,  -0.51769,   0.58664,   0.34809,  -0.55136,   0.41252,  -0.28256
   0.37912,  -0.77034,   0.50154,   0.59262,   0.34168,  -0.93750,  -0.70689,   0.77111,  -0.73825,  -0.73533
  -0.35293,   0.39736,   0.58387,   0.21877,   0.74087,   0.30463,   0.35884,   0.38774,   0.33830,  -0.55059
   0.55141,  -0.06111,  -0.67830,   0.93750,  -0.93750,   0.34135,   0.93750,  -0.93750,   0.59619,   0.47436
  -0.09953,   0.45497,  -0.17537,   0.75421,   0.35494,  -0.81599,  -0.81556,  -0.68299,  -0.59955,  -0.11333
  -0.44390,   0.64490,  -0.73832,   0.93750,   0.91866,  -0.49928,   0.92642,  -0.02617,  -0.54802,  -0.79981
  -0.60012,   0.32558,   0.81740,  -0.47513,   0.44281,  -0.34211,  -0.57667,  -0.16429,   0.93750,   0.02181
  -0.93750,  -0.78718,   0.27682,   0.55634,   0.01968,   0.77156,   0.93750,   0.93750,  -0.67328,  -0.79436
  -0.61292,  -0.56725,   0.92504,  -0.93750,   0.10933,  -0.33084,  -0.80323,   0.93643,  -0.62941,   0.88259
   0.81556,   0.81473,  -0.74206,   0.89082,   0.44378,  -0.07424,  -0.79520,  -0.79984,  -0.67957,   0.32682
  -0.44316,  -0.86592,   0.87854,   0.74434,  -0.93750,  -0.59050,  -0.88170,   0.80152,   0.65086,   0.03139
   0.79682,   0.16593,  -0.79985,  -0.44558,  -0.81383,   0.93232,  -0.63996,  -0.12384,  -0.88641,   0.62302
  -0.93750,  -0.93750,  -0.08558,  -0.01845,   0.93750,  -0.93750,  -0.74200,   0.08483,  -0.84119,  -0.93750
  -0.32437,  -0.46143,   0.05433,   0.32111,  -0.08500,   0.36793,   0.02113,  -0.55572,   0.51433,   0.60434
   0.66467,  -0.49955,   0.53601,   0.47222,   0.24112,   0.36399,   0.01363,   0.25394,  -0.53368,   0.45665
   0.18868,  -0.00359,   0.93750,  -0.80584,  -0.28008,  -0.24278,   0.50892,   0.37969,   0.53589,   0.80422
  -0.28862,   0.72409,   0.93750,  -0.55248,  -0.18405,   0.47756,  -0.17064,  -0.88812,  -0.61515,   0.79366
  -0.93750,  -0.87447,  -0.68204,   0.80395,   0.93750,  -0.21598,  -0.37608,  -0.88160,   0.11911,   0.91269
  -0.93750,  -0.93750,  -0.48101,  -0.50240,   0.91282,   0.52211,  -0.87723,  -0.58153,  -0.87018,  -0.93750
   0.75348,   0.77295,   0.93750,  -0.83350,   0.86082,   0.43409,   0.68619,  -0.26656,  -0.93750,  -0.87514
   0.76201,   0.03430,   0.46796,  -0.80818,   0.51478,   0.52536,   0.93750,   0.37822,   0.68125,   0.79516
  -0.93750,  -0.79814,   0.75428,  -0.09293,  -0.00490,   0.25921,   0.09000,   0.52099,   0.88105,  -0.28399
  -0.67071,   0.20279,  -0.47042,  -0.55565,   0.68457,  -0.93736,  -0.25550,   0.86560,  -0.03904,   0.93750
  -0.75622,   0.84282,   0.74608,   0.51452,  -0.56826,   0.88197,   0.59500,   0.47976,  -0.18744,   0.53541
  -0.17990,   0.13726,   0.93750,  -0.80476,  -0.93750,   0.38339,  -0.87371,  -0.93750,   0.80259,   0.93750
  -0.54846,  -0.25355,   0.80363,   0.92514,   0.89242,  -0.56825,   0.83157,   0.05909,  -0.93750,   0.37071
  -0.20357,   0.93750,  -0.56829,  -0.20744,   0.93750,  -0.93750,  -0.86264,  -0.93750,  -0.84466,   0.93750
  -0.34819,  -0.32688,  -0.64386,   0.59332,   0.59217,   0.81547,  -0.47215,   0.75937,   0.48331,  -0.36411
  -0.91661,   0.76090,  -0.89573,   0.69327,  -0.69919,   0.92972,  -0.81891,  -0.32003,  -0.64497,  -0.82549
   0.93750,  -0.79961,   0.82360,  -0.06619,  -0.68014,  -0.07120,  -0.73988,  -0.60334,  -0.47315,  -0.82272
  -0.93750,  -0.93750,  -0.44686,   0.28249,  -0.84698,  -0.59242,  -0.08303,   0.93750,   0.83694,  -0.24334
  -0.16529,   0.10332,  -0.68217,  -0.75734,   0.58547,   0.59672,   0.74231,  -0.77466,   0.78839,  -0.48794
  -0.93750,  -0.35550,  -0.37625,   0.93750,  -0.74402,  -0.93750,  -0.48918,   0.19619,   0.22459,  -0.54430
   0.43779,  -0.66321,   0.88056,  -0.93750,  -0.66950,  -0.50823,   0.81280,  -0.86169,  -0.88278,   0.87304
  -0.54499,  -0.05836,   0.73117,  -0.92693,  -0.51499,   0.50179,   0.12507,   0.70509,  -0.75649,   0.79963
  -0.81495,   0.43459,   0.77345,   0.69936,  -0.41264,  -0.29177,   0.72122,   0.55894,  -0.86808,  -0.22027
  -0.41188,  -0.11262,   0.93750,  -0.31563,   0.02634,   0.93750,  -0.24144,   0.42218,   0.16745,   0.87110
   0.24180,   0.59265,   0.13210,   0.86583,   0.09818,  -0.03453,   0.81752,  -0.13138,   0.87995,  -0.51680
  -0.15339,  -0.03265,  -0.93750,  -0.53383,  -0.93750,   0.01957,   0.76326,  -0.45665,   0.01389,  -0.61873
  -0.59580,  -0.89705,  -0.41640,   0.32359,   0.72801,   0.52949,  -0.16106,  -0.36751,   0.17488,   0.05195
   0.33784,  -0.30192,   0.34231,   0.40203,   0.09043,  -0.01189,   0.15642,   0.47218,  -0.43178,   0.40283
  -0.93750,  -0.19027,  -0.02065,  -0.76149,   0.86767,  -0.93750,   0.09824,  -0.93750,  -0.05820,   0.85706
   0.86705,  -0.54238,  -0.92178,  -0.43008,  -0.42859,   0.86639,  -0.67950,   0.58843,  -0.11456,  -0.18372
  -0.03702,  -0.67634,  -0.78808,  -0.28952,   0.87783,   0.68044,   0.49227,   0.47338,  -0.87315,  -0.50825
  -0.60870,  -0.76018,  -0.56279,  -0.67571,  -0.70109,   0.93750,   0.88424,  -0.53402,   0.10467,   0.05158
  -0.03878,  -0.82013,   0.67162,   0.92751,   0.02861,   0.92915,  -0.38665,  -0.76150,  -0.93750,  -0.29618
   0.93750,  -0.20883,  -0.93750,  -0.43075,   0.45199,   0.31640,  -0.87559,   0.93750,   0.80767,   0.93750
  -0.87538,  -0.35073,   0.72746,  -0.79191,  -0.86129,   0.93660,  -0.74377,   0.91672,  -0.86618,   0.77375
   0.46331,  -0.77200,   0.93750,  -0.93750,  -0.24034,  -0.76662,  -0.25690,   0.93750,  -0.10013,   0.35887
   0.02519,  -0.66225,  -0.47441,  -0.85443,   0.78198,  -0.32957,   0.34849,  -0.51769,  -0.29786,   0.93750
  -0.41107,   0.29907,   0.93061,   0.54947,  -0.26392,   0.07380,  -0.13989,   0.23684,  -0.10907,  -0.01998
   0.61666,   0.81751,  -0.81031,   0.08029,  -0.89082,  -0.12168,  -0.87158,   0.20610,  -0.93750,   0.92949
   0.52605,   0.83358,  -0.16435,  -0.02171,  -0.52906,   0.60433,   0.84527,  -0.40064,  -0.65413,  -0.30278
  -0.46273,  -0.03356,  -0.57651,   0.69501,  -0.12484,  -0.31132,  -0.37859,   0.16833,   0.34023,   0.85998
  -0.27838,   0.08437,  -0.20103,   0.81108,   0.16215,  -0.68876,   0.93750,   0.87451,   0.10669,  -0.68437
  -0.87623,  -0.79456,  -0.26160,  -0.10898,  -0.83878,   0.93750,   0.93750,   0.93750,  -0.93750,  -0.93750
  -0.39781,  -0.09872,  -0.67970,   0.93750,  -0.01997,  -0.79126,  -0.82954,   0.26906,   0.74064,   0.19513
   0.58745,  -0.35464,   0.73230,  -0.48985,   0.93750,  -0.63121,   0.80520,  -0.79007,  -0.70650,   0.74598
   0.08114,   0.05731,  -0.93750,  -0.93750,  -0.19779,   0.44390,  -0.93750,   0.32761,  -0.50529,   0.27008
  -0.55476,   0.93750,  -0.18176,  -0.66368,   0.93750,   0.36567,  -0.70546,  -0.87765,  -0.81112,  -0.70233
   0.80497,   0.10525,  -0.93750,  -0.93750,   0.93750,  -0.88449,   0.87743,   0.36220,  -0.55672,  -0.93750
   0.68677,  -0.83330,  -0.59900,   0.93750,   0.55503,   0.88675,  -0.72329,  -0.66282,  -0.85531,  -0.42511
   0.93750,  -0.42094,  -0.26964,   0.93750,  -0.70023,  -0.93373,   0.70869,  -0.58999,  -0.80989,   0.17182
   0.01701,  -0.60164,   0.69323,  -0.67688,  -0.29299,   0.87789,  -0.70294,  -0.68074,  -0.79062,   0.78283
  -0.59248,  -0.60152,   0.79959,   0.73123,   0.29127,  -0.28258,   0.49507,  -0.35429,  -0.67082,   0.86324
  -0.65661,   0.91677,  -0.45483,   0.72726,  -0.76173,  -0.63306,   0.18792,   0.56749,   0.21308,   0.77219
   0.31881,  -0.93750,  -0.93750,   0.93750,   0.31197,   0.93750,  -0.93750,  -0.37655,  -0.68393,   0.55812
   0.24983,  -0.74551,   0.76966,  -0.45870,  -0.56511,  -0.74679,   0.59887,   0.67891,   0.73816,  -0.70327
   0.93750,  -0.81303,   0.87059,  -0.61458,  -0.11639,  -0.50344,   0.93750,  -0.53997,   0.25165,  -0.66316
   0.18629,  -0.66110,  -0.93750,   0.93750,  -0.76086,  -0.57028,  -0.06686,  -0.71732,  -0.13300,   0.93750
   0.34312,  -0.88232,   0.64372,   0.61985,  -0.05746,  -0.21768,  -0.26062,   0.86820,   0.53770,  -0.93397
   0.62867,  -0.02287,  -0.64355,  -0.37721,   0.68167,  -0.93750,  -0.22593,   0.26787,   0.86518,   0.56967
  -0.80918,   0.27621,  -0.64743,  -0.01209,  -0.16937,  -0.93750,   0.92380,  -0.29845,   0.84668,   0.73916
   0.39929,   0.93283,   0.68458,   0.02513,   0.92819,   0.01672,   0.49665,   0.87455,   0.48853,   0.55728
  -0.93750,   0.64858,   0.59935,  -0.93750,  -0.93750,  -0.49683,  -0.17761,  -0.67823,   0.35560,  -0.43018
   0.02289,  -0.39876,   0.73439,   0.48052,   0.57900,  -0.41735,   0.86902,   0.61482,  -0.68321,   0.84668
   0.65897,  -0.48633,   0.27046,  -0.89049,  -0.67650,   0.93750,  -0.50051,  -0.71760,   0.93750,   0.17920
   0.15741,  -0.40113,  -0.70800,  -0.89988,   0.19765,   0.93468,   0.93750,  -0.81297,  -0.62585,  -0.86860
   0.00938,  -0.05503,   0.15561,   0.93614,  -0.70241,  -0.57858,  -0.87407,   0.05818,  -0.92561,   0.74664
   0.17143,   0.81113,  -0.77490,  -0.93750,   0.64178,   0.39341,   0.93153,  -0.20988,  -0.75885,   0.63446
   0.32494,  -0.68744,   0.00023,  -0.01420,   0.86852,   0.86693,  -0.22453,  -0.39041,   0.52703,   0.82103
   0.93750,  -0.45850,  -0.14790,   0.11763,  -0.93750,   0.40631,  -0.46305,   0.58416,   0.93750,  -0.93750
   0.60236,   0.57960,  -0.11858,  -0.61642,  -0.37779,   0.84944,  -0.35621,   0.21387,  -0.69231,   0.88301
   0.74788,  -0.82325,  -0.00895,  -0.70100,   0.80906,   0.74724,   0.13515,  -0.24864,  -0.43579,   0.84490
   0.69033,   0.52740,  -0.89303,   0.81201,  -0.92724,   0.28624,  -0.70431,  -0.06544,  -0.68903,   0.93750
   0.87425,   0.80761,  -0.06717,   0.93750,  -0.91282,   0.02173,  -0.31256,   0.88859,  -0.58494,   0.67808
   0.79991,  -0.93750,   0.89404,  -0.40795,  -0.02816,   0.17775,  -0.81717,   0.36534,   0.93750,  -0.73777
  -0.62042,   0.88173,   0.81762,   0.62216,   0.43630,  -0.20653,  -0.33922,  -0.55734,   0.31528,  -0.02186
   0.00308,  -0.60797,   0.86851,  -0.50568,   0.88001,  -0.17802,   0.12080,   0.78695,   0.48502,   0.74611
  -0.36493,  -0.16759,  -0.00524,  -0.87217,   0.80617,  -0.78970,  -0.55084,   0.84718,  -0.62346,   0.87832
  -0.82187,   0.00856,  -0.54301,   0.13050,   0.92282,  -0.81607,  -0.31815,   0.74719,  -0.82743,   0.93750
   0.03956,   0.80979,  -0.20478,   0.48184,  -0.67746,   0.67154,  -0.93072,  -0.13214,  -0.12430,   0.87569
   0.93750,   0.23219,   0.71616,  -0.12983,   0.93750,   0.66204,  -0.72950,   0.91578,  -0.06571,  -0.69615
  -0.81760,   0.48384,  -0.75273,   0.26979,   0.87268,   0.93750,  -0.93750,  -0.87454,  -0.93750,   0.93750
  -0.93750,   0.00165,  -0.06536,  -0.58709,  -0.93750,  -0.10558,  -0.93750,   0.22214,  -0.93750,  -0.69327
   0.93750,  -0.93750,   0.84367,  -0.33846,   0.65669,   0.00997,   0.02233,   0.57226,  -0.86935,   0.93750
  -0.74931,  -0.66729,   0.47060,   0.79581,   0.28710,   0.61893,   0.40723,   0.07636,  -0.90867,   0.22831
   0.52645,  -0.73946,   0.55396,   0.87527,  -0.04788,  -0.49195,   0.20732,  -0.64952,  -0.18551,  -0.87900
  -0.39096,  -0.81626,  -0.28967,  -0.31822,  -0.63460,   0.89483,  -0.06019,  -0.45779,  -0.85631,   0.85464
  -0.36551,  -0.93750,  -0.17813,   0.51696,  -0.91928,  -0.93750,  -0.93750,   0.93750,  -0.56198,   0.72596
   0.25589,  -0.27282,  -0.12729,   0.53783,  -0.40279,   0.65675,  -0.06200,   0.02788,  -0.30781,   0.63567
  -0.93750,  -0.64968,  -0.05783,  -0.15984,   0.69605,  -0.61834,  -0.64119,   0.93750,   0.24943,  -0.32810
  -0.86015,  -0.44979,  -0.46307,  -0.67975,   0.66728,  -0.70167,   0.02927,  -0.67541,  -0.14896,   0.89475
   0.36145,  -0.68681,   0.57654,   0.93750,   0.29073,   0.92713,  -0.22727,  -0.78743,  -0.68544,  -0.89255
  -0.93750,   0.93750,   0.33281,  -0.24969,   0.59145,  -0.93750,  -0.83865,  -0.93750,  -0.87041,  -0.66105
   0.67953,   0.04755,   0.71587,   0.77630,  -0.83033,  -0.77104,   0.23603,  -0.62671,   0.29220,  -0.09317
  -0.17255,  -0.64901,   0.39838,   0.47651,   0.41693,   0.22525,  -0.27316,   0.78909,   0.83898,  -0.50519
  -0.29692,  -0.16060,  -0.93750,  -0.54513,  -0.62938,  -0.93750,  -0.35379,  -0.54717,  -0.05026,   0.93750
  -0.26324,   0.49076,  -0.73323,  -0.20534,  -0.45982,   0.91716,   0.59542,  -0.43974,   0.80393,  -0.67397
  -0.93750,  -0.87571,  -0.43409,   0.07483,   0.93750,   0.93750,   0.53990,  -0.76352,  -0.74232,  -0.17754
   0.89351,  -0.00092,  -0.38103,   0.82096,   0.89469,  -0.93750,  -0.93750,   0.23540,   0.93750,   0.05974
  -0.22860,   0.92843,   0.56294,  -0.49610,  -0.67884,   0.93750,  -0.33448,  -0.67731,  -0.66310,  -0.78333
   0.93750,   0.82679,   0.37216,  -0.86825,   0.47519,   0.35318,   0.29972,  -0.88693,  -0.27894,  -0.93750
