   0.21109,   0.01237,   0.93750,  -0.36332,  -0.43976,   0.14626,   0.79462,  -0.22694,  -0.17879,   0.08643
  -0.01978,   0.44717,  -0.15704,   0.19452,  -0.09202,   0.37022,   0.72671,   0.68942,   0.81309,  -0.70039
   0.66828,   0.68190,   0.57589,   0.56661,   0.76444,   0.69170,   0.93779,   0.38535,   0.77808,   0.54632
  -0.87175,  -0.26765,  -0.35062,   0.21254,  -0.88233,  -0.54771,   0.03387,  -0.38543,  -0.16438,  -0.80607
   0.65913,   0.82496,  -0.43233,  -0.87488,   0.93530,  -0.93750,   0.93750,   0.93750,   0.93750,  -0.42614
  -0.33795,  -0.69081,   0.86687,   0.48340,   0.89106,  -0.62251,  -0.62828,  -0.39195,  -0.52639,  -0.50268
   0.13551,   0.42686,  -0.73855,  -0.06113,   0.08328,  -0.81430,  -0.32700,   0.92141,   0.32386,  -0.93750
   0.70587,   0.39314,  -0.27652,   0.93693,  -0.34488,   0.66851,  -0.56526,   0.62062,  -0.21667,   0.29994
  -0.87218,  -0.82001,   0.93750,  -0.93750,   0.93750,  -0.89173,  -0.57950,  -0.93750,  -0.93750,   0.65654
  -0.27640,   0.93750,  -0.78416,   0.55705,   0.93750,  -0.88772,  -0.44593,  -0.93750,  -0.93750,  -0.93750
  -0.42062,  -0.43456,   0.21469,   0.92316,  -0.76603,   0.15435,   0.23940,  -0.05170,  -0.00302,  -0.30926
  -0.81357,  -0.24440,  -0.82814,  -0.06723,   0.93750,   0.52688,  -0.48924,   0.29026,  -0.71607,   0.12569
  -0.21677,   0.62009,  -0.17071,   0.52184,   0.93750,  -0.68475,  -0.68231,   0.72419,  -0.65227,  -0.03719
   0.50762,   0.93750,   0.51351,  -0.79120,  -0.62017,  -0.02695,  -0.19790,   0.09747,   0.66421,   0.06267
   0.70264,   0.93750,   0.87714,   0.15552,   0.87264,   0.32527,  -0.68371,  -0.90441,   0.93750,   0.87330
   0.23326,   0.28591,  -0.22083,  -0.28334,   0.66287,   0.71870,   0.68643,   0.32739,  -0.22339,  -0.12424
  -0.88182,  -0.43655,  -0.74632,   0.93750,  -0.58036,   0.75741,   0.70130,  -0.93680,   0.51183,  -0.30859
   0.93750,   0.93750,  -0.11036,  -0.93750,   0.09317,   0.35578,  -0.91565,  -0.79453,   0.15058,  -0.16864
   0.10400,  -0.01136,  -0.62914,  -0.89134,  -0.80777,  -0.83456,   0.18328,  -0.93358,  -0.31212,   0.93750
   0.85174,  -0.75187,  -0.23309,  -0.40428,   0.19095,  -0.17286,  -0.48165,  -0.11809,  -0.63684,  -0.04600
  -0.31773,  -0.87282,   0.79320,  -0.93750,   0.93750,   0.08195,   0.12673,  -0.72558,   0.79884,   0.76537
   0.70359,   0.84356,  -0.44749,   0.27143,  -0.19296,   0.93750,   0.86650,  -0.71534,  -0.67671,   0.00619
   0.41241,  -0.44113,   0.65887,  -0.22345,   0.42523,   0.68413,   0.19764,  -0.69584,   0.55869,  -0.13091
  -0.45030,  -0.60361,  -0.42541,   0.93950,   0.15682,   0.03730,   0.74272,   0.56492,  -0.06907,  -0.54349
  -0.70862,   0.55957,   0.74066,  -0.34329,   0.68617,   0.53787,   0.01006,  -0.19770,   0.39751,  -0.21465
  -0.82408,  -0.44594,  -0.84210,   0.93735,   0.72951,   0.24028,  -0.51287,   0.71855,  -0.27963,  -0.05757
  -0.82586,  -0.78991,  -0.27845,  -0.60802,   0.75963,  -0.10862,   0.00587,   0.93750,   0.18852,  -0.87137
   0.92557,   0.78561,  -0.52509,   0.83016,  -0.62901,  -0.11906,   0.93345,  -0.18785,  -0.54354,  -0.22396
  -0.87005,  -0.13524,  -0.93750,   0.06892,  -0.51040,  -0.06686,  -0.65448,   0.93750,   0.09126,   0.11944
  -0.35502,   0.76099,   0.11502,  -0.53434,   0.86983,  -0.74450,   0.15271,  -0.49182,   0.62408,   0.46858
   0.85986,  -0.74727,   0.86862,  -0.93750,  -0.62790,  -0.47790,  -0.68381,   0.66896,  -0.31394,  -0.70675
   0.36531,   0.48135,   0.05492,   0.89639,  -0.09860,   0.37998,   0.93750,  -0.87403,   0.88136,   0.48070
   0.80765,  -0.87887,   0.05280,  -0.26065,   0.88112,   0.79268,   0.80286,  -0.29027,  -0.20908,  -0.26535
   0.59404,   0.59137,  -0.85304,   0.17817,   0.74909,   0.54780,  -0.64726,  -0.79780,  -0.75522,  -0.88188
   0.19818,  -0.17429,   0.03917,  -0.04133,   0.93750,   0.09044,   0.86735,   0.93750,   0.88227,  -0.06747
  -0.58651,   0.29535,  -0.89062,   0.16474,   0.13949,   0.93750,   0.93750,  -0.93750,  -0.27503,   0.93750
  -0.41973,   0.08073,   0.64944,  -0.04373,   0.21131,  -0.84777,  -0.35173,  -0.93750,  -0.02269,   0.93750
  -0.00359,  -0.35544,   0.38949,   0.16241,  -0.14788,  -0.01045,  -0.08252,  -0.07416,   0.43492,  -0.04000
  -0.50724,   0.13845,   0.93694,   0.39371,  -0.70746,   0.10260,  -0.62054,   0.11533,  -0.40852,  -0.22577
   0.91274,   0.42776,   0.67269,  -0.45287,  -0.19814,  -0.80844,  -0.04081,  -0.48348,   0.79275,   0.14708
  -0.50152,  -0.26318,   0.15583,  -0.56732,   0.81033,  -0.06701,   0.41093,  -0.19682,   0.44832,   0.02685
  -0.47224,  -0.01540,  -0.86537,   0.93750,   0.93715,  -0.11381,  -0.87894,   0.21296,   0.21750,   0.00462
  -0.73053,  -0.08318,  -0.70914,  -0.06989,   0.87080,   0.13172,   0.81020,  -0.22473,   0.03591,  -0.02711
   0.61581,   0.50103,   0.74254,  -0.04177,   0.92992,  -0.93693,   0.76410,   0.87753,   0.21420,   0.82774
  -0.32592,   0.15163,   0.38336,  -0.14494,   0.42150,   0.93750,   0.11682,   0.84227,   0.10433,  -0.87687
  -0.54511,   0.34751,   0.73291,  -0.40765,   0.86902,  -0.08181,   0.22060,  -0.22606,   0.33372,   0.26176
   0.60414,   0.93750,  -0.81537,  -0.93750,   0.93750,   0.93750,   0.04823,  -0.87784,   0.10000,   0.93316
  -0.75706,  -0.31220,   0.65177,   0.06439,   0.24222,  -0.07245,   0.63128,  -0.07631,  -0.02881,   0.03699
   0.22344,   0.73440,  -0.84179,  -0.93750,   0.93750,  -0.52145,   0.75079,   0.93750,  -0.82560,  -0.02515
   0.25201,   0.86656,   0.11722,  -0.35380,   0.06320,  -0.09302,  -0.78759,   0.05292,  -0.37721,  -0.42092
  -0.74499,  -0.93750,  -0.16763,  -0.14003,   0.61241,  -0.42480,   0.64630,  -0.62646,   0.30921,   0.45975
   0.93750,   0.39483,  -0.30695,  -0.50982,  -0.06561,  -0.31422,  -0.30272,   0.52315,   0.79255,   0.39381
   0.56452,   0.93750,  -0.64224,   0.19737,  -0.80743,   0.77480,   0.57596,   0.17817,   0.17296,   0.81745
  -0.75709,   0.83568,  -0.93750,   0.24431,  -0.05597,  -0.50795,  -0.02331,  -0.93750,  -0.04647,  -0.53383
  -0.62464,   0.26945,  -0.61719,  -0.54895,   0.17981,   0.34870,  -0.30065,   0.66460,  -0.73479,  -0.53699
  -0.34782,   0.62440,  -0.28414,  -0.68069,   0.69312,   0.85924,  -0.48120,   0.88877,  -0.41174,   0.08348
  -0.81587,   0.02769,  -0.19211,   0.45164,  -0.13058,   0.17426,   0.76003,  -0.08081,  -0.34379,  -0.08326
  -0.44035,  -0.93750,  -0.85905,  -0.73942,   0.16848,  -0.93750,   0.87393,  -0.81133,   0.93750,  -0.93750
  -0.79907,  -0.37238,   0.93750,  -0.90536,  -0.83947,  -0.48866,  -0.42039,  -0.67746,   0.93750,  -0.68420
  -0.57478,  -0.87319,  -0.93750,  -0.87978,  -0.84723,   0.93750,  -0.93750,  -0.81282,  -0.77327,   0.24617
  -0.47710,   0.70537,   0.57818,   0.73699,   0.29981,   0.71551,   0.93750,   0.63193,  -0.34883,   0.20216
  -0.53259,   0.15576,  -0.50013,   0.93750,   0.86563,  -0.80059,   0.82456,  -0.54340,   0.32306,  -0.42091
  -0.17519,  -0.13704,  -0.33711,  -0.10763,  -0.48741,  -0.21550,   0.88700,   0.36701,  -0.69003,  -0.01541
   0.86736,  -0.61578,  -0.37543,  -0.60708,  -0.01116,  -0.07743,  -0.30555,   0.18346,   0.06166,   0.03612
  -0.69937,  -0.20464,   0.66820,  -0.49261,  -0.48752,  -0.39193,  -0.73665,   0.74614,  -0.23122,  -0.15555
  -0.30385,  -0.54955,  -0.87439,  -0.60020,   0.77177,   0.82792,  -0.47011,   0.40846,   0.93750,   0.09251
  -0.50551,  -0.66387,   0.86351,  -0.35889,  -0.76709,  -0.37118,  -0.71027,   0.49025,   0.50309,  -0.18688
   0.83336,   0.32354,   0.93750,  -0.87851,  -0.20368,   0.79109,   0.60273,  -0.88109,   0.72143,   0.15172
  -0.23544,   0.93750,  -0.87447,  -0.28402,   0.21434,  -0.87182,  -0.16340,   0.77997,  -0.82542,   0.21336
  -0.93750,  -0.12000,   0.93750,   0.26753,   0.56510,  -0.93750,  -0.67725,  -0.93750,  -0.68863,   0.17436
   0.00300,  -0.54498,  -0.00909,  -0.33662,   0.24308,   0.17324,   0.47999,  -0.40811,   0.40303,   0.01637
  -0.02502,   0.76117,  -0.04047,  -0.44690,   0.88039,   0.33029,  -0.09902,   0.21726,   0.05109,   0.15114
   0.33208,  -0.49282,   0.27603,  -0.12717,  -0.76254,  -0.46490,   0.55638,  -0.29105,  -0.59879,   0.61653
  -0.78788,  -0.67774,  -0.76200,   0.93750,  -0.72819,   0.00785,   0.60542,   0.03619,   0.53424,   0.05900
  -0.81399,   0.82796,   0.19106,   0.25746,  -0.29672,  -0.00412,   0.36228,  -0.93750,  -0.35626,   0.32424
   0.55466,   0.93750,   0.31252,  -0.91595,   0.56390,  -0.12691,   0.86062,   0.04960,   0.13370,  -0.17206
  -0.93555,   0.93750,  -0.46002,  -0.82767,  -0.93750,  -0.87693,   0.75224,   0.54195,   0.37839,   0.08164
  -0.80145,   0.86548,   0.71933,  -0.86851,   0.87429,   0.93750,  -0.17291,   0.93086,   0.13907,  -0.64128
  -0.93230,  -0.06334,   0.71435,   0.93750,  -0.30815,  -0.57254,   0.82084,   0.93750,  -0.25960,   0.49637
   0.71966,   0.63818,  -0.30263,  -0.38813,  -0.38856,   0.83892,  -0.79571,   0.76479,   0.91962,   0.60208
   0.50014,  -0.24427,  -0.42533,  -0.43538,  -0.22509,  -0.13491,  -0.46722,  -0.62789,   0.83994,   0.45909
   0.80784,  -0.93750,  -0.20587,  -0.93750,  -0.93750,  -0.93750,   0.87319,  -0.93750,  -0.75088,  -0.93750
   0.79442,   0.93750,  -0.81295,   0.82377,  -0.78887,  -0.75224,  -0.55613,  -0.48349,   0.93750,  -0.12326
   0.14920,  -0.81821,   0.59654,  -0.88351,   0.80918,  -0.48799,   0.30230,  -0.75010,   0.93750,   0.14731
  -0.07321,   0.73191,  -0.53906,  -0.87675,   0.50657,  -0.48487,   0.93702,  -0.82171,   0.50116,  -0.75498
   0.35928,  -0.80916,  -0.60660,   0.87309,   0.93750,   0.93750,  -0.63845,   0.83400,  -0.87134,  -0.52618
   0.35593,   0.76119,  -0.32452,  -0.72817,   0.03781,  -0.79936,   0.70745,  -0.37250,  -0.62286,  -0.36905
  -0.60729,   0.76196,   0.37083,  -0.69578,   0.86807,  -0.29079,   0.17997,  -0.93750,   0.46063,  -0.04717
   0.42054,   0.65794,  -0.93750,   0.93750,  -0.33543,  -0.93750,  -0.93750,   0.93750,   0.93750,  -0.93750
   0.87184,  -0.15143,  -0.93750,   0.67609,  -0.53599,  -0.93750,   0.42964,  -0.93750,   0.20293,  -0.93750
  -0.84655,   0.90593,   0.81617,  -0.93750,   0.93750,  -0.63133,  -0.50878,   0.44756,  -0.41948,   0.10839
   0.93750,   0.36230,   0.51344,   0.65704,  -0.93750,  -0.93750,   0.93750,   0.81413,   0.88052,   0.12414
  -0.28552,   0.93750,   0.12250,  -0.80694,  -0.67000,   0.54627,   0.73894,  -0.06800,  -0.42250,  -0.04537
   0.40947,  -0.93750,  -0.14527,  -0.88803,   0.69822,  -0.93750,  -0.32774,  -0.93750,   0.71319,   0.93750
  -0.71822,   0.02539,  -0.22842,   0.83205,   0.59094,  -0.73815,   0.41169,   0.07521,   0.83359,   0.82580
   0.11943,  -0.04250,  -0.49630,   0.01296,   0.93750,   0.17421,  -0.23298,  -0.10770,  -0.27224,   0.29401
  -0.36378,  -0.10767,   0.67889,   0.56043,   0.06307,   0.63921,   0.08028,  -0.38934,  -0.15001,   0.10516
   0.22247,  -0.01170,   0.87617,   0.18623,   0.64378,  -0.42548,  -0.86107,  -0.33163,   0.80384,  -0.35759
  -0.46236,   0.92456,   0.86369,  -0.57701,   0.43947,   0.13381,  -0.91895,  -0.64847,  -0.01078,  -0.54748
  -0.60488,  -0.48100,   0.57579,   0.87500,  -0.53581,   0.14083,  -0.19448,  -0.86100,   0.93750,  -0.34538
  -0.58663,   0.16474,   0.25594,  -0.09894,   0.45956,  -0.93750,  -0.93750,  -0.02377,  -0.75865,  -0.79146
  -0.85202,  -0.57765,   0.86985,   0.93750,  -0.82577,   0.60337,  -0.87048,   0.93750,  -0.22928,  -0.67413
  -0.70562,  -0.69047,   0.90997,  -0.91012,  -0.71878,   0.88227,  -0.93750,  -0.43638,   0.14375,   0.93750
   0.04518,   0.19625,   0.87404,   0.65272,  -0.73234,  -0.31944,   0.82045,   0.20370,  -0.42695,   0.00120
   0.63590,   0.33808,  -0.11027,  -0.19394,   0.93750,   0.24074,  -0.11940,   0.45171,  -0.53915,   0.18973
   0.86758,   0.16800,  -0.63022,  -0.06442,  -0.53422,   0.17736,   0.93750,   0.03883,  -0.52019,   0.04671
  -0.01275,  -0.64304,  -0.59782,  -0.12469,   0.93750,   0.19679,  -0.51655,   0.03467,  -0.35589,  -0.18254
   0.25498,   0.07104,   0.67598,  -0.55119,  -0.32237,   0.20679,  -0.45498,   0.73996,   0.11966,   0.32861
   0.16968,  -0.34128,  -0.40822,   0.60225,   0.87015,  -0.18638,  -0.27933,  -0.22891,   0.06277,  -0.12727
   0.78254,   0.24971,  -0.55207,   0.44550,   0.77675,  -0.04700,  -0.39014,   0.02583,   0.55309,  -0.16542
   0.16602,  -0.47514,  -0.49459,  -0.75226,   0.93750,   0.04435,   0.78716,   0.37434,  -0.42684,   0.56790
   0.88412,  -0.93750,  -0.02936,  -0.52334,  -0.93750,  -0.93750,  -0.73656,  -0.73085,  -0.29856,   0.93750
   0.32635,   0.93750,  -0.04363,  -0.37835,   0.43245,  -0.85681,  -0.09505,   0.93750,   0.37809,  -0.71732
   0.93750,   0.05292,   0.51360,   0.73533,  -0.08213,  -0.38098,   0.93750,  -0.93750,   0.41583,  -0.20989
   0.28231,   0.27957,   0.27019,  -0.40102,  -0.34454,  -0.07957,   0.71550,  -0.39920,   0.25196,   0.07299
  -0.59066,   0.75953,  -0.25282,   0.41954,   0.60045,  -0.12437,   0.20217,  -0.06113,   0.80988,  -0.50452
   0.93750,   0.18485,   0.25591,  -0.37228,  -0.51291,  -0.38542,  -0.53811,   0.08155,  -0.37946,  -0.11501
   0.86658,  -0.39656,  -0.14329,  -0.23387,  -0.32864,   0.62040,   0.93750,   0.87538,   0.58682,   0.06367
   0.93750,  -0.49079,  -0.11434,   0.75518,  -0.64359,  -0.11721,   0.93750,  -0.44857,  -0.52880,  -0.03354
   0.48487,  -0.13191,   0.81204,  -0.27576,  -0.03138,   0.00426,  -0.30383,   0.02418,   0.28087,  -0.15185
   0.24023,   0.50628,  -0.67743,   0.27048,   0.55112,  -0.53289,   0.08850,   0.85689,   0.78917,  -0.61821
  -0.83124,   0.67632,  -0.84617,   0.01462,   0.02183,  -0.70713,  -0.36486,  -0.86426,   0.09490,   0.93750
   0.86908,  -0.19494,  -0.74028,  -0.73604,   0.56927,   0.14370,  -0.66954,   0.01065,  -0.22305,  -0.11821
  -0.88271,  -0.32286,   0.45446,  -0.93750,  -0.93750,  -0.90261,  -0.88485,  -0.06744,  -0.75496,   0.93750
  -0.93750,  -0.87697,   0.87733,   0.03295,  -0.09359,   0.04555,   0.19249,   0.87441,  -0.93750,   0.93750
  -0.75505,  -0.80000,  -0.93750,   0.87363,   0.10025,  -0.37211,   0.93750,   0.10959,   0.93750,  -0.38948
  -0.67530,   0.93750,  -0.19883,  -0.86861,   0.08490,  -0.43501,   0.56916,  -0.01041,   0.87218,  -0.70094
   0.03771,   0.00887,   0.49312,  -0.55866,   0.87826,  -0.93750,  -0.33321,   0.37814,   0.93474,  -0.01844
   0.93750,  -0.71816,  -0.59885,  -0.80820,  -0.12920,  -0.19497,  -0.93750,  -0.04431,  -0.59815,  -0.29784
  -0.65590,   0.86962,   0.37315,   0.87084,   0.83241,   0.24104,  -0.76998,  -0.36445,   0.04138,   0.20284
   0.93750,  -0.93750,  -0.32558,   0.93750,   0.91410,  -0.44887,  -0.61781,  -0.57806,   0.30837,  -0.79517
   0.56397,   0.21197,  -0.50522,   0.12157,  -0.64843,   0.13507,   0.87453,  -0.03798,   0.01502,   0.12621
   0.86257,   0.00722,   0.08289,   0.55542,   0.57261,   0.92974,  -0.84269,  -0.57311,   0.93750,  -0.42178
   0.69961,   0.05422,  -0.78923,  -0.80241,   0.47121,  -0.87231,  -0.70826,   0.40438,   0.67328,   0.17770
  -0.65574,   0.02413,  -0.03955,  -0.73968,   0.53358,  -0.46701,   0.34984,  -0.93750,  -0.44248,  -0.84959
   0.93750,   0.00789,   0.00777,  -0.32047,  -0.28815,   0.49625,  -0.84651,   0.08307,   0.19379,   0.34401
   0.15894,   0.01933,  -0.43672,   0.26142,  -0.87429,   0.16139,  -0.59882,  -0.13418,  -0.11614,  -0.88487
   0.92816,  -0.01800,   0.86705,   0.55903,  -0.76376,  -0.05358,   0.20820,   0.17926,   0.03939,  -0.19159
  -0.28885,   0.33800,  -0.93750,  -0.23462,  -0.78481,  -0.93750,   0.93750,  -0.69061,   0.93750,  -0.93750
   0.43724,  -0.30556,  -0.60331,   0.93229,  -0.38860,  -0.26227,   0.24327,   0.67395,   0.09573,  -0.17937
   0.08080,   0.01600,   0.51092,   0.87663,   0.55194,   0.85658,  -0.93750,   0.86749,   0.93750,   0.07825
   0.82314,   0.80306,   0.09850,   0.91174,  -0.12832,   0.61511,   0.22893,  -0.80393,  -0.55804,  -0.32680
   0.80903,   0.44245,   0.68910,   0.84241,   0.62938,   0.54973,   0.84513,   0.74502,   0.52550,   0.72641
  -0.58584,   0.93750,   0.68114,  -0.81967,   0.87735,  -0.43461,  -0.35573,   0.76603,  -0.72618,  -0.38850
   0.78862,  -0.35354,  -0.01790,   0.20372,   0.14287,  -0.33021,  -0.47541,   0.21310,   0.72723,  -0.71891
   0.14710,   0.35686,   0.55165,  -0.93626,   0.93750,   0.33170,  -0.33798,  -0.67411,  -0.11045,   0.05823
  -0.58616,   0.21837,   0.93750,  -0.00637,   0.93750,  -0.74905,  -0.37793,   0.77622,   0.15028,   0.93750
  -0.15981,  -0.32913,  -0.64218,  -0.93750,   0.93750,  -0.87856,  -0.46080,  -0.93750,   0.84604,   0.51318
   0.55920,  -0.41792,  -0.45255,   0.93750,  -0.81425,  -0.05299,   0.87312,  -0.33989,  -0.93750,  -0.93750
   0.86456,  -0.93750,   0.54520,  -0.93750,  -0.77059,   0.60190,   0.80668,  -0.93750,   0.31787,   0.93750
   0.62878,   0.19379,   0.15654,   0.21333,   0.68637,  -0.72031,   0.22284,   0.93750,   0.07757,  -0.78147
   0.04215,  -0.23254,  -0.86982,   0.39674,  -0.54433,  -0.09545,   0.92919,  -0.38629,   0.93750,  -0.35328
  -0.60539,  -0.26547,  -0.81161,  -0.08721,   0.23933,   0.86866,  -0.70876,   0.02409,   0.93750,   0.26392
  -0.81795,   0.86975,  -0.80385,   0.87910,   0.73996,   0.93750,  -0.79572,   0.22346,  -0.37344,   0.81209
   0.80726,  -0.21910,  -0.71607,  -0.07826,  -0.81634,   0.28080,   0.93750,  -0.08912,  -0.02742,   0.00103
  -0.45792,   0.75424,   0.27968,   0.87706,   0.32266,   0.60351,   0.63834,  -0.93750,  -0.47151,   0.69348
  -0.58279,   0.32494,   0.72709,   0.36491,   0.22961,  -0.29424,  -0.12782,   0.72817,   0.48181,   0.29505
   0.93750,   0.73776,   0.27860,   0.37384,  -0.69819,   0.33000,  -0.78688,   0.34424,  -0.56759,  -0.48970
   0.54989,   0.92831,   0.70655,  -0.67900,   0.18646,   0.70606,  -0.64905,   0.75616,  -0.49869,  -0.39379
  -0.11824,   0.93455,   0.30391,   0.23081,   0.93750,  -0.58110,  -0.66637,   0.30722,   0.23384,  -0.25458
   0.93750,   0.43554,  -0.60857,  -0.54633,  -0.71816,  -0.37011,  -0.41711,   0.33157,   0.68711,   0.27833
  -0.33640,  -0.02085,   0.21429,  -0.26342,   0.30384,  -0.27892,   0.86021,  -0.30444,  -0.35075,   0.15342
   0.65309,  -0.74439,   0.68977,  -0.65150,   0.88164,   0.69561,  -0.75094,  -0.33783,  -0.38850,  -0.58239
  -0.48579,   0.00636,   0.04873,  -0.48950,  -0.37595,   0.09079,   0.93750,   0.04524,   0.20886,  -0.14350
  -0.39519,  -0.29754,  -0.63559,   0.72087,  -0.33746,  -0.59546,   0.61088,   0.25322,   0.20112,   0.08669
   0.62614,   0.72647,   0.63460,   0.37616,   0.55690,   0.55302,  -0.48515,   0.60551,  -0.69688,   0.07490
  -0.50549,  -0.38897,   0.06198,  -0.27950,   0.04981,   0.38620,   0.57209,  -0.49139,  -0.03195,   0.87108
   0.90317,   0.74915,  -0.34157,   0.44868,  -0.46867,  -0.75427,   0.39764,  -0.07008,  -0.02938,   0.44361
  -0.65220,  -0.13107,   0.93750,   0.87607,   0.66916,  -0.86904,  -0.32518,  -0.35780,  -0.92447,   0.35387
  -0.93750,   0.79307,   0.44414,  -0.71681,   0.15430,   0.50854,  -0.76142,   0.93750,   0.64354,  -0.93750
   0.79992,  -0.34337,  -0.50192,  -0.58005,   0.78556,  -0.55534,  -0.67305,  -0.34013,  -0.47935,   0.00686
  -0.01519,  -0.25199,  -0.11329,  -0.44705,  -0.23825,  -0.90241,   0.93750,   0.86563,  -0.32347,  -0.82890
  -0.60908,  -0.65325,   0.85367,   0.92431,   0.50993,  -0.15384,   0.09805,  -0.18079,  -0.58867,  -0.04541
   0.93750,  -0.73540,  -0.27766,   0.94774,  -0.23580,  -0.54570,   0.60322,  -0.30732,  -0.82209,  -0.14570
  -0.55798,  -0.22125,  -0.20170,   0.04638,  -0.03640,  -0.07653,   0.81162,  -0.18934,  -0.10319,  -0.05901
  -0.59482,   0.93750,  -0.83213,  -0.93350,  -0.40509,  -0.10373,  -0.49402,  -0.79022,  -0.77544,   0.39315
  -0.36999,  -0.34641,  -0.27664,   0.21668,   0.08524,  -0.93750,   0.92325,   0.26988,   0.93750,   0.80606
   0.31428,   0.18799,   0.91568,  -0.79553,   0.91355,   0.12162,  -0.83942,  -0.01673,   0.59441,  -0.21456
   0.35532,   0.33096,   0.41619,  -0.00735,  -0.34395,   0.61208,   0.63745,   0.50176,   0.45546,  -0.41159
  -0.59943,   0.34100,   0.20813,  -0.59258,   0.71150,   0.16582,  -0.93480,   0.36828,  -0.37820,   0.82730
  -0.34299,  -0.22886,   0.87307,   0.23037,  -0.52136,  -0.13097,  -0.80650,   0.42647,   0.64245,   0.46602
   0.70856,  -0.48593,  -0.44805,   0.13216,   0.52184,   0.14005,  -0.33994,   0.06047,  -0.77058,   0.00734
  -0.29346,  -0.93750,  -0.93750,   0.54859,  -0.93750,  -0.38752,   0.02177,  -0.53410,  -0.58812,  -0.39226
  -0.32273,  -0.31162,   0.28842,  -0.87044,   0.80145,   0.31595,  -0.31381,  -0.04033,  -0.00548,   0.32497
   0.93750,   0.22829,  -0.64595,  -0.87999,  -0.77249,  -0.05616,   0.87454,   0.54983,  -0.70480,  -0.03102
  -0.75095,  -0.33433,   0.59474,   0.93750,  -0.93750,  -0.82526,   0.15636,   0.93750,   0.30671,   0.93750
  -0.32484,   0.17289,   0.84670,   0.04926,  -0.46988,   0.93750,  -0.13693,  -0.74673,   0.20173,  -0.42424
  -0.87443,  -0.93750,  -0.24261,   0.57841,  -0.79524,  -0.42442,   0.74956,  -0.70148,   0.86978,   0.93750
   0.75336,   0.82299,   0.48386,  -0.04370,  -0.62697,   0.13452,   0.60108,   0.31967,   0.93750,  -0.16920
  -0.26916,  -0.80676,   0.47321,  -0.13817,  -0.87171,   0.42523,  -0.08411,   0.14064,  -0.13190,  -0.76114
  -0.82125,  -0.31407,  -0.87297,  -0.40967,   0.46206,  -0.81563,   0.02903,   0.71310,   0.87158,   0.71999
  -0.44884,   0.53403,  -0.07413,   0.93750,  -0.56052,  -0.02600,  -0.21305,   0.21635,  -0.37997,   0.43292
   0.86731,  -0.19970,  -0.42242,  -0.52410,   0.14690,   0.73121,  -0.81456,   0.73910,  -0.77998,   0.92053
   0.93750,   0.00196,   0.17919,  -0.29713,  -0.03832,  -0.27443,  -0.93359,  -0.24225,   0.23493,  -0.14311
  -0.81674,   0.73626,  -0.35389,  -0.93750,  -0.47935,   0.93750,   0.67595,  -0.03201,   0.03131,   0.04577
   0.83758,   0.50638,  -0.29769,   0.93750,  -0.38031,  -0.65767,   0.91651,   0.08728,  -0.53904,  -0.24700
  -0.60555,  -0.93750,   0.93750,   0.93750,   0.74714,  -0.45706,  -0.36884,  -0.69025,  -0.93750,  -0.68368
   0.40632,   0.44937,   0.39757,  -0.87070,  -0.82003,  -0.08273,  -0.61735,   0.40348,   0.49974,   0.75093
  -0.74254,   0.18985,   0.07158,   0.32944,   0.67085,  -0.19604,   0.33078,   0.02507,  -0.19932,  -0.70854
   0.03759,  -0.72287,   0.47240,  -0.22038,   0.49018,   0.65721,  -0.44555,   0.80852,   0.74576,   0.29567
   0.35434,  -0.07727,  -0.22900,   0.08526,  -0.60776,   0.04565,   0.86804,   0.22261,   0.17021,   0.16263
  -0.64846,   0.17858,  -0.89759,   0.07386,  -0.66421,  -0.17808,   0.93750,   0.08297,   0.66510,  -0.40942
   0.64618,  -0.26544,   0.61353,  -0.35792,   0.70635,  -0.09187,  -0.83416,   0.02679,  -0.09825,   0.11438
  -0.69148,   0.86377,   0.20437,   0.93750,  -0.59597,   0.51182,   0.72534,   0.13566,   0.35749,  -0.18916
  -0.93750,   0.59984,   0.88836,  -0.55770,   0.36587,  -0.93750,   0.49636,  -0.80566,  -0.39984,  -0.84904
   0.41735,   0.46292,   0.11591,  -0.14202,  -0.90636,  -0.78431,   0.93750,  -0.37554,   0.48243,   0.14775
  -0.42234,   0.66075,   0.93750,  -0.70024,   0.93750,  -0.61939,  -0.68118,   0.61877,  -0.37186,  -0.58946
  -0.19721,  -0.93006,   0.75307,  -0.83263,  -0.87159,  -0.93750,  -0.75011,  -0.93750,   0.93750,  -0.75385
  -0.55362,  -0.35865,   0.85928,   0.37691,   0.23377,   0.11880,   0.34406,   0.55490,  -0.55874,   0.76333
  -0.42853,  -0.23580,  -0.55077,  -0.33379,  -0.84226,   0.13285,   0.80454,   0.21505,   0.01362,  -0.09277
  -0.68914,  -0.59445,  -0.28800,  -0.62650,  -0.27631,   0.86494,  -0.73307,   0.87081,  -0.68139,   0.85983
   0.93750,   0.93429,  -0.28909,  -0.85658,  -0.93750,  -0.36567,  -0.44053,  -0.64445,  -0.31296,   0.45609
  -0.04986,   0.64982,  -0.73793,  -0.52202,  -0.68484,  -0.07948,   0.74611,   0.92504,  -0.77825,   0.87145
  -0.81695,  -0.67463,   0.19226,   0.81461,  -0.61837,  -0.81654,   0.32181,   0.92492,  -0.65532,   0.92159
   0.76812,  -0.86872,   0.87543,   0.93750,   0.21548,   0.46759,  -0.63397,   0.25401,  -0.04969,   0.19538
  -0.24283,  -0.93750,   0.93750,   0.48173,   0.93750,  -0.87201,   0.30764,  -0.76335,  -0.93750,   0.87460
  -0.00569,  -0.87714,  -0.48997,  -0.88043,  -0.05553,  -0.15622,   0.72639,   0.52267,  -0.60201,   0.01375
   0.24915,   0.86834,  -0.93750,   0.11567,  -0.52212,   0.06014,   0.47391,  -0.14159,  -0.72401,  -0.81528
   0.93750,   0.93750,  -0.03287,  -0.87616,   0.03423,  -0.72200,   0.32827,  -0.13482,   0.00125,   0.93750
   0.64899,  -0.25302,   0.31735,   0.16226,  -0.67150,   0.73829,  -0.75342,  -0.79473,   0.73773,   0.55615
   0.93750,   0.93750,   0.47012,  -0.93750,  -0.30511,  -0.93750,  -0.52831,   0.69477,   0.87321,  -0.88753
   0.86218,  -0.28025,   0.06089,   0.92830,   0.93750,  -0.93750,   0.93750,   0.93750,   0.06993,   0.86371
  -0.60232,   0.58350,   0.93750,   0.43718,  -0.42587,  -0.66047,  -0.67032,  -0.67797,   0.34917,  -0.07447
  -0.64320,   0.10063,  -0.72075,  -0.40866,  -0.02018,  -0.17786,   0.93750,  -0.04583,  -0.54603,   0.13570
  -0.22079,   0.16993,  -0.45361,   0.75662,   0.81570,  -0.37332,  -0.56016,  -0.32655,  -0.20567,   0.08199
   0.43663,   0.54977,   0.70014,  -0.48492,   0.80913,  -0.65653,  -0.23704,   0.93657,  -0.39769,  -0.25531
   0.92795,  -0.88249,   0.13222,   0.30162,   0.35973,  -0.74703,  -0.93750,  -0.75497,  -0.93244,   0.69955
  -0.93750,   0.02831,   0.88642,   0.06846,  -0.09489,  -0.03500,   0.93750,   0.17563,   0.04340,   0.06270
  -0.21807,   0.11819,  -0.53701,  -0.08105,  -0.35878,  -0.90951,   0.26229,  -0.93750,  -0.67842,   0.93750
  -0.93750,   0.49273,   0.34289,  -0.51043,  -0.80506,   0.78211,   0.93750,  -0.49890,  -0.15732,   0.29070
   0.57080,  -0.63477,  -0.21021,  -0.14071,  -0.76639,   0.93750,  -0.93750,   0.87139,   0.17637,  -0.30289
  -0.34862,  -0.45827,  -0.87524,   0.93750,   0.86893,   0.11452,  -0.16555,  -0.53351,  -0.11577,  -0.18559
  -0.20763,  -0.44272,   0.87253,  -0.47137,  -0.92619,   0.01101,   0.78094,  -0.67137,  -0.50956,   0.02959
   0.71777,   0.57025,   0.53872,  -0.58598,  -0.18137,   0.64147,   0.87290,  -0.76485,   0.37611,  -0.07752
  -0.62081,  -0.50787,   0.30832,   0.86026,   0.83313,  -0.46790,  -0.20183,   0.87801,  -0.91588,  -0.17769
   0.53997,   0.81268,   0.93750,  -0.05595,   0.87479,   0.81525,   0.42405,  -0.86743,  -0.34742,  -0.87479
   0.10002,   0.67645,  -0.48228,  -0.74531,   0.83383,   0.34042,  -0.71321,   0.65955,  -0.87588,  -0.67815
   0.91844,  -0.14279,   0.29111,  -0.30303,   0.82397,   0.21413,  -0.87607,  -0.06577,  -0.15977,  -0.10323
  -0.59888,  -0.17687,  -0.35615,  -0.41772,  -0.35527,   0.78392,  -0.62069,   0.58999,   0.93750,   0.69383
   0.93750,   0.08197,  -0.19576,  -0.93750,   0.35223,   0.87482,   0.87217,  -0.55633,   0.93750,   0.58979
  -0.27141,  -0.62078,  -0.93750,   0.92602,   0.18527,   0.75804,   0.80407,   0.01252,  -0.31214,  -0.58665
  -0.93037,   0.06692,  -0.50898,  -0.00382,  -0.75100,   0.38210,   0.93750,   0.16090,  -0.27309,   0.19620
  -0.66282,  -0.14127,   0.93750,  -0.56233,  -0.72012,  -0.05892,  -0.76161,   0.47806,  -0.51386,   0.11737
   0.60337,   0.93750,  -0.93750,  -0.65184,   0.74247,  -0.04387,   0.49330,   0.27908,   0.61176,  -0.70641
   0.85684,   0.26691,  -0.93750,   0.26252,   0.16388,   0.48889,  -0.75318,   0.00463,  -0.10843,   0.16803
   0.93750,  -0.42743,   0.01324,   0.93750,   0.93750,  -0.93750,  -0.93750,   0.72652,  -0.14556,  -0.69596
   0.66930,  -0.06385,  -0.22891,  -0.31489,   0.89869,  -0.01433,   0.26322,  -0.93750,   0.20433,   0.13323
  -0.49887,  -0.15937,   0.45621,  -0.00979,   0.93750,  -0.00918,   0.75871,  -0.01127,  -0.24614,   0.03271
   0.06610,   0.73944,  -0.93750,   0.75031,   0.27625,  -0.90799,  -0.02008,   0.85057,  -0.62504,  -0.93750
  -0.06410,   0.20754,  -0.68363,   0.81897,   0.93750,   0.24840,  -0.91851,  -0.37647,  -0.65752,  -0.27436
   0.88772,   0.01254,   0.05999,  -0.88377,   0.86702,  -0.93750,  -0.89256,   0.22851,  -0.56078,   0.93750
   0.51348,  -0.93750,   0.86808,  -0.62151,   0.26147,   0.64166,  -0.59226,  -0.93750,  -0.93750,   0.48244
   0.85923,  -0.93750,  -0.36776,  -0.51647,   0.34709,  -0.72553,   0.93750,  -0.93750,   0.93750,   0.93750
   0.34049,   0.28160,   0.19029,  -0.19405,   0.87276,  -0.77548,   0.26159,  -0.52681,  -0.93419,   0.34868
   0.30935,  -0.52753,  -0.49786,   0.80815,   0.93750,  -0.23284,  -0.55679,   0.77499,   0.03099,  -0.81243
  -0.47006,  -0.08621,  -0.84979,   0.76333,   0.73605,   0.17612,   0.76300,   0.33766,   0.28100,   0.08504
  -0.66209,  -0.42068,   0.44796,  -0.56482,  -0.54929,  -0.80250,  -0.35906,   0.93750,  -0.54863,  -0.58660
  -0.35909,   0.16607,   0.91305,  -0.04582,   0.83631,  -0.25152,  -0.87950,  -0.18939,  -0.73014,   0.72233
   0.44052,  -0.63383,  -0.35958,   0.68892,   0.47459,   0.81357,  -0.75552,   0.69104,   0.42905,   0.29801
  -0.59207,   0.43179,  -0.46696,  -0.12151,  -0.65006,  -0.47053,  -0.18974,  -0.32397,  -0.42840,  -0.18763
   0.67368,   0.42522,   0.85974,  -0.21941,  -0.93750,  -0.93750,  -0.93750,   0.93750,  -0.17294,   0.25674
  -0.93750,   0.03239,  -0.87510,  -0.93750,   0.93750,   0.08039,   0.93750,   0.93750,  -0.83292,  -0.46965
   0.87401,  -0.04244,   0.77226,   0.09394,   0.12949,   0.04096,  -0.91419,  -0.22709,   0.03120,  -0.12352
   0.42656,  -0.28363,   0.25867,   0.65431,   0.74440,  -0.27697,   0.60850,   0.81908,   0.33884,  -0.20816
  -0.85751,   0.14970,  -0.30061,   0.05471,  -0.51235,  -0.43246,   0.93750,  -0.45321,   0.12901,  -0.02494
  -0.43155,  -0.24841,  -0.50203,   0.78979,   0.87066,  -0.24591,  -0.42425,  -0.60278,  -0.56963,   0.11647
   0.21820,  -0.87024,   0.34190,  -0.27445,   0.93750,  -0.87793,   0.78876,   0.13468,   0.93750,  -0.01818
  -0.76840,  -0.75897,  -0.08501,  -0.58971,  -0.28160,  -0.29632,  -0.75448,   0.62728,   0.27933,   0.85395
  -0.34781,   0.37116,   0.57152,   0.51966,  -0.65372,  -0.93750,  -0.74236,   0.46923,  -0.93750,  -0.93750
  -0.17917,  -0.41754,   0.26501,   0.29669,  -0.33176,  -0.89512,   0.30584,  -0.87191,   0.54248,   0.93750
  -0.80525,  -0.79812,  -0.70503,   0.87831,   0.93750,   0.73601,   0.76023,   0.05163,   0.29605,  -0.82679
  -0.88388,  -0.01950,   0.93750,   0.93750,  -0.38204,   0.93750,  -0.93750,   0.93750,  -0.93750,  -0.05181
  -0.81805,  -0.10552,   0.61321,  -0.07076,   0.50819,  -0.03822,   0.75352,  -0.05911,   0.00809,   0.20301
   0.43892,  -0.01332,   0.93750,   0.17680,  -0.79764,   0.65519,   0.30824,  -0.55508,   0.38480,   0.12195
   0.74958,   0.65556,  -0.93750,   0.60770,   0.00122,  -0.31787,   0.93750,   0.58159,   0.93750,   0.59808
  -0.81474,  -0.31468,   0.93750,  -0.34293,  -0.44031,   0.84793,  -0.18442,   0.33583,  -0.22840,   0.14415
  -0.67982,  -0.08787,  -0.93750,   0.93750,  -0.74047,  -0.14710,   0.77444,  -0.11516,  -0.31837,  -0.03443
  -0.25812,  -0.13801,   0.00081,  -0.12850,  -0.11795,  -0.26945,   0.53551,  -0.71884,   0.31923,   0.87123
  -0.64430,   0.44770,  -0.62697,  -0.21972,  -0.47531,   0.05876,   0.43426,   0.19846,   0.66428,   0.87509
   0.93640,  -0.17270,  -0.84878,  -0.70094,   0.36707,   0.28583,  -0.79785,  -0.20911,   0.02443,   0.05403
   0.82310,  -0.42038,  -0.72906,   0.20327,  -0.68520,   0.89099,   0.86247,  -0.11302,  -0.63051,   0.12978
  -0.81253,   0.75226,   0.20781,   0.86535,   0.84680,   0.66284,   0.86201,  -0.29175,   0.92228,   0.54890
   0.04981,  -0.04396,   0.02893,  -0.35499,  -0.93750,  -0.24155,   0.68581,  -0.56123,   0.19137,   0.62886
   0.93750,   0.04347,   0.80519,  -0.85296,   0.93750,  -0.41237,  -0.17869,  -0.79387,  -0.93750,  -0.93750
  -0.33336,  -0.06691,   0.78720,  -0.63651,   0.54640,  -0.06891,   0.86151,  -0.50247,  -0.70604,   0.20131
  -0.93750,  -0.93750,  -0.93750,  -0.93750,  -0.14782,   0.23749,   0.66932,   0.08357,   0.32658,  -0.93750
  -0.26800,   0.30705,  -0.82499,  -0.84346,   0.51329,   0.93750,   0.56267,  -0.47398,  -0.93750,  -0.93750
   0.87312,   0.43347,   0.51477,  -0.13470,  -0.70142,   0.09034,  -0.66003,  -0.36139,   0.04507,  -0.18526
  -0.46666,   0.93750,   0.61408,  -0.20968,  -0.81406,  -0.20840,   0.87924,  -0.09624,   0.43142,  -0.24463
  -0.44297,  -0.16551,  -0.26362,   0.26963,   0.93750,  -0.34544,   0.46945,  -0.14658,   0.58389,   0.19715
   0.93750,  -0.42971,   0.04565,  -0.03081,   0.44052,   0.01257,  -0.87608,   0.13989,   0.29388,   0.06286
  -0.41760,   0.73435,   0.59958,  -0.93750,   0.16819,  -0.76909,   0.59924,  -0.93750,  -0.93750,  -0.93750
  -0.13415,   0.25593,   0.93750,   0.88923,  -0.93750,   0.27578,   0.93750,  -0.93750,  -0.93750,  -0.93750
   0.34706,   0.93750,   0.93750,   0.93750,   0.93750,  -0.93750,   0.88457,   0.93750,   0.86256,  -0.93750
  -0.16839,  -0.75062,  -0.37729,   0.93750,  -0.62453,   0.30743,  -0.38877,  -0.84911,   0.45901,  -0.20527
   0.49034,   0.76664,   0.90312,  -0.43195,  -0.05247,  -0.90811,  -0.08274,   0.93750,  -0.51831,   0.81748
   0.93750,  -0.21060,  -0.25538,  -0.22922,  -0.52873,  -0.08163,   0.64044,   0.29039,   0.07565,  -0.17106
   0.51461,   0.42137,  -0.35090,  -0.28308,   0.50348,   0.42827,   0.73785,   0.33370,   0.65754,  -0.17363
  -0.56893,   0.12250,   0.93750,   0.13928,  -0.81861,   0.20615,   0.93750,  -0.27100,  -0.46132,   0.76969
   0.68237,   0.63848,   0.48867,  -0.65981,  -0.55060,   0.74754,  -0.82932,  -0.63982,   0.93750,   0.06845
   0.05578,  -0.00267,   0.93750,  -0.90287,   0.12963,   0.40811,   0.81555,  -0.93750,  -0.87628,   0.93750
  -0.87868,  -0.57314,   0.03382,  -0.56028,  -0.93750,   0.55646,  -0.11871,   0.73512,  -0.69435,  -0.10082
   0.79128,   0.06701,  -0.62617,   0.89110,  -0.93750,  -0.15431,   0.93750,   0.53018,   0.12344,  -0.13530
  -0.74680,   0.86376,   0.67863,  -0.82050,   0.53472,  -0.88499,  -0.77254,  -0.26411,   0.54235,   0.12468
  -0.27140,  -0.19560,  -0.87885,  -0.93750,   0.93750,   0.93750,  -0.01693,  -0.61525,  -0.76370,   0.93750
  -0.56246,  -0.16688,   0.61113,  -0.06187,  -0.25802,   0.61451,   0.91195,  -0.21616,  -0.70811,   0.15984
   0.75244,  -0.49164,  -0.15613,  -0.45901,  -0.56040,   0.74055,  -0.06929,   0.76023,   0.93750,   0.65697
   0.00862,  -0.38786,   0.36260,  -0.87775,   0.93750,  -0.93750,   0.93750,  -0.93750,   0.93750,   0.43016
  -0.77323,  -0.88904,  -0.38656,  -0.93750,  -0.93750,  -0.93750,  -0.93750,  -0.86375,   0.80146,  -0.93750
  -0.12375,   0.74179,   0.14211,  -0.75035,  -0.88649,  -0.93750,  -0.87331,   0.93294,   0.91393,   0.22547
  -0.73366,   0.45267,   0.93750,  -0.93750,  -0.71891,  -0.42157,   0.52699,   0.93750,  -0.69757,  -0.78855
   0.87534,  -0.82002,  -0.65651,   0.79845,  -0.34385,  -0.00461,   0.74393,  -0.45871,  -0.80992,   0.75763
   0.19279,  -0.36657,  -0.25733,   0.35414,  -0.65188,  -0.37788,   0.82184,   0.28492,   0.13805,  -0.15688
  -0.51056,  -0.75399,   0.14306,   0.69832,   0.93750,   0.58653,   0.12048,  -0.67770,   0.79866,  -0.36472
   0.68991,  -0.14426,   0.52442,  -0.39192,  -0.48550,   0.40115,   0.74199,   0.88199,   0.67658,  -0.05611
  -0.87863,   0.05906,  -0.93750,  -0.50667,   0.86806,  -0.93750,  -0.46862,  -0.78789,  -0.93750,   0.93750
   0.63849,   0.93750,   0.28484,  -0.67191,  -0.50513,   0.20303,   0.19325,  -0.24442,  -0.23790,  -0.01639
  -0.27066,  -0.23915,  -0.43089,   0.17992,  -0.05308,   0.88338,  -0.50945,   0.73962,   0.87987,  -0.77121
  -0.39227,  -0.14144,   0.50002,  -0.25591,  -0.67687,  -0.46831,  -0.22398,   0.82023,  -0.49505,   0.49103
  -0.67747,  -0.44984,   0.54199,  -0.19362,  -0.34465,   0.93750,  -0.93750,   0.12289,   0.39647,  -0.11355
  -0.33100,  -0.33421,   0.12786,  -0.43685,  -0.48401,   0.09832,   0.87193,  -0.14951,  -0.37149,  -0.11584
   0.62972,  -0.32966,   0.64050,   0.49908,  -0.93750,   0.38819,   0.89862,   0.04812,  -0.67754,  -0.65651
  -0.39352,   0.49803,   0.49393,   0.61634,   0.26280,  -0.86743,  -0.77381,   0.86066,   0.93750,   0.18069
   0.01023,  -0.64000,  -0.66701,  -0.40484,   0.93750,   0.33014,  -0.74585,   0.05619,  -0.31719,  -0.06603
  -0.39566,   0.69124,  -0.84924,   0.33245,   0.87019,  -0.49743,  -0.79793,  -0.63607,  -0.34118,   0.13290
   0.47460,  -0.34282,   0.44267,  -0.42520,   0.77649,   0.16289,   0.00340,  -0.50294,   0.64218,   0.30751
  -0.28590,   0.12768,  -0.51202,  -0.16479,   0.08857,  -0.16416,   0.87165,   0.87805,  -0.20642,   0.92497
   0.93654,   0.88456,  -0.52663,  -0.41574,   0.71377,   0.35126,  -0.74030,  -0.17067,   0.39636,   0.02028
  -0.93750,  -0.28741,   0.85048,  -0.73784,  -0.73272,  -0.93750,  -0.93750,  -0.93750,  -0.93750,  -0.22471
   0.30486,  -0.45883,   0.29615,   0.01978,   0.32114,   0.54216,   0.42114,  -0.19742,  -0.27253,  -0.33019
   0.51093,  -0.66596,  -0.00639,   0.57095,   0.17320,  -0.31921,   0.35924,  -0.16538,   0.14510,  -0.51203
  -0.92747,   0.76983,   0.47875,   0.49097,   0.28855,  -0.11043,  -0.82666,   0.73728,   0.75856,   0.07525
   0.79354,  -0.29613,  -0.93688,  -0.31856,   0.92940,  -0.04498,   0.87883,  -0.09099,  -0.74119,   0.40190
   0.29167,  -0.24821,   0.35897,   0.87745,   0.42650,  -0.05374,  -0.87072,   0.12063,  -0.00957,  -0.06104
  -0.57514,   0.87628,  -0.49654,   0.93628,  -0.33797,  -0.34205,  -0.55562,   0.93750,  -0.00231,   0.66333
  -0.23269,   0.31397,  -0.34418,   0.60231,   0.87064,   0.40351,   0.00708,   0.14241,   0.48604,   0.85546
   0.63077,   0.77846,   0.78575,   0.92175,   0.56346,   0.60099,   0.69799,   0.49694,   0.91492,   0.75101
   0.86486,  -0.57433,   0.13533,  -0.28587,  -0.49040,   0.06135,   0.35855,  -0.00657,  -0.87411,   0.81274
  -0.93750,  -0.57438,   0.41962,  -0.85280,   0.25741,  -0.93750,  -0.80297,   0.93750,  -0.80215,  -0.93750
   0.86371,   0.04257,  -0.80841,   0.20004,   0.05810,   0.52303,  -0.56777,  -0.35093,  -0.39961,   0.23086
   0.91528,   0.26671,  -0.52643,  -0.28339,   0.81120,  -0.15044,  -0.64236,  -0.17383,   0.05261,   0.12659
  -0.39073,   0.54205,   0.91695,   0.88468,  -0.41316,   0.72771,   0.26140,   0.08816,  -0.01888,  -0.18112
  -0.33513,  -0.58600,   0.53125,  -0.73180,   0.88085,  -0.51168,  -0.92956,  -0.20414,   0.51846,   0.87262
  -0.47037,  -0.93750,  -0.52258,  -0.09463,   0.20090,   0.93750,   0.93750,   0.10602,   0.57500,  -0.93750
  -0.61338,  -0.31090,  -0.93750,   0.86433,   0.93750,  -0.93750,  -0.93750,  -0.93750,  -0.93750,   0.93750
   0.68617,  -0.27046,   0.93750,  -0.41329,  -0.67827,   0.92679,   0.37554,   0.43601,   0.93750,  -0.02250
  -0.56495,  -0.66996,   0.41228,  -0.29771,  -0.93750,  -0.61715,   0.48696,   0.93750,   0.80739,   0.74569
  -0.27814,   0.68193,   0.71100,  -0.03260,   0.61990,   0.62794,  -0.23753,  -0.18272,  -0.04400,  -0.03427
   0.10532,   0.13936,   0.89604,  -0.63660,  -0.21495,   0.30176,  -0.54825,   0.03449,   0.93750,  -0.34118
  -0.29722,   0.15713,  -0.11606,   0.56453,  -0.29283,  -0.44575,  -0.45586,  -0.93608,  -0.22314,   0.93750
   0.25560,  -0.67835,  -0.33826,  -0.06134,  -0.15196,  -0.29801,  -0.22848,   0.86798,  -0.60761,   0.39066
  -0.21666,  -0.04682,  -0.32703,  -0.30151,  -0.79927,  -0.17091,   0.93750,  -0.10044,  -0.60330,  -0.27774
   0.43758,  -0.60974,   0.42764,   0.91331,  -0.81133,  -0.51039,   0.82683,   0.87406,  -0.87537,   0.34117
   0.07240,  -0.27684,  -0.21826,   0.68946,   0.02918,   0.16339,   0.75420,  -0.09192,   0.70646,   0.02079
   0.07044,   0.53332,  -0.93750,  -0.20692,   0.68343,   0.63025,  -0.84742,   0.87075,  -0.20641,  -0.87470
   0.38718,   0.93750,  -0.76350,  -0.93750,  -0.48189,   0.93750,  -0.65582,  -0.86681,  -0.26593,   0.93750
   0.86828,  -0.82512,   0.23379,  -0.61714,   0.59752,   0.93750,   0.69756,  -0.85260,   0.39078,  -0.92865
  -0.10621,   0.03306,  -0.44034,   0.60927,   0.88877,   0.08033,  -0.73826,  -0.20299,   0.08245,  -0.16360
   0.93750,   0.49652,  -0.78851,   0.63441,   0.93750,  -0.34770,  -0.22134,   0.31679,  -0.93750,   0.93750
  -0.23120,  -0.37702,  -0.47030,   0.12980,   0.62461,  -0.02179,   0.62562,   0.33245,  -0.52905,   0.75592
   0.93750,  -0.42144,  -0.80025,   0.70239,   0.83636,   0.93750,  -0.93750,   0.93750,   0.00922,  -0.93750
  -0.05921,   0.14777,   0.58539,   0.76261,   0.02772,   0.04319,  -0.81478,   0.07908,  -0.19947,   0.18561
   0.35992,  -0.59296,  -0.22731,   0.45503,   0.81513,  -0.14624,  -0.24946,   0.29961,   0.53503,   0.20575
  -0.45447,   0.05783,  -0.62041,  -0.02493,  -0.74615,   0.29323,   0.93750,  -0.24259,   0.01259,  -0.10778
   0.93750,  -0.19565,   0.08041,  -0.19995,  -0.52951,  -0.44192,  -0.88298,   0.28612,   0.68314,   0.31298
  -0.46992,   0.38950,  -0.52873,   0.26305,  -0.81722,  -0.71365,   0.93750,   0.04463,   0.93750,  -0.14148
   0.67396,   0.87080,   0.86364,   0.50519,  -0.75972,  -0.74803,  -0.40516,  -0.77344,   0.40290,   0.56860
   0.84109,   0.19334,   0.93750,  -0.73480,   0.68919,  -0.93750,  -0.93750,  -0.81645,  -0.65672,   0.88338
  -0.87117,   0.35552,  -0.80681,  -0.87864,   0.93750,  -0.79827,   0.86780,   0.06616,  -0.77095,  -0.87689
   0.57569,   0.12346,  -0.87433,   0.26471,   0.55458,  -0.93750,   0.02594,   0.41253,   0.84813,  -0.51748
  -0.75809,   0.43536,  -0.67780,   0.88235,   0.14264,  -0.60744,   0.81085,   0.87212,   0.09089,  -0.93750
   0.75887,   0.81297,   0.09562,  -0.72886,  -0.53056,  -0.27345,  -0.23719,   0.49883,  -0.40861,   0.85123
   0.67611,   0.20214,   0.80162,  -0.22015,   0.81434,   0.18403,  -0.81784,  -0.35012,  -0.75004,  -0.14712
  -0.40492,  -0.51812,   0.59991,  -0.23687,   0.55842,  -0.09594,   0.19551,  -0.48325,   0.77005,  -0.33817
  -0.52327,   0.79531,  -0.27487,  -0.04171,  -0.56182,   0.38491,   0.82584,   0.36547,   0.74130,   0.39716
  -0.46859,  -0.76350,  -0.93538,   0.40806,   0.88551,   0.76037,   0.09270,   0.15799,   0.87440,  -0.63203
  -0.51096,   0.93750,   0.49043,   0.63571,  -0.39996,  -0.00947,   0.68350,   0.16259,  -0.81739,  -0.74960
   0.85701,  -0.70540,  -0.92905,  -0.80807,  -0.66629,  -0.13726,   0.93750,  -0.26903,  -0.64654,   0.03842
  -0.61635,  -0.77171,   0.82577,   0.00180,   0.32657,   0.00960,   0.93750,   0.93750,  -0.79363,  -0.57844
   0.93750,  -0.42756,  -0.04978,  -0.11639,   0.44825,  -0.29405,  -0.84239,  -0.87311,   0.93750,  -0.15936
  -0.30238,   0.22546,   0.10770,  -0.43585,  -0.44028,   0.19919,   0.63857,  -0.07730,   0.18839,   0.17558
  -0.61392,   0.15822,   0.93750,   0.11857,  -0.83855,  -0.14064,   0.93750,   0.44402,  -0.58755,  -0.10157
   0.93750,  -0.17963,  -0.79664,  -0.38578,  -0.06822,  -0.00643,  -0.87140,  -0.63177,  -0.76733,   0.16237
   0.79543,   0.63282,   0.78010,  -0.93750,  -0.45796,  -0.23442,   0.44205,   0.58203,   0.20228,  -0.52771
  -0.77519,  -0.93750,   0.50021,  -0.33745,   0.08155,   0.93750,   0.88524,  -0.93750,  -0.85042,   0.90150
   0.45965,   0.41269,   0.32592,   0.35067,   0.17212,  -0.45564,   0.06831,  -0.00644,   0.02413,  -0.54510
   0.93750,   0.77336,  -0.93750,  -0.59329,   0.51577,   0.33751,   0.26841,  -0.93750,   0.31537,  -0.41562
   0.21375,   0.13006,  -0.65122,   0.08837,   0.93750,  -0.13870,  -0.22106,   0.00747,   0.21009,   0.14155
  -0.67426,   0.41765,  -0.13435,   0.69029,  -0.93750,   0.13650,   0.93750,  -0.00040,   0.48911,   0.05015
  -0.48066,  -0.11162,   0.81780,   0.93750,  -0.07597,   0.63591,  -0.88980,  -0.81478,   0.93750,  -0.76238
   0.86993,  -0.27689,   0.39265,  -0.84923,  -0.03539,   0.20602,  -0.90118,   0.22203,   0.08714,   0.26380
   0.90118,  -0.08016,  -0.67770,  -0.78302,  -0.76942,  -0.00992,   0.80471,  -0.06209,  -0.12592,   0.22338
   0.93750,   0.19352,   0.05241,   0.69739,   0.53637,   0.04450,  -0.07296,  -0.93750,  -0.73989,   0.36094
   0.78981,  -0.66684,  -0.82218,  -0.87650,   0.18061,  -0.24907,  -0.74975,   0.37556,  -0.93750,  -0.87491
  -0.46779,  -0.61611,   0.68421,   0.21014,  -0.32182,  -0.44547,  -0.75996,   0.71839,  -0.54334,   0.64354
   0.87323,   0.00722,   0.93750,  -0.32484,  -0.32063,   0.04374,  -0.54125,   0.07991,  -0.33706,  -0.39403
  -0.88143,   0.02746,   0.81035,   0.53957,   0.00764,  -0.93750,   0.48384,  -0.80166,  -0.93750,   0.74955
  -0.79269,  -0.71085,  -0.93750,  -0.20410,   0.85169,   0.50406,  -0.61485,  -0.77814,   0.93750,  -0.57530
  -0.79325,   0.80216,  -0.80478,   0.89357,  -0.25956,   0.72653,  -0.19465,  -0.93750,   0.38587,   0.81729
  -0.80445,   0.87679,  -0.69925,   0.29386,   0.22692,  -0.92901,   0.64963,  -0.05793,  -0.25719,   0.93750
  -0.93750,   0.27307,   0.88614,   0.53513,  -0.88243,  -0.40968,  -0.82013,   0.15211,   0.93750,  -0.93750
   0.86680,  -0.07845,   0.72041,  -0.57818,  -0.77858,  -0.79727,  -0.86731,   0.71873,   0.82343,   0.40461
   0.93750,   0.00192,   0.81230,  -0.10012,   0.07106,  -0.60470,  -0.13135,   0.68933,   0.93750,   0.50668
  -0.67354,   0.10021,   0.17658,   0.14005,   0.05806,  -0.78364,  -0.28836,   0.93496,   0.45724,  -0.93400
   0.32793,  -0.54454,  -0.39478,   0.44370,  -0.88417,  -0.18700,   0.87262,   0.74434,  -0.19640,   0.75479
  -0.02902,  -0.01445,  -0.22779,   0.67581,  -0.25309,  -0.12527,  -0.82000,  -0.08806,  -0.66361,   0.07509
   0.81181,   0.20335,   0.07192,  -0.24254,   0.92287,   0.75657,  -0.03013,  -0.56610,  -0.75357,   0.25986
   0.23828,   0.92801,   0.01973,  -0.70486,  -0.68292,  -0.64592,  -0.73515,   0.19704,  -0.61777,   0.20720
   0.24961,   0.76243,   0.16637,   0.04291,   0.16535,   0.57499,   0.28454,  -0.04690,  -0.18885,   0.74791
  -0.65117,  -0.21640,   0.83142,  -0.47833,   0.65235,  -0.48496,   0.87131,  -0.19356,   0.81830,  -0.65128
  -0.53874,   0.93750,  -0.22030,  -0.86650,  -0.74572,  -0.50629,   0.02473,   0.48081,   0.73821,  -0.29475
   0.71114,  -0.38146,  -0.66685,   0.86739,   0.24521,  -0.93750,  -0.34958,  -0.23851,  -0.93750,   0.93750
   0.93750,  -0.93750,  -0.79391,   0.62882,  -0.84404,  -0.93750,   0.93750,  -0.30729,  -0.42331,  -0.14340
   0.39483,   0.91704,  -0.76477,  -0.87411,  -0.26494,  -0.93750,   0.77047,  -0.12809,   0.63705,   0.34936
  -0.27606,   0.39915,  -0.44288,  -0.90033,   0.02689,  -0.87068,   0.87978,   0.63845,   0.64435,   0.93750
   0.54965,  -0.00083,  -0.62139,   0.47298,   0.57291,  -0.93750,  -0.13141,  -0.93750,   0.56419,  -0.66070
   0.93750,   0.01743,   0.18126,  -0.04430,  -0.02343,  -0.29265,  -0.92424,  -0.34348,   0.31818,   0.00879
  -0.01707,   0.07342,   0.12184,   0.01507,  -0.01796,  -0.11642,   0.15534,   0.13900,   0.20578,  -0.03349
   0.87115,   0.17100,   0.87419,  -0.85200,   0.34653,  -0.89745,  -0.51910,   0.59876,  -0.38465,   0.93076
   0.37885,  -0.52743,   0.06266,  -0.25666,   0.39344,  -0.85755,  -0.78487,   0.90586,  -0.78830,   0.93750
  -0.64572,  -0.22369,   0.59689,  -0.93750,  -0.08043,  -0.93750,   0.23980,  -0.63721,  -0.87695,   0.77997
  -0.93750,  -0.64776,  -0.64639,  -0.75105,   0.25755,  -0.79788,  -0.08659,  -0.93750,  -0.29275,  -0.81937
   0.86539,   0.81891,  -0.93750,   0.56121,  -0.74349,   0.19268,   0.81399,   0.28008,  -0.93750,  -0.75188
   0.87974,   0.87677,   0.02551,  -0.32712,   0.06304,   0.93750,   0.81248,   0.20171,   0.86814,   0.47223
  -0.66293,  -0.19883,   0.81614,   0.86125,   0.58018,   0.15630,  -0.93750,  -0.58290,   0.32123,   0.73768
  -0.74678,   0.80725,  -0.18562,   0.57058,   0.61255,   0.15919,   0.45688,   0.44006,  -0.65423,  -0.66011
  -0.46227,  -0.47085,   0.91537,   0.88070,  -0.87954,  -0.61191,  -0.57798,  -0.87430,   0.06510,   0.35969
  -0.77439,   0.35311,  -0.48713,   0.12065,  -0.21480,   0.31231,   0.92880,   0.44153,   0.93750,  -0.17365
   0.73995,   0.02857,   0.16876,   0.16080,   0.49867,  -0.05766,  -0.70842,  -0.05571,   0.13546,  -0.15202
   0.52528,  -0.88518,   0.93750,   0.93750,  -0.37396,   0.51857,   0.86285,  -0.91599,   0.30371,  -0.24940
   0.53375,   0.63622,   0.08619,  -0.36104,   0.92013,   0.18491,  -0.93750,   0.33017,   0.12296,   0.59654
  -0.08257,  -0.87220,  -0.63852,  -0.76183,  -0.75769,  -0.91914,   0.74336,   0.83679,  -0.58542,   0.42348
   0.43335,   0.02568,  -0.47367,   0.81763,   0.81006,  -0.04145,  -0.57373,   0.11991,   0.13657,  -0.42202
   0.17532,   0.39634,   0.69062,  -0.72961,   0.85428,   0.06637,  -0.86153,  -0.35817,   0.10946,   0.18282
   0.92615,  -0.60928,  -0.82487,  -0.85233,   0.34657,  -0.24555,   0.86463,  -0.01849,  -0.36882,   0.28453
   0.32835,  -0.73822,  -0.75423,   0.24821,   0.63927,   0.93750,  -0.19040,  -0.53750,   0.07586,   0.86943
   0.20993,  -0.33286,   0.38846,  -0.65840,   0.59481,   0.93750,  -0.63017,  -0.87193,  -0.16029,  -0.04145
  -0.06456,   0.14419,  -0.73266,   0.63136,   0.01377,  -0.45510,  -0.46805,   0.91087,  -0.71617,   0.66283
   0.21877,  -0.79725,   0.86924,   0.44578,  -0.92955,   0.80299,  -0.27670,  -0.93750,   0.16287,  -0.93750
   0.67113,   0.40492,   0.42475,   0.51810,   0.04868,  -0.27965,   0.33331,   0.40876,   0.14938,  -0.72058
  -0.45810,  -0.58397,   0.93750,  -0.33820,   0.93750,  -0.93750,  -0.49424,   0.93750,  -0.86554,   0.93750
  -0.88088,  -0.37156,   0.93750,  -0.37949,  -0.48497,   0.03418,  -0.36989,  -0.33845,  -0.20002,   0.17734
  -0.18829,   0.76659,   0.10490,  -0.36823,  -0.74981,   0.20830,   0.54638,  -0.33646,  -0.34286,   0.20882
   0.90270,  -0.87377,   0.93750,   0.93750,  -0.75139,   0.93750,   0.93750,  -0.86587,   0.48569,  -0.70360
  -0.86736,  -0.52716,   0.93750,   0.35619,  -0.64786,  -0.09325,  -0.04032,   0.21402,  -0.11242,  -0.19324
  -0.33700,  -0.46436,   0.93566,  -0.14381,  -0.71438,   0.53444,  -0.67707,   0.03664,  -0.10510,   0.47942
   0.83771,   0.05190,  -0.02228,  -0.14471,  -0.80141,  -0.01485,   0.93627,  -0.31424,  -0.21223,   0.27557
  -0.34674,   0.24327,  -0.93750,  -0.76007,  -0.44465,   0.77828,  -0.91978,  -0.29520,  -0.93750,  -0.93750
  -0.11589,   0.18604,  -0.01911,   0.70148,  -0.12551,  -0.80257,   0.93750,  -0.67781,   0.74018,   0.24224
   0.47890,   0.93750,  -0.77218,  -0.74823,  -0.53814,   0.21796,  -0.74820,   0.15983,  -0.79717,   0.93750
   0.70096,  -0.79633,   0.49851,  -0.93750,  -0.90595,   0.25338,   0.24610,  -0.00460,   0.12239,   0.05913
   0.16369,  -0.75579,   0.19282,   0.04381,  -0.02798,  -0.69229,   0.56203,   0.01119,   0.60170,  -0.93750
  -0.43856,   0.53596,  -0.55262,   0.84549,   0.16156,  -0.48449,  -0.23374,   0.80772,  -0.20022,   0.71577
  -0.87483,  -0.93750,   0.68302,  -0.93750,  -0.93750,  -0.81633,  -0.93750,  -0.93750,   0.04168,  -0.87154
  -0.54386,  -0.62792,  -0.92326,   0.91545,   0.55840,   0.49755,  -0.72112,   0.26018,   0.91862,   0.04988
  -0.17026,  -0.15787,   0.67882,  -0.24370,   0.17768,  -0.29787,  -0.18478,   0.43003,   0.67527,   0.01539
   0.27490,   0.60953,   0.93750,  -0.93750,   0.93750,  -0.93750,  -0.93750,  -0.54443,   0.35583,   0.93750
   0.80293,   0.19973,  -0.40786,  -0.50498,  -0.33944,   0.93750,  -0.35069,   0.67861,  -0.70382,  -0.79988
  -0.29945,   0.08664,   0.69674,  -0.91642,   0.93750,   0.06964,   0.07076,  -0.32769,  -0.39608,  -0.11880
  -0.92100,  -0.52558,   0.44143,   0.51321,   0.81224,   0.05894,   0.84464,  -0.04376,   0.70672,  -0.16425
  -0.93750,   0.29225,   0.76515,   0.46096,  -0.93750,  -0.11086,   0.83730,  -0.48342,  -0.50596,   0.93750
  -0.60881,  -0.44098,   0.63418,   0.04556,  -0.13761,   0.80389,   0.25553,   0.65497,  -0.68027,   0.91037
   0.93750,  -0.75488,  -0.01158,   0.93750,   0.87331,  -0.92845,   0.93750,   0.93750,  -0.93750,   0.88885
  -0.76273,  -0.20039,  -0.60303,   0.31667,   0.41983,  -0.46656,   0.66223,   0.55650,  -0.56346,  -0.23999
  -0.93750,  -0.90182,  -0.64755,  -0.90757,  -0.90395,   0.21082,  -0.69752,   0.34853,  -0.46910,  -0.81562
   0.93750,  -0.26646,  -0.38689,  -0.72487,  -0.62517,  -0.18299,   0.81384,   0.10147,  -0.42850,   0.14164
  -0.72687,   0.70133,  -0.46939,  -0.39169,   0.12230,   0.93657,  -0.38384,  -0.86688,  -0.64451,   0.93750
  -0.51034,  -0.85739,  -0.93750,   0.46783,   0.61912,   0.10225,  -0.93750,   0.93750,  -0.03554,  -0.16424
  -0.12416,   0.22970,   0.41523,   0.82646,  -0.17932,  -0.81124,  -0.28311,   0.59645,   0.01536,   0.44369
   0.93750,  -0.10032,  -0.71276,   0.49553,  -0.01163,  -0.28102,  -0.74825,   0.47320,   0.52724,   0.49205
  -0.73985,  -0.27393,  -0.57391,  -0.69304,  -0.59384,  -0.93750,  -0.82153,   0.26629,   0.93750,  -0.65588
   0.62463,  -0.30889,  -0.62930,   0.78482,  -0.69314,   0.79232,  -0.80843,  -0.45088,   0.48776,  -0.03195
   0.87329,   0.92678,   0.85072,  -0.53910,  -0.91727,   0.82980,  -0.78199,   0.16888,  -0.61734,  -0.33065
   0.86627,   0.81241,   0.87245,   0.31560,  -0.09912,  -0.13927,   0.25375,   0.33186,  -0.75286,  -0.86767
   0.07190,   0.93750,  -0.93750,   0.08738,  -0.93750,  -0.93750,  -0.93750,  -0.68655,  -0.93750,  -0.76208
  -0.26761,  -0.19777,   0.36850,   0.34861,   0.33711,   0.14569,   0.36225,  -0.08310,   0.22955,  -0.06869
  -0.61118,   0.88342,  -0.72713,   0.41079,  -0.20202,  -0.26648,  -0.93750,  -0.17026,   0.88533,   0.93750
  -0.67953,   0.93750,   0.78958,  -0.93750,   0.32645,  -0.70905,   0.82002,  -0.93750,   0.93750,  -0.51221
   0.30105,  -0.87156,  -0.84272,  -0.52857,  -0.86515,  -0.88006,   0.51085,  -0.86565,   0.08194,   0.48495
   0.30182,  -0.87598,  -0.82031,  -0.05735,  -0.03802,   0.93750,   0.61572,  -0.44505,   0.28887,  -0.52408
   0.93473,   0.32720,  -0.21331,  -0.08952,  -0.38638,  -0.14599,  -0.80290,   0.48219,   0.93750,   0.03570
   0.56421,   0.08104,  -0.93750,   0.68517,  -0.93750,  -0.93750,   0.93750,   0.87834,   0.14984,   0.14775
  -0.49363,   0.74462,   0.19369,  -0.93750,   0.93750,  -0.63361,   0.74537,  -0.40573,  -0.62370,  -0.93750
  -0.63704,  -0.13429,   0.93750,  -0.93750,   0.93750,   0.83255,  -0.10211,   0.14185,  -0.93750,  -0.93750
   0.93750,  -0.93750,   0.08876,  -0.59917,  -0.84251,  -0.64238,  -0.93619,   0.81980,   0.73851,  -0.31227
  -0.93750,   0.34649,  -0.93750,   0.10319,  -0.93750,   0.93750,  -0.93750,  -0.86477,  -0.67308,   0.32392
   0.93323,   0.11670,  -0.57722,  -0.09295,   0.26003,  -0.22055,  -0.81122,   0.31617,  -0.12532,   0.56033
   0.02557,   0.47020,  -0.44322,  -0.12749,   0.87114,   0.30374,  -0.58433,   0.03472,   0.50366,   0.39433
  -0.81052,  -0.63291,   0.60525,  -0.29449,  -0.80117,   0.86949,  -0.85984,  -0.24682,  -0.82106,   0.16017
   0.93750,  -0.54991,   0.49884,  -0.71775,   0.88937,   0.01725,  -0.02925,  -0.90825,  -0.37441,  -0.15716
   0.39177,  -0.08131,  -0.74198,  -0.52727,  -0.08753,  -0.83658,   0.69724,  -0.13807,  -0.67154,  -0.87285
  -0.34555,   0.60686,   0.19659,   0.03986,  -0.51913,  -0.36008,   0.61096,  -0.71817,   0.39463,  -0.08035
   0.06386,  -0.31160,  -0.19488,   0.04746,   0.93750,   0.40881,  -0.80000,  -0.29700,  -0.12327,  -0.13758
   0.01820,   0.93750,  -0.50425,   0.31444,   0.93750,   0.43914,  -0.53879,  -0.26588,  -0.63857,  -0.74819
  -0.45263,  -0.08685,  -0.42387,   0.87313,  -0.39615,  -0.80120,  -0.06853,   0.93750,   0.53653,  -0.60309
   0.89417,   0.17621,  -0.93750,  -0.56681,  -0.87525,   0.74741,  -0.24899,  -0.23428,  -0.03688,  -0.24640
   0.37210,   0.20910,   0.34218,  -0.11552,   0.73281,   0.00715,  -0.78169,   0.20303,  -0.03687,   0.09242
  -0.13286,  -0.40576,  -0.74791,  -0.62391,   0.93750,  -0.57264,  -0.06971,  -0.93750,  -0.12383,  -0.44685
  -0.72387,   0.72319,  -0.93750,  -0.79163,  -0.78021,  -0.44124,  -0.93487,  -0.84352,   0.93750,  -0.33376
   0.82730,  -0.15955,  -0.45060,   0.29205,   0.63279,  -0.81191,   0.63090,  -0.64946,  -0.73369,  -0.62195
   0.87835,   0.75564,  -0.08656,   0.87285,   0.40164,  -0.76212,   0.48163,   0.93750,  -0.83429,  -0.74601
   0.58742,  -0.63534,   0.82154,  -0.86010,   0.93750,  -0.93750,  -0.48361,   0.93750,   0.45662,  -0.04751
   0.75945,   0.36257,   0.44669,  -0.63057,   0.40124,  -0.39218,  -0.71376,  -0.10308,  -0.91813,  -0.09424
  -0.11088,  -0.13413,   0.45481,   0.74128,   0.50766,  -0.15100,   0.63737,   0.43329,  -0.27010,   0.58797
  -0.93750,  -0.90586,   0.93750,  -0.93750,  -0.16447,   0.93750,  -0.80235,   0.93750,  -0.73076,   0.02122
   0.80029,  -0.46297,  -0.28101,   0.11550,  -0.29039,  -0.01927,   0.34425,  -0.31295,  -0.59128,   0.12260
  -0.93750,   0.93750,   0.56199,  -0.87946,  -0.90737,   0.01909,  -0.33240,  -0.21050,   0.92824,   0.03103
  -0.29102,   0.93750,  -0.38153,  -0.47732,   0.12644,  -0.14154,   0.18462,   0.93750,   0.00176,  -0.93750
   0.08334,   0.24985,  -0.61210,   0.93750,   0.27721,   0.92414,   0.78211,   0.63557,  -0.60074,  -0.34279
   0.93750,   0.93750,  -0.77968,   0.88968,  -0.37534,  -0.12358,  -0.42240,  -0.36705,   0.39677,  -0.43149
  -0.91366,  -0.57821,   0.93750,  -0.71844,  -0.38289,  -0.21400,   0.93304,   0.79056,   0.75303,  -0.18920
   0.40731,  -0.68741,  -0.06843,   0.09781,  -0.37866,   0.82343,  -0.05972,   0.34178,  -0.78173,  -0.29515
   0.05455,   0.50395,   0.06850,   0.73645,  -0.74228,   0.87799,   0.50466,  -0.93750,   0.04159,   0.22526
  -0.25618,  -0.59676,  -0.63494,   0.25325,   0.60504,   0.66787,   0.18466,   0.76373,   0.82405,  -0.16103
  -0.08634,   0.63160,   0.40828,  -0.21787,  -0.35694,  -0.28556,   0.36214,   0.70345,  -0.74697,   0.67350
   0.87049,  -0.01604,  -0.23732,  -0.46294,   0.44338,   0.07493,  -0.93750,   0.06053,   0.24031,   0.05406
   0.76207,  -0.25200,   0.58889,   0.81080,  -0.17497,   0.33385,  -0.43934,   0.08504,  -0.41215,  -0.11248
   0.57544,  -0.50294,  -0.02236,   0.37363,  -0.77620,  -0.71314,  -0.85441,   0.85993,  -0.35219,  -0.86370
  -0.44638,   0.72559,   0.19679,  -0.34234,   0.10126,   0.93750,  -0.54500,  -0.93384,   0.93750,  -0.93750
  -0.14004,  -0.14215,  -0.12175,   0.93750,  -0.87729,   0.25881,   0.05206,  -0.93750,   0.93750,  -0.87130
  -0.75909,  -0.41359,   0.25374,  -0.63930,   0.77996,   0.09143,  -0.34419,  -0.31963,   0.93750,   0.54161
  -0.39013,  -0.05062,   0.49585,   0.93750,  -0.56820,  -0.90568,  -0.78658,   0.75160,   0.93675,   0.04533
   0.93750,   0.93750,  -0.31918,   0.22696,  -0.15458,   0.22302,  -0.86580,  -0.53582,  -0.46716,   0.86862
  -0.41431,  -0.32704,  -0.45507,  -0.29496,   0.75618,   0.02358,   0.64777,  -0.09395,   0.93077,  -0.22601
  -0.58387,  -0.25538,  -0.24040,   0.76316,  -0.93750,   0.93750,   0.72167,  -0.85486,  -0.78633,  -0.71852
  -0.93750,  -0.30923,   0.49978,  -0.46168,   0.49364,   0.93750,  -0.37666,  -0.38661,   0.68952,  -0.88238
   0.09194,  -0.23363,   0.70746,  -0.73702,  -0.01031,  -0.72797,  -0.59686,   0.25777,  -0.05762,   0.62091
   0.93750,   0.33910,  -0.13790,   0.17266,   0.93750,   0.40038,  -0.91284,   0.59020,   0.52977,   0.93750
  -0.34585,  -0.15906,  -0.75470,   0.41459,   0.73754,  -0.85878,  -0.45857,   0.60503,  -0.29745,   0.93312
  -0.05675,   0.19884,  -0.37526,   0.15211,   0.93478,  -0.33234,  -0.21203,   0.51103,   0.13293,   0.32142
  -0.37552,  -0.47803,  -0.64386,   0.74642,  -0.86510,  -0.34865,  -0.44257,  -0.93750,   0.02003,  -0.45448
   0.44742,   0.89263,  -0.69207,  -0.60534,   0.87693,   0.80359,  -0.81087,   0.93750,   0.69447,  -0.14605
   0.70668,   0.27937,   0.48894,  -0.49305,  -0.44132,  -0.22100,  -0.76925,   0.56373,   0.67457,   0.23971
   0.93750,   0.93750,  -0.72989,   0.93750,  -0.93750,   0.93750,  -0.84069,   0.32081,  -0.93750,   0.93750
   0.62117,  -0.60160,  -0.63721,   0.87942,   0.31026,  -0.62899,  -0.82901,  -0.90036,   0.66422,   0.01830
  -0.75792,   0.73649,   0.68518,   0.81756,  -0.37505,   0.87768,   0.82814,  -0.93750,   0.91502,  -0.17830
   0.93750,  -0.06798,  -0.11826,  -0.85733,   0.31481,  -0.12481,  -0.87435,  -0.52142,   0.19839,   0.04314
  -0.66726,   0.09393,   0.57074,  -0.20538,   0.37425,   0.23274,   0.85746,   0.21242,  -0.01826,  -0.41580
  -0.34690,  -0.93750,  -0.93750,  -0.68997,   0.93750,   0.33321,   0.90992,   0.93750,  -0.08185,   0.93750
   0.14722,  -0.89178,   0.09335,   0.56941,   0.63218,  -0.93750,  -0.90098,   0.93750,   0.60149,  -0.80110
  -0.00416,  -0.15052,  -0.55874,  -0.28568,   0.68567,   0.11397,  -0.18936,   0.11963,  -0.33260,   0.16653
  -0.92730,   0.16731,  -0.07622,   0.56216,  -0.67131,   0.05113,   0.93750,  -0.07278,  -0.27002,  -0.04679
   0.88970,   0.22812,  -0.56781,   0.93750,  -0.52381,   0.12798,  -0.69741,  -0.03277,  -0.38242,   0.27607
   0.42345,   0.52532,  -0.41464,  -0.31357,  -0.78096,   0.88472,  -0.13683,   0.49289,   0.76829,  -0.36855
   0.84498,  -0.74431,   0.91522,  -0.89964,   0.90756,  -0.47632,   0.83882,  -0.19635,  -0.77816,  -0.70724
   0.76381,  -0.50913,   0.44218,   0.06351,  -0.75229,  -0.48233,   0.75463,  -0.65096,  -0.37955,  -0.18564
  -0.84736,   0.64108,  -0.37104,   0.93750,  -0.73398,   0.93750,  -0.90758,  -0.59335,  -0.93750,  -0.77186
  -0.36981,   0.67172,   0.71652,   0.82561,  -0.61168,   0.70418,   0.53481,  -0.24744,  -0.72029,  -0.25445
   0.81622,  -0.11508,   0.65181,  -0.77197,  -0.66243,  -0.15309,   0.74291,  -0.14408,  -0.72260,  -0.20344
   0.40694,  -0.93750,   0.11109,   0.08483,  -0.73444,  -0.93750,  -0.64087,  -0.67548,  -0.93750,  -0.68507
  -0.59771,  -0.37774,  -0.85710,  -0.75428,   0.79275,  -0.23456,   0.92455,   0.08722,  -0.57568,  -0.06378
   0.42876,   0.18568,  -0.17362,  -0.62178,   0.80569,   0.21070,  -0.65308,   0.28020,   0.19501,   0.11053
  -0.10633,   0.43966,  -0.75508,   0.80635,   0.42164,   0.34527,   0.84197,  -0.04983,  -0.16477,  -0.07013
  -0.71027,  -0.41272,  -0.61584,   0.30316,   0.74798,   0.93750,  -0.39189,  -0.91883,  -0.67218,  -0.74166
  -0.21889,  -0.12397,  -0.28079,  -0.10132,   0.54943,  -0.60911,  -0.56429,  -0.93750,   0.47672,  -0.87419
   0.93750,  -0.56186,   0.39800,  -0.81673,  -0.93750,   0.93750,  -0.49071,  -0.56539,   0.09988,  -0.87037
   0.80785,  -0.02738,  -0.13471,  -0.24946,   0.93750,   0.04249,  -0.69785,   0.11727,  -0.06256,   0.51210
   0.61666,  -0.22418,   0.09888,  -0.93750,   0.23698,  -0.29649,   0.93750,  -0.93750,  -0.93750,  -0.87322
  -0.80122,   0.49915,  -0.08783,  -0.40967,   0.08885,  -0.23167,   0.79115,  -0.22293,   0.81353,   0.01920
   0.58582,   0.93750,   0.93750,   0.87267,  -0.65498,  -0.69954,   0.32395,   0.87592,  -0.88866,  -0.07815
  -0.59764,  -0.33726,   0.81177,   0.69578,  -0.26322,   0.62364,  -0.40086,  -0.68878,   0.07215,   0.89173
   0.86213,  -0.43395,   0.27711,  -0.74722,  -0.47360,  -0.74354,  -0.90775,  -0.74087,  -0.30481,  -0.36540
   0.36478,   0.25519,  -0.06240,   0.51313,   0.01257,   0.44669,   0.59776,  -0.00114,  -0.67402,   0.20196
   0.70241,  -0.46778,   0.27773,  -0.67514,  -0.27012,   0.74476,  -0.60727,   0.08530,   0.93750,  -0.13997
  -0.88583,   0.05496,   0.93750,  -0.81272,  -0.29337,   0.93750,   0.88707,   0.84440,  -0.34365,   0.93750
  -0.73789,   0.00015,  -0.80351,  -0.86625,   0.32126,  -0.61089,  -0.43857,   0.81449,   0.93750,  -0.25831
  -0.63611,   0.64524,  -0.83574,  -0.40582,   0.28484,  -0.56655,   0.57012,   0.73515,  -0.07095,  -0.17600
  -0.36509,  -0.11891,  -0.63665,  -0.55516,   0.93750,   0.47454,  -0.87349,  -0.18784,  -0.14893,  -0.46900
   0.21799,  -0.30473,  -0.34842,  -0.68130,   0.87324,  -0.72596,  -0.59733,  -0.87420,   0.02803,   0.37492
  -0.77694,   0.39218,   0.16437,   0.72213,  -0.59887,   0.40344,  -0.38068,   0.79228,   0.00514,   0.03275
  -0.22337,   0.35977,  -0.34632,   0.34342,   0.67316,   0.45421,  -0.73979,   0.13711,  -0.09167,   0.16900
   0.57511,  -0.75258,   0.85100,  -0.22253,   0.81088,   0.41532,   0.02955,  -0.34745,   0.41726,   0.87937
  -0.92580,   0.93750,   0.86682,  -0.31323,   0.27426,  -0.42854,   0.00706,  -0.40492,  -0.93750,  -0.30768
  -0.30411,   0.56492,   0.40164,  -0.44021,   0.14011,   0.47905,  -0.06593,   0.54776,   0.92021,   0.33032
  -0.36549,  -0.51494,  -0.76754,  -0.66601,  -0.87229,   0.73595,   0.87312,  -0.63308,   0.55447,  -0.33104
  -0.93750,   0.86164,   0.88189,  -0.80009,  -0.80210,   0.90177,  -0.86820,  -0.93750,   0.93750,  -0.93750
   0.13481,  -0.52827,  -0.56846,   0.87438,   0.69189,  -0.62306,  -0.93750,  -0.68195,   0.81552,   0.60176
   0.80373,  -0.66416,   0.38550,   0.46248,   0.59327,   0.54277,  -0.73213,  -0.21063,   0.67533,  -0.43877
   0.28262,   0.19537,   0.28200,   0.35810,  -0.67130,  -0.20943,  -0.46566,   0.54158,  -0.55234,   0.68977
  -0.93750,   0.93750,  -0.13591,   0.93750,   0.54749,  -0.93750,  -0.93750,  -0.84881,   0.71396,  -0.93750
   0.81808,  -0.04992,   0.38795,  -0.19790,  -0.19521,  -0.37961,  -0.81923,  -0.10304,   0.93750,  -0.58311
   0.44383,  -0.57016,   0.61241,   0.49974,   0.75187,   0.92990,   0.45579,  -0.34891,   0.92652,  -0.25967
  -0.92672,   0.25727,   0.93750,   0.09753,  -0.01227,   0.03715,   0.93750,  -0.13564,   0.25321,  -0.09803
  -0.60627,   0.53191,   0.81521,  -0.05710,   0.48325,   0.18348,   0.25409,  -0.19973,  -0.37418,   0.00769
   0.24258,  -0.87641,   0.93750,   0.84949,   0.25604,  -0.75485,   0.74704,  -0.74789,   0.88134,   0.54996
  -0.52430,  -0.50503,   0.31738,  -0.63490,  -0.50786,  -0.62960,   0.54714,   0.72416,   0.20212,   0.56093
  -0.81247,   0.75925,   0.72169,  -0.10081,  -0.46890,   0.87237,   0.33270,  -0.93166,  -0.66030,  -0.63646
   0.86777,  -0.73551,  -0.61711,  -0.93423,  -0.69192,   0.21663,  -0.13935,  -0.83324,   0.73505,  -0.93750
   0.93750,   0.29664,   0.91573,   0.13759,  -0.37475,  -0.21230,  -0.55309,  -0.03019,   0.03630,  -0.04694
   0.86987,  -0.87110,  -0.68886,  -0.56653,   0.82616,   0.07233,  -0.49607,   0.19943,   0.03043,  -0.02734
   0.87903,  -0.30018,  -0.49808,  -0.62871,  -0.09729,   0.93750,  -0.48633,   0.59541,   0.63908,   0.12765
  -0.21245,   0.60426,   0.23867,   0.86512,   0.63308,   0.75912,   0.25141,  -0.02669,  -0.42029,  -0.69720
  -0.04019,  -0.41222,  -0.91287,  -0.31124,  -0.48498,  -0.93750,  -0.93750,   0.31380,  -0.46973,   0.93750
  -0.09631,  -0.08940,   0.92974,  -0.38206,  -0.86340,   0.16619,   0.92261,   0.09517,  -0.26704,   0.08260
   0.01850,   0.67217,  -0.55047,  -0.49231,  -0.06752,   0.81536,   0.69280,   0.49450,   0.80485,  -0.47873
   0.87926,   0.93750,  -0.93750,  -0.44305,  -0.93750,  -0.13838,  -0.26215,  -0.18255,   0.17721,   0.19321
   0.88458,  -0.40208,   0.35594,   0.79863,  -0.59093,  -0.78724,  -0.89536,  -0.15880,   0.93750,   0.19168
   0.80329,  -0.26964,  -0.12872,   0.60276,   0.20196,  -0.56022,  -0.07909,   0.27604,  -0.75185,   0.07336
  -0.75407,  -0.93750,   0.54465,   0.26641,   0.93750,  -0.93750,   0.93750,   0.47037,   0.69263,  -0.08256
  -0.68308,  -0.67906,   0.30252,   0.93750,   0.93750,  -0.07842,  -0.80286,   0.08967,   0.48970,  -0.29241
  -0.54700,  -0.74241,   0.85355,   0.19767,   0.73706,  -0.23818,   0.84033,  -0.06093,   0.90339,  -0.33067
   0.93750,  -0.65504,  -0.43912,  -0.83040,   0.04150,  -0.07651,  -0.51927,  -0.07383,  -0.29231,  -0.47901
   0.78144,  -0.37573,   0.87746,  -0.06442,   0.07229,   0.26138,  -0.83786,   0.43927,  -0.14881,   0.50348
  -0.71779,   0.67833,  -0.62347,   0.20414,  -0.15270,  -0.81862,  -0.15387,   0.93750,  -0.07241,   0.91603
   0.65525,  -0.87174,  -0.11861,  -0.93750,   0.93750,  -0.53011,   0.75975,  -0.50902,  -0.69662,   0.40412
  -0.56710,  -0.10569,   0.66847,  -0.04066,  -0.57575,  -0.16978,   0.93529,  -0.10806,   0.30409,   0.21112
  -0.06583,   0.67702,  -0.45324,   0.87509,   0.51669,   0.43988,  -0.02024,   0.75224,   0.76597,  -0.68196
  -0.29632,   0.20640,   0.93750,  -0.04499,   0.44010,  -0.54743,  -0.11921,   0.66193,   0.27606,   0.37833
  -0.12715,   0.15283,  -0.46381,   0.67889,  -0.17291,   0.13496,   0.81088,   0.86166,  -0.37602,   0.30649
   0.76997,  -0.04344,   0.86728,  -0.03506,  -0.08710,   0.00262,  -0.38905,  -0.03585,   0.22196,  -0.02362
   0.28429,   0.06348,  -0.75812,   0.39685,  -0.12205,   0.51802,   0.26432,  -0.00779,   0.68338,   0.31963
  -0.50277,   0.14070,   0.67003,   0.19463,  -0.88383,  -0.58929,   0.35323,  -0.38852,  -0.02736,  -0.69485
  -0.04405,  -0.62235,   0.22245,   0.93750,   0.87788,  -0.86695,   0.93750,   0.58192,   0.93750,   0.31962
   0.93750,   0.49871,  -0.61068,  -0.32821,  -0.55924,  -0.54420,  -0.92953,  -0.08689,  -0.93750,   0.40831
   0.87425,   0.93750,  -0.21124,  -0.93750,  -0.93750,   0.31560,   0.80925,   0.78885,  -0.09291,   0.93750
  -0.40008,   0.20162,   0.91808,   0.04558,  -0.62917,  -0.13375,  -0.03730,   0.21801,   0.12390,  -0.17011
   0.74016,  -0.61058,   0.13049,  -0.71453,  -0.14237,  -0.73782,  -0.63827,  -0.65239,   0.69522,   0.86715
  -0.31214,   0.16594,  -0.51798,  -0.59843,   0.84247,  -0.35479,  -0.39612,  -0.28822,   0.93459,  -0.01681
  -0.32363,   0.01000,  -0.22726,   0.01304,   0.18309,   0.93750,   0.58573,  -0.85672,   0.08812,   0.78292
  -0.72027,  -0.22812,   0.20363,   0.12352,   0.53477,   0.93750,   0.88078,   0.05956,  -0.63191,  -0.20648
   0.54265,  -0.26908,   0.20850,   0.37517,  -0.74286,  -0.05141,   0.87635,   0.43925,  -0.25176,   0.28404
   0.93750,  -0.44726,  -0.31571,   0.20014,   0.38461,   0.56159,  -0.65957,   0.11547,  -0.30299,  -0.22405
   0.90293,   0.27202,  -0.58838,  -0.60262,   0.54089,   0.93152,   0.66179,  -0.15303,  -0.48962,   0.21157
  -0.73143,  -0.15967,  -0.02111,   0.60581,   0.09690,  -0.82776,  -0.22021,   0.93750,  -0.27834,  -0.89043
  -0.69941,   0.93750,  -0.45983,  -0.93750,  -0.76302,   0.83222,  -0.21190,  -0.23406,  -0.08272,   0.49663
   0.87687,   0.60563,   0.91773,  -0.87779,   0.71814,  -0.56692,   0.82639,  -0.59914,   0.89241,  -0.44839
   0.14320,  -0.11220,   0.52760,  -0.73567,  -0.89114,  -0.93750,   0.32062,  -0.91538,   0.23690,   0.87714
  -0.52150,   0.43311,   0.60300,  -0.36338,   0.87975,   0.07314,  -0.49501,   0.62981,  -0.54383,   0.14471
   0.93750,  -0.34634,   0.89181,  -0.16189,   0.93750,   0.93750,  -0.58065,  -0.93750,   0.93564,  -0.93750
  -0.42650,  -0.93750,   0.93750,   0.93750,   0.06381,  -0.93750,   0.35294,   0.93750,   0.31097,  -0.93750
  -0.93750,  -0.62465,  -0.03005,   0.68491,  -0.70490,  -0.26390,   0.06944,  -0.51727,   0.27246,  -0.39185
  -0.30430,   0.08813,  -0.61365,  -0.19583,   0.87857,  -0.86922,   0.74374,  -0.87792,   0.71088,   0.06202
  -0.93750,  -0.52482,   0.89740,  -0.93750,   0.93750,   0.35137,  -0.89362,  -0.13048,  -0.80638,  -0.93750
   0.76044,  -0.47265,   0.71973,  -0.19207,   0.82162,   0.75381,   0.86421,   0.62714,  -0.93750,  -0.38976
   0.72983,  -0.25726,   0.51066,  -0.40445,   0.64915,   0.73580,  -0.19792,   0.65163,  -0.16642,   0.53481
  -0.31805,  -0.71259,  -0.49541,  -0.67678,   0.93239,   0.04215,  -0.57047,   0.39799,   0.04670,  -0.00770
   0.75990,  -0.73626,  -0.48931,  -0.49202,  -0.50064,  -0.73158,  -0.46959,  -0.71656,   0.20700,   0.84191
  -0.40979,  -0.01902,   0.87118,   0.81708,   0.76365,   0.93750,  -0.81753,   0.12521,   0.07605,  -0.25891
  -0.15792,   0.58818,  -0.87680,  -0.73265,  -0.15650,   0.76352,  -0.93750,  -0.88434,   0.88141,   0.42953
   0.22857,  -0.48227,  -0.00356,  -0.20527,  -0.26530,   0.62135,   0.17534,  -0.15970,   0.00849,  -0.00360
  -0.56890,  -0.87268,  -0.57176,   0.87604,  -0.69282,  -0.33995,   0.06958,   0.93750,   0.40350,   0.11106
   0.66214,   0.71807,   0.83304,  -0.53593,  -0.29743,   0.79240,   0.18634,  -0.27021,   0.30498,   0.34531
  -0.93750,   0.17440,   0.85133,   0.05561,   0.12387,  -0.02611,   0.93750,  -0.26095,  -0.04791,  -0.12446
   0.85826,   0.00592,  -0.31565,  -0.14931,   0.55933,  -0.69758,   0.34601,  -0.90153,  -0.41640,   0.93530
   0.85956,  -0.04975,  -0.72929,  -0.81170,  -0.36433,  -0.15099,   0.93429,  -0.44370,   0.93158,  -0.38965
   0.49767,  -0.93750,   0.63776,  -0.76155,   0.93750,   0.03457,   0.31508,   0.80803,  -0.93750,   0.93750
   0.36729,   0.93057,   0.32151,  -0.93750,   0.93750,  -0.93750,  -0.44817,   0.46791,   0.61558,  -0.93750
  -0.92130,   0.93750,   0.36353,  -0.58100,  -0.93750,  -0.52222,  -0.93750,  -0.81094,   0.93750,  -0.80798
   0.93750,   0.45190,  -0.89146,   0.82173,   0.27117,  -0.67521,  -0.58300,   0.86667,  -0.93750,  -0.53446
  -0.87901,   0.02016,  -0.04641,  -0.74859,   0.79385,  -0.93750,   0.93750,  -0.67134,  -0.44902,   0.84736
   0.82791,   0.93750,  -0.32962,  -0.10113,  -0.78188,  -0.93750,   0.24854,  -0.58569,   0.93750,   0.20668
  -0.52423,   0.34402,   0.81862,   0.56430,   0.49844,   0.28175,  -0.62710,   0.22375,  -0.63826,   0.11588
   0.93750,  -0.16086,  -0.16382,  -0.15081,   0.10742,   0.11524,  -0.87020,  -0.11218,  -0.04596,   0.59561
  -0.76821,   0.85731,  -0.93750,  -0.81096,   0.93750,   0.93750,   0.18635,   0.13687,  -0.11588,  -0.70102
  -0.26894,  -0.37892,  -0.54721,  -0.23050,  -0.75678,   0.93109,   0.87899,  -0.38764,   0.07134,  -0.18679
  -0.09034,  -0.05736,   0.14604,  -0.15615,   0.35250,   0.89159,   0.91189,   0.26720,   0.81112,   0.92243
  -0.80279,   0.11377,   0.86920,  -0.09156,  -0.79639,  -0.09858,   0.93750,   0.13397,  -0.03508,   0.12321
  -0.93750,  -0.16283,  -0.44012,   0.81802,  -0.08585,  -0.67438,  -0.57913,  -0.04652,  -0.89386,  -0.87264
  -0.45773,  -0.93750,  -0.27135,  -0.87020,  -0.93750,  -0.56874,   0.43928,   0.93750,  -0.40569,   0.44232
  -0.68706,  -0.93750,  -0.93750,  -0.36597,   0.73486,  -0.69527,  -0.93750,  -0.93750,  -0.69439,  -0.54915
  -0.10808,   0.13303,   0.24192,   0.33872,  -0.08112,  -0.62864,  -0.86571,  -0.93750,   0.93750,   0.06491
  -0.61303,   0.13173,   0.67874,  -0.11596,  -0.70424,   0.02362,   0.81141,  -0.04080,   0.02098,   0.31419
   0.65958,  -0.42558,   0.87252,  -0.29516,  -0.63787,   0.61727,   0.18338,   0.18835,   0.33174,  -0.00599
  -0.53556,   0.55369,  -0.86099,   0.93750,  -0.72055,   0.57751,  -0.93750,  -0.10207,  -0.06825,  -0.93750
  -0.93750,   0.32436,  -0.93750,   0.89972,  -0.33325,   0.36569,  -0.68888,  -0.48275,  -0.37805,  -0.79495
   0.84493,  -0.25004,  -0.44685,  -0.50884,   0.55358,  -0.68513,   0.17454,   0.93559,  -0.38935,  -0.88745
   0.46204,  -0.93750,   0.63841,   0.75903,  -0.67294,  -0.93750,   0.87673,   0.46935,  -0.73336,   0.46063
   0.83459,  -0.93750,   0.74458,  -0.02115,  -0.79893,  -0.93750,  -0.81358,   0.61557,  -0.77156,  -0.87498
   0.16415,  -0.46383,   0.90271,  -0.37331,   0.21422,   0.73225,  -0.50183,   0.25443,  -0.59003,   0.72554
   0.83184,   0.80734,   0.33812,  -0.93750,   0.39929,  -0.41148,  -0.73409,   0.04632,  -0.34782,   0.17705
   0.73462,  -0.84516,   0.87357,   0.69537,   0.73182,   0.78102,   0.93187,   0.63645,   0.72422,   0.76143
   0.86457,   0.37317,   0.40245,  -0.40502,   0.34044,   0.60973,  -0.67494,  -0.47127,  -0.92803,   0.55343
   0.30430,  -0.87905,   0.18050,  -0.16583,  -0.31074,  -0.36100,   0.19662,   0.93750,  -0.81245,   0.48549
  -0.41532,   0.09940,  -0.09796,   0.73668,   0.79873,  -0.87830,  -0.93750,  -0.70068,   0.00873,  -0.87918
   0.84817,   0.49356,  -0.69329,   0.08774,   0.42733,   0.89784,   0.37924,  -0.20142,  -0.56244,  -0.25606
   0.33125,  -0.18677,   0.78774,   0.91884,  -0.32253,  -0.13407,  -0.45809,  -0.17187,   0.31958,   0.08708
  -0.33636,  -0.30081,  -0.20634,   0.93460,  -0.55917,  -0.51451,  -0.57392,   0.20798,   0.86704,  -0.34027
   0.55265,   0.74318,   0.41777,  -0.93750,  -0.63478,   0.48863,   0.16552,  -0.93750,   0.02796,  -0.74874
  -0.56329,   0.26076,   0.70062,   0.06908,   0.85234,   0.15289,   0.79390,   0.22191,  -0.35004,  -0.19470
   0.28252,   0.18653,  -0.80116,   0.87834,   0.62221,  -0.93750,   0.87802,   0.68718,   0.87901,   0.80882
   0.82042,  -0.17296,   0.48561,  -0.12001,  -0.33031,   0.19350,  -0.68296,   0.17380,  -0.10415,  -0.09825
  -0.75495,  -0.70140,   0.09084,   0.87344,  -0.42091,  -0.93750,  -0.89747,   0.84687,   0.37737,  -0.35596
   0.10411,   0.91107,  -0.27709,   0.86827,  -0.25177,  -0.41619,   0.30870,   0.76572,  -0.93750,   0.12703
  -0.37572,   0.67926,  -0.39273,   0.52397,   0.81728,  -0.66872,  -0.75600,   0.57110,   0.62445,   0.26562
  -0.74055,  -0.53269,   0.51696,   0.20063,  -0.88001,   0.09435,   0.88193,  -0.10252,   0.27751,  -0.04152
  -0.93750,  -0.44132,  -0.12286,  -0.32609,   0.57780,   0.34784,   0.93750,   0.60247,   0.37769,   0.50234
   0.93750,  -0.32407,   0.22360,  -0.74676,  -0.51947,   0.61245,   0.37858,  -0.13979,  -0.06112,   0.73827
  -0.47317,   0.69459,  -0.93750,   0.93750,   0.39091,  -0.57727,  -0.12438,   0.48534,  -0.34181,   0.93750
  -0.64455,  -0.93750,   0.69884,  -0.86755,  -0.22405,   0.53253,  -0.82799,  -0.93750,   0.89692,  -0.76267
  -0.83689,  -0.14679,   0.93750,   0.20101,  -0.62802,  -0.12462,  -0.05052,   0.18077,   0.52247,  -0.32125
  -0.93750,   0.21185,  -0.25948,  -0.46551,  -0.93750,   0.93750,  -0.23753,   0.30157,   0.51454,  -0.93750
   0.32628,   0.93750,   0.03747,  -0.93750,  -0.51910,  -0.43221,   0.34497,  -0.93750,   0.93750,   0.93750
  -0.31148,   0.71360,   0.46610,   0.20535,   0.10994,  -0.87236,  -0.02453,   0.92876,  -0.82594,  -0.93750
   0.05056,   0.72071,   0.41724,  -0.61162,  -0.06890,   0.39763,   0.80358,  -0.40224,  -0.12867,  -0.12232
  -0.27104,   0.24076,  -0.05683,  -0.11704,   0.39840,   0.23857,   0.13728,  -0.02625,   0.41285,   0.57326
  -0.63107,  -0.05891,   0.93750,  -0.25915,  -0.67971,   0.45961,  -0.60880,  -0.00439,   0.61584,   0.09676
   0.18947,   0.24763,   0.79420,  -0.33260,   0.23278,   0.79735,  -0.12654,   0.50881,  -0.57954,  -0.01845
   0.44567,  -0.02258,  -0.30501,   0.87401,   0.87900,  -0.56208,  -0.80895,  -0.62780,   0.93750,  -0.65617
  -0.31302,  -0.29262,  -0.42258,  -0.48204,   0.62589,   0.56847,  -0.65375,  -0.59466,   0.91906,  -0.03896
  -0.52867,   0.70661,  -0.67636,   0.66698,  -0.88430,  -0.06700,   0.93750,   0.46314,   0.48328,  -0.24169
   0.87885,   0.71403,  -0.46058,  -0.46248,  -0.63098,   0.40909,   0.93750,   0.87024,   0.93750,   0.05384
  -0.87547,  -0.87472,   0.07038,  -0.46551,   0.57593,   0.82124,   0.93750,   0.93750,   0.03977,   0.85475
   0.08755,   0.43225,   0.38439,   0.28044,   0.80566,  -0.27114,   0.71525,  -0.66642,   0.93750,   0.43064
   0.28950,  -0.93750,  -0.86489,   0.59565,  -0.93750,  -0.93750,   0.10246,   0.62723,  -0.03284,  -0.79959
   0.87698,   0.93682,  -0.70398,  -0.93393,  -0.48494,   0.11192,  -0.15257,  -0.11081,   0.25648,  -0.44407
   0.18486,  -0.39953,   0.59092,   0.33945,  -0.16065,  -0.61019,   0.18926,   0.84490,   0.08592,   0.11450
   0.93750,  -0.64933,  -0.69118,  -0.93074,   0.18176,  -0.93750,  -0.31308,  -0.48679,  -0.68700,  -0.56398
  -0.64295,   0.93750,  -0.46216,  -0.87233,  -0.72036,   0.88212,   0.83642,   0.06276,  -0.85707,   0.15042
  -0.50129,   0.49921,  -0.30714,  -0.29916,   0.63042,  -0.27691,   0.58740,   0.83791,   0.86977,   0.55826
  -0.69551,   0.04037,  -0.02425,   0.91144,  -0.73883,   0.55812,   0.55124,   0.05082,   0.93750,   0.93750
   0.14014,   0.31503,  -0.55103,   0.58705,  -0.10408,  -0.15054,  -0.63089,   0.70229,   0.78978,   0.24297
   0.28690,  -0.93750,  -0.44821,   0.93750,   0.93750,  -0.93750,   0.77614,   0.22511,   0.60095,  -0.93750
   0.93002,  -0.03666,   0.11542,  -0.26761,   0.88084,   0.87951,  -0.88260,   0.49462,   0.25534,   0.93750
  -0.78862,   0.01877,  -0.59976,   0.89373,  -0.15068,  -0.93750,   0.85520,  -0.93750,  -0.83750,  -0.93750
  -0.25745,  -0.75099,   0.86752,  -0.61763,   0.93750,  -0.49316,  -0.12933,   0.75811,   0.30907,   0.17207
  -0.19655,   0.14346,  -0.04184,  -0.37707,   0.28879,   0.93750,   0.53991,  -0.57585,   0.01996,   0.92373
  -0.20215,   0.60995,   0.60572,  -0.34535,   0.76421,  -0.83388,   0.84997,  -0.39260,   0.82550,   0.78871
   0.41856,   0.88088,   0.93750,   0.93669,  -0.46506,  -0.19643,  -0.90000,  -0.00521,  -0.18094,   0.15043
   0.15702,   0.15301,  -0.71896,   0.80281,   0.93750,  -0.20892,  -0.87350,  -0.04611,  -0.24488,  -0.15508
  -0.93750,  -0.67453,  -0.17084,   0.10881,  -0.93750,   0.51474,  -0.47540,   0.87801,  -0.56685,  -0.81189
   0.65473,  -0.78470,  -0.61414,   0.67453,  -0.57949,   0.93750,  -0.66681,  -0.18851,  -0.93750,   0.15747
  -0.68637,   0.93750,   0.44749,  -0.84862,   0.44762,  -0.07245,   0.75476,  -0.86545,  -0.93750,   0.76132
   0.85649,  -0.13819,  -0.69134,  -0.06027,  -0.71497,   0.23002,   0.93750,   0.11209,  -0.23462,   0.05235
  -0.87824,   0.02273,   0.74896,   0.48486,  -0.88170,   0.87931,  -0.25146,  -0.87226,   0.11427,  -0.07641
   0.49158,  -0.20159,   0.81088,  -0.91478,  -0.64511,   0.16120,   0.05827,   0.67476,  -0.09162,  -0.10252
   0.81591,   0.75283,  -0.56381,  -0.45294,  -0.73926,   0.58241,  -0.59215,  -0.24262,  -0.56469,  -0.07807
   0.34858,  -0.93750,  -0.12964,  -0.32907,   0.93750,  -0.93750,  -0.73048,   0.93750,   0.93750,   0.93750
  -0.18325,   0.65750,  -0.26392,  -0.74772,   0.88300,   0.04128,   0.06430,  -0.58068,   0.48711,  -0.36591
   0.57142,  -0.46833,   0.04485,  -0.34548,   0.17281,   0.16871,   0.05962,   0.78683,   0.49447,   0.35308
  -0.69933,   0.78010,  -0.19938,  -0.72755,  -0.38264,  -0.08398,  -0.32086,   0.92650,  -0.66329,   0.69692
   0.93750,   0.84406,   0.93750,   0.93750,  -0.93750,   0.93750,   0.64417,  -0.71463,   0.32888,  -0.79971
   0.15066,  -0.26880,   0.52156,  -0.68683,   0.48365,   0.93750,  -0.60391,  -0.93750,  -0.36435,  -0.55484
  -0.66146,  -0.44947,  -0.14011,   0.11287,   0.51983,   0.67414,   0.38741,   0.81222,  -0.84587,  -0.13847
  -0.20444,   0.38196,  -0.77455,  -0.31079,   0.76570,  -0.60266,  -0.93750,   0.44615,  -0.87445,   0.15497
   0.21976,  -0.61327,   0.11821,   0.46642,  -0.93750,  -0.93750,  -0.65733,   0.34811,  -0.93750,  -0.60882
  -0.93750,   0.93750,  -0.61757,  -0.60663,  -0.93750,  -0.93750,  -0.93750,  -0.93750,  -0.93750,  -0.45796
   0.73101,   0.44191,   0.35141,  -0.61734,  -0.17257,  -0.75741,  -0.53696,   0.85065,  -0.36403,  -0.75609
  -0.55361,   0.93750,   0.79839,   0.86812,  -0.45551,   0.15398,   0.93750,  -0.69474,   0.26784,   0.93750
   0.62971,   0.58795,   0.69053,  -0.60063,  -0.58362,  -0.18102,   0.80150,  -0.93750,  -0.14339,  -0.33772
   0.58978,   0.90456,  -0.86167,  -0.74252,   0.04324,   0.93750,  -0.86240,   0.27293,   0.59649,  -0.93750
   0.30355,  -0.76073,   0.93750,  -0.67260,   0.75114,  -0.74232,  -0.21527,   0.46701,   0.16526,   0.93750
   0.35780,  -0.15938,   0.05021,  -0.37920,   0.92639,   0.07801,  -0.27923,   0.13980,   0.17482,   0.11556
   0.10938,   0.74464,   0.25008,  -0.27149,   0.47441,  -0.18212,  -0.57008,  -0.14824,  -0.01031,  -0.04120
  -0.68586,  -0.87670,   0.67443,  -0.80646,  -0.78269,   0.47704,  -0.93750,  -0.55474,  -0.86656,   0.34037
   0.88755,   0.01448,  -0.38344,  -0.92938,  -0.80555,  -0.14360,   0.56025,   0.07449,  -0.34210,  -0.00679
   0.76073,  -0.80816,   0.67774,   0.93750,   0.93750,  -0.67276,  -0.55285,   0.93750,   0.80439,   0.93750
  -0.48393,   0.52469,   0.93750,  -0.04995,   0.24087,   0.93750,  -0.78166,  -0.82565,   0.45397,  -0.81696
  -0.29001,   0.03221,   0.05462,  -0.76911,  -0.63151,  -0.66480,   0.49479,   0.93185,   0.44384,  -0.77705
   0.76124,   0.81222,   0.25006,  -0.57817,  -0.51099,  -0.40734,   0.90320,  -0.27475,   0.92260,   0.41548
   0.93750,   0.93750,   0.44366,  -0.67003,  -0.79975,   0.63072,   0.52276,   0.83290,  -0.88003,   0.30332
   0.93750,  -0.93750,   0.83473,   0.28675,   0.87739,   0.82729,  -0.93750,  -0.70113,   0.40310,  -0.39203
   0.91364,  -0.81245,  -0.23637,   0.93587,   0.45713,   0.02651,  -0.62418,   0.21193,   0.01619,  -0.18292
  -0.42933,   0.57467,   0.53210,  -0.12286,  -0.87352,   0.87406,   0.43924,   0.62283,  -0.27434,  -0.39193
   0.57871,   0.86302,  -0.17912,  -0.30409,  -0.48488,   0.79552,   0.42751,   0.47403,  -0.88073,  -0.15087
   0.35916,   0.93750,  -0.58126,   0.56623,   0.93750,  -0.93750,  -0.93750,  -0.49010,   0.40597,   0.93750
   0.62473,  -0.74966,  -0.28341,   0.47184,  -0.34576,   0.54279,  -0.00859,   0.67262,   0.59865,  -0.07838
  -0.28823,  -0.79877,  -0.85745,   0.89788,   0.93261,   0.86205,  -0.53323,   0.14935,  -0.06253,   0.21118
   0.44899,   0.33156,   0.88641,  -0.21423,  -0.35809,  -0.18020,   0.22982,  -0.05702,  -0.06455,  -0.67993
   0.40882,  -0.19126,   0.07021,  -0.70150,   0.93750,  -0.42747,  -0.32650,  -0.24148,   0.48303,   0.38660
  -0.70277,  -0.00465,   0.15079,  -0.93750,  -0.93750,  -0.54654,   0.93750,  -0.69019,   0.00183,  -0.93750
  -0.88234,  -0.01069,   0.56398,  -0.21507,  -0.87640,   0.06244,   0.93750,   0.12417,  -0.03203,  -0.27292
   0.87795,   0.93750,   0.93750,  -0.88791,  -0.81433,   0.70672,   0.93750,   0.05035,  -0.14247,   0.56647
  -0.44279,   0.80967,  -0.10670,   0.40427,  -0.44721,  -0.61915,   0.92782,  -0.78586,  -0.59807,  -0.43457
   0.87728,   0.10892,   0.02526,  -0.28861,   0.32443,   0.03979,  -0.32764,   0.01919,   0.62456,   0.31294
  -0.81669,  -0.93750,   0.16831,   0.58546,  -0.88084,   0.61271,  -0.67657,   0.93750,  -0.25764,  -0.86600
   0.54509,  -0.74260,  -0.45436,   0.30390,   0.93750,  -0.44254,  -0.54361,   0.75924,   0.44515,   0.67794
   0.00408,   0.89530,   0.07270,  -0.59479,  -0.31385,   0.82425,   0.69496,   0.44177,   0.68422,   0.08605
   0.37996,   0.15529,  -0.55406,  -0.08288,   0.93750,  -0.14875,  -0.09749,   0.30885,   0.76768,   0.24817
   0.55291,  -0.28282,  -0.87675,  -0.58186,  -0.82225,  -0.10269,   0.93750,  -0.09534,  -0.54988,   0.05996
   0.75942,  -0.30792,   0.87918,  -0.18586,   0.25855,   0.39514,  -0.82720,  -0.81186,   0.42708,  -0.88159
   0.74266,   0.07968,   0.92729,   0.88154,   0.31186,   0.56662,  -0.39075,  -0.22440,   0.19792,   0.48658
  -0.93750,  -0.87733,   0.08899,  -0.17292,   0.93750,   0.93750,   0.92205,   0.81083,   0.22094,   0.93750
   0.93750,  -0.03048,   0.31498,  -0.93750,  -0.93750,   0.44516,  -0.93750,   0.11368,   0.59096,  -0.93750
   0.37016,   0.81905,   0.88883,  -0.93750,   0.86856,   0.51269,   0.56656,  -0.81468,   0.62444,  -0.14067
   0.68008,   0.03185,  -0.49082,  -0.56649,  -0.05193,  -0.31803,  -0.52794,  -0.13607,  -0.87897,  -0.05379
  -0.93750,   0.29730,   0.80374,   0.11462,   0.00850,   0.12129,  -0.87581,  -0.57460,  -0.76423,  -0.11845
   0.37877,   0.65365,  -0.56145,  -0.21324,  -0.93750,   0.70824,   0.06973,  -0.44608,   0.64024,  -0.38994
  -0.75761,   0.93750,   0.44528,  -0.48902,  -0.36405,  -0.55672,   0.61244,  -0.74732,   0.61829,  -0.80950
   0.93750,  -0.35353,  -0.87247,   0.49975,   0.48528,  -0.93750,  -0.14219,  -0.93750,   0.01455,  -0.93750
   0.80311,   0.00620,   0.25087,  -0.87811,  -0.18238,  -0.12965,   0.87935,   0.13420,  -0.33116,   0.14613
  -0.30750,  -0.07150,   0.31147,  -0.29990,   0.79014,   0.86723,   0.22241,   0.61917,  -0.00475,  -0.74835
  -0.39551,  -0.23688,  -0.35238,   0.11974,  -0.38589,  -0.27596,   0.80276,  -0.24363,  -0.11424,  -0.15490
   0.37983,  -0.67999,  -0.49129,  -0.59430,   0.20010,   0.05344,  -0.21550,   0.33955,  -0.38791,   0.43113
   0.82658,  -0.36170,   0.93750,   0.10253,  -0.87185,   0.33230,   0.86806,  -0.87995,   0.93750,  -0.72447
  -0.63583,   0.93750,  -0.78370,  -0.66749,   0.50460,  -0.21571,  -0.21009,   0.03432,  -0.39902,   0.77229
  -0.41094,  -0.12004,   0.50607,   0.80425,   0.46610,   0.68964,   0.43684,   0.19974,   0.26297,  -0.01077
   0.19924,  -0.01970,  -0.13330,   0.11332,   0.12747,   0.76912,   0.18678,  -0.14631,  -0.18393,   0.13990
   0.54341,  -0.27518,   0.73190,   0.52233,   0.27145,   0.11392,   0.04743,  -0.20606,   0.38600,  -0.01139
   0.00724,   0.00405,   0.76763,  -0.36720,  -0.49176,   0.19514,   0.65176,  -0.86980,   0.86631,  -0.29470
   0.00183,  -0.83421,  -0.71597,  -0.21358,  -0.41554,   0.88292,   0.87371,  -0.93750,  -0.03247,  -0.53751
   0.82609,   0.79541,   0.87242,  -0.59309,  -0.55890,  -0.09461,  -0.74078,  -0.08135,   0.54405,  -0.24389
  -0.76791,   0.86888,  -0.45159,   0.14320,   0.43989,   0.11626,   0.87537,  -0.02540,   0.03138,  -0.00246
   0.15212,  -0.21663,  -0.39038,   0.76183,   0.70349,  -0.77140,  -0.06027,   0.06432,   0.93750,  -0.61004
  -0.60328,  -0.29169,  -0.55714,  -0.40742,   0.75402,  -0.41589,   0.55227,   0.48358,  -0.80370,   0.80744
   0.34872,  -0.87208,   0.16581,   0.28381,  -0.81662,   0.93750,  -0.26853,  -0.63561,  -0.61919,  -0.66473
   0.48297,   0.50600,   0.65630,  -0.55640,   0.36950,   0.54093,  -0.09374,  -0.45464,   0.81507,  -0.34945
  -0.77642,   0.06885,  -0.72982,   0.31274,  -0.05474,   0.68628,   0.36793,  -0.75047,   0.91957,   0.16600
  -0.17354,  -0.62982,  -0.43485,   0.92951,   0.85111,  -0.18045,  -0.73760,   0.02317,  -0.33748,  -0.28211
  -0.82223,   0.72399,   0.62059,  -0.04735,   0.52683,   0.01223,   0.52986,  -0.04600,  -0.85477,  -0.16493
   0.16907,  -0.05365,  -0.83551,   0.62410,  -0.67327,  -0.06471,   0.93750,  -0.25625,   0.70718,   0.29845
  -0.57975,   0.36347,  -0.58466,   0.79394,  -0.30634,  -0.21143,  -0.53747,   0.10348,   0.25128,   0.18586
  -0.52769,   0.66817,  -0.80185,   0.87575,   0.87095,  -0.05266,  -0.23690,   0.29481,  -0.70472,   0.10327
  -0.54182,   0.13258,   0.87056,  -0.02785,   0.87619,  -0.81348,  -0.87137,  -0.77514,   0.87248,   0.93750
  -0.93750,  -0.78718,   0.15070,   0.67493,  -0.05475,   0.77156,   0.93750,   0.93750,  -0.72632,  -0.85603
  -0.41788,  -0.31905,   0.86513,  -0.69468,   0.31636,  -0.67432,  -0.47995,   0.86614,  -0.67466,   0.21203
   0.56534,   0.68832,  -0.56201,   0.62010,   0.69227,   0.34736,  -0.87565,  -0.72627,  -0.87460,   0.93750
  -0.39267,  -0.35840,   0.93750,   0.09684,  -0.47172,   0.38107,  -0.56723,  -0.30115,  -0.59140,  -0.25174
   0.19468,   0.29397,  -0.93750,  -0.85615,  -0.93750,   0.88110,  -0.49298,  -0.60032,  -0.12197,   0.05504
  -0.93750,  -0.93750,  -0.08558,  -0.01845,   0.93750,  -0.93750,  -0.74200,   0.08483,  -0.78193,  -0.93750
  -0.59343,   0.82050,   0.92639,   0.56820,  -0.29719,   0.82370,   0.88046,  -0.51759,   0.86540,   0.70348
   0.93750,  -0.86002,   0.16589,   0.09667,  -0.52821,   0.06429,  -0.88320,   0.11575,  -0.39091,   0.67522
   0.71393,   0.41477,   0.86228,  -0.55623,  -0.45986,   0.33235,   0.61250,   0.76322,   0.85079,   0.40892
   0.00227,   0.05866,  -0.26836,  -0.13120,  -0.13920,  -0.44317,  -0.31774,  -0.69644,  -0.17967,   0.93750
  -0.87391,  -0.93750,  -0.93750,   0.93750,   0.93750,  -0.10702,  -0.56725,  -0.93750,   0.29898,   0.91269
   0.18629,   0.49510,  -0.56512,  -0.90154,   0.93127,  -0.13083,  -0.76208,   0.00643,   0.49419,  -0.70118
   0.87063,  -0.23196,  -0.41067,  -0.43264,   0.67988,   0.37092,  -0.57365,  -0.24577,  -0.34085,  -0.26188
  -0.03456,  -0.21989,   0.89611,  -0.52889,   0.79818,  -0.01839,  -0.76452,   0.35373,  -0.75031,  -0.12506
  -0.85987,  -0.44533,   0.51340,   0.02040,   0.14169,  -0.39903,  -0.23885,   0.71005,   0.55624,  -0.76383
  -0.62322,  -0.11303,  -0.57946,  -0.86020,   0.80401,  -0.80670,  -0.39553,   0.66814,  -0.20576,   0.54889
  -0.65281,   0.74654,  -0.49023,   0.93354,  -0.50097,  -0.16769,   0.81783,  -0.15947,   0.11068,   0.09564
   0.15111,   0.00307,   0.93594,  -0.48699,  -0.93750,   0.08881,  -0.32893,  -0.32690,   0.93750,   0.35911
  -0.24140,  -0.21425,   0.87459,   0.11625,  -0.84912,   0.53310,  -0.55625,  -0.70968,   0.15359,   0.38581
   0.32620,  -0.12623,   0.69603,  -0.76021,   0.52310,  -0.71128,  -0.04916,  -0.82793,   0.58586,   0.93750
  -0.24720,  -0.32303,  -0.57438,   0.69339,   0.62936,   0.41615,  -0.44489,   0.82423,   0.67533,  -0.55470
  -0.54539,  -0.15476,   0.37272,   0.86677,   0.58070,   0.93750,  -0.79746,  -0.79683,   0.77612,  -0.43873
   0.86873,  -0.61999,   0.93750,   0.32677,  -0.93750,  -0.34528,  -0.79672,  -0.00375,  -0.82815,  -0.93750
   0.88294,   0.34320,   0.57831,   0.86391,   0.32201,  -0.46331,  -0.63521,   0.64089,   0.93750,   0.01801
  -0.93750,   0.74392,   0.20371,  -0.93750,   0.08305,   0.56934,   0.87146,  -0.47543,   0.93750,  -0.90504
  -0.86701,  -0.35550,  -0.37659,   0.93750,  -0.74402,  -0.93750,  -0.32007,   0.19619,   0.22459,  -0.47962
   0.02788,  -0.68000,   0.87048,  -0.81922,  -0.80405,  -0.42592,   0.74765,  -0.93750,  -0.77774,   0.58069
   0.19620,  -0.40411,   0.93750,   0.10712,  -0.80070,   0.44992,  -0.38138,   0.61527,  -0.70444,   0.54423
  -0.74941,   0.35157,   0.93750,   0.47694,  -0.10748,  -0.13660,   0.87310,   0.75914,  -0.68711,   0.86681
  -0.34132,   0.01778,   0.88047,  -0.24779,   0.03646,   0.93750,  -0.16480,   0.62265,   0.16745,   0.93750
   0.37025,   0.72454,   0.26100,   0.93750,  -0.01420,  -0.02323,   0.69927,  -0.18109,   0.86992,  -0.40546
   0.03250,   0.14677,  -0.75511,  -0.64609,  -0.63540,   0.07970,   0.76700,  -0.51960,   0.06894,  -0.68035
  -0.46643,  -0.87805,  -0.70490,   0.00945,   0.93750,   0.56109,  -0.38609,   0.09263,   0.74861,  -0.56515
   0.12601,  -0.57917,   0.24685,   0.60281,   0.17468,   0.21898,   0.69177,   0.44769,  -0.31196,   0.37972
  -0.74920,  -0.32122,   0.14611,  -0.43870,   0.93750,  -0.88171,   0.34021,  -0.81828,  -0.00024,   0.84503
   0.93750,  -0.52070,  -0.38116,  -0.75411,  -0.44880,   0.80977,  -0.69060,   0.59445,  -0.23923,   0.07840
  -0.36010,  -0.67634,  -0.76189,  -0.23182,   0.87783,   0.68044,   0.41419,   0.34733,  -0.79793,  -0.44355
  -0.01208,  -0.29625,   0.01239,  -0.17139,  -0.02093,   0.24243,   0.21896,  -0.53291,   0.57602,   0.34354
  -0.29263,   0.05856,   0.32840,  -0.38495,  -0.50505,   0.93750,  -0.55195,  -0.93750,  -0.39046,  -0.32105
   0.67092,  -0.07010,  -0.54975,  -0.26099,   0.34990,   0.22778,  -0.66649,   0.82215,   0.81118,   0.63069
  -0.52338,   0.38252,  -0.40481,  -0.52706,  -0.59722,   0.84388,   0.24262,   0.75046,  -0.66126,   0.92333
   0.54854,   0.08643,  -0.34932,   0.01719,   0.40598,  -0.17108,  -0.32247,   0.03597,   0.22506,   0.02307
  -0.08513,  -0.06845,  -0.31298,   0.15235,  -0.72618,  -0.79134,   0.14748,  -0.80115,  -0.38256,   0.93750
  -0.44819,   0.51596,   0.93377,   0.35311,  -0.06989,   0.54011,  -0.33862,  -0.56535,   0.18044,   0.57027
   0.81743,   0.06638,  -0.57485,   0.49976,  -0.93750,   0.20624,  -0.75059,  -0.21528,  -0.23963,   0.24261
   0.01664,   0.87040,  -0.64414,   0.42144,  -0.93750,   0.93750,   0.91089,  -0.93750,   0.43942,   0.78665
  -0.55029,   0.78599,  -0.05172,   0.28051,  -0.37227,  -0.71489,  -0.01213,   0.79737,   0.45586,   0.81610
  -0.47343,   0.15097,  -0.67325,   0.93750,   0.02080,  -0.93750,   0.93750,   0.93750,   0.48841,  -0.93750
  -0.76167,  -0.25283,   0.21379,  -0.37348,  -0.12475,   0.81754,  -0.27190,   0.74386,   0.06444,  -0.90074
   0.24030,   0.13948,   0.58610,  -0.19637,   0.92980,   0.11106,   0.03109,   0.16937,   0.93750,   0.07076
   0.86997,  -0.62007,   0.54788,   0.34227,   0.88005,   0.03210,  -0.86335,   0.10953,  -0.19245,   0.15822
   0.08542,   0.05228,  -0.83500,  -0.93750,   0.03095,   0.50910,  -0.75432,   0.53179,  -0.44848,   0.46373
  -0.33003,   0.82164,   0.07707,  -0.93445,   0.62107,   0.42242,  -0.79545,  -0.36496,  -0.43480,  -0.75068
   0.39410,   0.49735,  -0.11284,  -0.74720,   0.77557,  -0.74530,   0.74173,   0.64331,  -0.82941,  -0.64531
   0.93466,   0.75671,  -0.45176,   0.91814,   0.53457,  -0.35477,  -0.40494,   0.17365,   0.83553,  -0.50556
   0.93750,  -0.23428,  -0.26964,   0.93750,  -0.93750,  -0.87227,   0.77478,  -0.80772,  -0.33661,  -0.15933
   0.28516,  -0.45258,  -0.38211,  -0.56343,   0.01694,   0.57694,  -0.42962,  -0.57183,  -0.50722,   0.34741
  -0.83318,  -0.82073,   0.69902,   0.86937,   0.01381,   0.07332,   0.63502,   0.10838,   0.17918,   0.85055
   0.23409,   0.18675,  -0.77441,   0.13003,   0.93750,  -0.04809,   0.84856,   0.08960,   0.76229,  -0.07181
   0.50241,  -0.75138,  -0.79628,   0.64759,   0.93750,   0.81938,  -0.93750,   0.18471,  -0.87094,   0.43064
   0.44552,  -0.88032,   0.86423,  -0.56085,  -0.27685,  -0.74597,   0.61104,   0.83150,   0.74347,  -0.78405
   0.64640,  -0.81852,   0.93750,  -0.93750,   0.13502,  -0.49460,   0.82341,   0.15287,   0.14545,  -0.93750
   0.42617,  -0.10732,   0.13911,   0.51496,   0.21974,  -0.15404,  -0.16185,  -0.16237,  -0.52287,   0.00751
  -0.33945,  -0.36914,   0.28938,   0.93069,   0.47822,   0.53677,  -0.75326,  -0.55619,  -0.92012,   0.63012
  -0.28644,   0.59162,  -0.83681,  -0.40977,   0.85792,  -0.36545,   0.63948,   0.88438,   0.81565,   0.49224
  -0.17409,   0.36004,  -0.79506,  -0.23860,   0.57207,  -0.33544,   0.74312,  -0.38228,   0.20490,   0.80392
   0.53245,   0.74475,   0.93750,   0.36287,   0.86039,  -0.04374,   0.86026,   0.93750,   0.69659,   0.93750
  -0.01842,  -0.09951,   0.93750,  -0.06876,  -0.74733,  -0.51828,  -0.73572,  -0.17436,   0.15797,  -0.23686
  -0.93469,  -0.09340,   0.12164,  -0.46370,   0.57329,   0.11671,   0.93750,   0.20622,   0.07970,  -0.00870
  -0.84910,   0.39478,   0.85844,  -0.41410,  -0.88825,   0.03453,   0.12610,  -0.26889,   0.93750,  -0.01169
   0.51343,  -0.47830,  -0.80198,  -0.86028,  -0.07266,   0.84237,   0.93750,  -0.68472,  -0.93750,  -0.76079
   0.68130,  -0.14802,  -0.51934,  -0.29147,   0.01238,  -0.28407,  -0.00810,  -0.92749,   0.12763,   0.93750
   0.85418,  -0.08664,  -0.58438,  -0.32235,  -0.24417,   0.93750,  -0.42111,  -0.54554,  -0.25320,  -0.30571
   0.28132,  -0.93750,  -0.22261,  -0.65894,   0.93750,   0.88157,  -0.01686,  -0.57417,   0.70543,   0.62191
   0.93750,  -0.33127,  -0.40732,  -0.26010,  -0.61836,   0.83543,  -0.47210,  -0.04264,   0.93750,  -0.83375
   0.83731,   0.79247,  -0.02156,  -0.58638,  -0.57045,   0.91686,  -0.67631,  -0.22477,   0.86841,   0.07218
  -0.22737,  -0.86356,  -0.49755,  -0.67753,   0.93750,   0.67919,  -0.73928,  -0.57152,  -0.13536,   0.78620
   0.63649,   0.22399,  -0.55221,   0.17176,   0.21824,   0.18451,  -0.45831,  -0.03900,  -0.36285,   0.22732
   0.93750,   0.77472,  -0.15836,   0.80370,  -0.67134,  -0.20164,  -0.92003,   0.43043,  -0.93750,   0.51980
   0.66656,  -0.54507,   0.93353,  -0.16258,  -0.32632,  -0.06730,  -0.82395,   0.69641,   0.28732,  -0.36785
  -0.21388,   0.84440,  -0.27781,   0.93750,  -0.86418,  -0.21998,  -0.21781,  -0.72223,  -0.61917,  -0.29312
   0.62414,  -0.78568,  -0.30595,  -0.81172,   0.93046,  -0.21294,  -0.18346,   0.12619,   0.05605,   0.08803
  -0.24651,  -0.00812,   0.93750,  -0.93750,   0.93750,  -0.70374,  -0.89054,   0.58956,  -0.43841,   0.46871
   0.92391,  -0.17685,  -0.16957,   0.81078,  -0.13940,   0.01785,  -0.32688,   0.05240,  -0.60601,   0.29898
  -0.57249,  -0.77521,  -0.12726,   0.86534,  -0.58051,   0.08547,  -0.66795,  -0.41548,   0.70756,  -0.19986
  -0.17490,   0.03965,   0.76117,  -0.81454,  -0.08792,   0.93674,  -0.23418,   0.76258,  -0.57293,  -0.44513
  -0.74691,   0.54246,  -0.89998,  -0.04768,   0.81159,   0.77800,  -0.81471,  -0.87986,  -0.88326,   0.93750
  -0.93750,   0.00165,  -0.00517,  -0.58709,  -0.93750,  -0.22689,  -0.93750,   0.35390,  -0.82832,  -0.81523
   0.93750,  -0.37784,   0.69077,  -0.14592,  -0.23904,   0.23045,  -0.92576,   0.14506,  -0.41842,   0.24910
  -0.35850,  -0.47355,  -0.50030,   0.31332,   0.24294,   0.32691,   0.86288,  -0.60953,  -0.60889,  -0.24734
  -0.66982,  -0.67693,   0.79101,   0.93750,  -0.53662,   0.00309,  -0.57713,   0.03222,  -0.84870,  -0.10915
  -0.48458,  -0.51290,  -0.62079,  -0.37635,  -0.49926,   0.88346,  -0.04248,   0.01998,   0.26748,   0.81399
  -0.26317,   0.10812,   0.14136,   0.12062,   0.81018,  -0.54579,  -0.33638,   0.93750,   0.30537,  -0.81611
   0.78398,  -0.22156,  -0.89830,  -0.17054,  -0.10830,   0.93750,   0.24282,   0.87497,  -0.62786,   0.36908
  -0.53983,  -0.68873,   0.29825,   0.05519,   0.82173,  -0.73958,  -0.56924,   0.55370,  -0.10146,   0.49750
  -0.43594,  -0.32819,   0.04981,  -0.28761,   0.67375,  -0.82208,  -0.43585,  -0.45038,   0.04043,   0.82732
  -0.08353,  -0.39647,  -0.47507,   0.93750,  -0.72523,   0.93750,  -0.77895,  -0.75796,   0.11987,  -0.81782
  -0.93750,   0.93750,   0.33281,  -0.24969,   0.59145,  -0.87643,  -0.77487,  -0.88255,  -0.93750,  -0.72645
   0.41865,   0.10936,   0.67850,   0.93750,  -0.93750,  -0.50971,  -0.87314,  -0.06183,   0.02579,  -0.16002
  -0.62802,  -0.93750,   0.07554,   0.00524,  -0.52683,   0.57088,  -0.93362,   0.85294,   0.62466,  -0.13031
  -0.49893,  -0.16060,  -0.86929,  -0.44014,  -0.56193,  -0.93750,  -0.29808,  -0.60517,   0.07327,   0.93750
  -0.59817,  -0.41396,  -0.57662,  -0.93750,  -0.66783,   0.10613,  -0.60805,  -0.72563,   0.93750,  -0.83427
  -0.74918,   0.82948,  -0.82004,   0.15686,  -0.41271,   0.93750,   0.93750,  -0.91863,  -0.80581,  -0.85692
   0.70287,  -0.00092,  -0.31882,   0.82096,   0.83801,  -0.93750,  -0.93750,   0.11182,   0.93750,   0.05974
   0.09128,  -0.17270,   0.83348,   0.25123,  -0.77129,  -0.15968,  -0.40479,  -0.14114,   0.34614,  -0.11390
   0.87666,   0.70362,   0.12412,  -0.93750,   0.19069,   0.41176,   0.48897,  -0.93750,  -0.40414,  -0.86941
