  -0.53782,  -0.56578,   0.62358,   0.65257,   0.23304,   0.02085,   0.12623,  -0.10483,   0.40970,   0.14524
   0.58554,  -0.16431,  -0.50611,  -0.79927,  -0.80845,  -0.32384,  -0.64496,   0.93750,   0.38847,  -0.38472
   0.80087,   0.93750,  -0.15358,   0.36993,  -0.86744,  -0.44141,   0.86734,  -0.01423,   0.80228,   0.93750
  -0.75880,  -0.20903,  -0.42548,   0.38385,  -0.75026,  -0.54771,   0.09597,  -0.31574,  -0.16438,  -0.93750
  -0.31260,   0.53126,  -0.48376,   0.39779,   0.59074,   0.50571,  -0.06853,   0.37399,  -0.63026,  -0.50710
  -0.71426,   0.18168,   0.90798,   0.18654,   0.93750,   0.16393,   0.05127,  -0.08869,  -0.13377,  -0.11890
   0.19650,   0.48694,  -0.73966,   0.27460,   0.07948,  -0.89435,  -0.25907,   0.92141,   0.32386,  -0.93750
   0.01597,  -0.11895,  -0.27311,   0.77060,  -0.30180,   0.67867,  -0.71321,  -0.57204,  -0.65625,  -0.06285
  -0.87040,  -0.81309,   0.93750,  -0.88111,   0.93750,  -0.89173,  -0.63829,  -0.93750,  -0.93750,   0.65654
  -0.47173,   0.75227,  -0.57918,   0.39619,   0.81281,  -0.82026,  -0.50898,  -0.89833,  -0.93750,  -0.86750
  -0.42341,  -0.78009,   0.93750,   0.93750,  -0.71274,   0.93750,  -0.68437,  -0.39878,  -0.02523,  -0.27189
   0.93750,   0.12124,  -0.93041,   0.17920,   0.56974,  -0.23645,   0.03044,  -0.28253,  -0.28587,   0.59319
   0.02735,   0.86480,  -0.17780,   0.13590,   0.22101,  -0.21168,  -0.25239,   0.92385,  -0.49393,  -0.55122
  -0.39331,  -0.19422,  -0.37989,  -0.67145,   0.32295,  -0.13646,  -0.47750,  -0.18061,   0.93568,   0.23147
   0.87852,   0.93750,   0.93750,   0.13484,   0.93750,   0.39454,  -0.74876,  -0.90441,   0.93750,   0.93750
   0.08573,   0.16774,  -0.76463,  -0.93750,   0.71170,   0.60602,   0.93750,   0.88081,  -0.87222,   0.12408
  -0.01168,   0.10517,   0.13533,   0.93750,  -0.69865,  -0.13237,   0.16251,  -0.75867,  -0.09356,  -0.14893
  -0.22494,   0.88426,  -0.28891,  -0.93750,  -0.69088,   0.88556,  -0.80777,  -0.49152,   0.16577,  -0.55828
  -0.46389,   0.78657,  -0.03602,  -0.45413,  -0.89942,  -0.73113,  -0.67839,  -0.13222,  -0.86758,   0.88777
   0.93750,   0.41007,   0.26999,   0.48120,   0.36532,   0.54934,  -0.03706,   0.48373,  -0.81260,  -0.12532
  -0.36235,  -0.93750,   0.65481,  -0.80467,   0.51695,   0.01891,   0.20086,  -0.61919,   0.67595,   0.70056
   0.36923,  -0.20603,  -0.41634,   0.86231,  -0.54638,   0.57312,  -0.52361,  -0.56597,   0.36121,   0.18259
   0.61057,  -0.55916,   0.93298,  -0.63070,   0.87538,   0.87504,  -0.76061,  -0.68171,   0.81932,  -0.23522
  -0.41197,   0.69420,  -0.67001,  -0.29578,   0.12322,  -0.14633,   0.69879,   0.33654,   0.38137,  -0.70146
  -0.79175,   0.76052,   0.80736,  -0.40979,   0.31648,   0.53774,  -0.04542,  -0.93750,   0.64031,  -0.78291
  -0.88041,   0.66156,   0.46078,   0.64835,   0.34602,  -0.24743,  -0.87975,  -0.66561,  -0.09454,  -0.25144
  -0.63812,  -0.72950,  -0.14410,  -0.45095,   0.88976,   0.00083,  -0.17696,   0.69998,   0.19263,  -0.74018
  -0.23473,   0.20399,   0.08541,   0.92830,  -0.11172,  -0.75167,   0.45675,  -0.16740,   0.85681,   0.15349
  -0.52998,  -0.32294,  -0.12050,  -0.10640,  -0.55007,  -0.77384,  -0.80426,  -0.04743,   0.92500,  -0.13861
  -0.22470,   0.55241,  -0.26976,  -0.39768,   0.93750,  -0.67558,   0.34369,  -0.93750,   0.68735,   0.04513
   0.87556,  -0.81399,   0.93750,  -0.81135,  -0.93750,  -0.40442,  -0.62161,   0.59822,  -0.31596,  -0.48947
   0.53324,   0.77347,  -0.07108,   0.87412,   0.01729,  -0.55765,   0.74966,  -0.44101,   0.72879,   0.57889
   0.93750,  -0.93750,  -0.00913,  -0.44593,   0.93750,   0.73266,   0.93750,  -0.29027,  -0.20908,  -0.19587
   0.60084,   0.41748,  -0.87375,   0.10785,   0.93750,   0.56368,  -0.59230,  -0.59980,  -0.75522,  -0.93651
   0.26947,  -0.15452,  -0.13441,  -0.15422,   0.93750,  -0.02974,   0.81371,   0.93750,   0.79921,   0.00521
  -0.70554,   0.29566,  -0.63133,  -0.01618,   0.07398,   0.86459,   0.86796,  -0.87676,  -0.27503,   0.93750
   0.56691,   0.93750,   0.93750,  -0.93750,  -0.68584,  -0.06984,   0.18643,   0.02819,  -0.11341,   0.86721
   0.04960,   0.93750,  -0.74606,  -0.93750,  -0.87364,  -0.87417,   0.57852,   0.63571,   0.85599,   0.77814
   0.11778,   0.28115,   0.57479,   0.76166,   0.87642,  -0.50956,  -0.32124,  -0.22752,  -0.33191,   0.02795
   0.75859,   0.41891,   0.87465,   0.21953,   0.04733,  -0.28954,   0.31978,  -0.04238,   0.69807,  -0.39116
   0.81313,  -0.51877,  -0.50775,   0.22177,   0.44219,   0.81703,  -0.53009,   0.58258,  -0.51228,   0.29107
  -0.05814,  -0.15412,   0.19302,  -0.76973,   0.27534,  -0.80404,   0.41306,  -0.87332,   0.46412,   0.47899
  -0.85234,  -0.47362,   0.51204,   0.43861,   0.55155,   0.83958,   0.61868,   0.68034,  -0.40690,  -0.55932
   0.93750,   0.82951,   0.61616,   0.27623,   0.86887,  -0.93750,   0.93750,   0.93750,   0.33262,   0.80396
  -0.31966,  -0.18807,  -0.51119,  -0.57954,   0.65397,   0.93750,  -0.67368,   0.87611,   0.60721,  -0.21605
  -0.41728,   0.23134,   0.67155,  -0.54117,   0.93750,  -0.02347,   0.21568,  -0.21537,   0.38401,   0.43928
   0.41648,   0.93750,  -0.93750,  -0.87092,   0.93750,   0.93750,   0.03773,  -0.86906,   0.10000,   0.93316
  -0.60548,  -0.55010,   0.93750,   0.37097,   0.49716,   0.69051,   0.93750,  -0.57109,   0.54802,  -0.48395
   0.15215,   0.54562,  -0.68571,  -0.93750,   0.93750,  -0.13138,   0.93750,   0.88010,  -0.65083,  -0.02903
  -0.02931,   0.93750,   0.22345,  -0.12639,   0.22003,   0.07845,  -0.75486,   0.07637,  -0.87029,  -0.69304
   0.01572,  -0.37916,  -0.48904,  -0.65326,   0.91977,   0.41606,   0.24246,  -0.49620,  -0.00295,   0.45361
  -0.58992,  -0.11043,  -0.46993,  -0.86675,  -0.07110,  -0.60629,  -0.22535,   0.87739,  -0.03432,   0.52897
   0.64011,   0.93750,  -0.74344,   0.12553,  -0.74865,   0.77480,   0.69052,   0.17781,   0.03439,   0.75782
  -0.56023,   0.77126,  -0.70686,   0.35462,   0.02245,  -0.03972,  -0.27757,  -0.67325,  -0.04647,  -0.11861
  -0.58696,   0.69017,  -0.33656,  -0.41917,   0.63281,   0.17091,   0.12952,   0.05294,  -0.18663,  -0.24284
  -0.23973,   0.93750,  -0.00579,  -0.68897,   0.86655,   0.86981,  -0.81571,   0.93750,   0.21589,   0.04412
  -0.82875,   0.93750,   0.09733,  -0.37215,  -0.49803,   0.48996,   0.20363,  -0.93750,   0.81606,  -0.15691
  -0.37964,  -0.43004,  -0.88189,  -0.93750,   0.47388,  -0.14462,   0.93750,  -0.53479,   0.93330,  -0.72976
  -0.74069,  -0.39490,   0.93689,  -0.17445,   0.45959,  -0.70445,  -0.21367,  -0.13577,  -0.22747,  -0.57741
  -0.57478,  -0.81905,  -0.93750,  -0.69228,  -0.86303,   0.87489,  -0.73589,  -0.81282,  -0.77409,  -0.08282
   0.63223,  -0.12517,   0.35049,   0.69143,   0.87121,   0.23350,   0.72814,   0.05724,   0.55304,   0.50613
  -0.57781,   0.28375,  -0.62056,   0.75397,   0.93750,  -0.63390,   0.87382,  -0.56467,   0.32252,  -0.22746
  -0.11617,  -0.14053,   0.28788,  -0.57038,   0.12446,  -0.52278,   0.86162,   0.03439,   0.17393,   0.40068
   0.24878,   0.12485,   0.66660,  -0.87793,   0.70704,  -0.63134,   0.71710,  -0.84128,   0.16625,  -0.17311
  -0.42675,  -0.09308,   0.93691,   0.12413,  -0.29332,  -0.33462,  -0.49399,   0.49720,   0.50620,  -0.36002
   0.16571,   0.20999,   0.08730,  -0.68936,  -0.36175,   0.86308,  -0.41261,   0.10521,   0.19541,  -0.14414
  -0.28742,  -0.19547,   0.87640,  -0.64626,   0.27624,  -0.06428,  -0.14138,   0.86386,   0.87405,  -0.05968
   0.93750,   0.44983,   0.86936,  -0.31720,   0.34863,   0.42807,   0.19472,  -0.73285,   0.45445,   0.33119
  -0.15226,  -0.05629,   0.26075,  -0.13867,   0.53491,  -0.38049,   0.07358,   0.93750,  -0.13507,  -0.25408
  -0.69979,  -0.12292,   0.93672,  -0.04641,   0.50407,  -0.60794,  -0.54675,  -0.73372,  -0.57414,   0.24054
   0.60357,  -0.50147,   0.63904,   0.40565,   0.48598,  -0.42256,   0.61938,  -0.86467,  -0.28068,  -0.55116
   0.33323,  -0.21316,   0.93750,  -0.32633,   0.79054,  -0.75969,  -0.16360,   0.09543,  -0.06588,   0.19075
   0.93750,  -0.70354,  -0.64632,   0.18746,  -0.80250,  -0.50067,   0.54288,  -0.41941,  -0.77689,   0.93750
  -0.88535,  -0.86478,  -0.93750,   0.93750,  -0.93750,   0.62783,  -0.87532,   0.80698,   0.55334,  -0.93750
   0.03390,   0.39158,  -0.07376,  -0.01747,  -0.15939,   0.16660,   0.92367,  -0.28225,  -0.15712,  -0.55380
  -0.32493,   0.67726,   0.18283,  -0.00440,  -0.44735,   0.20307,   0.51295,   0.53872,   0.11161,  -0.46916
  -0.61993,   0.58270,  -0.50774,  -0.75752,  -0.66556,   0.62727,   0.68917,   0.38231,   0.24319,   0.78236
  -0.83620,   0.93750,   0.72378,  -0.93750,   0.93750,   0.93750,  -0.24350,   0.93086,   0.14929,  -0.56668
  -0.61792,  -0.12820,   0.52619,   0.87064,  -0.18209,  -0.69062,   0.93750,   0.93750,  -0.18969,   0.43338
   0.70372,   0.72990,   0.29333,   0.73740,  -0.84288,   0.59172,  -0.66437,   0.60721,   0.59580,   0.45192
   0.93221,  -0.78759,  -0.46812,  -0.53382,  -0.17359,   0.03650,   0.00729,  -0.12441,   0.42139,  -0.94154
   0.93750,  -0.87240,  -0.19286,  -0.87905,  -0.80571,  -0.93750,   0.93750,  -0.81625,  -0.75088,  -0.87777
  -0.06700,   0.83744,  -0.39126,   0.21315,   0.37697,   0.12669,  -0.23292,  -0.16278,   0.49298,  -0.68499
  -0.09158,  -0.02558,   0.71145,   0.05904,   0.79671,  -0.44277,   0.30529,  -0.55307,  -0.39150,  -0.35097
  -0.26298,  -0.00483,  -0.30622,  -0.42177,   0.93750,   0.36723,   0.27144,  -0.52390,  -0.03107,   0.28233
   0.53615,  -0.93750,  -0.93750,   0.87237,   0.87522,   0.93750,  -0.87547,   0.89154,  -0.81247,  -0.93750
   0.93750,   0.87348,  -0.55896,  -0.24090,  -0.47078,   0.03097,   0.77097,  -0.14833,  -0.89296,  -0.91268
  -0.23614,  -0.08140,   0.42848,  -0.38148,   0.93750,  -0.41012,  -0.26484,  -0.03918,  -0.64358,   0.17817
   0.35724,   0.51266,  -0.62517,   0.79999,  -0.12902,  -0.62454,  -0.69059,   0.87286,   0.82161,  -0.83078
   0.88006,  -0.08732,  -0.87630,   0.73229,  -0.53506,  -0.87910,   0.44024,  -0.93723,  -0.12006,  -0.81447
  -0.93750,   0.93750,   0.75594,  -0.83116,   0.70395,  -0.88674,  -0.28794,   0.87414,  -0.50725,  -0.83636
  -0.66653,  -0.65354,  -0.45039,  -0.18962,  -0.20229,   0.35741,   0.41561,  -0.10224,   0.87459,  -0.01637
  -0.07714,   0.39923,  -0.37538,   0.05428,  -0.82663,  -0.22899,  -0.78749,   0.91070,   0.16231,   0.17178
   0.45045,  -0.81684,  -0.33169,  -0.31258,   0.42948,  -0.46972,  -0.34509,  -0.76504,   0.65069,   0.82287
   0.87370,  -0.14258,  -0.37645,  -0.37377,   0.17621,  -0.38392,   0.93750,  -0.65595,   0.45056,  -0.23079
   0.81048,   0.19247,  -0.63127,  -0.19339,   0.79403,  -0.31222,  -0.10051,  -0.93750,  -0.55855,  -0.86305
  -0.00887,   0.09153,   0.51778,  -0.16091,   0.27575,   0.41245,  -0.45786,   0.33434,   0.22151,   0.08509
  -0.67632,  -0.60065,   0.93750,   0.68223,  -0.42239,  -0.56503,  -0.36798,  -0.36076,   0.56397,  -0.28062
   0.02056,   0.05093,   0.58253,  -0.31313,   0.84886,  -0.71312,   0.47605,  -0.70673,   0.10477,  -0.02528
  -0.88192,   0.19681,  -0.69519,   0.86290,  -0.93750,   0.85881,  -0.44749,  -0.81859,   0.88490,   0.07219
  -0.62839,   0.42222,  -0.17294,  -0.53171,   0.93750,  -0.56162,  -0.19736,   0.25081,  -0.23843,   0.22589
  -0.00030,  -0.46920,   0.67697,  -0.12431,  -0.76837,   0.69383,  -0.18143,   0.93750,  -0.51294,  -0.17968
  -0.74728,  -0.93750,   0.92330,  -0.93750,  -0.72559,   0.93750,  -0.93750,  -0.37705,   0.20420,   0.93750
  -0.76810,   0.93750,   0.42395,   0.19376,   0.19955,   0.04820,   0.48020,   0.24502,   0.48698,  -0.47603
   0.67605,   0.47215,  -0.09539,  -0.93750,   0.70860,  -0.31464,   0.34667,  -0.54618,  -0.69055,   0.86684
   0.86987,   0.44902,   0.34774,   0.07850,  -0.20642,   0.10159,   0.21364,  -0.37216,  -0.49624,   0.12428
  -0.29317,   0.41175,  -0.57432,  -0.93750,  -0.50535,  -0.65774,   0.93750,  -0.23952,   0.07159,   0.64063
   0.61028,   0.00242,   0.63368,  -0.93750,  -0.28292,   0.01058,  -0.57277,   0.93750,  -0.07107,   0.40039
   0.62271,  -0.33637,  -0.54385,  -0.34017,   0.93750,   0.15572,  -0.06572,   0.12482,  -0.67718,  -0.46971
   0.04212,  -0.18631,  -0.17429,   0.86398,   0.55095,  -0.58726,  -0.44626,   0.67384,  -0.06193,   0.00834
  -0.14121,  -0.27898,  -0.93750,  -0.69796,   0.55123,   0.04435,   0.88007,   0.81388,  -0.66578,   0.82245
   0.93750,  -0.17776,  -0.57312,   0.15342,  -0.68210,   0.01613,   0.27236,   0.15298,  -0.85159,   0.14224
  -0.44844,   0.92090,  -0.27241,  -0.50586,   0.93366,  -0.54223,  -0.67522,  -0.43210,  -0.12175,   0.05920
   0.70108,  -0.25412,   0.62323,   0.79464,  -0.35804,  -0.42258,   0.63765,  -0.67273,   0.57385,  -0.08465
   0.01879,  -0.00857,  -0.74315,  -0.17774,  -0.20890,  -0.15224,   0.92879,  -0.32449,  -0.27868,   0.71248
  -0.59655,   0.81076,   0.06002,   0.61651,   0.69212,   0.10563,   0.47356,  -0.31190,   0.85903,  -0.50908
   0.83328,   0.66714,   0.37743,   0.33922,   0.64456,  -0.66016,   0.13687,  -0.73512,   0.06910,  -0.93750
   0.93717,  -0.16424,  -0.79258,  -0.75136,  -0.62345,   0.44596,   0.04700,   0.74829,  -0.23119,  -0.08550
  -0.18760,  -0.24614,  -0.01656,   0.82199,  -0.15598,  -0.78850,   0.85300,   0.24034,   0.28711,  -0.06191
   0.93750,  -0.06160,   0.46825,   0.42823,   0.04024,  -0.88023,  -0.83708,   0.15110,  -0.87613,  -0.86569
   0.18567,  -0.02983,  -0.65829,   0.47920,  -0.20002,  -0.36683,   0.16720,   0.93750,   0.29139,  -0.24039
   0.26011,   0.58767,   0.54857,  -0.25858,   0.93750,  -0.48488,  -0.04026,   0.49513,   0.01000,  -0.05278
   0.32155,  -0.19304,  -0.48172,  -0.44676,  -0.52203,  -0.09465,  -0.13320,   0.87037,   0.56387,   0.59079
  -0.93372,  -0.26140,  -0.04836,  -0.71039,  -0.75600,  -0.77348,  -0.87278,  -0.01099,  -0.88642,   0.93750
  -0.87145,  -0.66994,   0.93750,  -0.03480,  -0.09359,   0.16165,   0.19249,   0.93750,  -0.93750,   0.93750
  -0.75339,  -0.73913,  -0.80028,   0.81122,   0.28271,  -0.31444,   0.93750,   0.09959,   0.93750,  -0.45711
  -0.27551,   0.93750,   0.26855,   0.72493,  -0.29660,  -0.49174,  -0.08602,  -0.02232,   0.58980,  -0.39652
   0.88254,  -0.61431,  -0.54414,  -0.43194,   0.46619,   0.01008,   0.13103,  -0.41149,   0.76731,   0.02904
   0.90465,  -0.70276,  -0.13444,  -0.17572,   0.15440,   0.75100,   0.26934,   0.39481,   0.31990,  -0.74962
   0.81840,   0.48994,   0.05091,   0.81179,   0.89067,  -0.87562,   0.78640,  -0.86929,  -0.93750,   0.80181
   0.93651,  -0.85637,  -0.37589,   0.86478,   0.86159,  -0.37804,  -0.29597,  -0.70115,   0.49780,  -0.60428
   0.10035,   0.16331,  -0.74021,  -0.81537,  -0.89681,   0.33974,   0.87540,   0.23424,   0.78943,   0.30914
   0.26604,  -0.16337,   0.93750,  -0.93308,   0.68477,  -0.43524,  -0.45734,  -0.77282,  -0.10333,   0.05873
   0.40446,   0.15747,  -0.68037,  -0.34648,   0.74888,   0.21808,  -0.37064,   0.77097,  -0.17528,  -0.10866
   0.57327,  -0.01621,  -0.43942,  -0.31137,  -0.31303,   0.30987,   0.93750,  -0.21493,  -0.11480,  -0.03719
   0.93177,   0.62537,  -0.24512,  -0.80421,  -0.81309,  -0.26775,   0.22264,  -0.37242,  -0.69934,  -0.62969
   0.75430,  -0.11890,  -0.08779,  -0.07120,   0.22211,  -0.01069,   0.09226,   0.83551,   0.06144,  -0.73918
  -0.06813,   0.56713,  -0.81870,   0.84147,  -0.57392,   0.69421,  -0.93750,  -0.16330,   0.37903,  -0.93750
  -0.41983,   0.33800,  -0.86456,  -0.04459,  -0.72641,  -0.87696,   0.93750,  -0.56696,   0.93750,  -0.62182
  -0.06053,  -0.62756,  -0.40295,   0.67259,  -0.17410,  -0.42563,  -0.18176,   0.87708,  -0.18204,  -0.52139
   0.07838,   0.18587,   0.87797,   0.92541,   0.42938,   0.93750,  -0.49619,   0.87225,   0.80873,   0.01925
   0.88064,  -0.81884,   0.63450,  -0.84481,  -0.31160,  -0.30153,   0.24928,   0.24669,  -0.53628,  -0.16964
   0.66288,   0.54595,   0.04127,   0.93750,  -0.61296,  -0.69458,  -0.73196,  -0.25062,  -0.49112,  -0.65938
   0.84470,   0.15146,   0.03756,  -0.28971,  -0.15176,  -0.00853,   0.88317,   0.26094,  -0.23849,   0.17322
  -0.53993,  -0.57251,   0.78794,  -0.54876,  -0.35819,   0.16675,  -0.47227,  -0.09154,   0.51764,   0.93750
  -0.44404,   0.77473,   0.64936,  -0.05478,   0.69406,   0.34639,   0.20507,  -0.24288,  -0.12127,   0.05681
  -0.42324,   0.02921,   0.48909,  -0.08921,   0.52841,  -0.24201,  -0.06644,   0.70290,  -0.05910,   0.75116
  -0.67674,   0.58916,  -0.41114,  -0.82226,  -0.41326,  -0.38141,   0.06215,   0.25149,   0.93618,   0.78133
   0.67736,  -0.41792,  -0.72633,   0.93750,  -0.80288,  -0.05308,   0.93750,  -0.40867,  -0.80895,  -0.87916
   0.86456,  -0.87446,   0.60421,  -0.63428,  -0.59154,   0.48316,   0.80668,  -0.88373,   0.26175,   0.93750
   0.01705,  -0.20349,  -0.83460,   0.37261,  -0.44462,   0.13288,   0.31168,   0.87023,  -0.68270,  -0.80368
  -0.47055,   0.86723,   0.43619,  -0.47006,  -0.20856,   0.82302,   0.52819,  -0.64758,  -0.16920,  -0.48242
   0.10470,   0.27410,  -0.32073,  -0.23026,  -0.35115,   0.93750,  -0.06097,  -0.13348,  -0.13788,   0.29038
  -0.93750,   0.83243,  -0.67974,   0.56591,   0.86869,   0.70916,  -0.59373,   0.35153,  -0.36778,   0.93750
   0.32273,  -0.42154,  -0.93750,   0.36310,   0.93750,  -0.93750,   0.93750,  -0.28182,   0.55077,  -0.74533
  -0.09043,   0.68205,   0.41544,   0.93750,   0.07210,   0.53974,   0.75534,  -0.93750,  -0.42809,   0.81223
  -0.86833,   0.80700,   0.80774,   0.93750,   0.52736,   0.14583,  -0.48975,   0.79534,   0.93750,  -0.88198
   0.44527,   0.40612,   0.12233,  -0.82044,  -0.48234,   0.50758,  -0.73988,   0.06291,   0.30772,   0.28676
   0.59312,   0.93750,   0.93750,  -0.75312,   0.30373,   0.67941,  -0.83778,   0.67652,  -0.75925,  -0.56217
  -0.30917,   0.87524,   0.41665,  -0.18572,   0.35323,   0.22100,   0.11190,   0.21782,   0.74488,  -0.86787
   0.70635,   0.74299,  -0.02610,  -0.23268,  -0.19186,   0.33368,   0.26884,  -0.08980,   0.84190,  -0.60215
  -0.13103,  -0.06082,  -0.07227,  -0.42617,   0.06159,   0.61885,   0.78043,   0.56845,   0.27277,  -0.23011
   0.50909,  -0.73996,   0.81581,  -0.12422,   0.81560,   0.52353,  -0.88274,  -0.39630,  -0.87102,  -0.87018
  -0.14382,  -0.44100,  -0.17767,   0.71846,   0.60679,  -0.05675,   0.72505,  -0.08198,  -0.74215,   0.87915
   0.26503,  -0.06623,  -0.13933,   0.68434,  -0.23829,  -0.72693,   0.55886,   0.42843,   0.31173,   0.43504
   0.80188,   0.87131,   0.45926,   0.56025,   0.09905,   0.93750,  -0.70282,   0.84133,  -0.74641,  -0.03439
  -0.34420,   0.67977,  -0.09299,  -0.35524,  -0.39888,  -0.28816,   0.80675,   0.11158,  -0.03722,   0.87031
   0.46463,   0.87212,  -0.34487,   0.49034,  -0.46365,  -0.87121,   0.23396,   0.14112,  -0.47167,   0.37450
  -0.22372,  -0.25706,   0.93750,   0.80283,   0.62225,  -0.88012,  -0.34041,  -0.22884,  -0.92447,  -0.10324
  -0.87945,   0.79307,   0.44414,  -0.78069,   0.27898,   0.64556,  -0.76113,   0.93750,   0.76330,  -0.93750
  -0.23429,  -0.00497,  -0.11016,   0.20215,   0.88284,  -0.49128,   0.49264,  -0.73124,   0.00553,  -0.02220
   0.87798,  -0.20802,  -0.10878,   0.93750,   0.24046,  -0.69004,  -0.57979,   0.87603,   0.87904,  -0.72811
   0.16436,   0.75055,   0.93750,  -0.47631,  -0.49236,  -0.11237,  -0.35817,   0.14152,  -0.55259,  -0.04022
   0.39882,   0.22526,  -0.34704,  -0.58373,   0.19613,   0.93750,  -0.11422,  -0.59728,   0.58949,  -0.15015
  -0.75626,  -0.05903,  -0.23532,   0.76046,  -0.78866,  -0.52162,   0.61965,   0.32223,   0.80938,   0.19485
   0.29773,   0.88658,   0.26716,   0.45590,  -0.68643,  -0.71215,   0.46115,   0.13234,   0.42990,  -0.87774
  -0.12964,  -0.64909,   0.43973,  -0.50775,   0.04856,   0.16114,   0.13212,  -0.23754,  -0.62918,   0.93750
  -0.55005,   0.02442,   0.64480,   0.15649,   0.87022,  -0.77000,   0.08620,   0.63114,   0.93750,   0.22662
  -0.11366,   0.88177,  -0.68093,  -0.62529,   0.00318,  -0.00178,  -0.92698,   0.25081,  -0.42589,  -0.81206
  -0.88200,   0.18001,   0.21896,  -0.40349,   0.74053,  -0.17164,  -0.93750,   0.82776,  -0.47815,   0.80163
  -0.40649,   0.31690,   0.87388,  -0.43235,   0.53303,  -0.85675,  -0.47420,  -0.36909,  -0.50474,   0.69557
   0.93750,  -0.93750,   0.87603,   0.93750,   0.86629,   0.65405,   0.49742,  -0.88258,  -0.93750,  -0.26276
  -0.16684,  -0.80795,  -0.86858,   0.60522,  -0.59017,  -0.49642,   0.15208,  -0.52488,  -0.65159,  -0.57602
  -0.74379,  -0.86664,  -0.05366,  -0.93750,   0.93750,  -0.38001,   0.34538,   0.46923,   0.70660,   0.29385
   0.25324,   0.14038,  -0.82079,  -0.93750,  -0.16973,   0.86693,   0.55414,  -0.81181,   0.87762,   0.70022
  -0.75095,  -0.26889,   0.59474,   0.93750,  -0.93750,  -0.89239,   0.21908,   0.86929,   0.23426,   0.93750
  -0.27715,  -0.29480,  -0.17866,  -0.69742,  -0.27379,   0.87761,  -0.12382,  -0.93750,   0.22593,  -0.10394
  -0.93750,  -0.93750,  -0.22938,   0.57841,  -0.72658,  -0.42442,   0.74956,  -0.63751,   0.93750,   0.93750
   0.47250,  -0.07397,   0.52758,  -0.37865,  -0.26804,  -0.50306,  -0.15633,   0.93750,  -0.19415,   0.29807
  -0.07630,  -0.88107,   0.53851,  -0.18513,  -0.81467,   0.48954,  -0.02573,   0.07633,  -0.09189,  -0.81782
  -0.56277,  -0.32479,  -0.72090,   0.26875,   0.75267,   0.02958,  -0.22046,   0.50577,   0.53344,  -0.58666
  -0.58792,   0.86902,  -0.09586,   0.92155,  -0.48375,  -0.24372,   0.09358,  -0.82755,  -0.33025,   0.73137
   0.81862,   0.55235,  -0.31638,  -0.17953,  -0.03654,   0.08311,   0.08030,  -0.33569,  -0.62294,   0.85334
   0.93750,   0.93750,   0.40268,  -0.04215,   0.90973,  -0.84282,  -0.93750,  -0.73606,   0.18692,  -0.93750
   0.15588,   0.42811,   0.24487,  -0.56741,  -0.45933,   0.50801,   0.93075,   0.36097,  -0.18795,  -0.05951
   0.67349,   0.32837,   0.34043,   0.70900,   0.30413,  -0.27943,   0.21095,   0.01102,  -0.54930,  -0.30598
  -0.66658,  -0.81314,   0.93750,   0.62941,   0.92911,  -0.44818,  -0.48714,  -0.69025,  -0.93750,  -0.56059
   0.40897,   0.44937,   0.16706,  -0.86447,  -0.69080,  -0.02030,  -0.76717,   0.46082,   0.49974,   0.87083
   0.07922,   0.36779,  -0.84868,  -0.24393,   0.93750,  -0.06867,  -0.24996,  -0.43587,  -0.31364,  -0.05087
   0.86645,  -0.89097,   0.93750,   0.50219,   0.93750,   0.87329,  -0.73132,   0.81344,   0.62321,  -0.56346
  -0.55796,  -0.07693,   0.50986,  -0.86076,  -0.25617,   0.26965,   0.25715,   0.58134,   0.29852,   0.48771
  -0.12968,  -0.37242,   0.93750,  -0.56732,  -0.58535,  -0.13572,  -0.69506,  -0.45567,   0.92180,  -0.33621
   0.29115,  -0.49972,  -0.26367,  -0.82114,   0.93419,  -0.08382,  -0.43987,  -0.40280,  -0.23414,  -0.08627
  -0.46543,   0.93750,   0.25053,   0.63379,   0.03216,   0.75504,   0.07639,  -0.42464,   0.21751,  -0.69969
  -0.10354,   0.88548,   0.18686,  -0.59124,  -0.03823,   0.39405,  -0.38867,   0.20736,  -0.46528,  -0.67640
   0.08914,   0.87049,   0.72867,  -0.34850,  -0.45760,  -0.06518,   0.93583,  -0.03523,   0.05457,  -0.79797
   0.17129,   0.93750,   0.56417,  -0.88083,   0.93750,  -0.87515,   0.33875,   0.93750,  -0.60379,  -0.87176
  -0.29844,  -0.43317,   0.93750,  -0.02434,  -0.80452,   0.11580,  -0.74169,  -0.08020,   0.29488,  -0.28015
  -0.03492,  -0.79960,   0.60232,   0.23340,   0.58129,   0.64587,   0.46723,   0.16115,  -0.43922,   0.70896
   0.24225,   0.16927,  -0.11449,   0.93064,  -0.31416,  -0.33466,  -0.44623,   0.08050,  -0.37934,  -0.34881
  -0.38929,  -0.58706,  -0.19379,   0.39230,  -0.50160,   0.57327,  -0.62436,   0.39350,   0.37208,   0.45787
  -0.16421,   0.88928,   0.06468,   0.58339,  -0.26020,   0.04878,   0.43527,  -0.25363,  -0.15369,  -0.61683
   0.93750,   0.78863,  -0.87068,  -0.93750,   0.47628,   0.13876,   0.93750,   0.93750,  -0.93750,   0.93750
   0.30064,   0.01712,   0.93364,   0.77053,  -0.33295,  -0.93750,  -0.52304,   0.71676,  -0.44763,   0.74350
   0.80532,  -0.87397,   0.86982,   0.93750,   0.14332,   0.46252,  -0.63397,   0.38224,   0.13249,   0.19956
  -0.51082,  -0.81136,   0.93750,   0.24612,   0.74771,  -0.87201,   0.29517,  -0.86989,  -0.86569,   0.82027
  -0.53640,  -0.93750,  -0.93750,  -0.93750,   0.06114,  -0.14464,   0.48762,   0.40251,  -0.54164,  -0.04458
   0.40889,   0.85587,  -0.75371,   0.25330,  -0.50144,   0.05445,   0.84840,  -0.02384,  -0.49164,  -0.49144
   0.83917,   0.93750,  -0.05449,  -0.81700,   0.17378,  -0.92362,   0.32228,  -0.39054,  -0.16812,   0.81101
  -0.62045,  -0.76194,  -0.59093,   0.74326,   0.17965,   0.17388,  -0.50121,  -0.16141,   0.87106,  -0.67258
   0.04784,   0.49290,  -0.08592,   0.50062,  -0.87489,   0.33107,  -0.01036,   0.87500,  -0.31103,  -0.64801
   0.67899,  -0.80670,  -0.10520,  -0.44195,   0.57945,  -0.56837,  -0.18492,  -0.20227,   0.08846,   0.86683
  -0.86081,  -0.93750,   0.56120,  -0.75326,  -0.07380,   0.87477,  -0.77448,   0.87889,  -0.13665,  -0.88462
   0.07321,  -0.19847,   0.39324,  -0.72352,  -0.81120,   0.93750,   0.58639,  -0.66337,  -0.29343,   0.02362
  -0.13310,   0.41467,  -0.48357,   0.26681,   0.93750,   0.00278,  -0.28473,  -0.90260,   0.32932,  -0.27244
   0.44722,   0.58272,   0.74815,  -0.50920,   0.88119,  -0.72995,   0.53490,   0.85256,  -0.11916,  -0.83807
   0.34726,  -0.93252,   0.51277,   0.75457,   0.41195,  -0.93750,   0.75023,  -0.81581,  -0.88422,   0.65993
   0.94510,   0.83837,   0.15845,  -0.39705,   0.22315,  -0.87033,   0.60866,  -0.05258,  -0.45178,  -0.72851
   0.01117,  -0.74184,  -0.73305,  -0.73831,  -0.87968,  -0.51738,   0.27731,  -0.01758,   0.10417,   0.93750
   0.50539,   0.38719,  -0.36466,  -0.40665,  -0.61263,   0.36158,   0.93750,   0.53079,   0.56261,   0.88797
   0.28434,  -0.10773,  -0.11773,  -0.00306,  -0.17428,   0.75457,  -0.76258,   0.70698,   0.03590,   0.12722
  -0.20669,   0.05621,  -0.80268,   0.20601,   0.84571,   0.14015,   0.65400,   0.28212,   0.22956,   0.17770
   0.06474,  -0.48613,  -0.51397,   0.78342,  -0.57963,   0.83321,   0.38327,  -0.38571,  -0.10466,  -0.21153
  -0.48002,   0.93750,   0.65165,   0.58708,   0.11649,   0.16808,  -0.29796,  -0.03912,   0.27639,  -0.91257
  -0.69687,  -0.15233,   0.56739,   0.93750,   0.93750,   0.05748,  -0.16351,   0.93750,  -0.71743,  -0.19564
   0.66757,   0.81734,   0.93750,   0.06826,   0.93750,   0.93750,   0.62833,  -0.87170,  -0.59154,  -0.81593
   0.22574,   0.49187,  -0.81826,  -0.86912,   0.87253,   0.15482,  -0.63719,   0.72542,  -0.85484,  -0.56025
   0.90581,  -0.65305,   0.50687,  -0.88440,   0.19440,   0.02591,   0.15432,  -0.39005,   0.81541,  -0.34090
  -0.36702,  -0.37229,   0.49944,  -0.57551,  -0.49564,   0.29546,  -0.05175,   0.62649,   0.56210,   0.59178
  -0.17490,  -0.04207,   0.09875,  -0.87163,  -0.54152,   0.93750,  -0.26322,  -0.39829,  -0.10033,  -0.07624
  -0.68464,  -0.93750,  -0.17478,   0.74908,   0.04341,   0.43209,   0.44197,  -0.34308,  -0.56691,  -0.78340
  -0.03496,   0.33578,  -0.09444,  -0.54719,   0.09570,   0.61826,   0.60615,   0.61709,  -0.41696,   0.17264
  -0.56747,  -0.70495,   0.69009,  -0.54299,  -0.37201,   0.19870,   0.10654,   0.31429,   0.41369,   0.36857
  -0.40071,  -0.32740,  -0.52157,   0.01084,  -0.06938,  -0.59405,   0.93133,  -0.30002,  -0.10225,  -0.65513
  -0.42627,  -0.05217,  -0.87327,  -0.62614,  -0.81818,   0.93750,   0.10096,   0.13439,   0.21023,   0.02495
   0.87508,  -0.42833,   0.15130,   0.74757,   0.93750,  -0.76424,  -0.84180,   0.72672,  -0.20345,  -0.62470
   0.52027,  -0.03314,  -0.44405,  -0.47628,   0.79537,   0.81649,  -0.70035,  -0.59287,  -0.10172,   0.13856
  -0.06034,   0.22610,   0.93750,   0.10556,  -0.80062,   0.13022,  -0.13270,  -0.14313,   0.23280,  -0.36783
   0.19359,   0.88239,  -0.82471,   0.88622,   0.14558,  -0.76330,  -0.21574,   0.79641,  -0.44001,  -0.76518
  -0.61153,   0.72839,   0.12871,  -0.04647,   0.91308,   0.22603,  -0.25460,  -0.23078,  -0.03544,  -0.60711
   0.67682,   0.57272,   0.60055,  -0.25694,   0.75945,  -0.61427,  -0.04559,  -0.17624,  -0.62426,  -0.31682
   0.50107,  -0.93750,   0.74439,  -0.48228,   0.32186,   0.71984,  -0.41217,  -0.86909,  -0.93750,   0.61482
   0.85923,  -0.87650,  -0.24477,  -0.51647,   0.28540,  -0.74058,   0.93750,  -0.93750,   0.93750,   0.93750
   0.71093,   0.05600,  -0.25010,   0.25402,   0.64639,  -0.61455,   0.37485,  -0.52929,  -0.82055,   0.27146
  -0.36385,  -0.17135,  -0.10245,  -0.74860,   0.87526,  -0.04782,  -0.14593,  -0.83685,   0.50901,   0.20448
   0.14410,  -0.86616,  -0.76992,   0.41662,   0.90832,   0.93750,   0.92623,  -0.62936,  -0.87104,  -0.70022
   0.11715,  -0.45755,  -0.10813,   0.92934,  -0.68274,  -0.07816,  -0.44780,   0.93457,  -0.36801,   0.33464
   0.75616,   0.21856,   0.70774,   0.56514,   0.49335,  -0.54484,  -0.09498,  -0.61818,  -0.50375,   0.47452
   0.87583,  -0.81817,  -0.81395,   0.81087,   0.67221,   0.80745,  -0.47014,   0.93750,   0.61718,   0.56460
  -0.04657,   0.93707,   0.36780,  -0.10345,   0.29827,  -0.52494,  -0.36639,   0.40537,  -0.31715,  -0.68835
  -0.36562,  -0.27201,   0.86053,  -0.00184,  -0.66967,  -0.17572,  -0.22568,   0.15684,  -0.03620,   0.04026
  -0.86870,   0.09587,  -0.88488,  -0.74737,   0.88342,   0.01409,   0.93750,   0.93750,  -0.77747,  -0.46965
   0.68847,  -0.93750,   0.93750,  -0.80119,  -0.93750,   0.93750,   0.00445,  -0.93750,  -0.60688,  -0.66187
   0.42992,  -0.14038,   0.26929,   0.73287,   0.86445,  -0.08020,   0.29173,   0.81937,   0.28645,  -0.20816
  -0.14456,  -0.34759,  -0.66110,  -0.53949,  -0.72279,  -0.40253,   0.93750,  -0.67812,  -0.05147,  -0.19496
  -0.55696,  -0.88834,  -0.93750,   0.55795,   0.93750,  -0.60976,  -0.81486,  -0.88115,  -0.43806,   0.86707
   0.16305,  -0.75472,   0.16813,  -0.26545,   0.87687,  -0.93750,   0.86165,   0.13468,   0.87495,  -0.01818
  -0.52010,  -0.93750,   0.51309,  -0.78990,   0.00397,  -0.40579,  -0.87226,   0.93750,  -0.18500,   0.82192
  -0.00329,   0.87509,  -0.41055,   0.07615,  -0.82561,  -0.31308,  -0.51341,  -0.60762,   0.28991,  -0.50229
   0.37827,  -0.21499,  -0.86299,   0.45727,  -0.87320,  -0.86572,   0.74809,  -0.93750,   0.43701,   0.78628
  -0.18273,   0.08249,  -0.93750,   0.58294,   0.93978,   0.70081,   0.88302,  -0.60682,   0.16218,  -0.39753
  -0.46077,   0.02926,   0.68198,   0.93750,  -0.44007,   0.93750,  -0.87523,   0.80679,  -0.84856,  -0.12301
  -0.26126,  -0.07525,   0.49229,  -0.63545,   0.65566,   0.65813,   0.38249,   0.49742,   0.22037,   0.18571
   0.37446,  -0.13370,   0.93750,   0.22841,  -0.93750,   0.66898,   0.20075,  -0.93750,   0.19763,   0.11965
  -0.01219,  -0.08424,  -0.25659,   0.93750,  -0.42266,  -0.48286,   0.27631,   0.38862,   0.01328,  -0.31218
  -0.47087,   0.24245,   0.86166,  -0.47286,   0.36559,  -0.11413,   0.03244,   0.53830,  -0.43095,   0.32301
  -0.80413,   0.81417,  -0.93750,   0.93750,   0.22183,  -0.93750,  -0.84019,   0.81728,  -0.38451,  -0.87119
   0.06995,  -0.52118,   0.01613,  -0.70041,   0.13566,   0.20087,  -0.26661,   0.01832,   0.06677,   0.93750
  -0.02563,   0.17781,  -0.79405,   0.87943,   0.71694,  -0.75060,  -0.39091,   0.19673,   0.28676,   0.13317
   0.68000,   0.16705,  -0.38870,  -0.27829,   0.93750,   0.16667,  -0.76923,  -0.56521,  -0.65777,  -0.04628
   0.09285,   0.19370,  -0.83067,  -0.53793,  -0.05481,   0.93750,  -0.19832,  -0.46220,   0.02404,  -0.17538
  -0.87553,   0.93750,   0.15192,   0.93750,   0.88570,   0.93750,   0.93750,  -0.33786,   0.86710,   0.62985
   0.61237,  -0.46231,  -0.84331,  -0.87040,   0.38634,  -0.76290,   0.35262,  -0.10717,   0.74564,   0.93750
   0.17594,   0.05126,   0.93680,  -0.24681,   0.18338,  -0.20506,  -0.32551,  -0.75277,   0.34013,   0.25697
  -0.92932,  -0.34457,   0.36561,   0.12423,  -0.55496,  -0.67835,   0.37500,   0.20576,  -0.38920,   0.77430
  -0.93750,  -0.93750,  -0.87105,  -0.93750,  -0.33624,   0.18068,   0.66932,   0.08357,   0.32658,  -0.93750
   0.12186,   0.27611,  -0.70840,  -0.47277,   0.06221,   0.80366,   0.49129,  -0.85565,   0.03574,   0.14978
   0.60862,  -0.53092,   0.93750,  -0.74389,  -0.78461,   0.93750,  -0.85084,  -0.93750,   0.88343,  -0.52335
   0.06433,   0.76706,   0.92291,  -0.73343,  -0.15657,  -0.73845,  -0.27696,   0.16191,   0.87748,  -0.02958
  -0.87774,  -0.14105,  -0.88999,   0.23742,   0.93050,  -0.16326,  -0.02873,   0.12074,   0.93750,  -0.45274
   0.93750,  -0.39354,   0.80018,   0.17048,  -0.37910,   0.02971,   0.21744,  -0.89510,  -0.89851,   0.17345
   0.58220,   0.73237,   0.70542,   0.06909,   0.74274,  -0.45652,   0.80885,  -0.43993,   0.07972,  -0.60545
  -0.06960,   0.25593,   0.93750,   0.88923,  -0.69285,   0.14558,   0.93750,  -0.93750,  -0.86835,  -0.93750
  -0.01783,   0.93750,   0.93750,   0.93750,   0.93750,  -0.87929,   0.88457,   0.93750,   0.86256,  -0.93750
  -0.81311,  -0.78463,  -0.81249,   0.62193,   0.93750,   0.93750,   0.22494,  -0.35946,  -0.31598,   0.18708
  -0.31540,   0.61169,   0.23300,  -0.31676,  -0.13888,   0.06393,  -0.51076,   0.81516,  -0.05487,   0.87487
   0.32500,  -0.71771,   0.69033,  -0.81177,   0.75444,  -0.22582,   0.74824,   0.87034,   0.70835,  -0.75298
   0.03383,   0.73392,  -0.40719,   0.12679,   0.48692,   0.17469,   0.76386,   0.29991,   0.88472,  -0.46253
  -0.50453,  -0.22353,  -0.71557,  -0.06612,  -0.54474,   0.47537,   0.86692,   0.03099,  -0.08536,  -0.53082
  -0.81677,   0.84567,  -0.17173,   0.43543,  -0.35364,   0.47772,  -0.33555,   0.41092,  -0.21839,  -0.86350
  -0.14636,   0.05612,   0.93750,  -0.90287,   0.14503,   0.40811,   0.93750,  -0.93750,  -0.93750,   0.87847
  -0.92429,  -0.12989,  -0.26033,   0.24872,  -0.54724,   0.73743,  -0.25170,   0.93593,  -0.38929,  -0.06874
   0.93750,  -0.12532,   0.56047,  -0.64654,  -0.86938,  -0.81887,   0.93750,   0.61467,  -0.54784,  -0.75991
  -0.93750,   0.41044,   0.93750,  -0.64265,  -0.65375,  -0.38807,  -0.79128,  -0.93750,  -0.11069,  -0.93750
  -0.23633,  -0.74176,  -0.07828,  -0.19228,  -0.71892,  -0.15924,  -0.61152,   0.19713,  -0.05799,   0.87505
  -0.66748,  -0.18576,   0.43335,   0.70549,  -0.63608,   0.70294,   0.55860,  -0.53432,  -0.32833,  -0.33108
  -0.93750,  -0.83460,   0.73538,  -0.68700,  -0.87376,   0.81792,  -0.76805,   0.93750,   0.87101,   0.79758
   0.07112,  -0.38786,   0.36260,  -0.87775,   0.93750,  -0.93750,   0.93750,  -0.93750,   0.93750,   0.49109
  -0.64356,  -0.93750,  -0.32286,  -0.93750,  -0.93750,  -0.93750,  -0.93750,  -0.93750,   0.12297,  -0.93750
   0.36303,   0.71776,  -0.10943,  -0.25480,  -0.58034,  -0.93750,  -0.62867,   0.61832,   0.86021,  -0.20968
  -0.68864,  -0.32172,   0.04432,  -0.12671,  -0.15917,   0.28006,   0.87146,   0.52407,  -0.63957,  -0.55043
   0.93750,   0.01346,  -0.46222,  -0.20271,   0.15180,  -0.90569,  -0.07302,  -0.18937,  -0.86579,  -0.81850
  -0.37053,   0.29384,   0.93750,   0.81950,   0.04359,  -0.48763,   0.93750,   0.83172,   0.58897,  -0.74405
  -0.22419,  -0.59212,   0.43326,   0.56285,   0.64994,   0.76262,   0.49289,  -0.53504,  -0.12516,  -0.41511
   0.58047,  -0.20462,   0.66795,  -0.41528,  -0.73246,   0.47065,   0.93578,   0.51649,   0.93428,   0.11588
  -0.81194,   0.05906,  -0.88118,  -0.19257,   0.86930,  -0.74198,  -0.14165,  -0.85358,  -0.93750,   0.93750
  -0.55918,   0.86644,  -0.27900,  -0.48600,  -0.55555,   0.08735,   0.93750,   0.44507,  -0.03614,  -0.25136
   0.15894,   0.93194,   0.05902,  -0.17205,   0.63821,   0.74169,  -0.87574,   0.93750,   0.77571,  -0.58384
  -0.72557,  -0.20525,   0.62721,  -0.13757,  -0.85997,   0.51970,  -0.12110,   0.82539,  -0.00570,   0.30848
  -0.78316,  -0.39974,   0.66945,  -0.19362,  -0.29402,   0.93750,  -0.93750,   0.12289,   0.39647,  -0.11355
  -0.57436,  -0.44842,  -0.04133,  -0.53438,  -0.66577,   0.87620,  -0.13843,   0.93750,   0.08814,  -0.44076
   0.55797,  -0.15500,   0.93750,  -0.15931,   0.36949,  -0.66528,  -0.32603,  -0.57220,  -0.03537,  -0.19553
  -0.87083,   0.64842,   0.68788,   0.72436,   0.63148,  -0.80563,  -0.38789,   0.53125,   0.69622,   0.19726
  -0.93750,  -0.17517,  -0.33952,   0.64329,   0.93750,   0.93750,  -0.92640,   0.37977,   0.93750,   0.63552
  -0.15257,   0.33262,   0.06010,   0.93750,   0.10998,  -0.93750,  -0.57236,   0.08193,  -0.44671,   0.02235
   0.33733,  -0.05375,   0.20708,  -0.05294,   0.56457,  -0.48466,  -0.17385,  -0.73261,   0.19891,  -0.55556
  -0.30195,  -0.93750,   0.93750,   0.16424,   0.93750,   0.81289,   0.93750,   0.61151,  -0.93750,   0.60354
   0.50324,   0.93750,  -0.68875,  -0.05281,  -0.74181,  -0.70690,  -0.75400,  -0.93750,  -0.80510,  -0.56931
  -0.89118,  -0.21436,   0.40429,  -0.68429,  -0.52266,  -0.93297,  -0.88062,  -0.81760,  -0.93750,  -0.41169
   0.93275,  -0.56511,   0.69222,  -0.00695,  -0.21092,  -0.08819,  -0.45078,   0.12177,  -0.46954,   0.22046
   0.86182,  -0.60365,   0.16997,   0.86329,   0.27445,  -0.12729,  -0.02179,   0.09484,  -0.04696,  -0.75101
  -0.65228,   0.50184,   0.27306,   0.35592,   0.48690,  -0.04130,  -0.89282,   0.73378,   0.82138,   0.07390
  -0.60238,   0.81784,  -0.91323,  -0.34761,   0.80232,  -0.58530,   0.87992,   0.87570,  -0.75390,  -0.80361
  -0.93750,   0.61679,   0.34620,   0.93750,   0.24312,   0.70554,  -0.93750,  -0.25031,  -0.93750,   0.91175
   0.05865,  -0.04926,   0.62429,   0.61449,  -0.31897,   0.24739,  -0.77325,  -0.37048,   0.20400,  -0.24966
   0.15644,   0.09232,  -0.49808,   0.18492,   0.86703,   0.57269,   0.38854,  -0.36040,   0.31978,   0.11327
   0.06714,   0.87854,  -0.58506,   0.29156,   0.74296,   0.56086,  -0.21297,  -0.05540,   0.58643,  -0.42556
   0.92359,  -0.09444,  -0.33404,   0.87190,  -0.55207,  -0.02349,   0.24131,   0.26523,  -0.53370,  -0.73973
   0.08958,   0.12102,   0.16660,  -0.91937,   0.64415,   0.42863,   0.25576,   0.93750,  -0.69536,   0.23347
   0.87881,  -0.53095,  -0.75789,   0.58557,  -0.35789,   0.04386,  -0.45658,   0.00048,   0.30448,   0.50095
   0.26194,   0.61131,   0.20020,  -0.60460,   0.72880,  -0.80132,   0.43119,   0.66206,   0.00688,  -0.11065
  -0.28959,   0.03560,   0.80785,  -0.90557,  -0.11710,   0.86410,  -0.47000,  -0.44305,   0.35998,   0.33099
  -0.33513,  -0.58600,   0.47440,  -0.60895,   0.93750,  -0.51168,  -0.79888,  -0.20414,   0.45432,   0.93750
  -0.68251,  -0.52009,  -0.11725,  -0.04346,   0.01731,   0.49396,   0.93523,  -0.63779,   0.88072,  -0.33645
  -0.39399,  -0.31090,  -0.93750,   0.86297,   0.87215,  -0.80703,  -0.87142,  -0.80887,  -0.93750,   0.88185
   0.56739,  -0.34022,   0.81818,  -0.54615,  -0.81469,   0.81567,   0.24340,   0.56261,   0.81825,  -0.02250
  -0.74789,  -0.66996,   0.46551,  -0.12166,  -0.93750,  -0.68386,   0.48318,   0.93750,   0.80739,   0.68464
  -0.56688,   0.48017,  -0.12272,  -0.53108,   0.93213,   0.16357,  -0.46180,   0.00944,   0.21866,  -0.25115
   0.00662,  -0.63043,   0.93750,  -0.35822,  -0.59708,   0.82782,  -0.44350,   0.61531,   0.93750,  -0.41321
   0.28022,  -0.29138,  -0.03265,   0.68252,  -0.38973,   0.61124,  -0.39506,  -0.01967,   0.24770,   0.32109
   0.54763,  -0.72254,   0.17675,  -0.39656,  -0.76903,  -0.31741,   0.36249,   0.87437,   0.42531,  -0.08867
  -0.30086,   0.72580,  -0.87572,   0.69904,  -0.26410,   0.86256,   0.31277,  -0.08385,   0.67705,  -0.68522
   0.55971,  -0.13860,   0.66217,   0.06803,  -0.67696,  -0.67217,   0.31731,   0.70795,   0.17388,   0.08204
  -0.33921,   0.29680,   0.87065,   0.33810,  -0.63840,   0.09225,  -0.15543,   0.70130,   0.56944,   0.32567
   0.07044,   0.47717,  -0.93750,  -0.20692,   0.68627,   0.63025,  -0.84742,   0.93750,  -0.27354,  -0.86905
  -0.86739,   0.79691,   0.27066,  -0.16991,   0.25327,   0.40708,  -0.11081,   0.09527,  -0.75329,   0.75220
  -0.50586,   0.93750,  -0.46632,   0.92671,  -0.87613,   0.82003,   0.41180,  -0.48712,   0.37044,  -0.93750
   0.43207,  -0.38177,  -0.63554,  -0.86990,  -0.01545,   0.15214,  -0.29974,  -0.29544,  -0.04171,   0.87528
   0.87412,   0.49652,  -0.78851,   0.63441,   0.93750,  -0.34770,  -0.15498,   0.31679,  -0.93750,   0.93750
   0.45339,  -0.05613,  -0.26764,  -0.82396,   0.03121,  -0.62610,   0.93750,  -0.25737,   0.33182,  -0.21524
   0.93750,  -0.48910,  -0.86422,   0.50163,   0.93750,   0.89315,  -0.93750,   0.93750,  -0.04664,  -0.93750
  -0.79344,  -0.15486,   0.93750,  -0.12127,  -0.28660,   0.48091,  -0.43625,  -0.27800,  -0.35623,   0.77476
  -0.64284,  -0.43250,  -0.33133,   0.82139,   0.44165,  -0.54247,  -0.43468,  -0.27142,  -0.52817,  -0.33105
  -0.48321,  -0.65705,  -0.75251,   0.93750,  -0.43874,  -0.20186,   0.58838,  -0.06283,  -0.39638,  -0.93750
   0.87410,   0.07671,  -0.44164,  -0.29919,  -0.58649,  -0.27893,   0.56092,  -0.30255,   0.49822,  -0.20178
   0.56435,   0.75294,   0.46384,  -0.71626,  -0.81700,  -0.93750,   0.93750,  -0.93750,   0.73524,  -0.12043
   0.46168,  -0.04158,   0.93750,  -0.27016,  -0.54805,  -0.50049,  -0.37885,  -0.37314,   0.14192,   0.16874
   0.63667,   0.19323,   0.87074,  -0.79953,   0.75879,  -0.73408,  -0.93594,  -0.93750,  -0.73631,   0.82394
  -0.56605,   0.49004,  -0.75527,  -0.85236,   0.88288,  -0.70832,   0.87472,   0.13107,  -0.77613,  -0.86348
   0.38786,   0.18304,  -0.93750,   0.35583,   0.48645,  -0.80193,   0.48701,   0.08879,   0.61269,  -0.63688
  -0.93750,   0.43536,  -0.67780,   0.88235,   0.14264,  -0.60744,   0.93750,   0.93750,   0.09089,  -0.93750
   0.87541,   0.87133,  -0.72842,  -0.70033,  -0.87737,  -0.48997,  -0.17790,   0.44136,  -0.62941,   0.84746
   0.37141,  -0.07150,   0.80897,  -0.68068,   0.18621,  -0.91940,  -0.11550,   0.27959,  -0.70016,   0.25051
  -0.93700,  -0.59275,   0.87078,  -0.58985,   0.93750,  -0.12968,   0.36937,  -0.81691,   0.79409,  -0.34836
  -0.89789,   0.57324,  -0.49486,  -0.55821,  -0.53004,   0.08158,   0.82341,   0.56723,   0.92560,   0.01663
  -0.18049,   0.25927,  -0.43588,   0.93750,  -0.76043,   0.87203,  -0.45956,   0.45786,  -0.18145,  -0.28711
   0.29897,   0.78760,  -0.56638,   0.43690,  -0.24617,   0.23865,  -0.14240,   0.05418,  -0.93750,  -0.39030
   0.49588,   0.00484,   0.38821,   0.20894,  -0.38057,  -0.52318,   0.93187,  -0.17132,  -0.49988,   0.04265
  -0.06328,   0.13013,   0.93750,  -0.45315,  -0.26007,   0.30739,  -0.61764,  -0.25240,  -0.24303,  -0.07855
  -0.80708,  -0.37017,   0.30745,   0.08797,   0.56398,  -0.50564,   0.93750,  -0.86794,   0.72826,   0.92979
   0.42297,   0.18095,  -0.30593,  -0.50128,  -0.77350,  -0.56692,   0.92214,  -0.06931,  -0.64965,  -0.44590
   0.74252,  -0.09198,   0.82058,   0.74701,   0.69830,  -0.75795,   0.68406,  -0.88148,  -0.87495,  -0.86465
   0.81523,  -0.49586,  -0.62627,   0.81711,  -0.38231,   0.48472,  -0.37719,  -0.87668,  -0.19107,   0.31785
   0.50222,   0.87252,   0.30154,  -0.44559,  -0.31898,  -0.71510,   0.03766,   0.65332,   0.09026,  -0.72772
  -0.57611,  -0.73397,   0.31547,  -0.31849,   0.18024,   0.93750,   0.85699,  -0.49930,  -0.78885,   0.77552
   0.86958,   0.81664,   0.93750,   0.93750,  -0.80366,  -0.83694,  -0.60018,  -0.51166,   0.93750,  -0.86576
   0.93750,   0.77408,  -0.93750,  -0.71941,   0.24496,   0.28564,   0.19895,  -0.87452,   0.25460,  -0.29531
  -0.18492,   0.17165,  -0.15563,  -0.31532,   0.93750,   0.07213,   0.14217,  -0.54328,  -0.37907,  -0.67924
  -0.13507,   0.50969,  -0.16809,  -0.48442,  -0.64847,   0.87842,   0.25952,   0.62628,   0.88410,   0.93750
  -0.56603,  -0.26668,   0.15805,   0.58596,  -0.29188,  -0.29460,  -0.75934,   0.47274,   0.81145,  -0.56449
   0.10247,   0.32591,  -0.54544,  -0.51645,  -0.78021,  -0.82263,  -0.53743,   0.87357,   0.10205,   0.17007
   0.20971,  -0.04834,   0.47207,  -0.50407,   0.89471,  -0.64616,   0.37639,   0.25438,  -0.15897,  -0.21018
   0.93750,   0.05374,   0.10233,  -0.93750,   0.76373,  -0.07203,  -0.15366,  -0.65082,  -0.17948,  -0.11357
   0.73107,  -0.34906,  -0.14569,   0.44945,  -0.02316,  -0.49961,   0.29988,   0.93750,  -0.03055,  -0.31761
  -0.45746,  -0.87469,   0.49650,   0.02700,  -0.76583,  -0.73459,  -0.74094,   0.47978,  -0.75286,   0.48482
   0.52286,   0.70448,   0.38782,   0.88477,  -0.21111,  -0.80219,   0.47565,  -0.35573,  -0.32692,   0.93750
  -0.47113,  -0.48525,   0.80121,   0.38168,  -0.05559,  -0.93750,   0.61476,  -0.76968,  -0.61827,   0.24021
  -0.50845,  -0.63329,  -0.56768,  -0.75747,  -0.44245,   0.88590,  -0.03005,  -0.76755,   0.33497,  -0.35064
  -0.83370,   0.75322,  -0.86565,   0.81322,  -0.54697,   0.57995,  -0.56756,  -0.80583,   0.36648,   0.59207
  -0.93750,   0.93750,  -0.70773,   0.18215,   0.17316,  -0.92901,   0.58294,  -0.12309,  -0.31519,   0.93750
  -0.61460,   0.21556,   0.75578,   0.60494,  -0.77393,  -0.35089,  -0.51641,   0.15762,   0.66569,  -0.81798
   0.38394,   0.22556,   0.93750,  -0.46102,  -0.42128,  -0.10277,  -0.54706,   0.46271,   0.04029,   0.01375
   0.71622,   0.12926,   0.93750,  -0.23409,  -0.07322,  -0.76179,  -0.41425,   0.73910,   0.92988,   0.39462
   0.15106,  -0.87932,  -0.48996,  -0.37729,  -0.82095,  -0.19907,   0.65162,   0.93750,   0.04206,  -0.88758
   0.23514,   0.47189,   0.25132,  -0.65923,  -0.47880,  -0.62856,   0.03749,   0.93750,  -0.54563,   0.05789
  -0.54248,   0.64544,  -0.38890,   0.07443,  -0.49608,  -0.01498,   0.19024,   0.20879,   0.92163,  -0.29840
   0.25502,  -0.06672,  -0.01058,  -0.17358,   0.93222,  -0.81026,   0.17401,  -0.61113,   0.08609,  -0.16321
   0.27751,   0.86741,   0.01182,  -0.93750,  -0.93750,  -0.38350,  -0.67898,   0.20502,  -0.74568,   0.08885
   0.22097,  -0.74666,   0.00951,  -0.82223,  -0.67494,  -0.77324,   0.93634,   0.57652,  -0.57460,  -0.41834
  -0.76903,   0.43772,   0.00523,  -0.51072,   0.93750,  -0.59747,   0.40198,   0.20550,   0.93750,  -0.64572
  -0.65255,   0.69617,  -0.61294,  -0.83963,  -0.11199,   0.49038,  -0.37013,   0.58482,  -0.36564,  -0.45028
   0.39320,  -0.44116,  -0.56181,   0.93750,   0.72192,  -0.91327,  -0.16706,   0.27293,  -0.56540,   0.45929
   0.93750,  -0.93750,  -0.79391,   0.62882,  -0.84404,  -0.93750,   0.93750,  -0.30729,  -0.42331,  -0.14340
  -0.58262,  -0.32801,  -0.46593,  -0.44333,   0.10134,  -0.24539,   0.93750,   0.05373,   0.61134,   0.32134
   0.32346,  -0.08332,   0.33263,  -0.44424,  -0.07711,  -0.69218,   0.81024,   0.88785,   0.25369,   0.19704
   0.67132,  -0.00083,  -0.73695,   0.54890,   0.57291,  -0.83882,  -0.19186,  -0.86551,   0.56419,  -0.51615
   0.66174,  -0.29384,  -0.60245,  -0.76050,   0.07624,  -0.46128,   0.93750,   0.00547,   0.23043,   0.11165
  -0.57404,  -0.23611,  -0.43091,  -0.26140,  -0.78337,   0.86310,   0.51962,  -0.93750,  -0.87795,   0.61207
   0.86986,   0.04158,   0.87895,  -0.59908,   0.52952,  -0.81916,  -0.45741,   0.59876,  -0.25469,   0.93076
  -0.10327,  -0.27605,   0.83561,  -0.74119,   0.93750,  -0.06977,   0.49117,   0.63265,   0.17342,   0.19321
  -0.42476,   0.57606,   0.86885,   0.04667,   0.91979,  -0.45813,  -0.53203,  -0.37368,   0.53661,   0.40540
  -0.47764,  -0.28365,  -0.44822,   0.02449,   0.93750,  -0.05610,   0.35518,  -0.78353,   0.17704,   0.15148
   0.93750,   0.93750,  -0.73367,   0.93750,  -0.75594,   0.31202,   0.57423,   0.42642,  -0.44115,  -0.75844
   0.63464,  -0.09009,  -0.81413,   0.49651,  -0.77848,   0.69199,   0.59591,   0.69419,   0.33069,  -0.45769
  -0.61647,  -0.39135,  -0.45590,  -0.30701,   0.19446,  -0.49871,  -0.05017,  -0.81483,  -0.60496,   0.92340
   0.10443,   0.44968,   0.28466,   0.53614,   0.53824,   0.46710,  -0.33814,   0.03906,   0.02729,   0.27258
   0.36441,   0.33315,  -0.57621,   0.74027,  -0.19081,  -0.40903,   0.41777,  -0.68805,  -0.17580,   0.17669
  -0.68032,  -0.79221,   0.39776,   0.36568,   0.27675,   0.17060,   0.30239,   0.76293,   0.44062,   0.92181
  -0.75414,   0.79879,   0.35201,   0.60985,   0.14423,  -0.46285,  -0.86112,   0.27851,   0.77850,   0.16130
   0.21442,  -0.93750,   0.93750,   0.93750,  -0.43296,   0.41354,   0.84664,  -0.93750,   0.23552,  -0.45423
  -0.14271,   0.05144,  -0.84289,  -0.10158,   0.88030,  -0.53623,  -0.20039,  -0.16801,   0.30003,   0.13161
  -0.11736,  -0.88584,  -0.93027,  -0.88330,  -0.87179,  -0.90472,   0.82291,   0.92910,  -0.69174,   0.64726
  -0.43769,  -0.49827,   0.52547,   0.51976,   0.67713,   0.86650,  -0.37533,   0.13543,   0.93501,   0.01164
  -0.49904,   0.81127,  -0.13980,   0.07758,   0.40373,   0.60417,  -0.51233,   0.39766,  -0.53150,   0.81935
   0.93750,  -0.36743,  -0.93750,  -0.27144,  -0.72471,  -0.93750,   0.93750,  -0.21984,  -0.45954,  -0.45429
   0.18238,   0.49510,   0.54664,  -0.76665,   0.18919,   0.72607,  -0.72706,   0.78309,   0.64060,   0.22867
  -0.54434,   0.27631,  -0.47048,  -0.25150,  -0.38688,   0.86138,   0.81866,  -0.55660,  -0.81050,  -0.61193
  -0.51773,  -0.05137,  -0.54379,  -0.55443,   0.84939,  -0.37778,  -0.27215,   0.74801,  -0.67514,  -0.40841
   0.58766,  -0.30147,   0.69390,   0.44380,  -0.46624,   0.93750,  -0.02731,  -0.93404,   0.15964,  -0.86581
   0.46736,   0.43874,   0.57711,   0.55738,  -0.00547,  -0.54091,  -0.42791,   0.72504,  -0.52646,  -0.66559
  -0.75683,  -0.58397,   0.88098,  -0.16522,   0.93750,  -0.93750,  -0.54976,   0.86794,  -0.80263,   0.93750
  -0.40894,   0.92883,   0.93750,   0.22229,  -0.45908,  -0.86579,  -0.14788,  -0.93750,  -0.86588,  -0.51844
  -0.12378,   0.91994,   0.31276,   0.13496,  -0.19544,   0.23364,  -0.16125,   0.04183,  -0.43786,  -0.11658
   0.04808,   0.01130,  -0.07439,  -0.52074,   0.50873,   0.82968,   0.18808,  -0.17444,  -0.33542,   0.14808
  -0.86491,  -0.79981,   0.93750,   0.78694,   0.35083,  -0.29436,   0.05893,   0.40364,  -0.04951,  -0.12223
  -0.00102,   0.18063,   0.93750,  -0.43643,   0.03005,  -0.92916,   0.82641,  -0.39170,  -0.39751,   0.05233
  -0.29694,  -0.19368,  -0.39747,   0.93750,  -0.10856,  -0.50781,   0.80693,  -0.54635,  -0.53129,   0.19709
  -0.34674,   0.24668,  -0.76535,  -0.76007,  -0.44465,   0.72170,  -0.91978,  -0.35142,  -0.87051,  -0.87310
  -0.06822,  -0.24304,   0.03403,   0.57208,  -0.19642,  -0.86836,   0.93750,  -0.81367,   0.70469,  -0.01746
   0.47741,   0.93750,  -0.65893,  -0.51361,  -0.68601,   0.27289,  -0.38081,   0.28205,  -0.73967,   0.93750
   0.93187,  -0.65687,  -0.34743,  -0.13904,   0.02937,  -0.64150,  -0.66368,  -0.80982,  -0.01015,  -0.24505
   0.18419,  -0.62562,   0.24118,   0.09766,   0.09362,  -0.81970,   0.67986,   0.01119,   0.54682,  -0.81099
  -0.61728,   0.72738,  -0.33530,   0.56766,  -0.48786,  -0.49027,  -0.71165,   0.93750,  -0.11001,   0.37762
  -0.36447,  -0.24943,   0.88115,  -0.42277,   0.17055,  -0.83385,   0.28779,  -0.41434,   0.10107,  -0.22067
  -0.27979,  -0.54583,  -0.20621,  -0.42952,   0.93750,  -0.25364,  -0.30587,  -0.64843,  -0.15051,  -0.06090
   0.74863,  -0.87030,   0.85565,  -0.68415,   0.76210,   0.21515,   0.49025,   0.22339,   0.81814,  -0.70478
   0.27490,   0.60953,   0.93750,  -0.87414,   0.93750,  -0.88186,  -0.93750,  -0.48467,   0.35583,   0.87360
   0.13202,   0.74453,  -0.77608,   0.87703,   0.69023,   0.93750,  -0.81041,   0.72771,  -0.25033,  -0.73541
  -0.33331,   0.57013,  -0.31509,  -0.00283,  -0.29988,  -0.32526,   0.88963,   0.07673,   0.84800,   0.40322
  -0.78321,  -0.71961,  -0.37851,  -0.50099,   0.33746,   0.71813,  -0.38997,  -0.03603,   0.88477,  -0.45831
  -0.43048,  -0.57023,   0.87500,  -0.52029,  -0.45516,   0.87332,   0.48901,  -0.13117,  -0.16613,   0.08770
  -0.80297,   0.13812,   0.89575,  -0.26972,   0.13639,  -0.00385,  -0.55621,   0.29330,  -0.07904,   0.18222
   0.87730,  -0.68679,  -0.06035,   0.93750,   0.87744,  -0.87668,   0.88308,   0.93750,  -0.16135,   0.93750
  -0.67391,   0.21193,   0.03074,  -0.54515,  -0.59049,   0.24138,   0.92899,   0.08082,  -0.47706,   0.32406
  -0.86305,  -0.90182,  -0.64755,  -0.90757,  -0.90395,   0.32446,  -0.63359,   0.21819,  -0.46910,  -0.93750
  -0.10874,   0.93750,   0.11522,   0.50369,  -0.11461,  -0.87337,  -0.37934,  -0.84066,  -0.47726,  -0.71276
  -0.56702,   0.51519,  -0.54174,  -0.36513,   0.29848,   0.87389,  -0.05526,  -0.93715,  -0.53153,   0.56197
  -0.14327,  -0.06869,  -0.92091,   0.14155,   0.60600,   0.54671,  -0.06936,   0.93446,   0.37166,   0.17890
  -0.93750,   0.65381,   0.83260,   0.87677,  -0.86538,  -0.93750,  -0.59736,   0.93750,   0.05397,   0.29420
   0.88203,  -0.93750,  -0.76360,  -0.10008,   0.30064,  -0.15876,  -0.93750,   0.87625,   0.65816,   0.19784
  -0.93750,   0.07146,  -0.02045,   0.23001,  -0.52851,  -0.04811,  -0.06596,  -0.16290,   0.86545,   0.54641
   0.93750,  -0.55660,  -0.86469,   0.54877,  -0.81674,   0.87429,  -0.60781,  -0.33107,   0.55724,  -0.15850
   0.24021,   0.11105,   0.88268,  -0.76792,  -0.93750,   0.86592,   0.85982,  -0.51381,  -0.19656,   0.44523
   0.92130,   0.42822,   0.79436,  -0.17141,   0.04308,   0.06591,  -0.20991,   0.40317,  -0.61574,  -0.79271
   0.07190,   0.93750,  -0.93750,   0.08738,  -0.93750,  -0.87562,  -0.93750,  -0.68655,  -0.93750,  -0.82666
   0.29596,  -0.47388,  -0.24920,  -0.93750,   0.79801,   0.06352,  -0.23945,   0.93750,  -0.44179,   0.18135
  -0.90628,   0.20901,  -0.81878,  -0.07143,   0.51821,   0.11157,   0.06427,   0.30660,   0.80106,   0.67678
  -0.93750,   0.93750,   0.85464,  -0.93750,   0.32645,  -0.70905,   0.75843,  -0.93750,   0.93750,  -0.51221
   0.61805,  -0.85452,  -0.57024,  -0.22438,  -0.93750,  -0.50470,   0.78077,  -0.81551,   0.14240,   0.24903
   0.59659,  -0.76222,  -0.93423,  -0.01473,  -0.03720,   0.93750,   0.41525,  -0.63322,   0.17324,  -0.51561
   0.93750,  -0.36384,  -0.92903,  -0.90616,  -0.87166,  -0.34703,  -0.23318,  -0.51488,   0.81077,  -0.10681
  -0.20939,   0.21870,  -0.08332,  -0.13786,  -0.46989,  -0.77531,   0.49681,   0.73387,   0.39278,   0.06959
  -0.44394,   0.74462,   0.07764,  -0.74659,   0.88423,  -0.49431,   0.73834,  -0.27831,  -0.61805,  -0.93750
  -0.31148,  -0.16248,   0.88105,  -0.72210,   0.80535,   0.91222,  -0.59258,  -0.52886,  -0.70082,   0.17395
   0.93750,  -0.93750,   0.08876,  -0.53053,  -0.84251,  -0.64238,  -0.87571,   0.81980,   0.73851,  -0.31227
  -0.86686,   0.34649,  -0.68337,  -0.12431,  -0.76609,   0.93750,  -0.83868,  -0.74079,  -0.61052,   0.38213
   0.93750,  -0.11871,  -0.64549,  -0.63284,   0.11497,  -0.47544,  -0.01921,  -0.33329,   0.34001,  -0.83808
  -0.75154,   0.78027,  -0.93750,   0.47799,   0.59568,  -0.53151,  -0.93750,  -0.65173,  -0.87885,   0.23568
  -0.24806,  -0.13381,   0.87329,  -0.78207,  -0.40919,   0.93750,  -0.25630,  -0.29615,   0.12793,   0.03148
   0.93750,  -0.10177,  -0.10151,  -0.15915,   0.15191,   0.40668,  -0.05611,  -0.15853,  -0.78737,  -0.67608
  -0.08017,   0.05269,  -0.12754,   0.27401,  -0.33914,  -0.03226,   0.93750,  -0.44141,   0.55278,  -0.58922
  -0.64592,   0.86510,  -0.03638,   0.33634,  -0.87558,  -0.92741,   0.48681,  -0.64582,   0.28258,  -0.09446
  -0.31747,   0.56704,   0.93750,   0.03376,  -0.30940,  -0.40264,  -0.56402,  -0.42614,  -0.35728,   0.18983
   0.21671,   0.74690,  -0.37866,  -0.60824,   0.74480,   0.80764,  -0.43182,  -0.54266,  -0.86380,  -0.79083
  -0.47086,  -0.06407,   0.93750,  -0.16187,  -0.26084,  -0.07743,  -0.66368,   0.33412,   0.23553,  -0.08714
   0.93750,   0.20799,  -0.48222,   0.01009,  -0.24773,   0.17293,  -0.28430,   0.18603,  -0.09436,   0.02121
  -0.39178,   0.79716,  -0.08124,   0.61948,   0.19606,   0.82250,  -0.62472,  -0.73712,   0.91128,  -0.93750
  -0.19599,  -0.28545,  -0.61720,  -0.44594,   0.62085,  -0.49745,  -0.32158,  -0.55856,   0.31698,  -0.36686
   0.79801,   0.68923,   0.00682,   0.75302,  -0.39488,  -0.41227,   0.30792,   0.42904,   0.78998,   0.42547
   0.93744,  -0.21689,  -0.61884,   0.29345,   0.81088,  -0.81191,   0.86913,  -0.54089,  -0.68424,  -0.62195
   0.93750,   0.93750,  -0.14257,   0.93750,   0.53148,  -0.70578,   0.54391,   0.93750,  -0.59334,  -0.93750
   0.52614,  -0.56845,   0.82154,  -0.67447,   0.93750,  -0.87456,  -0.22841,   0.93750,   0.44658,  -0.16874
   0.93733,  -0.18713,  -0.76723,  -0.02001,  -0.06359,  -0.03321,   0.34546,  -0.43880,  -0.73479,  -0.02508
  -0.33798,   0.38034,   0.79565,  -0.51153,   0.19186,  -0.01191,   0.75034,  -0.08922,  -0.19378,   0.47331
  -0.60597,  -0.58835,   0.88178,  -0.72046,  -0.05112,   0.87196,  -0.67016,   0.88837,  -0.43661,   0.00629
   0.87347,   0.30454,  -0.74096,   0.59714,  -0.42346,  -0.32851,   0.43492,  -0.18975,  -0.29575,   0.03920
  -0.61165,   0.93750,   0.61928,  -0.69463,  -0.77236,   0.02810,  -0.13019,  -0.09558,   0.80955,   0.02394
  -0.35532,   0.74899,  -0.13011,  -0.29532,   0.15395,  -0.08735,   0.46310,   0.81734,   0.07836,  -0.72372
   0.44832,   0.01435,  -0.39734,   0.68967,  -0.03800,  -0.64094,  -0.14913,   0.24753,  -0.04697,  -0.23397
  -0.28436,  -0.47547,  -0.14149,   0.87255,   0.20427,  -0.79016,  -0.70819,  -0.85157,  -0.29088,   0.02906
  -0.88698,  -0.93750,   0.82584,  -0.73253,  -0.66323,  -0.00562,   0.88156,   0.93750,   0.84027,  -0.62229
   0.28918,   0.33966,  -0.07481,  -0.58378,  -0.18728,   0.88089,  -0.15463,   0.74389,  -0.11667,   0.12708
   0.06199,   0.63763,   0.64376,   0.93750,  -0.91720,   0.51552,   0.23896,  -0.93750,   0.40608,   0.33050
  -0.27286,   0.14438,  -0.52902,  -0.59021,   0.63739,  -0.02501,  -0.43968,   0.86848,   0.07381,  -0.56250
   0.46882,   0.93750,   0.35800,   0.51611,  -0.71141,   0.66856,   0.27785,   0.04268,  -0.75069,  -0.49566
   0.30130,   0.31485,   0.44313,  -0.87370,   0.27231,  -0.05696,   0.25597,  -0.73651,   0.37214,  -0.88659
  -0.19218,   0.24009,   0.43213,   0.76349,  -0.44274,  -0.48559,  -0.52425,  -0.75780,  -0.41133,  -0.29757
   0.49067,  -0.18612,   0.88992,   0.81715,  -0.87667,  -0.46342,   0.81818,   0.93750,  -0.70114,  -0.80730
   0.47179,   0.38699,   0.23642,   0.53705,   0.11644,   0.50602,  -0.02041,  -0.60454,  -0.92100,  -0.79856
   0.22489,  -0.03878,  -0.06183,   0.88112,  -0.93750,   0.11623,   0.01663,  -0.54378,   0.81908,  -0.49453
  -0.81242,  -0.57663,  -0.64506,   0.68682,  -0.79406,  -0.13234,  -0.61781,   0.40197,   0.88532,   0.86687
  -0.50103,   0.46760,  -0.75912,   0.93750,  -0.88674,  -0.93750,  -0.79760,  -0.93137,   0.92135,   0.93750
   0.87245,   0.93750,  -0.16922,   0.29700,  -0.03810,   0.16718,  -0.37449,  -0.53582,  -0.52103,   0.93750
  -0.60338,  -0.14020,  -0.65278,  -0.93750,   0.93750,   0.28865,   0.71937,  -0.32062,   0.93750,  -0.38040
  -0.42019,   0.27130,   0.11077,  -0.40126,  -0.57846,   0.87909,   0.06869,   0.00579,  -0.23311,   0.43640
  -0.57733,  -0.04640,   0.46180,  -0.34403,  -0.01010,   0.93750,  -0.69191,  -0.23173,   0.56989,  -0.32667
  -0.20900,  -0.18413,   0.92952,   0.00319,   0.16465,  -0.49084,  -0.35067,   0.36959,  -0.43713,  -0.31040
  -0.09669,  -0.12308,  -0.52151,   0.41715,   0.88053,   0.05508,  -0.53403,  -0.43866,   0.04491,   0.20972
  -0.49649,  -0.06239,   0.74323,  -0.86688,   0.50005,  -0.93750,  -0.63813,   0.93750,  -0.93750,   0.62099
  -0.25763,   0.27058,   0.38579,  -0.71498,   0.41366,  -0.67851,   0.68946,   0.54994,   0.25921,  -0.02944
  -0.43665,  -0.74141,  -0.82512,   0.87443,  -0.87851,  -0.38206,  -0.31867,  -0.61987,   0.13978,  -0.31130
   0.03229,  -0.02020,  -0.75756,  -0.09220,   0.87756,   0.28937,   0.50258,   0.62687,  -0.15146,  -0.18483
   0.62498,   0.33221,   0.48894,  -0.18025,  -0.37511,  -0.11577,  -0.62355,   0.44106,   0.74630,  -0.02799
  -0.58754,  -0.35426,  -0.40581,  -0.60580,  -0.38469,   0.59731,  -0.07604,  -0.33930,  -0.14632,   0.93750
   0.43881,  -0.74549,  -0.78697,   0.93750,   0.31220,  -0.88102,  -0.88342,  -0.39481,   0.36508,  -0.22409
  -0.82568,   0.78406,   0.93665,   0.86752,  -0.61416,   0.87691,   0.93750,  -0.88313,   0.91502,  -0.18580
   0.83770,   0.27656,   0.88668,   0.26490,  -0.51704,  -0.48156,  -0.26949,   0.11790,   0.03874,  -0.48837
  -0.13820,   0.37747,  -0.07793,   0.26868,   0.44988,  -0.04187,   0.74278,   0.02693,   0.11677,  -0.07765
  -0.34690,  -0.81711,  -0.93750,  -0.68997,   0.93750,   0.39830,   0.78526,   0.93750,  -0.08185,   0.93750
   0.00967,  -0.64497,   0.10318,   0.38154,   0.63201,  -0.80666,  -0.64748,   0.73398,   0.66232,  -0.66737
  -0.64410,   0.10844,   0.85637,  -0.74723,   0.83163,   0.90759,  -0.05811,   0.34408,  -0.12487,   0.40407
   0.12021,   0.93750,   0.19239,  -0.23610,   0.13289,   0.52400,  -0.69547,  -0.06406,   0.05871,  -0.47833
   0.87819,   0.82297,  -0.16266,   0.74061,   0.36332,  -0.69713,   0.54085,   0.61812,  -0.57020,  -0.77976
  -0.40987,   0.88053,  -0.44864,  -0.84345,  -0.89147,  -0.42168,   0.01878,   0.38618,  -0.92606,  -0.51861
   0.46236,  -0.93750,   0.93750,   0.05384,   0.73823,  -0.93750,   0.81615,   0.93750,  -0.81200,  -0.87548
  -0.34264,   0.15688,   0.70278,  -0.25901,  -0.58049,  -0.30682,   0.73023,   0.25363,  -0.61201,  -0.21132
  -0.33670,  -0.02948,  -0.47677,   0.72542,  -0.75686,   0.85683,  -0.75203,  -0.51162,  -0.53110,  -0.25517
  -0.70743,   0.49184,   0.93750,   0.39407,  -0.28493,   0.48269,   0.78698,  -0.25948,  -0.10335,  -0.21402
   0.93750,   0.58657,   0.72698,  -0.22363,  -0.21957,  -0.13095,  -0.10924,   0.02813,  -0.49021,  -0.77266
   0.33326,  -0.88655,   0.19878,   0.14440,  -0.33980,  -0.81496,  -0.64348,  -0.47810,  -0.74392,  -0.62109
  -0.25066,   0.37564,  -0.75608,  -0.56265,   0.61969,  -0.26820,   0.87792,   0.70613,  -0.60351,  -0.67781
   0.87167,  -0.76335,  -0.85624,  -0.50523,   0.63999,   0.08745,  -0.87843,   0.89247,   0.56885,   0.80501
   0.02423,   0.79779,   0.30604,   0.27535,  -0.93750,   0.57278,  -0.05146,  -0.32586,  -0.16651,  -0.93750
  -0.21885,   0.74748,  -0.31000,   0.32422,   0.27496,   0.77409,  -0.84394,  -0.75233,  -0.74637,   0.62597
  -0.69191,  -0.06806,  -0.40169,  -0.14712,   0.93750,  -0.54312,  -0.24225,  -0.62733,   0.12796,   0.47924
   0.15473,  -0.22272,  -0.37519,  -0.82532,   0.85181,   0.88063,   0.16336,  -0.12114,  -0.00675,  -0.09984
  -0.45665,   0.32894,   0.00044,  -0.70358,   0.36495,   0.85483,   0.02775,  -0.56887,   0.15036,   0.27870
  -0.22605,   0.17476,   0.58864,  -0.87704,   0.14058,   0.42311,   0.76237,   0.11105,   0.05361,   0.04211
  -0.45185,   0.71289,   0.58180,   0.73484,   0.54542,  -0.93750,   0.61138,  -0.83245,   0.86951,   0.87060
   0.57050,   0.78321,   0.74976,   0.68860,  -0.56797,  -0.90393,   0.04455,   0.87499,  -0.64021,  -0.08718
  -0.73867,  -0.39181,   0.60422,   0.61670,  -0.37992,   0.46918,  -0.51505,  -0.74281,  -0.23271,   0.81945
   0.93750,  -0.69232,   0.29718,  -0.13037,  -0.57974,  -0.77547,   0.38306,  -0.36527,  -0.04417,  -0.10970
   0.28932,   0.15695,  -0.38497,   0.64569,  -0.19250,  -0.55181,   0.91463,  -0.39422,  -0.04781,   0.01433
  -0.85124,  -0.62997,   0.11561,  -0.50882,  -0.48904,   0.82232,   0.08935,  -0.64225,  -0.70731,  -0.33389
  -0.87718,   0.05496,   0.93750,  -0.87585,  -0.23679,   0.93750,   0.88707,   0.84440,  -0.22635,   0.93750
  -0.14101,  -0.18595,  -0.36448,  -0.50747,   0.93750,  -0.26594,  -0.11275,   0.39978,  -0.08593,  -0.21892
  -0.54991,   0.76772,  -0.93750,   0.30717,   0.41358,  -0.93268,   0.45638,   0.93750,  -0.08422,  -0.86625
   0.29834,   0.03519,   0.12324,  -0.01479,   0.87648,   0.48687,  -0.02291,  -0.74967,  -0.86546,  -0.93750
   0.29965,  -0.41912,  -0.93750,  -0.60491,   0.93750,  -0.81362,  -0.80982,  -0.74365,   0.02839,   0.66855
   0.58948,  -0.03511,  -0.20023,  -0.60293,  -0.30890,   0.38255,  -0.59210,   0.62970,   0.29989,   0.32352
  -0.88109,   0.93750,   0.48557,  -0.58206,   0.88537,   0.93750,  -0.87718,  -0.74678,  -0.72391,   0.56348
   0.15980,  -0.67300,   0.44823,  -0.00081,  -0.07239,   0.30626,   0.58421,   0.51899,   0.90243,   0.87894
  -0.93750,   0.93750,   0.93750,  -0.19557,   0.20375,  -0.37704,  -0.05922,  -0.34870,  -0.93750,  -0.37792
  -0.40626,  -0.00638,  -0.06940,  -0.58888,  -0.14966,  -0.05019,  -0.18054,   0.74290,   0.74914,   0.63444
  -0.27526,  -0.50563,  -0.93750,  -0.41453,  -0.54636,   0.93750,   0.93750,  -0.64055,   0.54255,  -0.22807
  -0.68182,   0.86164,   0.89099,  -0.87751,  -0.89021,   0.90177,  -0.75787,  -0.87646,   0.86575,  -0.93750
  -0.14341,   0.53767,   0.50180,   0.82033,  -0.13855,  -0.32370,   0.62028,  -0.02859,   0.92204,   0.01749
  -0.52713,  -0.34152,  -0.33748,  -0.87470,  -0.05697,   0.93750,  -0.53475,   0.03917,   0.15879,   0.06161
  -0.21018,  -0.31169,  -0.43490,   0.63252,  -0.21370,   0.59853,  -0.67965,  -0.23444,   0.35855,   0.93750
  -0.80215,   0.81242,  -0.14187,   0.93750,   0.67460,  -0.78594,  -0.93750,  -0.69255,   0.65765,  -0.93750
   0.75406,  -0.64093,  -0.38322,   0.39808,   0.51385,   0.12744,  -0.56447,   0.35915,   0.84094,  -0.58749
   0.36533,   0.33431,   0.77644,   0.75294,   0.76874,   0.56752,  -0.81105,   0.51392,  -0.62348,  -0.28856
   0.67256,   0.65414,  -0.93750,  -0.93750,  -0.92030,   0.32880,   0.79950,   0.86476,   0.41404,   0.93750
  -0.74733,   0.87626,   0.15383,  -0.35891,   0.81698,   0.20768,   0.70387,  -0.50607,  -0.14224,  -0.93750
   0.18125,  -0.93750,   0.93750,   0.84949,   0.13372,  -0.86975,   0.86291,  -0.93750,   0.93750,   0.49745
   0.28979,  -0.19411,   0.35455,  -0.53269,  -0.68117,  -0.93750,   0.34992,   0.93750,   0.19837,   0.39457
  -0.86884,   0.86662,   0.46407,   0.27625,  -0.91756,   0.93750,  -0.06414,  -0.87965,  -0.93750,  -0.87893
   0.93733,  -0.87862,  -0.46170,   0.05091,  -0.66496,   0.54330,   0.28184,   0.37542,  -0.68213,  -0.47540
  -0.67912,  -0.81833,   0.28095,  -0.35166,  -0.53463,   0.24565,  -0.83296,   0.91198,  -0.00007,  -0.74739
   0.93750,  -0.57153,   0.93750,   0.93750,   0.93750,  -0.04993,  -0.80890,  -0.87668,  -0.93750,  -0.81463
   0.14289,  -0.06184,  -0.45540,  -0.55736,   0.93644,   0.93750,  -0.08358,  -0.24823,   0.26018,  -0.17957
  -0.53278,   0.93750,  -0.02858,   0.88385,   0.87737,   0.93750,   0.00187,  -0.21634,  -0.93750,  -0.81072
   0.02703,  -0.34502,  -0.86069,  -0.19577,  -0.42223,  -0.93750,  -0.92092,   0.25748,  -0.46973,   0.93750
   0.18359,  -0.87899,   0.93750,   0.18242,  -0.32199,  -0.37496,   0.02395,  -0.12127,   0.08054,   0.89470
  -0.35769,   0.92374,  -0.69215,  -0.86711,   0.15518,   0.68960,  -0.00394,  -0.21725,   0.64151,  -0.12531
   0.89255,   0.93750,  -0.87136,  -0.68918,  -0.86930,  -0.20192,  -0.37044,  -0.18255,   0.05787,   0.19321
  -0.35858,  -0.35716,  -0.19198,   0.83298,   0.19559,  -0.03977,   0.16005,   0.14334,   0.86051,   0.48553
   0.93750,  -0.93750,   0.18922,   0.79480,   0.71662,  -0.87607,  -0.78108,   0.03190,  -0.93750,   0.06842
  -0.43647,  -0.87361,   0.50390,   0.54341,   0.88603,  -0.39592,   0.73937,   0.34686,   0.63725,  -0.07131
  -0.69102,   0.13037,  -0.38799,   0.49727,   0.11830,  -0.24251,   0.25724,   0.30129,   0.88123,  -0.48972
  -0.05640,  -0.16790,   0.86377,   0.08877,  -0.15717,   0.60906,   0.56683,  -0.04679,  -0.14896,  -0.58375
   0.87294,  -0.88271,  -0.29874,  -0.20343,   0.93750,  -0.84698,   0.46774,   0.61161,  -0.15087,  -0.28984
  -0.31426,  -0.78385,   0.51730,  -0.40145,   0.21747,  -0.26402,   0.85010,  -0.29920,  -0.68617,   0.92837
   0.04083,  -0.57065,   0.33843,   0.11261,   0.22839,  -0.63220,   0.09917,   0.93063,  -0.32247,   0.75648
   0.34562,  -0.59184,  -0.31406,  -0.16017,   0.87500,  -0.09637,  -0.04543,  -0.31619,   0.05848,   0.17370
  -0.05362,   0.87962,   0.36488,   0.63809,  -0.55193,  -0.81869,   0.66977,   0.73759,   0.93750,  -0.85536
  -0.26209,   0.45672,  -0.25764,  -0.57629,  -0.40091,   0.81153,  -0.19851,   0.81367,  -0.10693,   0.16976
   0.05803,   0.45151,   0.87874,   0.15256,   0.52678,   0.16237,  -0.38960,   0.93079,   0.15451,  -0.04393
  -0.57639,   0.31353,  -0.56093,   0.64218,  -0.54360,   0.30172,   0.69129,   0.42764,   0.20337,   0.21720
   0.72648,   0.06314,   0.45268,  -0.85652,   0.25720,  -0.24715,  -0.45976,   0.24096,  -0.93750,  -0.27084
  -0.51719,  -0.63209,   0.08374,  -0.11398,  -0.29504,  -0.58584,  -0.05532,   0.30452,   0.63990,   0.81936
  -0.14116,   0.00908,   0.93672,   0.53072,  -0.26326,  -0.81066,   0.46421,  -0.11979,  -0.00352,  -0.24674
  -0.35989,  -0.12311,   0.15698,   0.67881,   0.47053,  -0.81168,  -0.44163,   0.69426,  -0.63066,  -0.02137
   0.93283,  -0.08174,  -0.73018,  -0.92479,   0.03509,   0.22871,   0.03454,   0.71008,   0.13905,   0.48776
   0.93750,   0.93750,  -0.35978,  -0.93750,  -0.93750,   0.31560,   0.74666,   0.78885,  -0.09291,   0.93750
  -0.05559,   0.44384,  -0.26257,   0.70630,  -0.05100,   0.46560,  -0.93750,   0.30530,  -0.51345,  -0.50165
   0.83873,  -0.93130,   0.21137,  -0.78695,  -0.41213,   0.23904,  -0.11651,  -0.41688,  -0.60564,   0.80925
  -0.13638,  -0.56851,  -0.09977,   0.68162,   0.87481,   0.69946,  -0.77423,  -0.57608,   0.55681,  -0.80074
  -0.15469,  -0.12092,   0.02757,  -0.36287,   0.20049,   0.93168,  -0.22432,  -0.87178,   0.07675,   0.13075
   0.21837,   0.35270,  -0.36426,   0.80999,   0.62133,   0.04903,  -0.42780,   0.15439,   0.03865,   0.14171
   0.87163,  -0.23129,   0.29184,  -0.82378,   0.87320,   0.61146,   0.93750,   0.70550,  -0.29946,   0.93750
   0.93750,   0.36087,  -0.63178,  -0.29431,   0.24393,   0.49064,  -0.61509,  -0.56962,  -0.73751,  -0.70379
   0.81357,  -0.50741,  -0.70398,   0.37452,  -0.43420,  -0.52133,   0.65309,  -0.49696,  -0.43490,   0.64852
   0.77047,  -0.24528,   0.92970,  -0.54947,  -0.22615,   0.40341,  -0.84200,   0.20858,  -0.22301,  -0.01707
   0.77351,   0.58071,   0.07344,  -0.25975,  -0.27756,   0.90683,  -0.32248,   0.25027,   0.03348,   0.13623
   0.65650,   0.58999,   0.02535,  -0.44812,   0.93750,  -0.55519,   0.88133,  -0.89699,   0.87400,  -0.72598
   0.07705,  -0.02718,   0.63192,  -0.58115,  -0.58851,  -0.48905,   0.46767,  -0.86741,   0.77024,   0.30683
  -0.57847,   0.25445,   0.93274,   0.15601,   0.68182,  -0.69316,  -0.10119,  -0.75439,   0.01938,  -0.14134
   0.93750,  -0.34634,   0.89181,  -0.16189,   0.93750,   0.93750,  -0.58065,  -0.93750,   0.93564,  -0.93750
  -0.42650,  -0.93750,   0.93750,   0.93750,   0.06381,  -0.93750,   0.29256,   0.93750,   0.31097,  -0.93750
  -0.18238,  -0.74521,  -0.28205,   0.44348,  -0.71910,  -0.60359,   0.15095,   0.01201,   0.44715,  -0.27573
  -0.18774,  -0.15777,  -0.93750,  -0.47054,   0.93750,  -0.93750,   0.73362,  -0.93750,   0.71088,   0.18608
  -0.23013,   0.23867,  -0.45005,  -0.79869,   0.93447,  -0.78972,  -0.44423,  -0.43799,   0.23975,  -0.25645
   0.63190,  -0.47265,   0.89596,  -0.19207,   0.88355,   0.93750,   0.93750,   0.62714,  -0.93750,  -0.45087
  -0.66491,  -0.09430,  -0.39508,  -0.18317,   0.88572,  -0.05973,   0.05885,   0.86809,   0.27068,  -0.76430
   0.85204,  -0.05262,  -0.77339,  -0.19040,   0.16211,   0.39686,   0.26061,  -0.21804,  -0.40877,  -0.67984
   0.73801,  -0.74651,  -0.74694,  -0.63784,  -0.74658,  -0.87728,  -0.47697,  -0.32684,  -0.25355,   0.37742
  -0.38660,  -0.09189,  -0.00836,   0.40726,   0.85214,   0.42964,  -0.19226,   0.40345,  -0.49358,   0.00197
   0.06421,  -0.13863,  -0.14118,  -0.45483,   0.07097,   0.93750,  -0.68918,  -0.41421,   0.14710,   0.07758
   0.88933,  -0.70750,   0.86728,   0.27725,   0.51454,   0.25497,   0.17967,  -0.88689,   0.71957,  -0.79420
   0.18882,   0.38336,   0.54064,   0.74169,   0.50755,  -0.53182,  -0.45321,  -0.23899,   0.12439,  -0.51454
   0.44026,   0.09349,   0.40726,  -0.34209,   0.17424,   0.87119,  -0.04779,   0.09203,  -0.06752,  -0.18099
   0.16958,  -0.30878,   0.87649,  -0.86216,   0.71724,   0.20113,   0.00186,  -0.74776,  -0.00456,  -0.21692
  -0.93750,  -0.11136,   0.76421,  -0.50630,  -0.14895,  -0.74307,  -0.51289,  -0.25603,   0.52353,  -0.42417
  -0.31860,  -0.00595,  -0.07917,   0.87505,   0.48969,  -0.59502,  -0.78613,  -0.10635,   0.32553,  -0.34310
   0.33119,  -0.36796,   0.17494,  -0.30958,   0.36384,  -0.15408,  -0.05013,   0.55307,  -0.49060,   0.48864
   0.36692,   0.86635,   0.34478,  -0.80144,   0.75106,  -0.54327,  -0.18831,   0.66065,   0.67750,  -0.85405
  -0.87451,   0.87430,   0.23968,  -0.63438,  -0.93750,  -0.58018,  -0.78052,  -0.81094,   0.93750,  -0.75183
   0.02057,   0.38643,  -0.20697,  -0.21490,   0.76596,  -0.65194,  -0.27148,   0.93355,  -0.63703,   0.42957
  -0.93750,   0.07621,  -0.11278,  -0.88173,   0.86505,  -0.80712,   0.93750,  -0.67134,  -0.37516,   0.77999
   0.85593,   0.59883,  -0.09783,  -0.76790,  -0.22004,  -0.41396,  -0.83117,  -0.71977,   0.59433,   0.87952
  -0.44372,  -0.93750,   0.93750,  -0.68838,   0.93750,  -0.14471,  -0.17690,   0.93750,   0.93750,  -0.86697
   0.22123,   0.17866,   0.17553,  -0.74777,  -0.32033,   0.91965,   0.12607,  -0.33995,   0.07413,   0.69599
  -0.65219,   0.85731,  -0.79657,  -0.81096,   0.80333,   0.87577,   0.25800,   0.00880,  -0.17834,  -0.67479
   0.93750,  -0.26644,  -0.75010,   0.07098,   0.39134,   0.86589,  -0.93750,   0.47158,  -0.62039,  -0.87025
  -0.68932,   0.25390,  -0.28129,  -0.79178,  -0.40414,   0.88896,   0.46893,   0.65816,  -0.43217,   0.19598
   0.22298,  -0.03188,   0.72220,   0.01792,   0.90956,   0.23303,   0.30126,  -0.42734,  -0.69445,  -0.45116
  -0.71636,  -0.11456,   0.00465,   0.93750,   0.27437,  -0.79000,  -0.63980,   0.65821,  -0.24026,  -0.57184
   0.19794,  -0.04391,   0.02886,  -0.65376,  -0.07645,  -0.76883,   0.59215,   0.68074,  -0.34829,   0.43916
  -0.06626,  -0.14710,  -0.08179,   0.88101,   0.87594,  -0.37279,  -0.64254,  -0.34348,  -0.09774,  -0.10275
  -0.25599,  -0.05982,   0.57937,  -0.54544,  -0.02915,  -0.57703,   0.21591,  -0.03417,   0.93750,  -0.88703
   0.33379,  -0.07462,  -0.60785,  -0.26856,  -0.54060,   0.93750,   0.08573,   0.20233,  -0.17843,  -0.29943
   0.51586,  -0.81217,   0.93750,  -0.67092,  -0.80807,   0.93750,   0.36301,   0.65162,   0.29444,  -0.04174
  -0.26483,  -0.02726,  -0.05110,   0.93750,  -0.62574,  -0.31399,  -0.40739,  -0.16557,  -0.05069,  -0.00925
  -0.93750,   0.25968,  -0.93750,   0.78053,  -0.46398,   0.54025,  -0.93750,  -0.62360,  -0.37805,  -0.71292
  -0.15838,  -0.87670,  -0.28636,  -0.69653,  -0.82486,  -0.36776,   0.93750,   0.65041,   0.09606,  -0.07336
   0.33395,  -0.93750,   0.63841,   0.81670,  -0.67294,  -0.93750,   0.81367,   0.34833,  -0.73336,   0.34445
   0.68701,   0.03423,  -0.54504,  -0.42631,   0.20741,  -0.49886,  -0.68521,   0.93493,  -0.18414,  -0.47129
   0.23512,  -0.85871,   0.93750,  -0.58119,   0.42421,   0.86633,  -0.63378,   0.57941,  -0.54112,   0.93750
   0.74432,   0.87718,   0.88037,  -0.88635,   0.93750,  -0.65152,   0.44823,  -0.37397,  -0.21442,  -0.87400
   0.41066,  -0.74032,  -0.37523,   0.93750,   0.86342,   0.47076,   0.93750,   0.13025,   0.19454,   0.53171
   0.82454,  -0.28912,  -0.49318,   0.87119,   0.23932,  -0.09090,  -0.41871,   0.57202,  -0.16617,   0.07927
  -0.09284,  -0.41360,  -0.21072,   0.53515,   0.56805,  -0.52040,   0.53166,   0.54472,  -0.54296,   0.81788
  -0.34419,   0.15040,  -0.15525,   0.70300,   0.93750,  -0.53562,  -0.48767,  -0.73967,   0.06421,  -0.69492
  -0.20315,  -0.11737,  -0.29858,  -0.73448,  -0.38823,   0.87289,  -0.45659,  -0.01824,  -0.18147,   0.37409
   0.11644,   0.07463,   0.27308,  -0.60718,   0.27764,   0.81733,  -0.78878,   0.15103,  -0.23858,   0.14776
  -0.68755,  -0.56562,   0.58824,   0.75681,  -0.09051,  -0.23037,   0.66081,  -0.46559,   0.66263,  -0.88119
   0.69139,   0.36739,   0.55602,  -0.67891,  -0.52556,  -0.02759,   0.16112,  -0.21646,  -0.80665,   0.06186
  -0.39968,   0.12419,   0.81599,  -0.34572,   0.13911,  -0.38483,   0.88503,   0.32556,  -0.63131,  -0.27775
   0.18118,   0.18653,  -0.60842,   0.81432,   0.39725,  -0.71159,   0.92903,   0.68491,   0.79525,   0.80882
   0.87699,  -0.75299,   0.93501,   0.81200,  -0.87240,   0.18527,  -0.25919,  -0.67207,   0.66836,   0.81418
  -0.75495,  -0.70140,   0.15777,   0.75386,  -0.35532,  -0.57043,  -0.89747,   0.84687,   0.43540,  -0.35596
   0.21281,   0.91107,  -0.27709,   0.93750,  -0.00086,  -0.41619,   0.42426,   0.82706,  -0.93750,   0.18127
  -0.64239,   0.93750,  -0.18549,   0.16109,   0.14429,   0.39998,   0.11258,   0.06073,   0.86855,  -0.73843
  -0.02012,  -0.80497,  -0.48695,   0.50177,   0.11381,   0.05179,  -0.11161,   0.53686,   0.93750,  -0.74924
  -0.93750,  -0.84409,   0.73444,  -0.93750,   0.29724,   0.32920,   0.50226,   0.87184,   0.93750,   0.93750
   0.12693,  -0.28743,  -0.74106,  -0.54293,  -0.37238,   0.70318,  -0.70960,   0.27805,  -0.37576,   0.27996
  -0.33950,   0.52437,  -0.93750,   0.93750,   0.33202,  -0.26146,  -0.19066,   0.47899,  -0.34440,   0.87498
  -0.64455,  -0.93750,   0.87074,  -0.92358,  -0.34312,   0.53991,  -0.77316,  -0.74343,   0.82445,  -0.76267
  -0.46397,  -0.76648,   0.93750,  -0.17419,  -0.51221,  -0.08355,   0.90204,  -0.45543,  -0.42249,   0.38682
  -0.46872,   0.49644,  -0.68029,  -0.42040,  -0.15466,   0.87643,   0.03198,   0.71900,   0.30296,  -0.56883
   0.32628,   0.93750,   0.03747,  -0.93750,  -0.51910,  -0.43221,   0.34497,  -0.93750,   0.93750,   0.93750
  -0.16526,   0.77812,   0.02782,  -0.36859,  -0.14388,  -0.58019,  -0.56906,   0.58084,  -0.68639,  -0.86524
   0.38731,   0.88712,   0.31378,  -0.56867,   0.35564,   0.50698,   0.70606,  -0.93750,  -0.24545,  -0.58455
  -0.16467,   0.82725,   0.06830,  -0.25116,   0.35276,   0.69346,  -0.10906,  -0.83208,   0.36913,   0.66833
  -0.45738,   0.39240,   0.93750,  -0.58494,  -0.93750,   0.39213,   0.11001,  -0.59815,  -0.24191,   0.33791
   0.00229,   0.34188,   0.88660,  -0.35028,   0.07293,  -0.50060,   0.62465,  -0.42629,   0.18346,  -0.21065
   0.04997,  -0.52986,  -0.15937,   0.78129,   0.67248,  -0.22114,   0.51059,  -0.07148,   0.76785,   0.32532
  -0.25288,   0.00513,  -0.01716,  -0.37699,   0.67308,   0.87436,   0.06193,  -0.04320,  -0.17833,  -0.40301
  -0.93750,   0.88726,  -0.47217,   0.87757,  -0.76900,   0.12233,   0.64578,   0.58555,   0.46127,  -0.57726
  -0.23595,   0.02716,  -0.09940,  -0.41253,  -0.58015,  -0.29553,   0.93750,   0.19810,   0.00937,  -0.32369
  -0.51749,  -0.69118,  -0.27116,  -0.78550,   0.32552,   0.21901,   0.31706,   0.87014,   0.29046,   0.93750
  -0.39429,   0.44414,   0.53239,  -0.15357,   0.87850,  -0.22414,  -0.03052,  -0.72310,   0.71063,   0.49956
   0.42234,  -0.93242,  -0.73601,   0.65825,  -0.51925,  -0.82163,   0.10197,   0.67976,   0.23501,  -0.86256
   0.79918,   0.50386,  -0.40020,   0.47138,   0.93750,  -0.70979,  -0.40058,  -0.15189,   0.34755,  -0.13228
  -0.84309,   0.09141,  -0.55020,   0.55689,  -0.67277,  -0.69746,   0.15175,   0.93750,   0.31782,  -0.58906
   0.91885,  -0.30752,  -0.32799,   0.19925,   0.58838,   0.37438,  -0.37128,  -0.34969,  -0.45244,  -0.41321
   0.86156,   0.78724,  -0.36259,  -0.20987,  -0.50375,  -0.60109,   0.24075,  -0.29879,   0.47367,   0.60938
  -0.57733,   0.80411,  -0.45776,  -0.74339,   0.38118,  -0.17595,   0.51110,   0.67274,   0.70736,   0.62328
  -0.13259,   0.05266,  -0.16099,   0.92294,   0.25829,  -0.69133,   0.22356,   0.33653,   0.42997,   0.03115
  -0.24501,  -0.29526,   0.25545,  -0.49197,  -0.63255,  -0.47703,  -0.93002,   0.87263,   0.57436,   0.57874
   0.28690,  -0.75610,  -0.45724,   0.93750,   0.87372,  -0.93750,   0.84384,   0.22511,   0.60095,  -0.87834
   0.37235,  -0.21179,   0.49779,  -0.34524,   0.12109,   0.48388,  -0.93750,   0.74892,   0.32377,   0.28893
  -0.36134,   0.45082,  -0.67493,   0.79636,  -0.55347,  -0.56592,   0.15179,  -0.20444,   0.01066,  -0.62562
  -0.24898,  -0.93750,   0.87093,  -0.93750,   0.78086,  -0.37789,  -0.55786,   0.93750,   0.50746,   0.15065
  -0.74622,   0.02064,  -0.45212,  -0.34744,   0.15856,   0.92634,  -0.32330,  -0.14644,   0.14589,   0.39927
  -0.21659,   0.15966,  -0.18550,   0.01761,   0.93210,   0.06121,   0.73104,  -0.12352,   0.41086,  -0.05298
  -0.86693,   0.93750,  -0.86605,   0.40668,  -0.93750,   0.87537,  -0.73758,  -0.87666,   0.91080,  -0.60301
  -0.27753,   0.00298,  -0.88027,  -0.41170,   0.81430,   0.12920,  -0.87594,  -0.30087,   0.21594,   0.04934
  -0.22177,   0.71151,   0.18862,  -0.26708,  -0.69058,   0.06735,   0.30783,   0.93750,  -0.13691,  -0.67389
   0.75777,  -0.07286,  -0.52200,  -0.56924,  -0.91576,   0.93750,  -0.33304,  -0.56145,   0.06221,   0.10574
  -0.58044,  -0.44150,   0.19204,  -0.35889,   0.16168,  -0.41209,   0.21960,  -0.31732,   0.42785,   0.86855
   0.42985,   0.32892,  -0.29106,  -0.44343,  -0.82137,  -0.43128,   0.93750,  -0.04025,   0.61507,   0.22654
   0.15484,   0.10021,   0.78796,  -0.81265,  -0.22931,   0.93459,  -0.31301,  -0.34945,  -0.00152,  -0.34626
   0.48715,  -0.66471,   0.59658,  -0.24788,  -0.66583,   0.06259,  -0.26809,   0.80537,   0.50890,   0.36400
   0.74369,   0.93750,  -0.80728,  -0.92223,  -0.72029,   0.63037,  -0.88151,  -0.32540,  -0.88022,   0.10398
   0.34858,  -0.93750,  -0.19899,  -0.32907,   0.75734,  -0.55161,  -0.66137,   0.93750,   0.93750,   0.86346
  -0.61339,   0.49207,   0.04996,   0.11023,  -0.49467,   0.43321,   0.43923,   0.06629,   0.93714,   0.01180
   0.71823,  -0.14808,   0.22758,  -0.62720,   0.33266,   0.93750,   0.22334,  -0.31800,  -0.38552,  -0.14433
  -0.50503,   0.61693,  -0.80412,  -0.35475,  -0.33516,  -0.08626,  -0.66598,   0.93750,  -0.87484,   0.93750
   0.80666,   0.42072,   0.89330,   0.04866,  -0.74326,   0.10025,   0.33792,  -0.41711,   0.38679,  -0.32297
  -0.18635,   0.06502,  -0.26542,  -0.93750,  -0.19500,   0.84163,   0.23692,  -0.14101,   0.21293,  -0.38722
  -0.21058,  -0.42969,  -0.16675,  -0.59116,  -0.39152,   0.93750,   0.00276,  -0.01779,   0.08163,  -0.31626
  -0.20444,   0.38196,  -0.71642,  -0.25131,   0.76570,  -0.60266,  -0.93750,   0.44615,  -0.93750,   0.09035
   0.35418,  -0.49782,   0.11821,   0.72129,  -0.93750,  -0.87459,  -0.28499,   0.53174,  -0.80049,  -0.60882
  -0.93750,   0.93362,  -0.61757,  -0.60663,  -0.93750,  -0.88521,  -0.93750,  -0.93750,  -0.87398,  -0.39567
   0.33741,   0.26949,   0.81006,  -0.15516,  -0.88284,   0.80290,  -0.29964,   0.87772,   0.27953,  -0.75983
  -0.84234,  -0.09494,   0.90572,   0.80737,  -0.93750,   0.03645,   0.81674,   0.13934,  -0.02690,   0.19246
   0.93750,   0.59697,   0.56153,  -0.48181,  -0.89673,   0.08439,   0.93408,  -0.67375,  -0.24209,  -0.15543
   0.46128,   0.90456,  -0.74261,  -0.93750,   0.05652,   0.81074,  -0.92842,   0.27378,   0.53652,  -0.80590
   0.52356,  -0.93750,   0.93750,  -0.67228,   0.93750,  -0.80469,  -0.21345,   0.66623,  -0.08019,   0.93750
   0.93750,  -0.41090,   0.15650,  -0.93750,   0.03938,   0.34716,  -0.42021,  -0.24921,  -0.83862,  -0.54345
   0.14504,   0.88978,   0.88918,  -0.32461,   0.85248,  -0.62827,  -0.81706,  -0.38963,  -0.93750,   0.07553
  -0.62776,  -0.93750,   0.67765,  -0.87068,  -0.85880,   0.42045,  -0.86008,  -0.57095,  -0.92136,   0.39476
   0.77365,  -0.72985,   0.14866,  -0.17867,   0.37785,  -0.02084,  -0.52333,   0.15156,  -0.25617,   0.71794
   0.66508,   0.07909,   0.24016,   0.53545,   0.58012,   0.58679,   0.75135,  -0.20401,   0.70492,   0.42559
  -0.05734,   0.14383,   0.34060,  -0.72760,  -0.35224,   0.93750,  -0.14112,  -0.35323,  -0.16786,   0.18395
   0.93750,   0.87565,  -0.25186,   0.09136,  -0.91760,  -0.38209,   0.93750,   0.88485,  -0.83213,  -0.50537
   0.14262,   0.11163,   0.23672,  -0.12173,  -0.14717,  -0.03581,   0.93750,  -0.18549,  -0.07102,   0.04095
   0.52367,   0.93750,  -0.10547,  -0.04938,  -0.24699,   0.43889,   0.01586,   0.28072,  -0.93750,  -0.44849
   0.93750,  -0.93750,   0.83473,   0.51166,   0.87949,   0.82729,  -0.93750,  -0.56962,   0.33050,  -0.39203
  -0.79160,   0.18441,  -0.58955,   0.75779,  -0.40839,   0.93175,  -0.12486,  -0.40771,   0.26478,  -0.07532
  -0.40523,  -0.30055,   0.93750,  -0.24325,  -0.23013,  -0.04861,   0.43469,   0.53166,  -0.21311,  -0.41785
   0.58255,   0.75032,   0.11880,  -0.38163,  -0.45637,   0.41762,   0.76518,   0.79942,  -0.88103,   0.11742
   0.42719,   0.87357,  -0.58126,   0.56623,   0.93750,  -0.83127,  -0.81224,  -0.36374,   0.23971,   0.80850
   0.42203,  -0.93750,   0.05969,   0.01653,  -0.93750,   0.73450,   0.07423,   0.72744,   0.66637,  -0.05829
  -0.82086,  -0.51131,  -0.86278,   0.27837,   0.39934,   0.84965,   0.08676,  -0.22860,  -0.34084,   0.15579
   0.15448,  -0.23905,   0.93750,  -0.85557,  -0.86583,  -0.08230,   0.21763,   0.01730,  -0.16068,  -0.70138
   0.20454,  -0.01427,   0.31864,   0.13224,   0.78138,   0.49566,  -0.20902,  -0.57557,   0.14015,   0.43775
   0.01996,   0.14408,   0.82762,   0.18680,  -0.18580,  -0.38470,   0.39237,  -0.91751,   0.23409,  -0.28475
   0.87215,  -0.93750,  -0.21417,  -0.70165,   0.88991,  -0.62002,   0.93750,   0.93750,  -0.93750,  -0.77925
   0.61721,   0.74185,   0.69414,  -0.59632,  -0.93566,   0.43742,   0.93750,  -0.34356,  -0.33782,   0.33149
   0.07104,   0.61921,  -0.12929,   0.49942,  -0.24768,  -0.91697,   0.93750,  -0.16649,   0.01823,   0.15855
  -0.35080,  -0.66520,   0.87936,   0.41698,   0.51273,   0.80572,   0.14848,  -0.23466,  -0.17802,   0.87676
  -0.64892,  -0.29666,  -0.12377,   0.77053,  -0.11535,  -0.37834,  -0.80276,   0.73772,   0.00067,  -0.17709
   0.57218,  -0.72673,  -0.72128,   0.27450,  -0.00856,  -0.41035,  -0.57017,   0.70847,   0.44245,   0.80174
  -0.37230,  -0.02449,  -0.37512,  -0.84947,   0.72383,  -0.60849,  -0.07033,   0.93222,   0.01306,  -0.02308
  -0.00673,  -0.02086,  -0.66921,  -0.83541,   0.93750,   0.26537,  -0.26379,   0.93750,   0.03774,  -0.32271
  -0.59744,   0.30321,  -0.44625,   0.81273,  -0.17504,   0.82225,  -0.32713,  -0.50186,   0.47393,  -0.16110
   0.77114,  -0.31269,   0.88830,  -0.14243,   0.31202,   0.47452,  -0.87922,  -0.81600,   0.36434,  -0.87213
   0.66604,   0.49742,   0.79737,  -0.51023,  -0.66714,  -0.35526,  -0.80733,  -0.68192,   0.77069,   0.50400
  -0.93750,  -0.93750,   0.21237,  -0.47637,   0.93750,   0.93750,   0.63795,   0.93750,   0.30544,   0.60899
   0.35572,   0.28571,   0.85252,   0.49330,  -0.24600,   0.05777,  -0.56244,  -0.03191,  -0.34447,  -0.04309
   0.43267,   0.62680,   0.77120,  -0.25069,   0.52458,   0.50947,   0.61378,  -0.68431,   0.82656,  -0.76535
   0.80742,   0.81385,   0.29060,  -0.47778,  -0.02064,  -0.60689,   0.17354,   0.12524,  -0.81951,  -0.42334
  -0.09085,   0.07860,   0.21449,   0.51163,   0.93750,   0.02968,  -0.87822,   0.19030,   0.12486,   0.06174
   0.56923,   0.59093,  -0.37777,  -0.35351,  -0.55751,   0.83530,   0.38167,  -0.62522,   0.62603,  -0.15491
  -0.77319,   0.93750,   0.51472,  -0.59016,   0.07489,  -0.81381,   0.68515,  -0.69974,   0.41161,  -0.76377
   0.93750,  -0.35353,  -0.87856,   0.44497,   0.47377,  -0.79580,  -0.20186,  -0.76485,   0.01455,  -0.93750
   0.13397,  -0.06406,  -0.51968,  -0.28017,  -0.08946,  -0.23183,  -0.08435,   0.93170,  -0.23769,   0.07610
   0.49662,  -0.31788,  -0.37565,  -0.12343,  -0.10570,   0.71038,  -0.62302,   0.93750,   0.51900,  -0.56031
   0.61843,  -0.47453,  -0.35303,  -0.27187,   0.24816,  -0.42243,   0.53053,  -0.49482,   0.70232,   0.22740
   0.88071,  -0.93750,   0.07058,  -0.93750,   0.17825,   0.93750,  -0.37465,  -0.93750,  -0.93750,  -0.64307
   0.93750,  -0.22286,   0.93750,   0.09192,  -0.93709,   0.20309,   0.93750,  -0.93750,   0.93750,  -0.79542
   0.82646,   0.93427,  -0.26283,   0.33580,   0.63668,  -0.01678,   0.05062,  -0.33462,  -0.45682,  -0.89322
   0.53460,   0.22912,   0.41940,   0.74076,   0.83791,   0.48697,   0.41895,   0.25657,   0.27267,   0.11104
   0.91024,  -0.08915,  -0.32727,   0.06180,   0.82194,   0.32366,  -0.05260,  -0.64128,  -0.14987,  -0.00899
  -0.20173,   0.16641,   0.93750,  -0.47664,   0.82748,  -0.37478,  -0.53023,  -0.36362,   0.38437,   0.04270
   0.36405,  -0.25435,   0.74601,   0.01918,   0.10121,  -0.25582,  -0.04152,   0.56871,   0.87897,  -0.41123
   0.06580,  -0.77674,  -0.59152,  -0.52165,  -0.60054,   0.86589,   0.86876,  -0.80400,  -0.03247,  -0.53751
   0.28987,   0.23842,  -0.03695,   0.51512,   0.29294,  -0.89024,  -0.33462,   0.93750,  -0.03038,  -0.20087
  -0.79480,   0.83096,  -0.81659,  -0.68841,  -0.70097,  -0.49406,   0.56198,   0.19911,   0.25227,  -0.43944
   0.46040,   0.38449,  -0.55858,   0.75470,   0.70122,  -0.93750,  -0.18032,   0.30789,   0.93750,  -0.56848
   0.08893,   0.31149,  -0.09898,  -0.20491,   0.36639,  -0.49743,   0.88236,   0.29478,  -0.13418,   0.24481
   0.09786,  -0.87208,   0.10117,   0.54217,  -0.93750,   0.93750,  -0.86969,  -0.87523,  -0.93750,  -0.93750
   0.10036,   0.30056,  -0.27465,   0.30591,   0.86428,  -0.11141,  -0.73303,  -0.23495,   0.26018,   0.20737
  -0.14221,  -0.22162,   0.02609,  -0.73185,  -0.23913,   0.62282,   0.54792,  -0.34392,   0.14710,   0.17917
   0.91123,  -0.13985,  -0.35293,  -0.02114,   0.79618,   0.31768,  -0.46145,   0.41593,  -0.24035,   0.14709
  -0.79737,   0.58882,   0.92903,   0.28180,   0.93611,   0.42891,   0.47570,   0.12094,  -0.79452,  -0.82463
  -0.16225,   0.19870,  -0.67547,   0.78846,  -0.29227,   0.63272,   0.41743,  -0.01826,   0.54191,   0.38828
   0.00469,   0.52231,  -0.04157,   0.63901,   0.35875,  -0.68578,  -0.56887,  -0.62703,  -0.33783,  -0.16996
  -0.13595,   0.68187,   0.18032,   0.29913,   0.19093,   0.26476,   0.48369,  -0.28816,   0.07409,  -0.37298
   0.07702,   0.03830,   0.43792,  -0.08480,   0.64218,  -0.85318,  -0.05890,  -0.42485,   0.23931,   0.59530
  -0.93750,  -0.67008,   0.28365,   0.49426,   0.02379,   0.77156,   0.86888,   0.93750,  -0.60681,  -0.79436
  -0.39172,  -0.63792,   0.81906,  -0.93750,   0.07073,  -0.64009,  -0.54710,   0.93750,  -0.93750,   0.69514
   0.90756,  -0.13612,  -0.53568,   0.68862,   0.37019,  -0.25915,  -0.16457,   0.52809,   0.29740,   0.37796
  -0.69101,   0.41187,   0.92300,   0.11596,  -0.19978,  -0.64470,  -0.30862,  -0.18960,  -0.53090,   0.07129
   0.38869,   0.29397,  -0.79728,  -0.92625,  -0.93750,   0.93750,  -0.61810,  -0.79423,   0.01385,   0.11557
  -0.35619,  -0.17028,  -0.58207,  -0.09399,   0.80817,  -0.27793,   0.13908,  -0.87424,  -0.43415,  -0.01791
   0.82844,   0.03725,   0.54594,   0.63015,   0.85184,   0.37572,   0.67454,   0.66701,   0.28885,   0.17099
   0.45883,  -0.54834,   0.77695,   0.49690,   0.00289,   0.69261,  -0.81992,   0.86515,  -0.31046,  -0.25753
   0.63735,  -0.53299,  -0.57971,   0.63909,  -0.21392,  -0.15410,  -0.46671,  -0.36855,   0.14063,   0.79245
  -0.28069,   0.03418,   0.92731,  -0.58690,   0.63268,  -0.74085,  -0.52639,   0.39079,   0.02889,   0.05693
  -0.93750,  -0.81620,  -0.87277,   0.81328,   0.93750,  -0.22493,  -0.55652,  -0.86755,   0.29898,   0.91269
  -0.78263,  -0.22918,  -0.67991,  -0.86119,   0.93750,   0.38780,  -0.76293,   0.46024,  -0.12290,  -0.27538
   0.67309,   0.77295,   0.93750,  -0.77403,   0.86082,   0.54950,   0.73350,  -0.15578,  -0.93750,  -0.87931
   0.85916,   0.14438,   0.65046,  -0.38087,   0.18233,   0.73645,   0.28671,  -0.03029,   0.28713,   0.77876
  -0.93750,  -0.82322,   0.62020,   0.22687,  -0.00490,   0.25921,   0.02574,   0.71766,   0.93750,  -0.21225
  -0.18819,   0.30061,  -0.23238,  -0.93589,  -0.32231,  -0.49048,   0.01700,   0.93750,  -0.13002,   0.23542
  -0.66297,   0.78653,   0.74450,   0.44362,   0.23277,   0.41082,  -0.11794,   0.82404,  -0.00413,  -0.40702
  -0.43043,   0.11713,   0.93315,  -0.75825,  -0.42884,   0.60106,  -0.83794,  -0.64759,   0.57689,   0.63983
  -0.07197,   0.03206,  -0.19538,   0.89098,  -0.25110,  -0.57931,   0.49596,   0.35171,   0.02311,  -0.26032
   0.09478,   0.88263,  -0.45636,  -0.13805,   0.93750,  -0.87895,  -0.73553,  -0.93750,  -0.88183,   0.93750
  -0.59371,  -0.66446,  -0.27742,   0.76522,   0.80896,   0.76136,  -0.64567,   0.80353,  -0.17913,  -0.10730
  -0.80182,   0.93750,  -0.67929,   0.84010,  -0.61784,   0.43544,  -0.42017,  -0.62219,   0.62008,  -0.68343
   0.93750,  -0.68822,   0.93750,   0.19837,  -0.93750,  -0.34528,  -0.93750,  -0.00375,  -0.88295,  -0.93750
   0.14136,  -0.08368,  -0.16215,   0.23717,  -0.33571,  -0.67823,   0.08456,   0.93750,   0.11181,   0.13125
  -0.93750,   0.68509,   0.13706,  -0.93750,   0.14227,   0.49567,   0.81672,  -0.47853,   0.87607,  -0.90504
  -0.17527,  -0.17935,  -0.59492,   0.87178,  -0.77153,  -0.60747,   0.11928,   0.12305,  -0.23081,  -0.17546
  -0.01981,  -0.74489,   0.93750,  -0.75282,  -0.82765,  -0.40894,   0.93750,  -0.93750,  -0.93750,   0.64039
  -0.87786,   0.15588,   0.68206,  -0.38654,  -0.31708,   0.36453,  -0.31653,   0.93750,   0.07610,   0.15624
  -0.76712,   0.17948,  -0.85108,   0.84654,  -0.64534,   0.53319,   0.93750,   0.43221,  -0.66598,   0.80777
  -0.05805,  -0.13632,   0.20532,  -0.93750,  -0.51566,   0.93750,  -0.21266,   0.22774,   0.60862,   0.64878
   0.10667,   0.72454,   0.14455,   0.92910,   0.12086,  -0.15875,   0.87755,  -0.00475,   0.88498,  -0.52289
  -0.14844,  -0.16456,  -0.81314,  -0.26380,  -0.50125,  -0.04336,   0.70459,  -0.45902,   0.13315,  -0.62246
  -0.46604,  -0.76274,  -0.93750,   0.00780,   0.81337,   0.64849,  -0.87008,  -0.37991,   0.37033,  -0.33523
   0.15672,  -0.68094,   0.03872,   0.43433,   0.40151,   0.43883,   0.54741,   0.51622,  -0.56516,   0.54315
  -0.82264,   0.04140,   0.82256,   0.24614,   0.63369,  -0.50270,  -0.25271,  -0.11066,  -0.26062,   0.48782
   0.69941,   0.01280,  -0.15873,  -0.91323,  -0.01149,   0.93528,  -0.12735,   0.20763,   0.08207,  -0.16840
   0.09074,  -0.37414,  -0.87783,   0.06803,   0.70085,   0.77979,   0.54598,   0.55497,  -0.74796,  -0.16274
  -0.40301,  -0.93750,  -0.93750,  -0.93750,  -0.87059,   0.93750,   0.74323,  -0.87226,   0.24702,  -0.93750
  -0.81451,  -0.93750,   0.30334,   0.58568,  -0.83205,   0.93750,  -0.80138,  -0.93750,  -0.65815,   0.43205
  -0.80847,  -0.66701,   0.49466,   0.60007,   0.35293,   0.37708,   0.57361,  -0.28300,  -0.39654,   0.49073
  -0.36967,  -0.10757,  -0.29006,  -0.73779,  -0.58471,   0.92996,  -0.72620,   0.87655,   0.01656,   0.62703
  -0.18723,   0.11548,   0.23963,  -0.29918,  -0.59996,  -0.80050,   0.51538,   0.91804,  -0.18574,  -0.41327
   0.92661,  -0.36283,  -0.18594,  -0.00814,   0.28600,  -0.37247,  -0.26363,  -0.22980,   0.32989,   0.79175
  -0.24033,   0.58095,   0.30974,   0.20293,   0.26691,   0.36350,   0.24055,  -0.05234,  -0.57425,  -0.93750
   0.43485,   0.09592,  -0.65476,   0.20658,  -0.08770,   0.03642,  -0.55717,   0.00158,  -0.15102,  -0.05506
   0.14531,   0.93750,  -0.57884,   0.50085,  -0.93750,   0.93750,   0.91089,  -0.93750,   0.43942,   0.85016
  -0.80595,   0.80891,  -0.24023,  -0.61159,   0.42497,  -0.19628,  -0.76758,  -0.05596,   0.90017,   0.71321
  -0.42289,   0.15097,  -0.53302,   0.87668,   0.07869,  -0.87099,   0.88237,   0.87837,   0.48841,  -0.93750
  -0.15768,  -0.07635,  -0.42431,  -0.80733,  -0.13055,   0.68653,   0.93750,   0.67974,  -0.24392,  -0.53396
  -0.25436,   0.09099,  -0.81647,   0.74607,  -0.28484,  -0.81081,  -0.93750,   0.17242,   0.87145,   0.00774
  -0.09842,  -0.19567,  -0.39339,  -0.45102,   0.80545,  -0.32015,   0.93750,  -0.28820,  -0.10598,  -0.43260
   0.59254,   0.16952,  -0.57524,  -0.74343,  -0.53550,   0.58265,  -0.06048,   0.85698,  -0.03157,   0.59344
  -0.20515,   0.82177,  -0.44180,   0.23665,   0.92815,   0.86199,  -0.46655,  -0.29556,  -0.52514,  -0.70607
   0.74908,   0.21277,  -0.73782,  -0.93750,   0.87478,  -0.85278,   0.75532,   0.48909,  -0.55672,  -0.80752
   0.55680,  -0.33203,  -0.62604,   0.93750,   0.29596,   0.85235,  -0.26047,  -0.52863,  -0.56751,  -0.80575
   0.93750,  -0.29522,  -0.26964,   0.93750,  -0.93750,  -0.93750,   0.77478,  -0.93750,  -0.33661,  -0.22624
   0.52219,  -0.86539,  -0.73983,  -0.38723,  -0.04881,   0.71689,  -0.11537,  -0.74776,  -0.21713,   0.73607
  -0.74423,  -0.89463,   0.69902,   0.93750,  -0.04936,   0.07332,   0.64233,   0.10838,   0.10957,   0.90919
   0.41389,   0.30046,   0.00030,  -0.19810,   0.50606,  -0.50877,  -0.09046,   0.18335,   0.16839,   0.44910
   0.31881,  -0.93750,  -0.93750,   0.93750,   0.31197,   0.87190,  -0.93750,  -0.37655,  -0.68393,   0.49408
   0.82994,  -0.27986,   0.86545,  -0.55959,   0.19611,  -0.68085,   0.16533,   0.93750,   0.18819,   0.10202
   0.44668,  -0.12724,  -0.22044,   0.11984,  -0.05853,  -0.49703,   0.93236,   0.27206,   0.13550,  -0.13037
  -0.33734,  -0.37887,  -0.06935,   0.92008,  -0.02428,  -0.47882,  -0.29022,  -0.13502,  -0.24018,   0.22338
  -0.42971,  -0.29071,   0.00468,  -0.23071,  -0.76341,  -0.83935,   0.46241,   0.91406,  -0.24623,   0.73756
  -0.13054,   0.44669,  -0.21204,  -0.44803,  -0.29314,  -0.49795,   0.05583,   0.93750,   0.71743,  -0.67491
  -0.75280,   0.93750,   0.02003,   0.56186,   0.76320,   0.26318,   0.29031,  -0.21411,  -0.76925,  -0.23634
   0.52299,   0.61229,   0.80143,   0.54632,   0.55605,  -0.09744,   0.50030,   0.79327,   0.69388,   0.87083
  -0.87122,   0.72016,   0.53540,  -0.62030,  -0.88865,  -0.80273,  -0.09209,  -0.66485,   0.35560,  -0.36817
   0.26270,  -0.74603,   0.81633,   0.75929,   0.41858,  -0.19235,   0.87654,   0.41480,  -0.20824,   0.28687
  -0.68700,   0.21511,  -0.04405,  -0.40704,   0.13610,   0.13940,   0.03108,  -0.15903,   0.87991,  -0.23361
   0.53365,  -0.47830,  -0.87195,  -0.72541,  -0.07390,   0.90404,   0.81675,  -0.55049,  -0.77678,  -0.70258
  -0.17011,  -0.72995,  -0.55649,  -0.39989,  -0.20291,  -0.59891,  -0.03573,  -0.29730,  -0.22671,   0.93672
  -0.73423,   0.75473,  -0.60661,  -0.41024,  -0.23619,  -0.38872,   0.21093,  -0.59319,  -0.61636,   0.88362
   0.28132,  -0.93750,  -0.29510,  -0.53831,   0.93750,   0.93750,  -0.01686,  -0.64592,   0.70543,   0.62191
   0.80370,   0.40158,  -0.41553,  -0.14865,  -0.68187,   0.10209,   0.17716,   0.09138,  -0.31788,  -0.11216
   0.88390,   0.55898,  -0.29082,  -0.63632,  -0.33007,   0.19862,  -0.84506,  -0.63979,   0.85649,   0.64400
   0.51519,  -0.93750,  -0.90523,  -0.93750,   0.73289,   0.93750,  -0.75299,  -0.35427,  -0.09221,   0.80464
   0.31408,   0.12430,  -0.01161,  -0.02640,   0.06133,   0.38177,  -0.16390,  -0.03959,  -0.04858,  -0.11195
   0.09368,   0.13067,  -0.20792,  -0.56827,  -0.61910,   0.92350,   0.81385,   0.77428,   0.38211,  -0.19207
   0.88312,  -0.51249,   0.90410,  -0.28511,  -0.23281,  -0.31080,   0.11835,   0.50243,   0.69931,  -0.25721
  -0.62720,   0.83047,   0.93750,   0.93750,   0.70601,   0.29686,  -0.43663,  -0.57168,   0.87444,  -0.33815
   0.34261,  -0.73035,   0.86655,  -0.59390,   0.92203,  -0.04974,   0.34868,   0.80742,   0.36522,   0.60327
  -0.18473,  -0.16924,   0.93750,  -0.82612,   0.05870,  -0.58755,  -0.60980,   0.33727,  -0.65625,   0.52034
  -0.52878,   0.27166,   0.43255,  -0.12940,   0.20251,   0.17875,  -0.14014,   0.04763,  -0.59906,   0.77570
   0.37657,   0.09278,  -0.52528,  -0.65731,  -0.69995,   0.87572,  -0.10383,  -0.77665,  -0.05164,   0.16345
   0.67966,   0.17134,   0.71616,  -0.12983,   0.93750,   0.54297,  -0.86972,   0.91578,  -0.19741,  -0.75910
   0.04782,   0.51169,  -0.39692,   0.22053,   0.74522,   0.87706,  -0.70423,  -0.27424,  -0.71856,   0.62903
  -0.93750,   0.00165,  -0.06536,  -0.58709,  -0.93750,  -0.16694,  -0.93750,   0.22214,  -0.93750,  -0.63845
   0.87813,  -0.44167,   0.78461,  -0.45542,  -0.81357,   0.61793,  -0.02406,   0.04323,  -0.26013,  -0.79596
   0.28960,  -0.15718,   0.30304,   0.73666,  -0.55966,  -0.48185,   0.24533,   0.63524,   0.31559,   0.52035
   0.02279,  -0.59282,   0.47594,   0.51523,   0.02197,  -0.23037,   0.25963,  -0.69650,   0.05321,  -0.68798
  -0.82016,  -0.76202,  -0.81151,  -0.43030,  -0.34314,   0.85790,   0.22194,   0.06837,   0.42945,   0.78993
  -0.36551,  -0.93750,  -0.17813,   0.51696,  -0.91928,  -0.93750,  -0.87240,   0.93750,  -0.56198,   0.72596
   0.59284,  -0.02554,  -0.88093,   0.01842,  -0.82600,   0.88210,  -0.06465,   0.83384,  -0.86788,   0.70684
  -0.87435,  -0.93750,   0.06984,  -0.05954,   0.76779,  -0.84530,  -0.58959,   0.61200,   0.11062,   0.50154
   0.01374,   0.17788,   0.76525,   0.23096,   0.34759,  -0.08202,  -0.70045,  -0.28994,  -0.04909,   0.60449
   0.51002,  -0.93750,   0.90504,   0.69000,   0.87549,   0.75571,  -0.56816,  -0.71413,  -0.30787,  -0.87210
  -0.10073,   0.93750,  -0.59507,   0.44003,  -0.04257,  -0.29819,  -0.36443,  -0.61278,  -0.30580,  -0.44183
   0.53994,   0.28540,   0.78555,   0.93750,  -0.80283,  -0.70953,  -0.87043,   0.07542,  -0.02791,   0.09253
  -0.29410,  -0.87950,  -0.04029,   0.04879,  -0.35078,   0.80147,  -0.74938,   0.93750,   0.44277,  -0.01672
   0.75232,  -0.27887,  -0.69011,  -0.19827,  -0.61053,   0.07739,  -0.17164,  -0.37851,  -0.23130,   0.88065
  -0.73406,   0.40772,  -0.69568,  -0.35980,  -0.76682,   0.80120,   0.21224,   0.20206,   0.93055,  -0.36617
  -0.62923,  -0.93750,  -0.44776,  -0.11189,   0.93750,   0.76479,   0.59681,  -0.82945,  -0.74232,  -0.17754
   0.87812,  -0.20678,  -0.82919,   0.90425,   0.55028,  -0.07422,  -0.24492,   0.73368,   0.65458,  -0.04423
   0.25141,   0.74752,   0.73769,   0.37863,  -0.13180,   0.74266,  -0.11685,  -0.03690,  -0.93750,  -0.75019
   0.54730,   0.88890,   0.56592,  -0.38238,   0.34419,   0.31685,   0.25943,  -0.79981,  -0.17588,  -0.52763
