  -0.29652,  -0.49185,   0.19029,  -0.38273,   0.47542,   0.15365,  -0.26171,  -0.52396,  -0.41675,  -0.21937,  -0.57427,  -0.23406,  -0.46377,   0.21554,   0.76448,   0.47166,   0.33063,   0.88788,  -0.35630,  -0.59684,   0.55798,   0.59376,   0.84116,  -0.77420,  -0.68407,   0.04060,  -0.71503,  -0.11311,   0.58624,   0.62102,   0.66163,   0.33454,  -0.51468,   0.70709,  -0.50041,   0.48823,   0.36983,   0.59248,  -0.10212,  -0.05193,   0.64578,   0.73554,  -0.61916,   0.33737,  -0.77475,   0.33424,   0.76302,   0.76306,  -0.54031,  -0.22125,   0.39817,   0.11575,   0.62388,  -0.65162,   0.52343,   0.17293,  -0.53779,   0.75967,   0.27155,   0.23356,   0.38463,   0.40919,  -0.58265,   0.21794,   0.32774,  -0.30126,   0.39748,   0.52242,   0.28237,   0.38656,   0.31479,   0.89487,  -0.64775,   0.20544,   0.29297,   0.86991,   0.65779,  -0.49423,   0.07375,   0.65150,  -0.29972,   0.60334,  -0.03403,   0.06055,  -0.08690,  -0.55445,   0.74114,  -0.44324,   0.74287,  -0.39977,  -0.54897,  -0.68374,  -0.50825,   0.08955,  -0.63553,   0.53575,  -0.36913,  -0.21951,   0.07511,  -0.39299,   0.61120,   0.48473,  -0.61079,   0.62736,   0.79184,  -0.43672,  -0.44636,  -0.85056,   0.62521,  -0.69466,   0.13495,  -0.64420,   0.06147,  -0.22475,   0.00568,  -0.28654,   0.67466,   0.44559,  -0.17490,  -0.42490,   0.54511,   0.04717,  -0.42027,  -0.67405,  -0.83844,   0.15359,   0.45442,   0.87893
  -0.38203,   0.57158,   0.22530,  -0.56673,  -0.09486,   0.25054,  -0.64947,  -0.54487,  -0.20012,  -0.29887,  -0.52076,  -0.42874,   0.62853,  -0.54646,  -0.72091,   0.01884,   0.65070,   0.58258,  -0.64773,   0.23063,  -0.62223,   0.68121,  -0.68510,  -0.47474,  -0.09456,   0.23617,  -0.48137,  -0.48970,  -0.62359,   0.67323,  -0.61465,   0.55915,   0.80728,   0.00330,   0.42188,   0.69047,   0.74396,   0.01850,   0.54485,  -0.83081,   0.70561,   0.25234,   0.64195,  -0.19557,  -0.06059,  -0.50597,   0.60789,   0.59278,  -0.46820,   0.72734,   0.41997,  -0.07879,   0.34624,  -0.34246,  -0.17521,   0.69467,   0.79715,   0.39983,   0.81119,   0.54920,   0.37379,   0.25854,  -0.30088,  -0.16891,  -0.62502,  -0.45580,   0.04357,   0.07430,   0.04437,  -0.12255,  -0.40741,  -0.37690,   0.10537,  -0.11478,  -0.15997,   0.68833,   0.10730,  -0.73413,   0.25822,  -0.22029,  -0.77313,   0.39323,  -0.38030,   0.58643,  -0.55716,  -0.66809,  -0.01321,   0.35624,  -0.35943,  -0.68590,   0.07263,   0.03425,  -0.54774,   0.38127,  -0.56808,  -0.42812,   0.04209,   0.33993,  -0.63478,  -0.78602,   0.30400,  -0.33358,  -0.19001,  -0.55857,   0.61685,   0.91281,   0.12083,  -0.68832,   0.06232,  -0.36620,   0.84668,  -0.79263,   0.67210,   0.87450,  -0.65588,  -0.47629,  -0.34315,  -0.33072,  -0.05582,   0.77283,   0.39036,   0.06432,  -0.17567,   0.17897,   0.57600,   0.63874,   0.49897,  -0.09449
  -0.36967,  -0.67783,   0.68352,   0.52409,   0.64090,   0.04008,  -0.54810,   0.40017,  -0.61005,  -0.50895,   0.02364,   0.79283,   0.65972,  -0.30254,   0.14226,   0.43214,  -0.07583,  -0.46019,   0.84003,  -0.37291,  -0.67193,  -0.55717,  -0.63789,   0.71143,   0.54117,   0.25503,   0.05281,  -0.06464,  -0.70093,  -0.31158,   0.57822,  -0.04070,   0.31212,  -0.13644,   0.72503,   0.36116,  -0.21529,   0.51864,   0.28109,  -0.69293,  -0.54269,   0.51933,  -0.23453,  -0.76634,   0.06743,  -0.57072,   0.25092,  -0.89605,   0.41747,   0.26941,  -0.21981,  -0.50013,   0.35478,   0.62915,  -0.33389,   0.68321,   0.17700,  -0.43227,   0.75605,  -0.50229,   0.46502,   0.39927,  -0.41058,  -0.70326,  -0.59424,  -0.34183,  -0.58422,  -0.31633,  -0.60064,   0.79067,   0.55580,  -0.70141,   0.43179,   0.10670,   0.39367,  -0.59159,  -0.63000,  -0.43534,   0.75102,   0.07023,  -0.48640,   0.06048,   0.57455,  -0.41591,  -0.55796,  -0.43268,  -0.60884,   0.70240,   0.26519,   0.69670,   0.56480,  -0.43599,   0.28920,   0.11310,  -0.37011,   0.60183,   0.69500,   0.58521,  -0.45872,   0.61561,  -0.68745,   0.60032,   0.43394,  -0.19590,  -0.44321,  -0.07463,  -0.55777,   0.47985,  -0.63290,  -0.11105,   0.70296,  -0.29046,   0.49992,   0.07202,   0.46794,  -0.83739,   0.81307,   0.27697,   0.74417,  -0.00383,  -0.88541,  -0.55454,  -0.52968,   0.11817,  -0.57480,   0.65092,  -0.49405,  -0.16835
  -0.69492,  -0.47560,  -0.50266,   0.32083,  -0.62429,  -0.58177,   0.67692,  -0.68686,  -0.35799,   0.76471,  -0.69603,   0.18173,   0.37722,   0.64031,  -0.29404,  -0.72003,  -0.52375,   0.11628,  -0.67837,  -0.54780,   0.08090,  -0.86772,  -0.62839,   0.19544,  -0.24727,  -0.21504,  -0.65399,   0.21753,  -0.55248,  -0.24395,   0.40587,  -0.37866,   0.38702,   0.80867,  -0.49617,  -0.03495,   0.30851,  -0.42467,  -0.14363,  -0.30287,  -0.75161,  -0.22786,  -0.81206,  -0.32533,  -0.80642,   0.66430,   0.14211,   0.70389,  -0.65950,   0.36163,  -0.79338,  -0.53916,   0.66927,   0.30291,  -0.19558,  -0.28470,   0.13222,   0.52865,  -0.41848,   0.52975,  -0.09764,  -0.10350,  -0.27608,   0.72027,   0.71732,  -0.34637,   0.20145,  -0.60911,   0.35200,  -0.27546,   0.83037,   0.51383,   0.93750,   0.01153,   0.26628,   0.76169,   0.90735,  -0.09160,  -0.55789,   0.67346,   0.44568,   0.49255,  -0.61547,   0.41715,   0.73293,  -0.79486,   0.56380,   0.25063,  -0.33924,   0.80016,  -0.68290,  -0.22038,  -0.32051,  -0.83740,   0.66438,  -0.47888,  -0.64611,   0.56582,  -0.35914,  -0.25374,   0.03573,  -0.43204,  -0.25465,  -0.61830,  -0.36405,  -0.29536,  -0.53439,  -0.37894,   0.17312,  -0.07946,   0.46129,   0.64297,  -0.08696,  -0.77231,   0.41945,   0.48471,  -0.03654,   0.79038,  -0.38837,  -0.04436,   0.77650,   0.58415,  -0.68658,  -0.00669,   0.39201,  -0.66747,  -0.13813,   0.71530
  -0.45385,  -0.38993,   0.46700,  -0.08999,   0.58369,   0.02141,  -0.02901,   0.80630,  -0.77513,   0.00918,   0.07557,   0.51983,   0.24876,  -0.49609,  -0.60220,   0.04038,  -0.38327,  -0.11917,   0.07774,  -0.11871,  -0.62505,   0.27047,  -0.75729,   0.56055,   0.69847,   0.43899,  -0.38484,  -0.66705,  -0.76955,  -0.48548,   0.00620,   0.64197,   0.80838,   0.48058,   0.49634,  -0.50086,   0.84042,  -0.28587,  -0.29473,  -0.54959,   0.27854,  -0.36713,   0.09173,  -0.09999,  -0.72225,   0.72501,   0.76224,  -0.01708,  -0.46053,   0.35347,  -0.15317,   0.43967,  -0.49312,   0.68197,  -0.41389,  -0.51937,   0.48035,  -0.64983,  -0.64996,  -0.35721,   0.01373,   0.39664,  -0.45730,   0.52141,  -0.51227,  -0.33281,   0.72691,   0.12774,  -0.45022,  -0.61296,   0.20292,   0.04680,   0.82365,  -0.49488,   0.32082,  -0.37083,   0.68833,  -0.66938,   0.73214,  -0.70790,  -0.61825,   0.60379,  -0.52796,   0.23532,  -0.12895,   0.46774,   0.25170,   0.23661,  -0.53948,   0.88283,  -0.73557,   0.44311,   0.68441,  -0.41413,  -0.18758,  -0.45569,   0.22045,   0.80128,   0.15026,  -0.64310,   0.58065,   0.32126,   0.87793,  -0.62266,  -0.39839,  -0.21024,   0.53825,  -0.33312,   0.13696,   0.16649,  -0.27345,   0.69952,  -0.06924,  -0.28957,   0.17970,   0.57538,   0.43058,  -0.05174,  -0.13235,   0.64396,  -0.64410,  -0.70704,  -0.12558,  -0.56106,   0.15933,  -0.48479,  -0.32608,  -0.54583
   0.16999,   0.73737,   0.39146,   0.22310,  -0.42080,   0.29718,  -0.22381,  -0.29871,   0.28653,  -0.43714,  -0.10768,   0.52319,  -0.44697,  -0.53127,  -0.77730,  -0.01442,   0.08792,   0.68137,   0.20861,   0.44885,   0.15043,  -0.24820,   0.59200,  -0.51994,   0.28533,   0.08639,   0.60347,  -0.74082,  -0.71017,  -0.19426,   0.78735,  -0.22043,  -0.26173,  -0.41562,  -0.21503,   0.06339,   0.37319,   0.72582,   0.27640,  -0.82802,   0.70895,   0.51047,   0.53902,   0.73991,   0.23081,  -0.28161,  -0.50671,   0.20472,  -0.24063,   0.39906,  -0.14281,   0.57948,  -0.77214,   0.85940,  -0.55117,  -0.08545,  -0.31826,  -0.11385,   0.71718,  -0.60384,   0.21923,   0.68652,   0.66586,   0.39719,  -0.50084,   0.08611,   0.30903,  -0.22395,  -0.18180,   0.52390,   0.19000,  -0.49515,   0.34375,   0.22565,  -0.17156,  -0.77153,  -0.29535,  -0.05468,   0.65540,  -0.77057,  -0.58603,  -0.61811,   0.55118,  -0.44049,  -0.43632,   0.58605,  -0.69797,   0.32547,  -0.75104,  -0.58387,   0.27243,   0.57693,   0.85122,  -0.01148,   0.23200,   0.80095,   0.14122,  -0.50579,   0.58554,   0.44889,  -0.49609,  -0.10260,  -0.05223,   0.79731,   0.03828,   0.06748,  -0.06277,  -0.35878,   0.07711,   0.28362,  -0.42129,   0.67467,   0.41988,   0.34890,  -0.00298,  -0.11310,  -0.61401,  -0.09942,  -0.52849,   0.08181,   0.05790,  -0.74446,   0.60114,   0.70118,  -0.55949,   0.55212,  -0.60028,  -0.53993
  -0.55480,  -0.88161,  -0.43767,   0.66045,  -0.50506,  -0.64535,   0.30647,  -0.25895,  -0.29574,   0.23802,  -0.52886,  -0.23042,   0.43859,   0.64516,  -0.24548,  -0.47188,   0.35201,  -0.87868,  -0.62821,   0.74042,   0.07108,  -0.63596,   0.47359,   0.56727,  -0.34453,  -0.46902,   0.74305,   0.40419,   0.15645,   0.72685,   0.56169,  -0.17904,  -0.44088,   0.22799,   0.89550,  -0.67065,  -0.02772,  -0.28841,  -0.33535,   0.71456,  -0.19044,   0.27828,  -0.32223,   0.77751,   0.31440,  -0.06155,  -0.53390,   0.65785,  -0.41443,  -0.71586,  -0.46843,  -0.59621,   0.63315,   0.60313,   0.71286,  -0.43180,   0.76280,   0.44446,   0.79204,   0.16392,  -0.49494,  -0.49518,  -0.62482,   0.38842,   0.27939,   0.72351,  -0.43183,   0.65799,   0.83012,  -0.76474,  -0.39030,   0.78806,  -0.10937,  -0.70853,  -0.44549,   0.13545,  -0.77950,   0.31823,  -0.68019,  -0.02520,   0.80716,   0.07319,  -0.86110,  -0.06684,   0.50781,  -0.61648,  -0.59836,   0.06062,  -0.37507,   0.75197,  -0.45858,  -0.61199,   0.37962,  -0.22299,  -0.35374,  -0.09835,  -0.66896,  -0.47620,   0.57914,   0.41113,   0.65403,  -0.68966,  -0.65329,   0.17803,   0.77732,  -0.24124,  -0.27166,   0.49659,   0.34870,  -0.40988,  -0.44230,   0.70122,   0.21770,  -0.79284,  -0.11334,   0.23608,  -0.52330,  -0.30599,  -0.68549,  -0.75931,   0.39248,   0.12378,  -0.65645,   0.52787,   0.01497,  -0.82682,  -0.03539,  -0.44537
  -0.54744,  -0.38440,  -0.40564,   0.02991,  -0.89295,  -0.31104,   0.14437,   0.49862,   0.89400,   0.33848,  -0.35011,  -0.38185,   0.52826,  -0.23259,   0.39819,  -0.63035,   0.62239,  -0.46967,   0.22046,   0.81387,   0.71595,  -0.30140,  -0.05427,  -0.44329,   0.58234,  -0.75437,  -0.18931,  -0.08100,  -0.43294,  -0.56966,  -0.53374,  -0.68437,   0.21623,  -0.47938,  -0.46320,   0.08273,  -0.39362,   0.48353,  -0.37623,  -0.61265,   0.68892,  -0.62835,  -0.10913,  -0.00111,   0.54660,  -0.60535,  -0.81219,  -0.25008,   0.75859,   0.57330,  -0.43289,  -0.73662,   0.80513,  -0.52852,  -0.64161,   0.20223,  -0.58383,   0.24355,   0.93433,  -0.52706,  -0.69324,  -0.38399,   0.79231,   0.20378,  -0.63079,   0.32927,   0.19487,   0.61122,   0.68223,  -0.71982,  -0.26878,   0.32035,   0.32757,  -0.47605,  -0.43026,  -0.43882,   0.49959,  -0.28377,  -0.46457,  -0.10389,   0.66379,  -0.60181,  -0.69935,   0.52791,   0.00658,  -0.39565,  -0.62500,   0.09568,  -0.51875,   0.59054,  -0.74504,  -0.70005,   0.30277,  -0.26608,   0.76218,  -0.23402,  -0.34576,  -0.91426,   0.28585,   0.18731,  -0.38565,   0.05348,   0.50534,  -0.20662,  -0.02883,  -0.35859,  -0.34564,   0.77740,  -0.03665,   0.56761,   0.02279,   0.73856,  -0.74665,  -0.56646,  -0.64079,   0.66255,  -0.61439,  -0.37556,  -0.24037,   0.15719,  -0.39067,   0.69276,   0.02423,   0.70173,  -0.12596,  -0.39589,  -0.03161,   0.38961
  -0.13513,   0.28434,  -0.05205,   0.71512,  -0.23677,  -0.32746,   0.53023,   0.86961,  -0.16914,   0.44263,   0.66409,   0.47271,  -0.66229,   0.86837,   0.72331,   0.76682,   0.50915,   0.45030,   0.53035,  -0.26937,  -0.27568,  -0.26013,  -0.29351,  -0.65281,  -0.60577,  -0.19236,   0.51422,   0.43454,   0.22393,  -0.48298,  -0.54781,  -0.31460,  -0.25555,  -0.47692,   0.42494,  -0.02656,  -0.40577,   0.46169,  -0.17359,  -0.26111,  -0.10337,  -0.29962,  -0.32932,   0.43310,   0.00422,  -0.57018,  -0.32068,   0.62000,   0.68968,  -0.46085,   0.84161,  -0.50186,  -0.61781,   0.09995,  -0.64072,  -0.65631,   0.70592,  -0.04236,  -0.20281,  -0.70379,  -0.13830,   0.26817,   0.93750,   0.27889,   0.57676,   0.82122,  -0.11853,  -0.26385,  -0.31491,  -0.54509,  -0.91730,  -0.34931,  -0.09546,  -0.08085,  -0.44837,  -0.38453,  -0.35588,   0.72232,   0.34665,   0.29029,   0.75983,  -0.59618,  -0.33424,   0.17073,   0.10614,   0.35968,  -0.59464,   0.39663,  -0.75981,   0.69119,   0.02985,   0.08342,   0.55972,  -0.12824,   0.16273,  -0.66255,   0.02376,  -0.56344,   0.36665,   0.52240,  -0.04877,  -0.19219,   0.55893,  -0.36828,   0.30247,  -0.51853,   0.82521,   0.92413,  -0.31627,   0.75018,  -0.70988,  -0.44714,  -0.12935,   0.62392,  -0.21102,  -0.10358,  -0.75379,  -0.55053,   0.34138,   0.02622,  -0.40040,  -0.50340,   0.81352,  -0.10246,   0.15648,  -0.59447,   0.62245,  -0.41829
   0.60998,   0.73569,   0.39999,  -0.58609,   0.62839,   0.69844,  -0.00778,  -0.57868,   0.89446,   0.31282,  -0.32875,  -0.68948,  -0.28200,   0.33116,  -0.63563,   0.55243,   0.32736,   0.28852,  -0.58260,   0.22145,  -0.30130,  -0.45617,   0.19132,  -0.71595,  -0.64159,   0.36324,  -0.68399,  -0.24432,   0.12507,  -0.26461,  -0.70852,   0.38706,  -0.42075,  -0.05705,   0.36882,   0.22153,   0.60267,  -0.62732,   0.54961,  -0.22179,   0.60591,   0.38945,   0.70094,   0.32373,  -0.56012,   0.88615,  -0.07746,   0.17565,   0.37131,   0.54314,   0.54909,   0.33411,  -0.12604,  -0.51381,   0.61277,   0.09588,  -0.33180,   0.73020,  -0.51613,   0.58331,  -0.32056,  -0.70553,  -0.11398,  -0.12796,   0.14076,  -0.76584,   0.50062,  -0.13260,   0.60261,   0.59298,  -0.86263,   0.69630,   0.83168,  -0.19264,   0.14182,   0.16577,   0.74222,  -0.27924,  -0.41423,  -0.35218,  -0.76636,   0.47479,   0.81057,   0.24885,  -0.20225,  -0.38717,   0.49876,   0.50126,   0.73151,  -0.66100,   0.34662,   0.82353,  -0.72264,   0.01120,   0.05641,   0.00780,  -0.41644,  -0.16974,  -0.55390,  -0.60494,  -0.46518,  -0.28439,  -0.64178,  -0.60309,   0.05007,  -0.21915,  -0.18966,   0.30737,   0.32373,  -0.74481,   0.17219,  -0.80136,   0.47017,  -0.55740,  -0.14106,   0.43509,   0.73305,  -0.43463,  -0.36599,  -0.63845,  -0.03674,   0.27943,  -0.14577,  -0.27605,  -0.49978,   0.53499,  -0.58932,  -0.11386
   0.40922,   0.53382,  -0.12067,   0.29612,   0.45395,   0.21950,  -0.50300,  -0.04736,   0.72879,  -0.56915,  -0.44740,   0.45248,   0.55255,  -0.24761,  -0.70506,   0.14735,  -0.54159,  -0.91462,   0.87815,   0.53388,   0.50875,   0.72283,  -0.56977,   0.31147,   0.61393,   0.55107,  -0.63321,  -0.62042,  -0.45022,  -0.31446,   0.01180,   0.42416,  -0.13590,  -0.13835,   0.25269,   0.05536,  -0.46048,  -0.18451,  -0.40960,  -0.54000,   0.78201,   0.03177,   0.49913,   0.10917,  -0.75488,  -0.48843,  -0.36303,  -0.30017,   0.52220,  -0.46691,  -0.13848,  -0.05801,   0.54154,  -0.23204,   0.28199,   0.70241,   0.11914,   0.12303,  -0.39081,  -0.00860,  -0.11007,   0.69843,   0.00868,  -0.32413,   0.02147,  -0.46593,  -0.61181,   0.72111,  -0.27204,   0.53113,  -0.29159,  -0.69110,   0.08611,   0.87451,   0.02623,  -0.35668,  -0.35332,   0.30083,   0.48441,  -0.01465,  -0.66190,   0.36815,  -0.55028,  -0.55507,  -0.55908,   0.87735,  -0.75776,   0.77254,   0.22828,   0.11955,   0.15090,  -0.15175,  -0.25313,   0.70745,   0.48826,   0.63736,  -0.45992,   0.33436,  -0.75424,   0.02549,  -0.40310,   0.45374,  -0.44507,   0.69313,   0.50573,  -0.30865,  -0.49527,   0.15298,  -0.48169,  -0.01337,   0.38601,  -0.71463,   0.32593,   0.78621,  -0.12813,  -0.48833,   0.53903,   0.56487,   0.31084,   0.73713,  -0.48455,  -0.35738,  -0.25350,  -0.67834,  -0.34335,   0.46199,   0.30388,   0.70325
   0.81219,   0.46341,   0.55288,  -0.55608,   0.36683,  -0.16694,  -0.50172,  -0.12542,  -0.58341,  -0.59756,   0.21001,  -0.55057,   0.90722,  -0.35112,  -0.23922,  -0.79466,  -0.63861,  -0.39053,  -0.27936,   0.27158,  -0.72632,   0.52878,   0.46908,  -0.53385,   0.57533,   0.49584,  -0.40749,  -0.76275,  -0.30289,  -0.74558,   0.34603,   0.29105,   0.16175,   0.51792,  -0.84149,   0.38660,   0.64538,   0.19716,   0.77499,   0.86615,  -0.02558,  -0.20105,   0.65938,  -0.61409,  -0.64878,   0.32245,   0.85225,  -0.65850,   0.16939,  -0.28878,  -0.39895,   0.71098,  -0.53916,   0.25780,   0.00078,   0.06742,  -0.42602,   0.72371,   0.34710,  -0.53325,   0.18020,   0.87695,  -0.07971,  -0.66346,   0.33902,   0.41217,  -0.74732,  -0.26051,  -0.52302,   0.68886,  -0.34986,  -0.48189,   0.73341,   0.73220,   0.36083,  -0.03544,   0.42252,  -0.01437,   0.71932,  -0.65492,   0.14667,  -0.22037,   0.05323,  -0.38696,  -0.49941,   0.67111,  -0.11829,   0.47712,   0.36836,   0.07470,   0.92917,   0.10515,   0.54289,   0.67110,  -0.76421,   0.22691,   0.78585,  -0.31244,  -0.42186,   0.49201,  -0.44105,  -0.60098,   0.81124,   0.93034,  -0.06063,  -0.49433,  -0.33543,  -0.45028,  -0.77993,   0.01891,   0.25819,   0.30101,   0.56516,  -0.25179,   0.66679,  -0.41582,   0.16332,   0.66246,   0.43248,  -0.44302,  -0.81154,  -0.18895,   0.65356,  -0.21805,   0.63310,   0.57159,  -0.80194,  -0.44263
  -0.52886,   0.49371,  -0.55177,  -0.75702,  -0.54278,  -0.29955,   0.54413,   0.02430,  -0.19411,  -0.09268,  -0.84163,   0.50017,  -0.38506,   0.59250,   0.68807,   0.04427,   0.42605,   0.61920,  -0.75403,  -0.71433,  -0.03846,  -0.04392,   0.22099,  -0.58538,   0.09622,  -0.44431,  -0.57622,   0.67040,  -0.58641,   0.30147,   0.52505,   0.11598,   0.32945,   0.31058,   0.89131,  -0.43774,   0.00351,  -0.52423,  -0.64936,  -0.25804,  -0.22907,  -0.03215,  -0.86737,   0.42308,  -0.66543,   0.59501,   0.03675,   0.81098,   0.06593,   0.26565,  -0.57819,   0.71204,   0.36186,  -0.56717,  -0.39426,   0.15924,   0.59442,  -0.28158,  -0.06075,  -0.10916,   0.40795,  -0.60861,  -0.58313,   0.34908,   0.62078,  -0.63205,  -0.11196,  -0.37998,   0.16995,  -0.48417,   0.43804,   0.10789,   0.58388,   0.17067,   0.08396,   0.87131,  -0.53364,  -0.68711,  -0.81429,   0.66583,  -0.76085,   0.58172,   0.44117,   0.67992,   0.39180,  -0.30235,  -0.53359,   0.38001,   0.65005,  -0.16317,  -0.19903,  -0.56620,  -0.52973,  -0.43958,   0.11344,  -0.18128,  -0.56748,   0.30016,  -0.28700,   0.69108,   0.51919,  -0.37914,  -0.36665,   0.72261,  -0.46026,  -0.64648,  -0.62946,  -0.64768,   0.37905,  -0.19364,   0.02375,   0.11136,   0.65866,  -0.64796,  -0.16007,   0.09355,   0.47965,   0.48754,  -0.28909,   0.05892,   0.02356,   0.80148,  -0.80844,  -0.19551,   0.75877,  -0.59681,   0.29224,   0.74806
  -0.49019,   0.85825,   0.48402,  -0.54913,  -0.68969,  -0.32700,  -0.40207,  -0.07033,   0.83836,  -0.01088,  -0.89222,  -0.19114,   0.54360,  -0.41971,   0.38568,   0.69599,  -0.16378,   0.10009,   0.04724,  -0.21331,  -0.59639,   0.54715,  -0.03453,  -0.03780,   0.51504,   0.05811,   0.28130,  -0.19360,  -0.70629,  -0.66748,   0.14382,  -0.71258,  -0.32334,   0.34614,  -0.06382,  -0.17225,  -0.41620,  -0.06633,  -0.45600,  -0.88587,  -0.56447,   0.50013,  -0.47016,   0.51576,  -0.83747,  -0.70592,  -0.50516,  -0.34991,   0.07491,  -0.29598,  -0.41286,   0.64115,  -0.34110,   0.04285,   0.16924,  -0.58385,   0.12616,   0.15961,  -0.55791,   0.31328,  -0.16521,  -0.41999,   0.06513,   0.02402,   0.22387,  -0.71207,  -0.09146,   0.57496,  -0.45665,   0.60006,  -0.18043,  -0.45649,  -0.40552,  -0.38594,  -0.15580,  -0.60193,   0.52496,  -0.16761,  -0.20842,  -0.40419,  -0.13269,   0.22929,   0.12894,   0.79943,  -0.43828,   0.45934,  -0.19250,   0.65364,   0.48354,  -0.24244,  -0.12100,  -0.61028,   0.51516,  -0.54483,   0.79095,  -0.42532,   0.12133,  -0.14022,   0.16191,   0.71052,  -0.27397,   0.43550,   0.71190,   0.26564,   0.04987,   0.21588,  -0.48577,  -0.44505,  -0.07946,  -0.14765,   0.12239,  -0.49931,  -0.61884,  -0.32148,   0.12163,  -0.39248,  -0.29200,   0.58422,  -0.61074,  -0.55238,  -0.73783,   0.65922,  -0.05260,  -0.72209,  -0.33339,  -0.43387,  -0.16860,  -0.78009
  -0.07917,   0.54605,  -0.14105,  -0.28847,  -0.01855,   0.58699,  -0.04140,  -0.18579,   0.45904,  -0.46681,  -0.36976,  -0.00707,  -0.16072,  -0.18034,  -0.63693,   0.71402,  -0.05498,   0.70816,   0.00778,   0.83265,  -0.68032,  -0.43339,   0.42988,   0.43481,  -0.34123,  -0.26613,   0.19924,  -0.48502,  -0.92572,  -0.66239,  -0.58437,  -0.29222,   0.06690,  -0.56466,  -0.01111,   0.32241,  -0.23863,   0.17394,  -0.27695,  -0.84034,  -0.53184,  -0.58146,   0.37062,   0.32427,   0.77810,   0.42679,  -0.51808,  -0.77476,  -0.18721,   0.71315,   0.65542,  -0.64007,  -0.16510,   0.61843,  -0.30917,   0.28863,   0.66536,  -0.52004,   0.76879,  -0.83623,  -0.48698,  -0.12472,   0.52419,  -0.47015,   0.71520,   0.08792,   0.59192,  -0.18764,  -0.52596,   0.89056,   0.17540,   0.02068,  -0.03856,  -0.46980,  -0.22906,  -0.63097,  -0.24521,   0.03603,   0.66314,   0.41239,  -0.61939,  -0.65226,   0.24593,  -0.66244,  -0.03119,  -0.02756,  -0.44705,  -0.86026,  -0.61227,   0.61716,   0.07642,   0.11780,   0.54803,  -0.46605,  -0.71838,  -0.31742,   0.25205,   0.38415,   0.70628,  -0.04537,  -0.38057,   0.76394,   0.57307,  -0.56561,   0.54971,   0.64330,   0.86483,   0.07401,   0.15750,   0.67267,   0.60251,   0.24117,  -0.45856,   0.38421,   0.27496,  -0.58369,  -0.75276,   0.00937,   0.76797,  -0.10698,   0.46105,  -0.81824,   0.52252,  -0.29533,   0.88588,   0.65119,  -0.49717,   0.45898
  -0.67760,  -0.68729,  -0.64619,   0.83271,  -0.45929,  -0.18661,   0.28228,  -0.29252,   0.35271,   0.16289,  -0.66923,  -0.00321,   0.40825,   0.61376,  -0.66750,   0.24997,   0.03516,   0.60130,   0.04692,   0.60335,   0.76960,  -0.70097,  -0.49164,   0.87242,   0.29298,  -0.47891,   0.61378,   0.49083,  -0.14146,   0.63275,  -0.65720,  -0.34079,  -0.11749,   0.57091,  -0.70032,  -0.46068,   0.13077,  -0.35438,  -0.49065,   0.29297,   0.40969,  -0.38805,   0.18950,  -0.48705,  -0.67311,  -0.52467,  -0.68619,   0.24128,  -0.56434,  -0.71508,  -0.39119,  -0.16960,   0.88406,  -0.40627,   0.80433,   0.04445,  -0.59294,  -0.72485,  -0.10308,   0.70509,  -0.61517,  -0.78490,  -0.40892,  -0.46056,   0.40337,   0.41922,  -0.54516,  -0.07254,   0.38683,  -0.91391,  -0.38452,   0.24308,   0.80190,  -0.55389,  -0.20429,   0.69005,  -0.71837,  -0.25686,  -0.41578,   0.77473,   0.46945,  -0.25065,  -0.88281,  -0.31991,   0.24162,  -0.55075,  -0.09934,   0.52900,   0.71428,   0.52194,  -0.11070,  -0.30746,  -0.61758,  -0.63890,  -0.23221,  -0.67182,  -0.67544,  -0.57210,   0.61402,   0.38529,   0.78332,  -0.82082,   0.16476,  -0.72551,  -0.18689,   0.53020,  -0.05916,  -0.71038,   0.56016,  -0.06977,   0.00766,   0.24099,  -0.24651,  -0.27350,  -0.37194,   0.68020,  -0.08443,  -0.14532,  -0.77402,  -0.11597,   0.85272,   0.55043,  -0.51142,   0.35693,   0.46050,  -0.70081,  -0.17518,   0.09327
  -0.62996,   0.29691,  -0.51461,   0.08123,  -0.53014,  -0.22849,  -0.01702,  -0.51560,  -0.43015,   0.48575,  -0.13967,   0.42730,   0.67646,  -0.33342,  -0.20920,  -0.63019,   0.46382,  -0.52475,  -0.41211,   0.46551,   0.09523,   0.35422,  -0.49286,   0.14770,  -0.16673,  -0.49986,   0.85574,  -0.56474,  -0.40632,   0.53460,   0.02967,  -0.38916,   0.27211,  -0.32497,   0.24442,  -0.42894,  -0.51084,  -0.21515,  -0.31353,  -0.53234,   0.78071,  -0.39726,   0.54635,  -0.39235,   0.15377,  -0.74987,  -0.38618,   0.39209,   0.18326,  -0.74127,   0.10890,  -0.36327,  -0.30584,   0.17112,   0.29996,  -0.77803,  -0.73683,   0.34244,  -0.41539,   0.58594,  -0.38595,  -0.22333,   0.73811,   0.26118,  -0.35439,  -0.18679,  -0.34149,   0.30125,  -0.63039,  -0.18324,   0.25800,   0.11358,  -0.31780,  -0.54136,  -0.64147,  -0.04340,  -0.27369,   0.81615,  -0.41062,  -0.13073,  -0.40040,  -0.61607,  -0.65095,   0.61173,   0.48040,   0.37720,  -0.61759,   0.07625,  -0.34259,  -0.52093,  -0.42963,   0.00951,  -0.41022,  -0.27918,   0.84959,  -0.59265,   0.35718,  -0.28797,   0.40689,  -0.10948,  -0.18426,  -0.10741,   0.78108,   0.38660,  -0.47949,  -0.33297,  -0.16632,  -0.43543,  -0.51752,  -0.32051,  -0.50332,   0.39070,  -0.18861,   0.69728,  -0.58034,   0.24710,  -0.75502,  -0.52032,   0.12513,   0.73827,   0.43118,   0.56192,  -0.09722,   0.31981,  -0.14357,  -0.53404,   0.72046,  -0.68409
   0.15664,  -0.47503,  -0.09584,  -0.41357,   0.14731,   0.34710,   0.04719,   0.88827,  -0.14024,   0.49146,   0.75021,  -0.47716,  -0.58746,   0.42299,  -0.53686,  -0.17558,   0.40028,  -0.12839,   0.80649,  -0.54851,   0.62798,   0.70855,   0.74488,   0.39130,  -0.33303,   0.10092,   0.86287,  -0.63273,  -0.34481,  -0.77071,  -0.39706,   0.50082,   0.33100,  -0.65231,   0.76802,  -0.03209,  -0.31139,   0.70924,  -0.04880,  -0.31142,  -0.29985,  -0.73455,   0.72710,   0.45782,   0.08186,   0.55546,  -0.83462,  -0.60870,   0.12575,   0.36449,   0.22010,   0.00293,  -0.42060,  -0.14626,  -0.03539,  -0.48023,  -0.45174,   0.27886,   0.62790,  -0.40065,   0.46283,  -0.37227,   0.66826,  -0.50911,  -0.10352,   0.43093,  -0.15265,  -0.22836,  -0.57585,   0.31632,  -0.74647,  -0.47900,   0.23715,   0.11156,  -0.65449,  -0.49077,   0.60666,   0.62033,   0.07428,  -0.48612,   0.59482,  -0.89059,   0.28524,  -0.40679,   0.37722,   0.54821,  -0.59793,  -0.87658,  -0.71134,   0.21637,  -0.14263,  -0.44761,  -0.11279,   0.14167,  -0.13403,   0.30972,  -0.05467,  -0.09588,   0.56889,   0.12860,  -0.19899,  -0.04765,  -0.29947,   0.47263,   0.80921,   0.81157,   0.85085,   0.41341,  -0.33824,   0.85365,  -0.45165,  -0.19780,  -0.63699,   0.46388,  -0.45928,   0.57824,  -0.77169,  -0.67960,   0.41026,  -0.64843,   0.47551,  -0.64471,   0.74728,   0.54294,  -0.56795,   0.24856,   0.41203,   0.25293
  -0.46910,   0.50627,   0.56067,  -0.50167,   0.33738,   0.48390,  -0.38124,   0.33189,   0.36910,   0.29583,   0.32168,  -0.47282,  -0.51476,  -0.29901,   0.66179,   0.06673,   0.58979,   0.57182,  -0.51999,  -0.78318,  -0.12860,   0.17487,   0.23006,  -0.82685,  -0.69146,   0.62642,  -0.62698,   0.74608,   0.71728,   0.28511,  -0.71134,   0.48636,  -0.13344,   0.48642,   0.56909,   0.29908,  -0.42277,  -0.65356,   0.59345,   0.60608,   0.74472,  -0.16530,  -0.66261,   0.59081,  -0.16832,   0.34171,  -0.16315,   0.66685,  -0.22118,  -0.54213,   0.51427,  -0.28989,   0.72120,  -0.55351,   0.67147,   0.32522,  -0.06760,   0.01618,   0.61735,   0.63966,   0.30571,   0.62192,  -0.00904,   0.48142,  -0.52567,   0.07495,  -0.18999,   0.14913,   0.51517,  -0.50907,  -0.55736,  -0.04242,  -0.16139,  -0.00299,   0.81291,   0.60608,   0.26391,   0.36962,   0.12650,   0.67925,  -0.13045,   0.56713,  -0.31119,  -0.36928,   0.21540,   0.07598,   0.06421,   0.57544,   0.88133,  -0.39459,   0.54200,   0.52824,  -0.50246,   0.36191,  -0.30700,   0.31550,  -0.49909,  -0.55351,  -0.59989,   0.16259,   0.03720,  -0.22026,  -0.74114,   0.13905,   0.56765,  -0.48570,  -0.51279,  -0.49151,  -0.21812,  -0.60865,   0.20623,  -0.57659,   0.61475,  -0.48750,  -0.16865,  -0.08757,   0.49387,  -0.58200,  -0.37546,  -0.38255,  -0.19641,   0.41402,   0.05726,  -0.59494,  -0.74135,   0.37001,  -0.53285,  -0.02500
  -0.33404,  -0.16052,   0.12038,  -0.49621,   0.73455,   0.56750,  -0.43657,  -0.52785,   0.52036,  -0.22427,  -0.64194,  -0.63945,  -0.28030,  -0.63077,  -0.40902,   0.00214,  -0.12164,   0.52453,  -0.75442,   0.35609,   0.50881,   0.53662,  -0.16723,  -0.04096,   0.71196,   0.35415,  -0.41192,   0.62790,   0.53792,  -0.36689,   0.70170,   0.71494,   0.65503,   0.61761,  -0.38995,   0.15652,  -0.05156,  -0.19661,   0.37170,   0.05928,  -0.18532,   0.39229,  -0.52094,  -0.30818,  -0.84656,   0.43093,  -0.42428,  -0.60162,  -0.12467,   0.92801,   0.62814,   0.24590,   0.59164,  -0.08434,  -0.40462,   0.06113,   0.31548,  -0.07887,  -0.16971,  -0.30920,   0.55835,  -0.19905,   0.16016,  -0.22146,  -0.69008,  -0.53217,   0.53929,   0.25527,   0.47567,   0.74106,  -0.18845,  -0.46185,  -0.47777,   0.57133,   0.66276,   0.51851,   0.53713,   0.52334,   0.52490,  -0.74137,  -0.40762,   0.72016,   0.37743,   0.33493,  -0.64041,  -0.51528,   0.44296,  -0.74686,   0.62913,  -0.53712,   0.17657,  -0.64130,   0.04574,   0.51557,  -0.56147,   0.26292,   0.41113,   0.69182,  -0.61370,  -0.56900,   0.17699,   0.48426,   0.39300,  -0.42284,   0.14355,  -0.52986,   0.27756,  -0.57359,  -0.66400,  -0.65259,   0.39000,  -0.63482,   0.55797,   0.01423,   0.72801,  -0.03173,   0.17598,   0.19780,   0.24544,  -0.46265,  -0.29378,   0.03802,  -0.20972,  -0.67248,   0.60893,   0.29088,  -0.47965,  -0.25287
   0.75411,  -0.62789,   0.62577,   0.54647,   0.68221,   0.39516,  -0.50314,   0.14107,  -0.56065,  -0.09343,   0.64240,  -0.35010,   0.38844,  -0.71233,  -0.68111,  -0.11841,  -0.20269,   0.31877,   0.39255,   0.18385,  -0.64677,   0.40204,   0.72471,   0.78648,   0.76601,   0.07889,  -0.05357,  -0.63848,   0.24329,  -0.18570,  -0.00466,   0.60459,  -0.10720,  -0.25107,  -0.07453,   0.75149,   0.63894,   0.76106,   0.52478,   0.40737,  -0.65533,   0.45976,  -0.03325,  -0.51969,   0.17268,  -0.54700,  -0.55595,  -0.66225,   0.78052,   0.66423,   0.55660,  -0.43264,  -0.64240,   0.55442,  -0.49340,   0.10218,   0.61249,   0.57798,   0.15486,  -0.03854,   0.51382,   0.63862,   0.22482,  -0.82502,   0.31730,   0.48558,  -0.63762,   0.74393,  -0.86265,  -0.12120,   0.55674,  -0.58771,   0.59235,   0.50616,  -0.21265,  -0.38941,  -0.68070,   0.57717,   0.05580,   0.79159,   0.77326,  -0.65929,   0.20145,  -0.09658,  -0.51781,   0.15119,   0.58806,   0.62651,   0.51011,  -0.63486,   0.36927,   0.16661,   0.68622,   0.04250,  -0.40536,   0.57876,   0.43927,   0.59209,  -0.41506,  -0.60906,  -0.41488,   0.37966,   0.55439,   0.63364,  -0.33033,   0.90389,   0.22103,   0.59609,  -0.62871,  -0.30185,   0.16788,   0.49833,   0.44366,  -0.64004,   0.62727,  -0.31544,  -0.35159,   0.83235,   0.46387,   0.20593,  -0.86604,  -0.27993,   0.58017,  -0.32666,   0.72487,   0.75397,  -0.07278,  -0.34946
  -0.45338,  -0.75754,  -0.66386,  -0.33230,   0.52883,  -0.07815,   0.09714,  -0.55436,  -0.44705,   0.35431,  -0.51511,   0.37706,   0.47272,   0.25919,   0.87903,  -0.00631,  -0.16640,  -0.46489,  -0.49143,   0.25407,  -0.19792,  -0.52514,   0.72754,   0.34722,   0.51646,  -0.32023,  -0.05938,  -0.14957,   0.78065,   0.63179,   0.75850,  -0.49814,  -0.43115,   0.84792,   0.60980,  -0.59337,  -0.12021,  -0.60991,  -0.37920,  -0.86261,  -0.19968,   0.46257,  -0.67527,   0.31408,  -0.00019,   0.46807,  -0.42695,   0.76672,  -0.52082,  -0.62102,  -0.75560,  -0.88738,   0.50715,   0.13068,   0.72327,   0.38983,   0.40031,  -0.54285,   0.67126,   0.90037,  -0.40215,  -0.12590,  -0.38410,   0.62512,   0.45726,  -0.19362,  -0.47504,   0.11712,   0.78001,  -0.91502,  -0.19292,   0.93750,  -0.19584,  -0.10225,   0.22854,  -0.28806,  -0.70183,  -0.28344,  -0.75833,   0.72205,   0.30372,   0.68441,   0.08933,   0.35660,   0.64030,  -0.54435,  -0.48318,   0.85092,  -0.28939,   0.00976,  -0.12673,  -0.86320,  -0.28121,  -0.07685,   0.37082,  -0.01694,  -0.63124,   0.26166,  -0.07474,   0.71789,   0.64161,   0.16765,  -0.31074,   0.64550,   0.16184,  -0.37075,  -0.10005,   0.26518,   0.85449,  -0.31585,   0.32181,   0.52231,  -0.12684,   0.46388,   0.29792,   0.54162,   0.60146,  -0.24402,  -0.60825,  -0.32266,  -0.08314,   0.64817,  -0.57600,  -0.76844,   0.47372,  -0.79285,   0.86790,   0.24508
   0.54973,   0.77895,  -0.29793,  -0.01681,  -0.18093,   0.13093,  -0.20308,  -0.61176,  -0.01804,  -0.41275,  -0.02354,  -0.42405,   0.73559,  -0.24246,  -0.85705,   0.07720,  -0.65385,   0.31447,  -0.52754,  -0.60723,  -0.69121,  -0.51965,  -0.15890,   0.59448,  -0.23047,  -0.76585,   0.17769,   0.58673,  -0.66382,  -0.43473,   0.12434,  -0.52677,   0.27928,  -0.21015,   0.13781,   0.29270,   0.58141,  -0.32185,  -0.00734,   0.66177,  -0.48141,   0.06229,   0.55400,  -0.08863,  -0.16208,   0.11288,   0.18515,  -0.33201,   0.03000,   0.30876,  -0.27079,   0.73558,  -0.21372,   0.34242,  -0.23265,  -0.71728,   0.86971,  -0.47028,   0.60496,   0.67999,   0.53833,  -0.31217,  -0.71395,  -0.56519,  -0.24176,   0.53709,   0.52656,   0.26495,   0.05031,   0.36741,  -0.12522,  -0.21229,   0.80710,   0.47046,  -0.27776,  -0.09131,   0.83266,  -0.36424,  -0.05501,  -0.67031,  -0.62389,   0.62226,  -0.58055,   0.67202,  -0.31010,  -0.47237,  -0.54535,   0.67641,   0.76227,   0.76920,  -0.32809,  -0.59468,   0.41957,  -0.30217,   0.20628,   0.60654,   0.19799,   0.34189,  -0.33906,  -0.40594,   0.41712,   0.17202,  -0.49658,  -0.68359,  -0.13371,   0.66406,   0.53062,   0.44819,  -0.08179,   0.09366,  -0.61363,   0.15046,  -0.56863,   0.63997,  -0.42445,  -0.01953,  -0.29563,   0.44691,  -0.57840,   0.41152,  -0.49901,  -0.56269,   0.64583,  -0.67691,   0.60563,  -0.87060,  -0.67570,  -0.57009
  -0.05097,   0.21585,  -0.51853,   0.11411,  -0.36690,   0.49762,   0.37980,  -0.50813,   0.11953,  -0.49201,   0.19779,   0.49496,   0.38804,  -0.18336,  -0.81624,  -0.28078,  -0.38488,   0.03420,  -0.22938,   0.48250,  -0.39691,   0.15916,  -0.70003,  -0.20025,   0.08213,   0.39395,  -0.06868,  -0.02299,   0.46624,  -0.17455,  -0.15884,   0.05735,  -0.41262,  -0.40930,  -0.73004,   0.63428,  -0.14379,   0.37901,   0.52685,  -0.73241,  -0.75065,  -0.34412,  -0.18565,  -0.13205,  -0.34799,  -0.50179,  -0.14442,  -0.76595,  -0.06614,   0.46763,  -0.69326,   0.70113,  -0.32301,   0.49998,  -0.35207,   0.04430,  -0.50212,   0.10927,  -0.13484,  -0.46597,   0.24715,   0.64350,  -0.37423,   0.21767,  -0.82728,   0.77962,   0.37549,  -0.75329,  -0.66130,   0.20091,   0.28744,  -0.55720,  -0.29219,   0.41305,  -0.21245,  -0.75676,   0.13975,   0.70411,   0.45164,  -0.66898,  -0.16822,   0.26247,  -0.44586,  -0.40187,   0.43293,   0.15110,  -0.26170,  -0.88699,  -0.76478,  -0.22241,  -0.25027,  -0.64042,  -0.28297,  -0.19561,   0.76299,   0.18738,   0.61650,   0.27991,  -0.00625,   0.74516,  -0.21860,  -0.40435,  -0.40744,  -0.14037,   0.04454,   0.85906,   0.52869,   0.83612,  -0.78385,   0.63369,  -0.68422,   0.40307,  -0.43410,   0.24790,  -0.25960,  -0.79841,   0.33963,   0.62226,   0.72835,  -0.73994,  -0.30980,  -0.59120,  -0.07871,   0.33492,  -0.17001,   0.50877,  -0.69083,  -0.39306
  -0.64872,  -0.00842,  -0.64751,   0.66080,  -0.23216,  -0.28803,   0.21874,  -0.57698,  -0.14193,   0.58024,   0.02081,   0.73271,   0.81774,   0.62356,   0.16142,   0.81400,   0.20218,  -0.42551,   0.30349,  -0.43994,   0.63445,  -0.66525,   0.55681,   0.21778,   0.88469,  -0.67806,   0.67139,  -0.50406,   0.75980,   0.16137,  -0.07857,  -0.28712,   0.57932,   0.18170,  -0.72885,  -0.28140,  -0.55528,  -0.13034,  -0.64061,   0.54735,  -0.71783,  -0.41671,  -0.56140,  -0.66561,   0.67232,   0.68772,   0.53281,   0.17429,  -0.34039,  -0.65073,  -0.30045,  -0.52855,   0.50852,   0.08447,   0.18070,  -0.26276,  -0.30082,  -0.63373,  -0.70419,   0.25932,  -0.89599,  -0.13360,  -0.39724,   0.01856,   0.80559,  -0.36204,  -0.36519,   0.12865,   0.65653,  -0.63524,   0.11868,  -0.02855,   0.78601,   0.51046,  -0.38006,   0.77938,  -0.58540,  -0.48439,  -0.57796,   0.74560,  -0.29557,  -0.30434,   0.25364,  -0.31263,   0.20035,  -0.73414,   0.56223,   0.64901,   0.74173,  -0.52720,  -0.71393,  -0.17646,  -0.34032,  -0.40860,  -0.41962,  -0.49063,  -0.56040,  -0.27544,   0.61356,   0.77301,  -0.10877,  -0.47558,  -0.54270,  -0.59318,  -0.72691,   0.33579,  -0.57777,   0.54498,   0.68889,   0.20081,  -0.47888,   0.46260,  -0.31163,  -0.67436,  -0.34261,  -0.19041,  -0.00406,  -0.19729,  -0.65741,  -0.14070,   0.73718,   0.19508,  -0.56227,  -0.30248,   0.07863,  -0.51848,   0.00924,  -0.38055
  -0.27688,   0.93317,  -0.79302,   0.65827,  -0.37856,  -0.60277,   0.32938,  -0.41466,   0.54684,   0.59265,   0.75980,  -0.35761,   0.36232,  -0.17570,  -0.57205,   0.63504,   0.23131,   0.10058,  -0.36935,   0.78979,   0.80883,   0.01664,   0.40466,  -0.24163,   0.67666,  -0.49025,   0.41463,  -0.70788,   0.28021,  -0.29037,  -0.23292,  -0.68426,  -0.68745,  -0.43129,  -0.02576,  -0.35054,  -0.62031,   0.56614,  -0.34397,  -0.85926,   0.69837,   0.20382,  -0.26886,   0.02080,  -0.27010,   0.69774,  -0.15119,   0.62067,  -0.12799,  -0.49042,   0.42116,  -0.71647,  -0.35562,  -0.58593,  -0.53622,  -0.32482,  -0.70426,  -0.62476,  -0.48360,  -0.08871,  -0.15801,  -0.37167,   0.20062,  -0.16296,  -0.47403,  -0.23417,   0.28970,   0.81723,   0.09460,  -0.22477,   0.63139,   0.26642,  -0.19332,  -0.60140,  -0.77678,   0.58179,  -0.69235,   0.01880,  -0.04529,  -0.66108,  -0.38831,  -0.42565,  -0.87106,   0.50178,  -0.05729,   0.62163,  -0.73006,  -0.74604,  -0.50302,  -0.20113,  -0.30216,  -0.54912,  -0.36002,  -0.29806,  -0.65041,  -0.48156,  -0.15345,  -0.61787,   0.60922,  -0.26570,  -0.11565,  -0.29318,  -0.39546,   0.20133,  -0.51884,  -0.41045,  -0.36572,   0.81199,   0.50010,   0.28130,  -0.16114,  -0.14181,  -0.60101,   0.32371,  -0.55758,   0.46605,  -0.87186,  -0.70976,  -0.11295,  -0.25288,  -0.22227,   0.43658,   0.44470,   0.12090,  -0.50073,  -0.39013,  -0.60745,  -0.66687
   0.39743,   0.56669,   0.39096,   0.43177,   0.31272,  -0.08403,   0.05997,  -0.03236,   0.79773,   0.20147,  -0.16569,  -0.60000,   0.02344,   0.05754,  -0.28267,   0.33883,   0.56207,   0.07809,   0.72097,  -0.53798,  -0.42087,   0.12367,   0.05060,   0.70057,   0.59946,   0.53434,   0.27650,  -0.53380,  -0.44013,   0.07616,   0.15744,   0.52165,   0.60620,  -0.27017,   0.86554,  -0.48374,  -0.42487,   0.52292,  -0.23242,  -0.01677,  -0.17657,  -0.70317,   0.56351,   0.55501,   0.73682,  -0.30492,  -0.57104,  -0.24150,   0.51315,  -0.43766,   0.68097,   0.56973,  -0.41969,  -0.78142,  -0.44483,  -0.50872,  -0.65038,  -0.65499,   0.11493,  -0.12684,   0.40546,  -0.12592,   0.81947,  -0.11605,   0.47748,   0.92207,  -0.48453,   0.11348,  -0.43118,   0.55007,  -0.25523,  -0.12326,  -0.82672,  -0.47995,  -0.45457,  -0.32876,   0.83397,   0.03710,   0.27761,   0.17438,   0.51152,  -0.86776,  -0.73201,  -0.15145,   0.30377,   0.55518,  -0.42912,   0.56035,  -0.51361,   0.20418,  -0.29440,  -0.00297,  -0.18734,  -0.08132,  -0.04622,  -0.65345,   0.58927,  -0.67250,   0.63979,  -0.24439,  -0.27080,  -0.17340,   0.13041,  -0.53573,   0.47745,   0.32734,   0.79580,   0.60796,  -0.45622,   0.63437,  -0.54298,  -0.18940,  -0.72762,   0.18541,  -0.09464,   0.67282,   0.05072,  -0.80502,  -0.05394,  -0.37636,  -0.03141,  -0.02621,   0.41535,   0.36389,   0.27798,   0.44564,  -0.52475,  -0.58592
