   0.53403,  -0.75359,   0.93234,   0.38150,   0.21428,   0.51920,  -0.63418,  -0.17911,  -0.22493,  -0.51514,  -0.32819,  -0.04662,  -0.41982,   0.21091,   0.44373,   0.69363,   0.56526,  -0.45262,   0.66253,   0.24593,   0.23993,  -0.43157,   0.26871,  -0.55034,  -0.70337,  -0.87360,  -0.53428,  -0.03909,  -0.69026,   0.47379,  -0.20565,   0.08065,   0.66500,   0.33033,  -0.27568,   0.41268,   0.12520,   0.15719,   0.34546,   0.27498,  -0.63824,   0.69676,   0.29783,  -0.67299,   0.77489,   0.33109,   0.29901,   0.11822,   0.67947,  -0.53186,  -0.30827,  -0.33865,   0.38791,  -0.31789,   0.61456,  -0.10345,   0.53105,  -0.55513,   0.08290,  -0.56857,  -0.21839,  -0.85294,  -0.44170,  -0.84351,  -0.46410,   0.45190,   0.20305,  -0.35505,   0.53097,   0.65734,   0.70062,   0.42604,  -0.21959,   0.65276,   0.42911,   0.76634,  -0.77669,   0.36314,  -0.76737,   0.68100,  -0.43427,  -0.07345,  -0.26984,  -0.12429,  -0.51399,  -0.33886,  -0.18796,   0.10192,   0.93750,  -0.91743,  -0.15680,   0.75145,  -0.42033,   0.46089,  -0.78880,   0.71106,  -0.44498,  -0.79678,  -0.59650,  -0.17444,  -0.41561,  -0.32025,  -0.47940,  -0.23842,   0.85810,  -0.49941,   0.37218,  -0.11296,  -0.91156,  -0.74255,   0.45771,  -0.87262,  -0.02435,   0.21513,  -0.00077,  -0.80998,   0.93656,  -0.63056,  -0.29692,  -0.62070,  -0.46561,   0.49989,  -0.68363,  -0.60109,  -0.20106,   0.59238,   0.54977,  -0.23758
   0.68590,  -0.48611,  -0.44951,  -0.36489,  -0.46434,  -0.22010,  -0.66053,  -0.22748,   0.11874,   0.55240,   0.65141,   0.54512,   0.10973,  -0.17239,   0.21431,  -0.09179,  -0.26485,  -0.19205,  -0.40251,  -0.78644,  -0.30335,   0.41705,   0.55607,  -0.86495,   0.53757,   0.56493,  -0.73297,   0.53970,  -0.62921,  -0.41310,  -0.24938,   0.05579,   0.30480,   0.60759,   0.36313,   0.12311,   0.58897,   0.45006,   0.25196,  -0.60321,   0.24262,   0.16341,   0.02193,   0.35256,  -0.44580,  -0.04939,  -0.34948,   0.09902,  -0.11810,   0.34058,   0.32645,   0.16199,   0.20614,  -0.03587,   0.74109,  -0.73069,   0.71422,   0.63906,  -0.45773,  -0.10807,   0.64259,  -0.30292,  -0.39474,  -0.67524,  -0.45451,  -0.40484,   0.41186,   0.87810,  -0.79038,   0.03170,  -0.14945,  -0.58378,  -0.04969,  -0.59949,   0.50393,   0.24049,   0.57937,   0.41594,   0.45323,  -0.44318,  -0.82634,  -0.10518,  -0.42877,   0.51870,  -0.48316,   0.03879,  -0.46398,  -0.25118,  -0.14055,   0.72365,   0.61558,   0.09838,   0.33736,   0.86791,  -0.90558,   0.22335,  -0.04415,  -0.42747,  -0.62913,  -0.42911,  -0.29228,  -0.36123,   0.41953,   0.47846,  -0.29163,   0.52031,   0.25396,  -0.66745,  -0.42212,   0.07601,   0.37910,  -0.65972,   0.58139,   0.87629,   0.87182,  -0.73590,  -0.56040,   0.81258,  -0.38596,   0.10505,   0.19440,  -0.45884,  -0.05931,  -0.64255,   0.63423,  -0.20294,  -0.44854,   0.40794
  -0.25444,   0.50791,  -0.53837,   0.65033,   0.60689,  -0.21815,   0.53029,  -0.07799,  -0.42449,  -0.08830,   0.30393,  -0.21153,  -0.38093,   0.43558,   0.45745,  -0.73431,  -0.06498,  -0.73181,   0.35598,  -0.51447,   0.18201,   0.18744,   0.11266,   0.77312,   0.09110,  -0.19667,   0.43079,   0.86663,   0.91835,   0.03836,   0.53370,  -0.38668,   0.66392,   0.05571,   0.44059,  -0.04084,  -0.57575,  -0.47045,   0.02275,   0.42977,  -0.24759,  -0.50607,   0.45321,  -0.28126,   0.39920,  -0.61022,   0.58866,   0.09666,   0.22426,   0.25722,   0.28243,   0.37021,   0.17826,  -0.17854,  -0.15009,   0.01367,  -0.30633,   0.23027,   0.72267,  -0.29255,   0.13698,   0.20630,   0.27151,  -0.62373,   0.44386,   0.86697,  -0.40111,   0.12766,  -0.56433,  -0.01882,   0.00358,  -0.01173,   0.07321,   0.51827,   0.12488,  -0.33971,  -0.08552,   0.03314,   0.30537,   0.12500,  -0.32807,  -0.51761,   0.58048,  -0.35420,  -0.01869,  -0.67685,   0.49633,   0.69234,   0.81940,  -0.45289,   0.67458,  -0.25986,   0.34582,   0.73197,  -0.43278,   0.10590,   0.25014,  -0.71992,   0.40551,  -0.59463,   0.20145,  -0.54591,  -0.40570,   0.93750,   0.68698,   0.46775,  -0.17784,  -0.08248,   0.27702,   0.28724,  -0.40355,   0.16352,   0.57704,   0.07999,   0.59167,  -0.40215,   0.54917,   0.21895,   0.06075,  -0.59697,   0.56405,   0.30627,   0.35027,   0.15653,  -0.19675,   0.07936,  -0.14810,   0.30352
  -0.44865,  -0.61827,  -0.82473,  -0.53777,   0.24024,  -0.42232,   0.15091,  -0.72800,  -0.55448,   0.14211,  -0.70334,   0.63182,  -0.36429,   0.32147,   0.73433,   0.24630,  -0.15091,  -0.24746,  -0.87673,   0.36794,   0.17862,  -0.44361,  -0.50693,  -0.82232,  -0.79870,  -0.43479,  -0.02374,  -0.53291,   0.87942,   0.22968,   0.77708,   0.30393,  -0.75195,  -0.22718,  -0.52984,   0.73840,  -0.53256,  -0.56769,  -0.22673,   0.48239,  -0.06302,  -0.35150,  -0.66342,  -0.75106,  -0.78758,   0.60358,  -0.50401,   0.17816,  -0.39953,  -0.21358,  -0.02610,  -0.58854,   0.66891,  -0.58087,   0.62188,   0.14647,  -0.21836,   0.46968,   0.80334,  -0.66219,  -0.23837,  -0.80685,  -0.76056,   0.50090,  -0.81110,  -0.43967,  -0.23848,   0.12393,  -0.34715,  -0.11943,   0.66782,   0.66080,   0.40110,  -0.37218,  -0.31794,   0.72903,  -0.56567,  -0.61872,  -0.54102,   0.33407,   0.52823,   0.57215,  -0.43082,   0.66972,   0.87216,   0.06265,  -0.37253,   0.40806,   0.53670,   0.47433,  -0.47203,  -0.25560,  -0.43519,  -0.08504,  -0.37553,   0.35992,  -0.56566,  -0.54550,   0.14251,   0.00277,  -0.08009,  -0.41769,  -0.74961,  -0.72748,  -0.72618,  -0.56607,  -0.33422,   0.28311,   0.11227,  -0.25391,   0.85632,   0.54290,   0.36115,  -0.56544,   0.01376,   0.65674,   0.81351,  -0.73434,  -0.23789,  -0.81082,   0.67992,   0.29558,  -0.33027,   0.10504,   0.18223,  -0.66780,  -0.68928,   0.46378
  -0.80054,   0.59647,  -0.34487,  -0.79254,  -0.60039,  -0.76464,   0.21437,  -0.85501,   0.68568,   0.30862,   0.53811,  -0.77570,   0.49122,  -0.58937,  -0.45721,  -0.67612,  -0.87277,   0.45853,  -0.48161,  -0.21604,  -0.86924,   0.11202,  -0.55212,  -0.49486,   0.00288,   0.27736,  -0.75456,  -0.59720,  -0.47876,  -0.54329,  -0.12390,   0.87188,  -0.55250,  -0.62606,   0.75224,  -0.67058,  -0.09504,  -0.67908,   0.77345,  -0.37970,   0.86849,  -0.24043,  -0.66231,   0.76720,  -0.33381,  -0.30516,  -0.44848,  -0.87933,  -0.51373,   0.87149,  -0.58633,   0.39551,   0.87415,   0.39860,   0.77959,  -0.69377,   0.10079,  -0.46356,  -0.27780,   0.58520,   0.35098,  -0.69605,   0.60362,   0.09474,  -0.70688,  -0.50093,  -0.42770,   0.92590,  -0.47691,  -0.84552,  -0.57438,  -0.69299,  -0.91438,  -0.79866,  -0.43335,  -0.42434,   0.54268,   0.10872,   0.38642,  -0.75707,  -0.79989,  -0.47075,  -0.57424,   0.31955,  -0.41611,   0.57738,  -0.63366,  -0.30825,  -0.64932,   0.83955,  -0.14539,  -0.04405,   0.36939,  -0.24476,   0.82695,  -0.73109,   0.16223,   0.23221,  -0.64644,  -0.86280,   0.69993,   0.59107,   0.46160,   0.81661,  -0.53742,  -0.22789,  -0.83394,   0.72187,  -0.46382,  -0.06841,   0.00969,  -0.43631,  -0.58048,   0.48892,   0.46803,   0.91643,  -0.41427,   0.41980,  -0.17583,  -0.81793,  -0.73388,  -0.80869,   0.73550,  -0.87998,   0.93072,  -0.57803,  -0.38845,  -0.43369
   0.21380,   0.63615,  -0.02374,   0.65996,  -0.15800,   0.51316,  -0.00840,  -0.01558,   0.33328,  -0.45338,   0.87344,  -0.51666,   0.30351,  -0.39070,  -0.62841,  -0.92069,   0.09261,  -0.78303,   0.93750,  -0.40705,  -0.87015,   0.32066,   0.44113,   0.56865,   0.86803,  -0.16378,  -0.65920,  -0.26342,   0.20631,  -0.72403,  -0.61912,  -0.49580,  -0.75974,   0.44654,   0.28081,  -0.90110,  -0.93750,   0.32187,  -0.49682,  -0.68133,  -0.12298,   0.12364,   0.38067,   0.86449,  -0.19994,  -0.51245,   0.76300,  -0.66787,   0.57946,   0.68014,  -0.51825,   0.60058,  -0.74929,  -0.10604,  -0.49313,  -0.76393,  -0.34018,  -0.82703,  -0.34011,  -0.21977,  -0.13773,   0.47326,   0.91611,  -0.67173,   0.07997,   0.60819,   0.09726,   0.44117,  -0.40462,  -0.47005,  -0.07204,  -0.63365,  -0.20109,   0.52523,  -0.12581,  -0.61650,   0.01653,   0.91881,  -0.11945,  -0.87573,   0.05631,  -0.52708,   0.69760,  -0.30623,  -0.07587,   0.15001,   0.23722,  -0.62348,  -0.40428,  -0.65848,   0.58517,  -0.07248,   0.10184,  -0.59005,  -0.52559,   0.15216,   0.61879,   0.46791,   0.73819,  -0.84189,  -0.82199,   0.24715,  -0.25348,   0.21083,   0.78953,   0.71987,   0.01569,  -0.38481,   0.13461,   0.43918,  -0.66962,   0.93061,  -0.24428,   0.14635,  -0.80310,  -0.67540,  -0.23429,   0.18191,   0.37591,  -0.48269,  -0.62051,   0.19287,   0.65235,   0.57778,  -0.49894,   0.38262,   0.52625,  -0.59929
  -0.64042,  -0.07788,  -0.29959,   0.55391,   0.32958,  -0.66574,   0.56654,   0.45093,  -0.11461,  -0.59006,  -0.62617,  -0.47207,   0.37195,   0.85940,   0.55549,   0.21229,  -0.57095,   0.47533,  -0.00979,   0.12034,   0.44880,  -0.38846,  -0.60846,  -0.17577,   0.14726,  -0.20803,  -0.49665,   0.49767,   0.46122,   0.45569,   0.68853,   0.56632,   0.06461,  -0.16485,  -0.39502,  -0.36557,  -0.01438,  -0.47933,  -0.38981,  -0.10800,  -0.24902,  -0.32370,  -0.52880,  -0.70407,   0.48293,   0.55146,  -0.43464,  -0.12098,  -0.37521,  -0.63905,  -0.57439,  -0.37847,  -0.36952,  -0.47445,  -0.00927,  -0.05555,  -0.27158,   0.02719,   0.72232,   0.31385,  -0.64711,   0.49848,  -0.48909,  -0.62333,   0.93750,  -0.02737,  -0.61614,   0.19500,   0.41318,  -0.46112,  -0.77615,   0.36336,  -0.09675,  -0.79520,  -0.82596,   0.33067,  -0.59784,  -0.52593,  -0.48355,   0.50307,   0.82795,   0.28582,  -0.13438,  -0.00495,   0.70689,   0.20643,   0.47485,   0.12530,   0.82923,   0.14272,   0.02221,  -0.88037,  -0.58488,  -0.10042,  -0.63429,  -0.57962,  -0.41156,  -0.49197,   0.54424,   0.59299,   0.11271,  -0.36335,  -0.69593,  -0.64512,  -0.65221,  -0.28013,  -0.27805,   0.67795,  -0.41856,  -0.51701,  -0.52049,   0.24884,  -0.05755,  -0.66085,  -0.43342,   0.61557,   0.50190,  -0.65060,  -0.17274,  -0.23363,   0.42654,   0.60680,  -0.41154,   0.18685,  -0.19860,  -0.60876,  -0.42035,  -0.72151
  -0.28582,  -0.18799,  -0.46243,  -0.57326,  -0.77205,  -0.42422,  -0.29205,  -0.18607,   0.52160,   0.75518,  -0.40747,  -0.18079,   0.43240,  -0.53927,  -0.61317,   0.49500,  -0.38250,   0.23065,  -0.19475,  -0.22413,  -0.09717,   0.39319,  -0.71186,  -0.40441,  -0.19611,   0.62579,  -0.11791,  -0.52472,   0.01546,   0.27879,  -0.30456,   0.61803,  -0.93750,  -0.59529,   0.43546,  -0.89188,   0.12058,  -0.33257,   0.20109,  -0.52733,   0.63660,  -0.60241,  -0.09328,   0.46861,  -0.72578,  -0.19784,  -0.70546,  -0.17869,  -0.42374,   0.32971,  -0.49022,  -0.37198,  -0.74154,   0.80608,  -0.23731,  -0.51457,   0.13042,  -0.25091,   0.03122,   0.76195,   0.08715,  -0.09797,   0.05896,   0.27564,  -0.54086,  -0.57659,  -0.12423,   0.37253,   0.26527,  -0.68073,  -0.73591,  -0.23274,  -0.45860,  -0.59698,  -0.45292,   0.01861,   0.50230,  -0.23815,   0.38580,  -0.91639,  -0.53147,  -0.60406,  -0.77175,   0.59942,  -0.26163,   0.60485,  -0.06419,  -0.79611,  -0.64645,  -0.02046,  -0.36787,  -0.41904,   0.26984,  -0.63823,   0.80505,  -0.63749,  -0.14334,   0.65044,  -0.10041,   0.41565,  -0.67741,  -0.17826,   0.42446,   0.40837,  -0.56277,   0.34338,  -0.50882,   0.03154,  -0.42448,   0.37142,  -0.12309,  -0.29695,  -0.72365,  -0.03879,  -0.52675,   0.83316,  -0.56509,  -0.08558,  -0.35772,  -0.80333,  -0.49419,  -0.25255,   0.76809,   0.52272,   0.47412,  -0.59637,  -0.82980,  -0.57177
   0.81910,  -0.10021,   0.37339,   0.49193,  -0.53827,   0.41931,   0.40494,   0.16273,   0.19993,   0.12134,  -0.22049,  -0.56445,  -0.24167,   0.22352,  -0.62228,   0.62062,   0.43658,  -0.68438,  -0.30759,  -0.72931,   0.39233,  -0.38077,   0.89201,   0.57878,  -0.70714,  -0.50549,   0.41638,  -0.45605,   0.67676,  -0.82693,  -0.18928,  -0.60166,   0.47656,  -0.16443,  -0.02058,  -0.57724,  -0.08774,   0.51249,   0.36076,  -0.45177,  -0.52230,   0.65905,   0.93750,  -0.14911,   0.76181,  -0.57907,   0.64815,  -0.16624,   0.37584,   0.05654,   0.31488,   0.44339,  -0.93750,   0.40327,  -0.71470,  -0.10476,   0.30977,  -0.24732,  -0.23108,  -0.58635,  -0.35088,  -0.66965,   0.50386,  -0.38865,  -0.29304,   0.30353,   0.13447,  -0.35925,   0.50843,   0.93750,   0.31060,  -0.00108,  -0.46049,   0.68166,  -0.39076,   0.00954,  -0.57564,   0.89333,  -0.56071,   0.13254,   0.44499,  -0.81621,   0.50736,  -0.39500,  -0.14147,   0.09944,   0.52902,  -0.24122,  -0.32913,  -0.57077,   0.41053,   0.18374,   0.56903,  -0.09596,  -0.39250,   0.53260,   0.93750,  -0.05492,   0.16289,   0.86748,  -0.60454,   0.28804,   0.22594,   0.41354,   0.37883,  -0.12541,   0.32546,  -0.80714,   0.85871,   0.53219,  -0.52979,   0.02880,   0.11238,   0.27709,  -0.40705,  -0.19128,  -0.09531,   0.06847,  -0.18575,  -0.58303,   0.58433,   0.75582,   0.13166,   0.48919,  -0.30977,   0.61658,   0.55430,   0.13844
   0.57435,  -0.47328,   0.72190,  -0.31129,  -0.16496,   0.62346,  -0.55396,   0.63715,  -0.32637,  -0.65599,  -0.46853,   0.46698,  -0.67094,   0.34396,   0.58707,   0.30195,   0.37560,  -0.80739,   0.57191,   0.10977,   0.75404,  -0.50324,   0.32907,  -0.71971,  -0.34864,  -0.83611,  -0.68675,   0.53402,  -0.10599,  -0.22988,   0.08476,  -0.31854,   0.01591,   0.81172,  -0.13955,   0.62624,  -0.36961,   0.50221,  -0.80910,   0.50449,  -0.47935,   0.60064,   0.70472,  -0.32006,  -0.66411,   0.34030,  -0.23016,   0.64480,   0.10239,   0.20876,   0.29716,  -0.46991,  -0.65523,  -0.53064,  -0.43420,   0.73387,   0.60289,  -0.36680,   0.63601,  -0.91950,   0.52595,   0.70952,  -0.67485,  -0.21473,  -0.39179,   0.68000,   0.42424,  -0.20654,   0.06137,   0.37497,   0.66571,   0.19281,   0.82872,   0.27641,   0.79239,   0.43463,  -0.70171,   0.62473,  -0.54191,   0.57092,   0.14402,   0.02941,   0.13087,  -0.09422,  -0.13558,  -0.35032,  -0.37435,   0.33531,   0.38160,  -0.62361,  -0.54030,   0.07403,  -0.37111,   0.51315,  -0.93511,   0.56964,  -0.13971,  -0.48413,  -0.68587,  -0.08964,  -0.48236,  -0.27173,  -0.79487,  -0.57975,   0.70270,  -0.31571,   0.27218,  -0.59018,   0.33276,  -0.38806,   0.14383,  -0.36685,   0.26792,  -0.58171,   0.60262,  -0.51126,   0.09607,  -0.48066,   0.69385,  -0.92414,   0.17051,   0.74094,  -0.31256,  -0.10306,  -0.13647,   0.69342,   0.64333,   0.60108
   0.79761,   0.08821,   0.50854,  -0.66642,  -0.14162,  -0.25431,  -0.15484,  -0.51852,   0.35773,   0.40850,   0.22867,   0.61545,  -0.23853,   0.04182,   0.14784,  -0.70314,  -0.59162,  -0.32706,  -0.86386,  -0.25872,  -0.50360,  -0.87442,  -0.46083,  -0.91145,   0.37425,  -0.16748,  -0.46185,   0.05705,  -0.32709,   0.21769,   0.46831,   0.00900,   0.85617,   0.25174,   0.57213,   0.06047,   0.19056,  -0.25888,   0.29882,   0.08731,   0.67557,   0.63279,  -0.58505,   0.73932,   0.03642,   0.42474,   0.69763,  -0.55433,  -0.00921,   0.65670,  -0.21052,   0.20061,   0.64691,  -0.21476,   0.44090,   0.47138,   0.24549,  -0.11875,  -0.15422,  -0.35602,   0.35448,  -0.58140,   0.55068,  -0.82278,  -0.83017,   0.01462,   0.47364,   0.83453,  -0.51209,  -0.37152,   0.46610,  -0.47043,  -0.52431,   0.81700,   0.54196,  -0.06450,   0.31948,   0.02095,   0.45155,   0.39626,  -0.82371,   0.31675,  -0.64298,   0.58258,  -0.37636,   0.13191,  -0.64345,  -0.43464,   0.25276,   0.43752,  -0.09068,  -0.20797,  -0.11527,   0.62611,  -0.62400,   0.11398,   0.46752,  -0.62791,  -0.22931,  -0.64075,   0.21407,   0.07176,   0.77067,   0.65982,  -0.41133,  -0.48031,  -0.49581,   0.29054,  -0.70107,  -0.25840,   0.64776,  -0.77573,   0.42025,   0.69592,   0.52458,   0.61586,   0.01540,   0.45434,  -0.35266,  -0.45279,  -0.38355,  -0.26725,   0.44982,  -0.70964,   0.58592,  -0.36363,   0.17364,   0.54101
   0.37909,   0.10106,   0.22313,   0.19525,   0.14264,   0.60211,   0.06532,   0.35460,  -0.57580,  -0.74311,   0.10175,  -0.54132,  -0.29724,   0.62693,   0.50773,  -0.21863,   0.61006,  -0.42182,   0.61622,  -0.28435,  -0.09079,   0.38600,   0.46217,   0.56690,   0.47116,   0.55687,  -0.06997,   0.52040,  -0.55313,   0.58112,   0.01549,  -0.53681,   0.40207,   0.58076,   0.02350,  -0.80296,  -0.05876,   0.07666,   0.30565,   0.45696,  -0.40720,   0.25362,   0.85261,   0.06829,   0.25067,  -0.18643,   0.27584,  -0.61764,   0.49302,  -0.00396,  -0.01504,   0.61167,  -0.54207,  -0.12926,  -0.69635,   0.49599,  -0.53557,   0.43231,   0.37805,  -0.02543,  -0.46489,   0.61984,  -0.41029,  -0.27115,   0.03750,   0.39505,   0.26781,   0.16395,  -0.41586,   0.20174,  -0.21571,   0.56185,   0.84073,  -0.03897,   0.01936,   0.37172,  -0.00980,  -0.08791,  -0.59256,   0.33554,  -0.35711,  -0.12003,   0.87727,  -0.20920,  -0.03073,   0.09056,   0.21675,   0.53586,   0.24132,  -0.28753,   0.64805,  -0.31618,  -0.21071,   0.77980,  -0.56781,   0.21802,   0.11567,  -0.37465,   0.14056,   0.61697,   0.30941,   0.02602,   0.81940,  -0.04793,   0.60309,   0.37960,   0.85247,   0.17804,  -0.46555,  -0.10206,  -0.32130,   0.76407,  -0.03691,  -0.33134,   0.70465,  -0.61026,   0.74443,   0.57399,   0.20571,  -0.79447,  -0.68484,   0.33566,   0.07249,   0.25461,  -0.68964,  -0.42956,   0.24311,   0.05794
  -0.37305,  -0.74806,  -0.88543,  -0.92361,   0.51633,  -0.62901,  -0.18131,  -0.48147,  -0.43343,  -0.73806,  -0.72751,   0.40979,   0.05063,  -0.13157,   0.32540,   0.26336,  -0.55870,   0.32392,  -0.48660,   0.38556,   0.49714,  -0.41049,  -0.54019,  -0.41441,  -0.52043,  -0.43564,  -0.16246,  -0.68654,   0.71287,  -0.20718,   0.86677,   0.44543,   0.05296,  -0.03139,  -0.41970,   0.87686,  -0.77349,  -0.75502,  -0.13869,   0.77054,  -0.07233,   0.03842,  -0.56459,  -0.79629,  -0.93750,   0.66639,  -0.45358,   0.02518,  -0.62090,  -0.51095,  -0.40161,  -0.74007,   0.46855,  -0.71996,   0.44163,   0.48934,   0.49970,   0.17437,   0.60503,   0.00157,  -0.24338,  -0.71680,  -0.62885,   0.81021,  -0.20200,  -0.24032,  -0.54693,  -0.14738,   0.08751,  -0.34072,  -0.34085,   0.34249,   0.70302,  -0.43933,   0.55418,   0.81310,  -0.61558,   0.15017,  -0.43160,   0.54969,  -0.33256,   0.54441,  -0.22436,   0.38507,   0.34749,   0.09407,  -0.05988,   0.35704,  -0.46758,  -0.04638,  -0.42927,  -0.13191,  -0.72279,  -0.12968,   0.59156,  -0.42149,  -0.55078,  -0.55085,  -0.24056,  -0.04003,   0.03864,  -0.50922,  -0.79329,  -0.49115,  -0.50001,  -0.55616,  -0.82514,   0.45833,   0.00395,  -0.31611,   0.12897,   0.42866,  -0.42745,  -0.67742,   0.78685,   0.52794,   0.59000,  -0.78119,   0.11171,  -0.32817,   0.72228,  -0.66742,  -0.26121,  -0.34956,   0.72417,  -0.54365,   0.24392,   0.51564
  -0.21945,   0.26218,  -0.66529,  -0.61093,  -0.74218,  -0.34781,  -0.30970,  -0.60607,   0.70718,   0.53508,   0.38970,  -0.06224,   0.77060,  -0.64885,  -0.90361,  -0.57465,  -0.86979,   0.54811,  -0.68315,  -0.01493,  -0.93402,   0.76728,  -0.83574,  -0.67160,   0.44285,   0.77368,  -0.57963,  -0.79453,  -0.55714,  -0.37819,  -0.41715,   0.93750,  -0.36442,   0.16062,   0.60671,  -0.52006,  -0.03385,  -0.77740,   0.88701,  -0.57654,   0.91380,  -0.58022,  -0.56386,   0.76193,  -0.75248,  -0.03091,  -0.45749,  -0.48830,  -0.45665,   0.61680,  -0.51911,   0.03889,  -0.55856,   0.38795,   0.81919,  -0.63661,   0.73383,  -0.23744,  -0.54890,   0.68091,   0.56515,  -0.69353,   0.14473,   0.49369,  -0.22449,  -0.40514,  -0.40059,   0.59606,  -0.68321,  -0.80167,  -0.49602,  -0.17555,  -0.61211,  -0.85800,  -0.47138,  -0.27424,   0.80947,   0.22516,   0.73119,  -0.65946,  -0.40640,  -0.17406,  -0.68058,   0.93750,  -0.51282,   0.77211,  -0.50471,  -0.43071,  -0.56867,   0.32399,   0.83091,  -0.41217,   0.68459,  -0.27647,   0.41839,  -0.66243,   0.74033,   0.59561,  -0.71358,  -0.19263,   0.42763,   0.69097,   0.74381,  -0.16001,  -0.69201,   0.13958,   0.11101,   0.66631,  -0.80772,  -0.31435,  -0.18976,  -0.18557,  -0.28526,   0.09476,   0.08452,   0.35083,  -0.50404,   0.41216,  -0.09154,   0.45892,  -0.63096,  -0.83187,   0.68685,  -0.65355,   0.52850,  -0.63793,  -0.79817,  -0.14315
  -0.11297,   0.58965,   0.44726,   0.59842,   0.23479,   0.52825,  -0.01497,   0.23573,   0.17019,  -0.06757,   0.51243,  -0.44334,   0.28342,  -0.37323,  -0.84790,  -0.19171,   0.55922,  -0.57804,   0.29265,  -0.73501,  -0.43947,   0.73141,   0.39625,   0.65716,   0.18265,   0.75179,  -0.16618,  -0.36311,   0.02752,  -0.88083,  -0.58431,  -0.71082,  -0.23518,   0.00736,   0.23562,  -0.79918,  -0.74915,  -0.26497,   0.53406,  -0.35372,  -0.74655,   0.50040,   0.39639,   0.82332,   0.82640,  -0.70736,   0.55014,  -0.45041,   0.46711,   0.11094,   0.16700,   0.36058,  -0.53210,   0.14135,  -0.52669,  -0.39262,  -0.51326,  -0.15231,  -0.15384,   0.87559,  -0.83966,   0.02762,   0.04302,  -0.63986,   0.66487,   0.69120,  -0.05980,   0.83658,  -0.53047,  -0.06167,   0.27063,  -0.49428,  -0.08656,   0.41676,   0.13396,  -0.22740,   0.86237,   0.82889,   0.21894,  -0.22983,  -0.38545,  -0.81454,   0.13693,  -0.32190,   0.09657,   0.05297,  -0.00944,  -0.46656,  -0.81298,  -0.46698,   0.90293,  -0.57090,   0.51921,  -0.12632,   0.42183,   0.22682,   0.85533,   0.18766,   0.82095,  -0.29717,  -0.59709,  -0.04083,   0.32470,   0.43970,   0.42587,   0.38146,   0.61374,  -0.28622,   0.60047,   0.75971,  -0.75293,  -0.04521,   0.09325,   0.57282,  -0.30512,  -0.71277,  -0.37731,   0.52458,   0.39176,  -0.23849,  -0.21193,  -0.14040,  -0.36967,   0.19860,  -0.67606,   0.07065,   0.56360,  -0.62536
  -0.40622,  -0.48698,  -0.62962,  -0.29059,   0.57016,  -0.79928,   0.27318,   0.49532,  -0.10890,   0.39728,  -0.75665,  -0.33784,  -0.25083,   0.75240,  -0.02779,   0.16945,  -0.06818,   0.54197,   0.44265,   0.02863,   0.20208,  -0.50691,   0.17291,  -0.27353,  -0.50153,  -0.38258,   0.93750,   0.76795,   0.60983,   0.53126,   0.61266,   0.52801,  -0.40717,   0.08367,  -0.48230,  -0.49542,  -0.37948,  -0.53201,  -0.30527,   0.14074,  -0.37924,  -0.31926,   0.59706,  -0.89405,  -0.30004,   0.10061,  -0.33471,   0.37950,  -0.25763,  -0.20893,  -0.84498,  -0.62980,  -0.57761,  -0.60719,   0.32287,   0.78266,   0.36941,   0.86364,   0.81782,   0.00696,  -0.61947,   0.86868,   0.08477,  -0.77471,   0.61030,   0.03161,  -0.34609,  -0.18018,  -0.15977,  -0.43847,  -0.78229,   0.50353,   0.20020,  -0.44259,   0.35014,   0.50159,  -0.53976,  -0.17472,  -0.67707,   0.17532,   0.73294,  -0.36359,  -0.48717,  -0.15059,   0.67534,   0.03102,   0.60567,   0.35955,   0.14292,  -0.23696,  -0.31046,  -0.14587,  -0.47735,  -0.17867,  -0.50420,  -0.74506,  -0.69998,  -0.49144,  -0.31003,   0.45258,   0.19802,  -0.16620,  -0.75748,  -0.42179,  -0.36008,  -0.50556,  -0.80899,   0.46243,   0.65659,  -0.43449,   0.24439,   0.33326,  -0.37219,  -0.63261,  -0.59752,  -0.18624,   0.72464,  -0.78923,  -0.36274,  -0.48377,   0.57581,  -0.09630,  -0.47491,   0.42088,  -0.17962,  -0.73137,   0.04100,  -0.57261
  -0.49318,  -0.02843,  -0.17819,  -0.56789,  -0.71447,  -0.57177,  -0.31637,   0.56114,   0.17503,   0.74061,   0.16050,   0.16711,   0.64966,  -0.09033,  -0.82422,   0.83977,  -0.61292,   0.77933,  -0.50430,  -0.78911,  -0.50224,  -0.66479,  -0.82660,  -0.28598,  -0.18292,   0.49363,  -0.53715,  -0.85722,  -0.17016,   0.07938,  -0.26612,   0.86227,  -0.85875,  -0.47361,   0.20127,  -0.36941,  -0.38051,   0.45628,  -0.38710,  -0.60006,   0.93043,  -0.89600,  -0.46824,   0.79407,  -0.51334,  -0.03230,  -0.11393,   0.12588,  -0.66690,   0.45941,  -0.60020,  -0.31399,  -0.30629,   0.40160,   0.03465,  -0.69763,   0.27330,  -0.06360,  -0.54597,   0.46395,   0.47594,  -0.21869,  -0.33659,  -0.71391,  -0.35773,  -0.14428,  -0.39378,   0.70137,   0.31257,  -0.55056,  -0.49153,  -0.79427,  -0.30501,  -0.08383,  -0.50127,  -0.05890,   0.42475,   0.00666,   0.36122,   0.04216,  -0.66203,  -0.33519,  -0.70894,   0.71657,  -0.08220,   0.32297,   0.11852,  -0.73760,  -0.66404,   0.86768,  -0.16131,  -0.83456,   0.67185,  -0.50641,  -0.30028,  -0.78319,  -0.18717,   0.58958,  -0.32777,   0.39887,  -0.00529,   0.41418,   0.22655,   0.64334,  -0.51595,   0.56017,   0.37664,   0.15774,  -0.47145,   0.66957,   0.28814,  -0.55392,  -0.50961,   0.15661,  -0.88131,   0.18259,  -0.76311,   0.40427,  -0.34445,  -0.31890,  -0.73797,  -0.16189,   0.77625,   0.04263,   0.61988,  -0.58604,  -0.61254,  -0.74402
   0.39990,   0.09719,   0.39057,   0.61040,  -0.80267,   0.39856,   0.64461,   0.71274,   0.41976,  -0.42150,  -0.26034,  -0.82215,   0.32241,  -0.28226,  -0.61041,  -0.82637,   0.22511,  -0.54515,   0.82064,  -0.44287,   0.19765,  -0.32186,   0.02208,   0.44899,  -0.81789,  -0.33384,   0.71578,  -0.15757,   0.10975,  -0.74301,  -0.32069,  -0.20023,   0.58008,  -0.04304,   0.51306,   0.72399,  -0.60503,   0.09811,  -0.08560,  -0.68090,  -0.39409,   0.20257,  -0.11580,   0.53103,   0.50893,  -0.58692,   0.38944,   0.42867,   0.28922,   0.30785,   0.75201,   0.33396,   0.08468,  -0.16706,  -0.63512,  -0.35437,  -0.59702,  -0.33928,   0.10842,  -0.56175,   0.17734,   0.21410,   0.40291,  -0.48530,  -0.09179,   0.93123,   0.67606,   0.01551,   0.13228,   0.65519,   0.10590,  -0.49240,  -0.20535,   0.06597,  -0.67121,   0.73329,  -0.04103,   0.87000,  -0.21533,  -0.32536,   0.33404,  -0.72182,   0.73370,  -0.39733,   0.48853,   0.12684,   0.59629,  -0.12885,  -0.06611,   0.25838,   0.60925,   0.41857,   0.81888,  -0.17594,  -0.85340,  -0.21850,   0.36022,   0.50308,   0.60587,  -0.16756,  -0.77242,  -0.01045,  -0.27478,   0.49360,   0.43622,   0.05737,  -0.27971,  -0.72390,   0.89936,  -0.08496,  -0.14329,   0.44569,   0.04030,   0.55591,  -0.67133,  -0.13148,  -0.53572,  -0.33012,  -0.16747,  -0.03960,  -0.84812,   0.05834,   0.01364,   0.55339,  -0.73747,   0.62161,  -0.11322,  -0.71210
   0.92213,  -0.38702,   0.88484,  -0.63400,   0.65663,   0.46527,  -0.86609,  -0.26997,  -0.46292,  -0.68217,  -0.51287,   0.36004,  -0.44105,  -0.00363,   0.69909,   0.57176,   0.26903,   0.13387,  -0.29058,   0.64386,   0.79690,  -0.51528,   0.60275,   0.74332,  -0.62806,  -0.93854,   0.12069,  -0.33263,  -0.33157,   0.11930,   0.09042,   0.10522,   0.66315,   0.88085,   0.22591,   0.43406,  -0.62252,   0.50981,  -0.73168,   0.09346,  -0.37087,  -0.20743,   0.26054,  -0.55255,   0.88083,   0.09022,  -0.17531,   0.52817,  -0.04578,  -0.12959,   0.90824,  -0.56933,  -0.38645,  -0.65433,  -0.08022,  -0.26754,   0.73285,   0.02562,   0.25113,  -0.86047,  -0.03493,  -0.17930,  -0.51966,  -0.63330,  -0.38341,   0.68201,   0.86943,  -0.44503,   0.55920,   0.28472,   0.07960,   0.89461,   0.19981,   0.40797,   0.54339,   0.53151,  -0.35209,   0.22854,  -0.62497,   0.57248,   0.55578,   0.21564,   0.64364,  -0.40866,  -0.38117,  -0.57817,  -0.59913,   0.76254,  -0.56771,  -0.64792,  -0.08138,   0.06771,  -0.56410,   0.44211,  -0.57170,   0.48537,  -0.50496,  -0.67997,   0.09064,   0.50690,  -0.85352,  -0.56509,  -0.79391,  -0.08060,  -0.18970,  -0.27055,  -0.07542,  -0.49394,  -0.86172,  -0.43875,   0.24868,  -0.49785,   0.40480,  -0.31294,   0.27040,  -0.59685,   0.16218,  -0.25777,   0.72429,   0.69685,   0.06816,   0.41954,  -0.32104,  -0.62793,   0.65802,  -0.10824,   0.73036,   0.66526
   0.22214,   0.63723,   0.33580,  -0.45221,   0.00953,   0.41164,  -0.52780,  -0.64726,   0.36830,  -0.37068,   0.81380,  -0.00096,  -0.19154,  -0.49284,  -0.22832,  -0.63450,  -0.20883,  -0.70869,  -0.69576,   0.07192,  -0.33530,  -0.07045,  -0.16412,  -0.11012,   0.69168,   0.64805,  -0.36592,   0.20146,  -0.60518,   0.36799,   0.47285,   0.48698,   0.20455,   0.29563,   0.76972,   0.78073,  -0.21080,  -0.20577,   0.52695,  -0.11465,   0.77764,  -0.05143,  -0.70160,   0.44101,  -0.63443,   0.23756,  -0.44275,  -0.61907,   0.18293,   0.71975,   0.34800,   0.16453,   0.66811,   0.74917,   0.49348,  -0.12036,   0.16485,   0.70574,  -0.27817,   0.05936,   0.37511,  -0.34490,  -0.74702,  -0.57768,  -0.42211,  -0.50767,   0.57422,   0.23234,  -0.08470,  -0.07413,  -0.24085,  -0.60537,   0.02318,   0.33789,   0.18635,   0.40587,   0.55668,   0.85309,   0.50311,  -0.22970,  -0.50780,  -0.18099,  -0.79305,  -0.14035,  -0.45329,   0.40867,  -0.61170,  -0.26777,   0.15188,   0.56462,   0.22429,   0.33282,   0.46767,   0.80565,  -0.56262,  -0.35778,  -0.25637,  -0.51954,  -0.18111,  -0.87801,   0.07154,   0.55350,   0.82911,   0.10452,   0.56834,   0.30092,   0.51855,   0.21696,  -0.62701,   0.07175,  -0.06025,  -0.66741,  -0.00058,   0.78120,   0.71200,  -0.71362,  -0.27300,   0.26123,   0.29348,  -0.63503,  -0.36756,   0.24374,   0.39756,  -0.59170,   0.41861,  -0.15301,  -0.35218,   0.42381
  -0.02786,   0.54778,   0.83534,   0.37836,   0.46552,   0.20850,   0.19480,  -0.19535,  -0.07889,  -0.61324,   0.15953,  -0.78424,  -0.27029,  -0.50202,   0.31593,  -0.39036,   0.37524,  -0.57232,  -0.21484,   0.75375,   0.37151,   0.24241,   0.18685,   0.84121,  -0.00318,  -0.48266,  -0.29155,   0.60873,   0.56306,   0.25723,   0.18661,  -0.47145,  -0.40569,  -0.08150,  -0.15964,  -0.74841,  -0.13515,   0.17030,   0.24272,   0.63121,  -0.62082,   0.59643,   0.54928,  -0.15043,   0.71423,  -0.14426,   0.76776,  -0.15233,   0.33021,   0.04801,   0.21346,   0.72672,  -0.18817,  -0.51303,  -0.34739,   0.68881,  -0.71150,   0.05505,   0.14687,  -0.38998,  -0.40089,   0.55814,   0.00007,   0.18852,   0.28338,   0.23683,  -0.49030,  -0.35049,  -0.29913,  -0.16909,   0.01393,  -0.18223,   0.56283,  -0.41549,   0.33488,  -0.17953,   0.08143,   0.14429,   0.42845,   0.31835,   0.63041,   0.80543,   0.77299,  -0.03612,  -0.46564,  -0.29406,  -0.56513,   0.66046,   0.56140,  -0.17593,   0.80736,   0.43006,  -0.76390,   0.37289,  -0.38502,   0.24364,   0.76139,   0.17057,  -0.09926,  -0.41487,  -0.02046,  -0.47738,   0.14940,   0.35122,  -0.41303,   0.73203,  -0.51198,  -0.27505,   0.41377,  -0.23711,  -0.35227,   0.70901,   0.64357,  -0.11245,   0.34142,  -0.70277,   0.52886,  -0.18165,  -0.23656,  -0.66163,   0.66156,  -0.82849,   0.54133,  -0.43944,  -0.58372,   0.50639,  -0.31671,   0.38992
  -0.14488,  -0.73948,  -0.75526,  -0.22007,   0.66925,  -0.38634,   0.11267,  -0.48775,  -0.26893,  -0.87997,  -0.17092,   0.85041,  -0.36400,   0.31296,  -0.12522,  -0.19992,  -0.93750,   0.27525,  -0.74929,   0.73588,   0.35957,  -0.42290,  -0.32518,  -0.56877,  -0.90758,  -0.56602,  -0.59566,   0.37193,   0.04079,   0.49443,   0.41176,   0.03481,  -0.63508,   0.48678,  -0.32721,   0.77283,  -0.89503,  -0.66470,  -0.41934,   0.55707,   0.10821,  -0.05843,  -0.17796,  -0.58646,  -0.74766,   0.75452,  -0.48694,   0.34216,  -0.24629,  -0.44400,   0.21423,  -0.72842,   0.79958,  -0.53169,   0.45885,   0.01882,   0.51473,   0.49925,   0.86739,  -0.55674,  -0.59085,  -0.70765,  -0.34600,  -0.54339,  -0.12473,  -0.45149,   0.02249,  -0.07250,   0.32245,  -0.54904,  -0.32227,   0.60723,   0.57257,  -0.66002,   0.82143,   0.52274,  -0.50020,  -0.25748,  -0.41602,   0.26506,   0.09626,   0.20123,   0.15524,   0.03556,  -0.13420,   0.23706,  -0.03444,   0.11404,   0.79220,   0.39902,  -0.55330,  -0.31815,  -0.69759,   0.27594,   0.60832,  -0.62862,  -0.40504,  -0.89244,   0.00316,  -0.30570,   0.15361,  -0.21049,  -0.66019,  -0.68853,  -0.67172,  -0.63372,  -0.62176,   0.82356,   0.33613,  -0.62528,   0.23020,  -0.03326,  -0.11760,  -0.50526,   0.14435,  -0.56141,   0.85077,  -0.54768,   0.09514,  -0.84790,   0.65065,  -0.29808,  -0.77838,  -0.58411,  -0.09500,   0.43751,  -0.53687,  -0.59657
  -0.63250,   0.58547,   0.05785,  -0.68252,  -0.70882,  -0.53919,  -0.80149,  -0.57238,   0.60558,   0.83688,   0.14665,   0.48413,   0.49757,  -0.91790,  -0.48140,  -0.03606,  -0.72501,   0.80469,  -0.74831,  -0.16499,  -0.93750,   0.65982,  -0.87212,  -0.24906,   0.55264,   0.50408,  -0.63635,  -0.46548,  -0.47657,  -0.13862,  -0.50242,   0.73788,  -0.76821,  -0.66235,   0.07058,  -0.65110,  -0.84624,  -0.36315,   0.46568,  -0.58980,   0.70683,  -0.51743,  -0.93750,   0.85622,  -0.77074,  -0.02083,  -0.59268,  -0.72336,  -0.54087,   0.35493,  -0.60205,  -0.27595,  -0.14664,   0.57359,   0.70384,  -0.69218,   0.54293,  -0.87548,  -0.33067,   0.31885,   0.75152,  -0.43934,  -0.86097,   0.18705,  -0.39880,  -0.74057,  -0.65614,   0.78743,  -0.13588,  -0.81028,  -0.50994,  -0.59412,  -0.78832,  -0.70121,  -0.15953,  -0.07823,   0.73204,   0.31629,   0.80746,  -0.83778,  -0.67782,  -0.11338,  -0.43891,   0.86282,  -0.14989,   0.48992,  -0.45905,  -0.79309,  -0.92441,   0.36106,   0.64039,  -0.20927,   0.22905,  -0.27847,   0.68926,  -0.61205,  -0.25952,   0.68695,  -0.87065,  -0.73221,   0.81219,   0.49648,   0.14912,   0.05326,  -0.42140,  -0.52011,   0.14423,   0.80500,  -0.57644,   0.58145,   0.68171,  -0.64584,  -0.78094,   0.45140,   0.44864,   0.73609,  -0.65615,   0.37780,  -0.21708,   0.06693,  -0.61543,  -0.60896,   0.81090,  -0.41196,   0.86024,  -0.47571,  -0.76394,  -0.63212
   0.24330,   0.47991,   0.30729,   0.40336,  -0.82355,   0.75236,   0.32727,   0.36775,   0.55527,   0.21603,   0.54952,  -0.80719,   0.11692,  -0.74071,  -0.49717,  -0.78183,   0.32255,  -0.60462,   0.08803,  -0.58947,  -0.49263,  -0.11376,   0.58543,   0.36022,   0.06244,   0.35340,   0.93110,   0.22408,   0.17379,  -0.87429,  -0.57581,  -0.21131,   0.42172,   0.37545,   0.20519,  -0.86664,  -0.87318,   0.54627,   0.16700,  -0.18297,  -0.51259,  -0.28978,  -0.71774,   0.09556,   0.04659,  -0.59460,   0.62517,  -0.57387,   0.91441,   0.53035,   0.29659,   0.50016,  -0.69587,   0.14663,  -0.53108,  -0.57687,  -0.46348,  -0.25855,  -0.73889,   0.23873,  -0.54794,  -0.10332,   0.56465,  -0.02342,   0.63859,   0.66085,   0.21727,   0.31794,  -0.53039,   0.21744,   0.36558,  -0.52959,  -0.26292,   0.61569,   0.13412,  -0.41326,  -0.14331,   0.36524,   0.55217,  -0.85899,   0.85670,   0.18894,   0.80028,  -0.01083,   0.24477,  -0.17443,  -0.22394,  -0.37802,  -0.70385,  -0.55643,   0.45289,   0.01799,  -0.04343,  -0.21903,  -0.68507,   0.46526,   0.42013,   0.22058,  -0.46993,   0.06648,  -0.32365,   0.01459,   0.47194,   0.15522,  -0.24669,  -0.31039,   0.65521,  -0.80215,   0.79169,   0.76115,  -0.17502,   0.87705,   0.19558,   0.54780,  -0.46901,  -0.33879,  -0.72055,   0.44093,   0.21550,  -0.65062,  -0.85467,  -0.78740,  -0.37891,   0.47988,  -0.70252,   0.59404,   0.43521,  -0.73930
  -0.38931,  -0.23024,  -0.59028,   0.25019,  -0.24977,  -0.41151,   0.80970,   0.15295,  -0.12638,  -0.73715,  -0.49499,  -0.53901,   0.01451,   0.56227,   0.14363,  -0.18299,  -0.22531,   0.70017,  -0.03360,   0.43233,   0.14127,  -0.26402,   0.16783,   0.10759,  -0.77289,  -0.31955,   0.72430,  -0.08954,   0.39500,   0.67434,   0.34223,  -0.33483,  -0.42480,  -0.57196,  -0.35454,  -0.14970,   0.17034,  -0.17070,  -0.10721,   0.39554,   0.05009,  -0.49057,   0.43117,  -0.61118,  -0.35453,   0.68567,  -0.12149,   0.04723,  -0.06635,  -0.81214,  -0.52747,  -0.61903,  -0.82433,  -0.35519,   0.63008,  -0.21053,  -0.46358,   0.33733,   0.29444,  -0.40110,  -0.39936,  -0.28007,   0.26326,  -0.45441,   0.74888,  -0.08197,  -0.28892,   0.08270,   0.17108,  -0.59950,  -0.56739,   0.13504,  -0.51065,  -0.72425,  -0.86414,   0.15554,  -0.41179,  -0.20769,  -0.74548,   0.06938,   0.09112,  -0.73126,   0.16220,   0.03479,   0.80572,  -0.07037,   0.64054,   0.50177,   0.45344,   0.28654,  -0.19472,  -0.81689,  -0.41179,  -0.49488,  -0.51961,  -0.73847,  -0.79652,  -0.43335,   0.33215,   0.86183,   0.60858,  -0.80990,  -0.58118,  -0.65274,   0.19413,  -0.27391,  -0.23841,  -0.13736,   0.31810,  -0.25628,  -0.43955,   0.44937,  -0.26379,   0.07484,  -0.30581,  -0.65244,   0.01707,  -0.77227,  -0.86552,  -0.28265,   0.32249,   0.70621,  -0.66860,   0.46912,  -0.28864,  -0.38477,  -0.91552,  -0.29990
  -0.57255,   0.51155,  -0.39328,   0.16902,  -0.79568,  -0.67518,  -0.53869,   0.25852,   0.71833,   0.48882,   0.18749,  -0.15904,   0.65928,  -0.00892,  -0.18433,  -0.33358,  -0.22562,   0.44027,  -0.69507,  -0.34816,  -0.01158,   0.19972,  -0.75185,  -0.55747,  -0.42734,   0.10717,   0.63371,  -0.27564,  -0.54862,  -0.37285,   0.03989,   0.21657,  -0.65662,  -0.53583,   0.44196,  -0.45615,   0.20068,  -0.47298,   0.22467,  -0.39934,   0.66173,  -0.72774,  -0.78531,   0.45900,  -0.34947,  -0.08081,  -0.42273,   0.85185,  -0.37462,  -0.05161,  -0.76522,   0.17458,  -0.33167,   0.67011,  -0.11117,  -0.63581,   0.05931,  -0.53062,  -0.52495,   0.88062,   0.58959,  -0.01318,   0.16741,   0.27669,  -0.02849,  -0.35640,  -0.04864,   0.55029,   0.01614,  -0.35886,  -0.56801,  -0.71881,  -0.80936,  -0.30379,  -0.76929,   0.36998,   0.63626,  -0.17353,   0.57870,  -0.73926,   0.39922,   0.56648,  -0.53524,   0.86298,  -0.26306,   0.71691,  -0.39915,  -0.51037,  -0.64461,   0.68752,   0.03134,  -0.58624,   0.31061,  -0.24837,  -0.31492,  -0.90508,  -0.22599,   0.69492,   0.17121,   0.39910,   0.29470,  -0.22153,   0.68615,   0.31552,  -0.73582,   0.45629,  -0.17444,   0.39569,  -0.46985,  -0.40855,  -0.56477,  -0.70406,  -0.78648,   0.65627,  -0.45796,   0.70333,  -0.40987,   0.00006,   0.76803,  -0.79194,  -0.61064,  -0.55647,   0.76970,  -0.61713,   0.59197,  -0.61744,  -0.62484,  -0.42068
   0.80053,  -0.60715,   0.60328,   0.53501,   0.16859,   0.93750,   0.35161,   0.78595,   0.54554,  -0.13345,  -0.38462,  -0.58419,  -0.07509,   0.38155,  -0.84868,   0.16042,   0.44506,   0.04624,   0.16499,  -0.39586,   0.32323,  -0.39959,  -0.18660,   0.75367,   0.37658,  -0.63926,   0.57374,   0.40173,   0.52964,  -0.90357,   0.46005,  -0.25495,  -0.44392,   0.03868,   0.73636,  -0.08404,  -0.70143,  -0.15074,  -0.55761,   0.29686,  -0.62107,  -0.28273,  -0.32711,  -0.26774,   0.53837,  -0.29450,   0.04587,  -0.26292,   0.72559,   0.28656,   0.50519,   0.65678,  -0.29629,   0.26714,  -0.54050,  -0.23085,  -0.50235,  -0.60420,  -0.43194,  -0.70979,  -0.58070,   0.82018,   0.47712,  -0.90229,   0.63814,   0.87317,   0.43707,  -0.07336,   0.84328,   0.62503,   0.40696,  -0.24790,   0.54508,   0.66694,  -0.74803,   0.08783,   0.27547,   0.80621,   0.49717,   0.08117,   0.30025,  -0.66281,   0.38580,  -0.17742,   0.18397,   0.13202,   0.41082,  -0.00412,  -0.26585,  -0.52944,   0.51678,   0.78377,  -0.09369,  -0.71448,  -0.60952,   0.38863,  -0.11004,   0.21460,   0.85206,  -0.08699,  -0.28677,   0.00980,   0.45214,  -0.28883,   0.79252,  -0.00018,  -0.02157,  -0.84357,   0.26909,   0.74484,  -0.30605,  -0.63681,  -0.55601,   0.09868,  -0.44541,  -0.77763,  -0.44871,   0.10756,   0.28171,   0.37873,  -0.23936,  -0.20921,  -0.26297,   0.07982,  -0.90723,   0.35320,   0.65816,  -0.58140
