  -0.09683,  -0.56225,   0.78896,   0.54963,  -0.37962,  -0.41647,  -0.44046,   0.24392,   0.24532,   0.25229
  -0.03373,   0.38650,  -0.85955,   0.31390,   0.30124,   0.12543,   0.78703,   0.93750,   0.93750,  -0.88157
   0.93750,   0.93750,  -0.08653,   0.36993,  -0.93750,  -0.30893,   0.93750,  -0.01423,   0.93750,   0.93750
  -0.87399,  -0.20903,  -0.35550,   0.32102,  -0.93750,  -0.54771,   0.03728,  -0.38543,  -0.16438,  -0.87033
   0.91612,   0.61264,  -0.50124,  -0.48813,   0.75118,  -0.86632,   0.93077,   0.42928,   0.41082,  -0.58558
  -0.70133,   0.13191,   0.45569,   0.27368,   0.80392,   0.93750,  -0.35566,  -0.54849,  -0.87279,   0.67533
   0.19650,   0.48694,  -0.80252,   0.27460,   0.07948,  -0.89435,  -0.31892,   0.92141,   0.32386,  -0.93750
   0.60368,   0.39879,   0.23874,   0.54575,  -0.28185,   0.33788,  -0.16787,   0.28541,   0.17049,  -0.36791
  -0.56673,  -0.70331,   0.64730,  -0.80038,   0.93750,  -0.56342,  -0.88612,  -0.80334,  -0.89556,   0.65458
  -0.40329,   0.93750,  -0.78416,   0.55705,   0.93750,  -0.88772,  -0.44593,  -0.93750,  -0.93750,  -0.93750
  -0.62785,  -0.44889,   0.53286,   0.93750,  -0.70280,   0.69535,  -0.87309,  -0.56925,  -0.32106,  -0.84309
   0.27247,  -0.67924,  -0.48436,   0.79894,   0.84642,  -0.14764,  -0.49043,  -0.65337,  -0.86753,   0.93629
  -0.03567,   0.87842,   0.12188,   0.77523,   0.93750,  -0.93750,  -0.87439,   0.93750,  -0.71406,   0.12655
   0.88393,   0.93750,  -0.90574,  -0.93750,   0.21581,  -0.62924,  -0.75277,  -0.03115,   0.93750,  -0.86977
   0.87404,   0.53489,   0.73844,   0.07808,   0.86389,   0.87469,  -0.28023,  -0.45905,   0.56509,   0.85805
  -0.28904,  -0.06238,  -0.37528,  -0.93673,   0.74071,   0.93750,   0.68782,   0.93750,  -0.63923,  -0.74544
  -0.87494,  -0.25427,  -0.60607,   0.88021,  -0.91967,   0.87128,   0.93625,  -0.78793,  -0.67302,  -0.13004
  -0.92186,   0.93750,  -0.67734,  -0.93750,  -0.87908,   0.85685,  -0.89221,  -0.74933,   0.93626,  -0.87012
   0.30312,   0.81551,  -0.50202,   0.93750,   0.17710,  -0.64630,  -0.15759,  -0.92383,  -0.93470,   0.93750
   0.43616,   0.02983,   0.02903,   0.30381,   0.93523,   0.68179,  -0.10143,   0.11137,  -0.21941,  -0.30550
  -0.31773,  -0.93750,   0.79320,  -0.93750,   0.93750,  -0.10866,   0.12673,  -0.72558,   0.67595,   0.93750
  -0.27606,  -0.73758,  -0.43354,   0.45273,  -0.93750,   0.12895,  -0.09214,  -0.86443,   0.16944,  -0.68068
   0.55065,  -0.80233,   0.73684,  -0.18110,   0.86406,   0.81930,  -0.90814,  -0.70284,   0.92276,  -0.93750
  -0.48230,   0.93750,  -0.93750,  -0.09547,   0.23108,  -0.25359,   0.93750,   0.93750,   0.46036,  -0.41619
  -0.62190,   0.82405,   0.61201,   0.17835,   0.80856,   0.29707,  -0.74723,  -0.32639,   0.58200,  -0.82503
  -0.93750,   0.66156,   0.46078,   0.64835,   0.40716,  -0.18284,  -0.87975,  -0.66561,  -0.09454,  -0.24395
  -0.82586,  -0.78991,  -0.39867,  -0.67124,   0.75963,  -0.10862,  -0.11877,   0.93750,   0.18852,  -0.93750
   0.32968,   0.88254,  -0.93750,   0.93750,  -0.93750,  -0.87444,   0.80589,  -0.93750,   0.93750,  -0.74172
  -0.93750,  -0.13524,  -0.93750,   0.13014,  -0.93750,  -0.06686,  -0.77226,   0.93750,   0.14810,   0.11944
  -0.70378,   0.83873,  -0.21068,  -0.92000,   0.64754,  -0.62179,  -0.40115,  -0.64117,   0.93750,   0.68098
   0.93750,  -0.87640,   0.93750,  -0.86435,  -0.93750,  -0.47946,  -0.79735,   0.66742,  -0.31377,  -0.68014
   0.75644,   0.52280,   0.31687,   0.52977,  -0.09736,   0.06381,   0.68113,  -0.93750,   0.69196,   0.93750
   0.93750,  -0.93750,  -0.06848,  -0.37978,   0.93750,   0.79268,   0.93750,  -0.29027,  -0.20908,  -0.26535
   0.58866,   0.83149,  -0.93750,  -0.00640,   0.92570,   0.48930,  -0.87450,  -0.49214,  -0.82505,  -0.86723
  -0.00361,  -0.18401,  -0.18646,  -0.10340,   0.93750,   0.14826,   0.88002,   0.80763,   0.75621,  -0.87902
  -0.35205,   0.22647,  -0.73471,   0.23880,  -0.22689,   0.88419,   0.80950,  -0.61067,  -0.58716,   0.25108
   0.38838,   0.93750,   0.75647,  -0.93750,  -0.93750,  -0.27903,  -0.13082,  -0.21610,  -0.18646,   0.87814
  -0.05224,   0.75050,  -0.75652,  -0.78113,  -0.92552,  -0.53803,   0.20894,   0.93168,   0.43354,   0.92619
  -0.93750,   0.93750,   0.93750,  -0.68854,   0.11780,  -0.11953,  -0.75305,  -0.38015,  -0.93750,   0.27349
   0.83910,   0.39111,   0.64609,  -0.80392,   0.16692,  -0.83296,   0.28125,  -0.29798,   0.68833,  -0.45267
   0.86320,  -0.93750,  -0.42572,  -0.24683,   0.37975,  -0.39498,   0.35695,   0.93750,   0.82439,  -0.29289
  -0.35391,   0.26073,   0.82738,  -0.47262,   0.51574,  -0.77920,   0.61211,  -0.71073,   0.39618,   0.93750
  -0.47405,  -0.85315,  -0.12189,  -0.17190,   0.93041,   0.19780,   0.93750,  -0.55394,  -0.92653,   0.73029
   0.93750,   0.82951,   0.67799,   0.27623,   0.93750,  -0.87902,   0.87963,   0.87262,   0.28258,   0.93750
  -0.67307,  -0.85018,  -0.86492,  -0.33418,   0.93750,   0.92275,  -0.47915,   0.80293,   0.93750,  -0.93750
  -0.48383,   0.22867,   0.67155,  -0.54117,   0.93750,  -0.08181,   0.21568,  -0.15718,   0.25504,   0.49756
   0.69274,   0.93133,  -0.93750,  -0.66668,   0.88050,   0.62600,   0.04197,  -0.76175,  -0.18767,   0.73453
  -0.63727,  -0.59664,   0.55626,   0.29046,   0.55690,   0.59372,   0.93750,   0.19808,   0.71767,  -0.41431
   0.22877,   0.68088,  -0.86887,  -0.87256,   0.93750,  -0.64142,   0.75100,   0.93312,  -0.93750,  -0.21041
  -0.17899,   0.93750,   0.20752,  -0.43510,   0.26712,   0.01595,  -0.93750,   0.00315,  -0.87029,  -0.87952
  -0.93750,  -0.93750,  -0.16763,  -0.19953,   0.61241,  -0.49353,   0.44358,  -0.69507,   0.30921,   0.46497
   0.87397,   0.63244,  -0.61991,  -0.25431,  -0.93515,  -0.37540,  -0.06563,   0.69886,   0.58491,   0.93199
   0.84509,   0.75277,  -0.38768,   0.19647,   0.22257,   0.45756,   0.46915,   0.51240,   0.00882,   0.12576
  -0.70846,   0.93750,  -0.81530,  -0.16227,  -0.63771,  -0.70057,  -0.06552,  -0.76774,   0.26374,  -0.66768
  -0.63893,   0.89416,  -0.89064,  -0.93750,   0.21990,   0.29461,  -0.25263,   0.80924,  -0.63560,  -0.05453
  -0.89810,   0.91235,  -0.22706,  -0.67606,   0.87703,   0.91380,  -0.63173,   0.93750,  -0.27303,  -0.27216
  -0.53001,   0.85270,   0.11020,  -0.46629,  -0.28672,   0.75616,   0.76374,  -0.02958,   0.93053,  -0.93750
  -0.44035,  -0.93750,  -0.92093,  -0.73942,   0.16848,  -0.93750,   0.93750,  -0.93750,   0.93750,  -0.93750
  -0.93750,  -0.05943,   0.09494,  -0.63534,  -0.93750,  -0.43527,  -0.93750,  -0.93750,   0.33034,  -0.93750
  -0.57478,  -0.93750,  -0.93750,  -0.93750,  -0.84723,   0.93750,  -0.93750,  -0.87408,  -0.90707,  -0.08282
  -0.48059,   0.70431,   0.12807,   0.79528,   0.43085,   0.87054,   0.19388,   0.85073,   0.06214,  -0.05079
  -0.69273,  -0.35081,  -0.81262,   0.93750,   0.93021,  -0.88382,   0.73260,  -0.93267,   0.39304,  -0.66237
  -0.81617,   0.27679,   0.78114,   0.22172,   0.74336,   0.13707,   0.93750,   0.67952,  -0.71062,  -0.65705
   0.87343,  -0.88171,   0.93750,  -0.88717,   0.58524,   0.15082,   0.36780,  -0.93750,  -0.89046,  -0.14016
  -0.93750,  -0.09695,   0.93750,  -0.93750,  -0.93750,  -0.93750,  -0.28890,   0.93750,  -0.24152,  -0.02780
  -0.23898,  -0.79530,  -0.93750,  -0.85229,  -0.33043,   0.92971,  -0.42067,   0.92331,   0.93750,   0.04120
  -0.79902,  -0.93634,   0.63614,   0.10973,   0.14943,  -0.37401,  -0.19506,   0.93750,   0.87592,  -0.35785
   0.84814,   0.20868,   0.34625,  -0.02076,   0.20781,   0.41311,  -0.14657,  -0.56943,   0.36972,   0.42426
   0.06497,   0.93750,  -0.93750,  -0.61183,  -0.80531,  -0.87053,  -0.34162,   0.65685,  -0.93750,   0.52873
  -0.86831,   0.20517,   0.85201,   0.92448,   0.38139,  -0.93750,  -0.85851,  -0.81460,  -0.86215,   0.15684
   0.78761,  -0.68293,  -0.29737,   0.00157,   0.93568,  -0.15205,   0.93750,  -0.14280,  -0.07850,  -0.85822
   0.86645,   0.82294,   0.93750,  -0.50938,   0.06802,   0.07223,  -0.84029,  -0.66525,  -0.87015,   0.16022
   0.22626,  -0.93750,  -0.56307,  -0.37565,  -0.93750,  -0.83542,   0.33777,  -0.41369,  -0.93750,   0.93750
  -0.88880,  -0.93750,  -0.93750,   0.93750,  -0.74521,   0.62783,  -0.93750,   0.81088,   0.55334,  -0.93750
  -0.93750,   0.81360,   0.23497,   0.49267,  -0.86530,  -0.26045,   0.11346,  -0.65666,  -0.64130,   0.27994
  -0.35621,   0.93628,  -0.01270,  -0.92872,  -0.91495,  -0.70104,   0.11577,   0.93750,  -0.30067,  -0.86211
  -0.70072,   0.80556,  -0.65436,  -0.80940,  -0.88087,  -0.93069,   0.77057,   0.59898,   0.31745,   0.08164
  -0.89713,   0.93750,   0.59970,  -0.93750,   0.93750,   0.93750,  -0.24350,   0.93086,   0.14929,  -0.49422
  -0.81513,  -0.14560,   0.57901,   0.73598,   0.01369,  -0.93750,   0.93750,   0.86629,  -0.79536,   0.75739
   0.73947,  -0.80839,   0.00177,  -0.34024,  -0.49233,   0.73616,  -0.30858,   0.73155,   0.63584,   0.93750
   0.93160,  -0.04110,  -0.87589,  -0.71274,  -0.79818,  -0.77050,  -0.11937,  -0.33410,   0.93750,   0.89066
   0.93750,  -0.85479,   0.12823,  -0.86137,  -0.74295,  -0.93750,   0.93381,  -0.61209,  -0.93750,  -0.91259
   0.17286,   0.55492,  -0.41210,   0.38881,   0.93396,  -0.62482,  -0.72312,  -0.83769,   0.93750,  -0.82481
   0.23369,  -0.92824,   0.27810,  -0.31516,   0.42210,  -0.68688,  -0.02089,  -0.59593,   0.93750,  -0.90654
   0.23613,   0.62585,  -0.82044,  -0.68298,   0.57109,  -0.88824,   0.80846,  -0.81815,   0.20648,  -0.68294
   0.47977,  -0.85847,  -0.86163,   0.87500,   0.82730,   0.93750,  -0.65229,   0.93750,  -0.80018,  -0.86536
   0.29925,   0.48883,  -0.32842,  -0.54144,   0.09572,  -0.80122,   0.18163,  -0.37922,  -0.56250,  -0.68018
  -0.86202,   0.87649,   0.19814,  -0.78685,   0.88472,  -0.27584,   0.49897,  -0.79211,  -0.34374,   0.93750
   0.42054,   0.65794,  -0.93750,   0.93750,  -0.33543,  -0.93750,  -0.93750,   0.93750,   0.93750,  -0.93750
   0.87027,  -0.24311,  -0.60048,   0.93750,  -0.28406,  -0.86675,   0.59322,  -0.93259,  -0.00101,  -0.78872
  -0.93750,   0.93750,   0.93750,  -0.93750,   0.70395,  -0.93750,  -0.28794,   0.93750,  -0.50725,  -0.78129
   0.60915,  -0.04750,  -0.02847,   0.92673,  -0.69560,  -0.86311,   0.93750,   0.91618,   0.62178,   0.42404
  -0.45762,   0.93750,  -0.81521,  -0.66475,  -0.93750,  -0.62902,  -0.68020,   0.93750,  -0.87193,  -0.31380
  -0.01647,  -0.93750,  -0.90054,  -0.55556,   0.93474,  -0.58193,  -0.86132,  -0.90712,   0.93750,   0.75643
  -0.52455,   0.86949,  -0.44807,   0.26965,   0.80457,  -0.60814,   0.25629,   0.26911,   0.93750,   0.37527
   0.87103,  -0.20091,  -0.51688,   0.05895,   0.93750,   0.12790,  -0.85526,  -0.88509,  -0.88353,  -0.93750
  -0.93750,  -0.02262,   0.93750,  -0.06366,  -0.86120,   0.92974,  -0.60799,  -0.93750,  -0.64626,   0.60603
  -0.58979,  -0.79163,   0.22929,   0.70247,   0.33223,   0.24530,  -0.73241,  -0.20976,   0.42110,   0.19664
  -0.46099,   0.75846,   0.74197,  -0.68732,   0.87535,  -0.07709,  -0.81160,  -0.81472,  -0.14656,  -0.87639
   0.32995,   0.32867,  -0.78571,   0.55604,  -0.72535,   0.60938,  -0.23910,  -0.16503,   0.79655,   0.45899
  -0.41883,   0.86460,   0.63860,   0.36608,   0.33180,  -0.86098,  -0.81538,   0.02233,  -0.60673,  -0.52809
  -0.85901,  -0.57765,   0.93750,   0.87302,  -0.89011,   0.53409,  -0.74667,   0.93750,  -0.21472,  -0.67413
  -0.92607,  -0.89878,   0.93750,  -0.89405,  -0.36015,   0.51735,  -0.49491,  -0.87349,  -0.00603,   0.53108
  -0.61638,   0.76833,   0.63103,  -0.93750,  -0.93750,  -0.02688,  -0.06287,   0.00208,  -0.93750,  -0.63446
   0.78615,   0.76302,  -0.83828,   0.32352,   0.88021,  -0.93614,   0.93750,  -0.15914,  -0.78282,  -0.13308
   0.41271,   0.47945,  -0.93750,  -0.63164,   0.15986,   0.06383,   0.93750,  -0.53489,  -0.93750,   0.45562
  -0.05680,  -0.68686,   0.91512,   0.25815,   0.74571,  -0.93750,   0.78359,  -0.61514,  -0.74308,   0.61949
   0.55782,   0.00242,   0.70452,  -0.93750,  -0.28292,   0.01058,  -0.63184,   0.93750,  -0.00939,   0.40039
   0.93750,  -0.93750,   0.69751,  -0.47030,   0.87688,   0.13633,  -0.20452,   0.22057,  -0.93750,   0.21851
   0.93750,  -0.40803,  -0.65260,   0.86881,   0.93750,  -0.12237,  -0.93750,  -0.15456,   0.92173,  -0.92593
  -0.32113,  -0.92804,  -0.80335,  -0.09714,   0.81994,  -0.70836,   0.93750,   0.30451,  -0.88001,   0.81408
   0.88412,  -0.93750,  -0.02936,  -0.52334,  -0.93750,  -0.93750,  -0.73656,  -0.73085,  -0.29856,   0.93750
  -0.77791,   0.93750,  -0.49839,   0.75980,   0.93200,  -0.93750,   0.52928,   0.92879,   0.81185,  -0.90095
   0.93750,   0.05292,   0.37900,   0.93750,  -0.08213,  -0.44228,   0.93750,  -0.93750,   0.47621,  -0.13603
   0.68232,   0.81492,   0.34030,  -0.30054,  -0.30639,  -0.49298,   0.23015,  -0.59396,   0.73791,   0.54530
  -0.56186,   0.67548,  -0.39392,  -0.12247,   0.87809,   0.00199,   0.32131,   0.28125,   0.90666,  -0.74293
   0.64785,   0.93414,   0.17378,  -0.69139,   0.93673,  -0.58305,  -0.55592,  -0.33482,  -0.80342,  -0.75104
   0.93750,  -0.75448,  -0.53921,  -0.44610,   0.05256,   0.16755,   0.82059,   0.20496,   0.84734,  -0.91479
   0.92235,  -0.84098,   0.46095,   0.87500,  -0.43471,   0.08352,   0.89427,  -0.74647,  -0.58625,   0.46607
   0.93750,  -0.12339,   0.46825,   0.42823,  -0.01125,  -0.93750,  -0.83708,   0.15110,  -0.93750,  -0.85408
  -0.28466,   0.88639,  -0.92796,   0.71728,   0.57752,  -0.67127,   0.86655,   0.87838,   0.67211,  -0.93282
  -0.92649,  -0.66893,   0.93330,  -0.32886,   0.93750,  -0.85378,  -0.43842,  -0.80985,  -0.93750,   0.93750
   0.93750,   0.93750,  -0.93750,  -0.93750,   0.16530,  -0.93750,   0.86904,   0.80588,   0.93750,   0.93750
  -0.93750,  -0.32286,   0.26447,  -0.93750,  -0.93750,  -0.90261,  -0.93750,  -0.06744,  -0.75496,   0.93750
  -0.93750,  -0.81634,   0.93750,   0.03295,  -0.09359,   0.23133,   0.19249,   0.93750,  -0.93750,   0.93750
  -0.70034,  -0.80000,  -0.93750,   0.93750,   0.14926,  -0.43185,   0.93750,   0.24863,   0.93750,  -0.49895
  -0.90161,   0.80433,   0.85475,   0.93750,  -0.83937,  -0.04247,  -0.13670,  -0.50717,   0.87582,  -0.24653
   0.54457,  -0.90321,   0.23264,   0.08425,   0.56185,  -0.80864,  -0.58259,   0.38937,   0.79139,  -0.27062
   0.87500,  -0.84293,  -0.53359,  -0.15703,   0.93471,   0.75079,   0.24841,   0.61722,   0.63314,  -0.93750
   0.93726,   0.52028,  -0.19957,   0.93750,   0.11381,  -0.29186,   0.64040,  -0.76191,  -0.88442,   0.93694
   0.80851,  -0.76363,  -0.54833,   0.66554,   0.93353,  -0.51059,  -0.31540,  -0.57006,   0.81623,  -0.44945
   0.29397,   0.05635,  -0.90667,  -0.65327,  -0.83270,   0.91180,   0.69199,   0.79840,   0.93750,  -0.16527
  -0.18461,  -0.62452,   0.93750,  -0.93750,  -0.87784,   0.93622,  -0.69282,  -0.93750,   0.42553,  -0.47121
   0.93750,   0.17372,  -0.93750,  -0.46298,   0.70723,  -0.51561,  -0.93576,   0.70775,   0.89295,   0.56708
  -0.70696,  -0.15061,  -0.10380,  -0.81576,   0.93750,  -0.32278,   0.58579,  -0.68153,  -0.73183,  -0.87136
   0.77785,  -0.12005,   0.04811,  -0.06631,   0.93459,  -0.65873,   0.50796,   0.46464,   0.91422,  -0.40701
   0.13988,   0.19075,  -0.72745,   0.92706,  -0.34475,   0.15340,  -0.79739,  -0.45067,   0.17640,  -0.67679
  -0.06813,   0.65203,  -0.87967,   0.91340,  -0.44397,   0.76429,  -0.55584,  -0.09716,   0.46205,  -0.75294
  -0.93750,  -0.40319,  -0.56643,  -0.46043,  -0.87466,  -0.89637,   0.64904,  -0.44806,   0.93750,  -0.93750
   0.19924,  -0.26699,  -0.31324,   0.93750,   0.02631,  -0.64458,   0.00008,   0.93750,  -0.32508,  -0.17972
   0.20280,   0.26471,   0.63101,   0.80821,   0.55194,   0.91874,  -0.93750,   0.93750,   0.67753,   0.02765
   0.93715,   0.93750,  -0.63475,   0.84472,   0.54074,   0.26362,  -0.23618,  -0.92950,  -0.86499,  -0.54307
   0.87751,  -0.20203,   0.52669,   0.74243,  -0.79653,   0.32725,  -0.15356,  -0.45802,  -0.00580,   0.43773
  -0.59156,   0.87846,  -0.34141,  -0.71631,  -0.84124,  -0.45541,   0.93750,   0.23155,  -0.76471,   0.69493
   0.93094,  -0.74168,   0.48527,   0.88014,  -0.61182,  -0.71180,   0.09605,  -0.79423,   0.70981,   0.75076
   0.76439,   0.29217,   0.76138,  -0.42153,   0.92129,   0.87451,  -0.39326,  -0.80774,  -0.93750,   0.63052
  -0.58616,   0.21837,   0.93750,  -0.00637,   0.93750,  -0.74905,  -0.37793,   0.77622,   0.15028,   0.93750
  -0.01867,  -0.79214,  -0.86699,  -0.83669,   0.81749,  -0.87543,  -0.66611,  -0.40053,   0.93750,   0.03669
   0.67736,  -0.41792,  -0.58370,   0.93750,  -0.93750,  -0.05299,   0.93750,  -0.33989,  -0.93750,  -0.93750
   0.86456,  -0.93750,   0.54520,  -0.93750,  -0.77059,   0.60190,   0.80668,  -0.93750,   0.31787,   0.93750
  -0.46765,  -0.93750,  -0.72838,   0.28414,  -0.93647,  -0.35969,   0.32619,   0.93750,  -0.52268,  -0.76031
   0.59787,   0.81088,  -0.23714,   0.14828,  -0.14440,  -0.37969,   0.44418,   0.81613,   0.93733,  -0.77222
  -0.93750,  -0.14711,  -0.85632,  -0.72103,  -0.46033,   0.89085,  -0.86847,  -0.09793,   0.93750,   0.42019
  -0.70408,   0.87432,  -0.93750,   0.91829,   0.76029,   0.56853,  -0.61167,  -0.05269,  -0.51092,   0.93750
   0.19391,  -0.49062,  -0.81861,   0.41067,   0.93750,  -0.85930,   0.82077,  -0.36667,   0.75357,  -0.84947
  -0.34510,   0.53166,   0.59071,   0.75159,  -0.91335,   0.39999,   0.83364,  -0.93750,  -0.74712,   0.93362
  -0.65965,   0.63001,   0.87299,   0.19265,   0.42312,  -0.02197,  -0.15672,   0.90862,   0.69709,  -0.89087
   0.53550,   0.48583,  -0.20184,  -0.93395,  -0.51626,   0.81024,  -0.35945,   0.37332,   0.27972,   0.27686
   0.66082,   0.87752,   0.57260,  -0.78836,   0.71635,   0.86810,  -0.69337,   0.49842,  -0.23283,  -0.88191
   0.64767,   0.76487,  -0.87683,  -0.36857,   0.93750,  -0.80112,  -0.93750,   0.82311,   0.74461,  -0.93750
   0.93750,   0.66298,  -0.93750,  -0.53321,  -0.93124,  -0.51411,  -0.06903,   0.06020,   0.24490,   0.45684
  -0.05013,  -0.75879,   0.42386,  -0.82040,   0.25953,  -0.81475,   0.87555,  -0.14795,  -0.93750,  -0.04433
   0.63849,  -0.71122,   0.49215,   0.03755,   0.93750,   0.80013,  -0.69134,  -0.51907,  -0.88958,  -0.87588
   0.62298,  -0.08569,  -0.06329,   0.38464,   0.66124,  -0.63908,   0.16107,   0.06513,   0.80987,  -0.05767
  -0.37529,  -0.24214,  -0.88596,   0.80765,  -0.72559,  -0.69095,   0.93750,   0.35846,   0.46814,   0.30259
   0.79985,   0.86488,   0.21826,   0.49869,   0.31784,   0.74450,  -0.68207,   0.80468,  -0.80857,   0.25625
   0.64412,   0.35591,  -0.80419,  -0.93750,  -0.55539,   0.57414,   0.93750,  -0.56011,  -0.39639,   0.93750
   0.65671,   0.93750,  -0.61404,   0.60767,  -0.33672,  -0.87542,   0.41178,   0.06020,  -0.29908,   0.44222
  -0.58036,  -0.32097,   0.93750,   0.93750,   0.61407,  -0.93750,  -0.48092,  -0.22884,  -0.92447,  -0.09242
  -0.63048,   0.79478,   0.05345,  -0.90507,   0.01465,   0.38926,  -0.82566,   0.93750,   0.57513,  -0.82488
   0.93750,  -0.19664,  -0.93750,  -0.42408,   0.93750,  -0.93750,  -0.20989,  -0.93750,  -0.75850,  -0.87147
   0.92144,  -0.92360,  -0.64766,   0.71092,   0.55313,  -0.93750,  -0.72763,   0.82193,   0.93013,  -0.36663
  -0.85151,  -0.62564,   0.94467,   0.55852,   0.93706,   0.53755,  -0.33169,   0.65012,  -0.52725,  -0.83029
   0.11067,  -0.51824,  -0.52726,   0.87500,  -0.38149,   0.18630,  -0.36125,   0.45860,  -0.09716,  -0.19556
  -0.81818,  -0.04538,  -0.56064,   0.93750,  -0.93750,  -0.85441,   0.93750,   0.24004,   0.93750,   0.40020
   0.39566,   0.86418,   0.14258,   0.28191,  -0.87588,  -0.78273,   0.63939,   0.33878,   0.28474,  -0.16436
  -0.36999,  -0.34641,  -0.27664,   0.21668,   0.08524,  -0.93750,   0.92325,   0.26988,   0.93750,   0.80606
  -0.66510,   0.02442,   0.71068,   0.09785,   0.93750,  -0.77000,   0.02449,   0.70132,   0.93750,   0.09210
   0.23904,  -0.24001,  -0.00161,   0.24057,   0.43112,   0.01294,  -0.08806,   0.37638,   0.52577,  -0.43510
  -0.93645,   0.18001,   0.27496,  -0.81677,   0.93750,  -0.03731,  -0.93750,   0.83024,  -0.47815,   0.80163
  -0.25244,  -0.69433,   0.93750,  -0.91631,  -0.62239,   0.87936,  -0.02944,   0.57456,  -0.69081,   0.07520
   0.86482,  -0.92242,   0.93750,   0.68263,   0.93750,   0.58505,   0.89919,  -0.63467,  -0.78125,  -0.27040
   0.00928,  -0.87087,  -0.93750,   0.60522,  -0.76690,  -0.56499,   0.08862,  -0.53233,  -0.72045,  -0.51397
  -0.74379,  -0.93750,   0.00801,  -0.93750,   0.93750,  -0.38001,   0.22035,   0.60886,   0.70660,   0.30203
   0.62455,   0.54787,  -0.50358,  -0.93515,  -0.87495,   0.42544,   0.49264,  -0.87448,   0.65805,   0.93750
  -0.75095,  -0.33433,   0.59474,   0.93750,  -0.93750,  -0.82526,   0.15636,   0.93750,   0.30671,   0.93750
  -0.93750,  -0.48734,  -0.19653,  -0.93750,  -0.46340,   0.93750,  -0.93750,  -0.40158,   0.35101,  -0.77684
  -0.92859,  -0.78581,  -0.78420,   0.70382,  -0.92210,  -0.37842,   0.46627,  -0.71241,   0.79680,   0.92327
   0.88022,   0.88393,   0.86292,   0.01926,  -0.37488,   0.05978,   0.72523,   0.20330,   0.87519,  -0.19420
  -0.39533,  -0.93750,   0.47252,  -0.39340,  -0.93750,   0.42523,  -0.02573,   0.14064,  -0.20703,  -0.93750
  -0.85173,  -0.86671,  -0.93750,  -0.42809,  -0.90090,  -0.81508,   0.04871,   0.91171,   0.73735,   0.86515
  -0.70701,   0.79283,   0.11215,   0.93750,  -0.89509,  -0.20740,   0.48716,  -0.09241,  -0.56549,   0.81984
   0.33693,  -0.05194,  -0.23922,  -0.71710,  -0.53956,   0.82522,  -0.81189,   0.28808,  -0.54029,   0.87523
   0.70870,   0.73100,   0.16110,   0.14061,   0.93750,  -0.59043,  -0.87709,  -0.79630,   0.13493,  -0.93750
  -0.92387,   0.42913,  -0.22099,  -0.85463,  -0.72630,   0.92560,   0.93750,   0.07896,  -0.66882,  -0.08427
   0.81421,   0.93750,   0.76224,   0.93750,  -0.67755,  -0.93750,  -0.08989,  -0.48792,  -0.66715,   0.12501
  -0.52677,  -0.80162,   0.87305,   0.93750,   0.93750,  -0.62745,  -0.42790,  -0.93750,  -0.81995,  -0.93750
   0.04723,   0.83386,   0.45272,  -0.74540,  -0.91251,  -0.25350,  -0.82938,   0.62713,   0.82231,   0.64330
  -0.75973,   0.25218,  -0.28579,   0.27663,   0.93750,  -0.19193,   0.37591,   0.09321,  -0.19164,  -0.93750
   0.70559,  -0.81885,   0.59216,   0.71057,   0.75098,   0.25347,   0.12817,  -0.00133,   0.76129,   0.24960
   0.21776,  -0.73532,   0.62382,   0.10772,  -0.08150,  -0.06671,   0.09733,   0.33775,   0.02037,   0.42901
  -0.49352,  -0.66315,   0.90728,  -0.38320,  -0.18055,  -0.46400,   0.50860,  -0.27608,   0.93693,  -0.90474
   0.34470,  -0.93176,   0.93750,  -0.93750,   0.93750,   0.93750,  -0.68191,   0.15111,  -0.31123,  -0.93750
  -0.86469,   0.93750,  -0.76751,   0.93750,   0.52748,  -0.49197,  -0.40937,  -0.87388,  -0.33553,  -0.17344
  -0.67602,   0.92316,   0.81663,  -0.36225,   0.89467,  -0.93750,   0.60061,  -0.86804,  -0.71467,  -0.92982
  -0.90534,   0.93750,   0.64033,  -0.23146,  -0.50498,  -0.67495,   0.93750,  -0.72650,  -0.55542,   0.07473
   0.21236,   0.63147,   0.26981,  -0.50718,   0.93632,  -0.66880,   0.38454,   0.93750,  -0.78792,  -0.75844
  -0.19721,  -0.93006,   0.75307,  -0.83263,  -0.87159,  -0.93750,  -0.75011,  -0.93750,   0.93750,  -0.68333
  -0.70330,  -0.47886,   0.72624,   0.60385,   0.93750,   0.71107,  -0.52859,   0.42937,  -0.62076,   0.64464
  -0.44441,  -0.64698,  -0.39508,   0.81985,  -0.35437,  -0.91882,   0.87861,   0.93750,   0.93750,  -0.07015
  -0.58948,  -0.88367,  -0.86626,   0.91689,  -0.87706,   0.87667,  -0.46883,   0.88345,  -0.50859,   0.82417
   0.93750,   0.93429,  -0.28909,  -0.92773,  -0.93750,  -0.36567,  -0.70325,  -0.64445,  -0.31296,   0.45609
   0.93750,   0.59733,  -0.93750,  -0.50487,   0.60479,  -0.59134,   0.93750,   0.86635,  -0.56846,   0.93750
   0.32049,  -0.24657,   0.93750,   0.75628,  -0.56466,  -0.74810,  -0.80377,   0.30952,  -0.81510,   0.93750
   0.93750,  -0.81770,   0.93078,   0.87940,   0.33594,   0.41348,  -0.72491,  -0.06368,  -0.86055,  -0.03513
   0.19101,  -0.93088,   0.84091,   0.04201,   0.87324,  -0.59608,   0.28670,  -0.74771,  -0.80116,   0.86851
  -0.41506,  -0.81704,  -0.87438,  -0.82708,  -0.04795,  -0.32992,   0.11031,   0.93750,  -0.61456,  -0.82389
   0.76348,   0.86834,  -0.42145,  -0.23957,  -0.93750,   0.36875,   0.93750,  -0.36854,  -0.82078,   0.06308
   0.83917,   0.93750,  -0.12104,  -0.93750,   0.31419,  -0.92362,   0.19465,  -0.39054,  -0.16812,   0.93750
   0.61990,  -0.68062,  -0.12421,  -0.09090,  -0.81635,   0.87227,  -0.60250,  -0.93750,   0.80513,   0.93434
   0.93750,   0.93750,   0.47012,  -0.93750,  -0.30511,  -0.93750,  -0.59420,   0.69477,   0.93750,  -0.82385
   0.93750,  -0.74773,   0.09221,   0.43770,   0.76723,  -0.67468,   0.72339,   0.81293,  -0.06310,   0.67504
  -0.71178,  -0.75999,  -0.22521,  -0.75268,   0.06994,   0.87350,  -0.83182,   0.93750,   0.07556,  -0.66710
  -0.80410,   0.64869,  -0.93750,  -0.93750,   0.15480,   0.81105,   0.59162,  -0.10446,  -0.91531,   0.65697
  -0.29196,   0.40262,  -0.93750,   0.10683,   0.75629,  -0.85621,  -0.26938,  -0.93750,  -0.51340,  -0.87920
   0.82031,   0.65781,   0.68594,  -0.49672,   0.93750,  -0.44955,  -0.21365,   0.80561,  -0.03854,  -0.82424
   0.54974,  -0.88711,   0.62926,   0.81610,   0.34745,  -0.70383,   0.82089,  -0.68639,  -0.80513,   0.93750
  -0.61573,   0.70408,  -0.08178,  -0.79667,  -0.53360,   0.87585,  -0.43236,   0.93750,   0.00556,  -0.68472
  -0.43728,  -0.43598,  -0.49633,  -0.93750,  -0.92995,  -0.78145,   0.63483,  -0.32993,  -0.83652,   0.93750
  -0.81182,   0.56580,   0.52218,  -0.43550,  -0.93750,   0.77797,   0.93750,  -0.69645,  -0.22598,   0.60445
   0.38910,  -0.77283,  -0.74911,  -0.93750,  -0.90008,   0.57139,  -0.87042,   0.93750,  -0.08106,  -0.57581
  -0.65915,  -0.87216,  -0.87510,   0.93750,   0.93750,  -0.87167,  -0.12401,  -0.34949,   0.06471,  -0.93750
   0.22799,   0.04338,   0.50616,   0.93750,  -0.41900,   0.49413,   0.76708,  -0.35219,  -0.82155,   0.42707
   0.79043,   0.68456,   0.43361,  -0.22502,   0.00060,   0.34838,   0.86494,  -0.67000,  -0.03199,  -0.61242
  -0.93750,  -0.22095,   0.56739,   0.93750,   0.93750,  -0.00479,  -0.10203,   0.88590,  -0.78124,  -0.30585
   0.53194,   0.81721,   0.93750,  -0.56351,   0.74388,   0.75137,   0.72270,  -0.74428,  -0.64860,  -0.34974
   0.15613,   0.67645,  -0.71128,  -0.75189,   0.93750,   0.41044,  -0.89628,   0.65955,  -0.88205,  -0.93750
   0.44824,  -0.36610,   0.71190,   0.02621,   0.55554,   0.39217,  -0.06010,   0.67906,   0.34558,  -0.38807
  -0.89063,   0.01691,   0.40001,  -0.28467,  -0.75871,   0.83579,   0.13518,   0.35948,   0.30347,   0.85330
   0.93750,   0.08197,  -0.19576,  -0.93750,   0.41946,   0.93750,   0.93516,  -0.55633,   0.93750,   0.52395
  -0.93585,  -0.87284,   0.82276,   0.93740,   0.00574,   0.87973,   0.40632,   0.09386,  -0.39817,  -0.92705
   0.54859,   0.89062,   0.38040,  -0.57328,  -0.75450,   0.50500,   0.69904,  -0.06635,  -0.69488,   0.93750
  -0.36167,  -0.41235,   0.36797,  -0.19480,  -0.91146,   0.12345,  -0.36761,  -0.33693,   0.52778,   0.93750
   0.93750,   0.93750,  -0.81668,  -0.86549,   0.74247,  -0.11104,   0.36590,   0.39503,   0.61176,  -0.76086
  -0.84428,  -0.50861,  -0.83719,  -0.74766,  -0.90945,   0.81176,  -0.77099,  -0.58153,   0.87666,   0.76891
   0.88652,  -0.60358,   0.24666,   0.87243,   0.93750,  -0.84283,  -0.55953,   0.61207,   0.04562,  -0.87252
   0.88242,   0.01445,  -0.67473,  -0.29244,   0.93750,  -0.19593,   0.00844,  -0.54816,  -0.40093,  -0.53519
   0.82692,  -0.61745,  -0.82193,   0.87734,  -0.35330,  -0.73821,   0.84214,   0.14364,   0.85110,  -0.66459
   0.34913,   0.80735,  -0.81531,   0.88732,   0.16090,  -0.93750,   0.03634,   0.93739,  -0.68708,  -0.86937
   0.47860,   0.68003,  -0.60364,   0.21371,   0.93750,  -0.16737,   0.15691,  -0.20251,   0.58541,  -0.80046
   0.93750,  -0.04983,   0.18981,  -0.88377,   0.80826,  -0.87090,  -0.93750,  -0.01758,  -0.68063,   0.93750
   0.61759,  -0.09920,   0.14442,  -0.09413,   0.26644,   0.87150,  -0.30038,  -0.35852,  -0.93750,   0.38711
   0.60533,  -0.71525,  -0.36776,  -0.15921,   0.33011,  -0.80440,   0.93750,  -0.80185,   0.81418,   0.88321
   0.50694,  -0.22359,  -0.17854,   0.11843,   0.93750,  -0.75976,   0.10843,  -0.92160,  -0.93677,   0.93750
   0.12912,  -0.92244,  -0.47375,   0.84743,   0.93750,   0.33414,  -0.69964,   0.02655,  -0.30783,  -0.86114
   0.08804,  -0.93750,  -0.82818,   0.34924,   0.90832,   0.93750,   0.93750,  -0.55797,  -0.93750,  -0.93750
  -0.21138,  -0.14051,  -0.84007,   0.93750,  -0.52092,  -0.93750,  -0.22015,   0.85932,  -0.49087,   0.16151
   0.88313,   0.56133,   0.17478,   0.52692,   0.92973,  -0.50421,  -0.79042,  -0.84678,  -0.79451,   0.87190
   0.76342,  -0.70064,  -0.32852,   0.20772,   0.73789,  -0.10615,   0.29861,   0.54716,   0.25153,   0.12029
  -0.58122,   0.57182,  -0.46696,  -0.12418,  -0.58379,  -0.47053,  -0.12382,  -0.25875,  -0.42840,  -0.18763
   0.81406,   0.83386,   0.91899,  -0.93750,  -0.87340,  -0.48265,  -0.69525,   0.81706,  -0.86346,   0.48212
  -0.93380,   0.04684,  -0.38010,   0.23374,   0.87916,  -0.66740,   0.93415,   0.86652,  -0.61012,  -0.88079
   0.68847,  -0.87963,   0.93750,  -0.74114,  -0.87448,   0.93750,  -0.05797,  -0.93750,  -0.32246,  -0.59747
   0.22373,  -0.54348,   0.20878,   0.55725,   0.93750,  -0.21184,   0.28083,   0.80427,   0.28141,  -0.33109
  -0.80059,  -0.50897,  -0.65464,   0.06987,   0.23221,  -0.73315,   0.91335,   0.81556,   0.87754,  -0.90213
  -0.75162,  -0.93750,  -0.76052,   0.55845,   0.93750,  -0.93750,  -0.68263,  -0.49504,  -0.55785,   0.93750
   0.21820,  -0.87620,   0.34739,  -0.74216,   0.68942,  -0.62806,   0.85692,   0.32491,   0.67749,   0.25235
  -0.75991,  -0.93750,   0.63409,  -0.93750,   0.33141,  -0.18566,  -0.75607,   0.93750,  -0.07584,   0.76936
  -0.64384,   0.93750,   0.92185,   0.93750,  -0.81552,  -0.92718,  -0.64057,  -0.93750,  -0.86793,  -0.91445
   0.57374,   0.14640,  -0.79581,   0.66000,  -0.93750,  -0.93750,   0.93287,  -0.93798,   0.76170,   0.73080
  -0.88126,  -0.79511,  -0.58192,   0.93750,   0.93750,   0.76288,   0.93750,   0.37531,   0.60533,  -0.93071
  -0.44811,  -0.39945,   0.69729,   0.84279,  -0.61208,   0.91446,  -0.93750,   0.88315,  -0.88134,   0.24500
  -0.12957,  -0.90283,   0.30167,   0.15987,   0.86638,   0.04172,   0.23759,   0.93174,  -0.22405,  -0.86707
   0.31128,  -0.14020,   0.93750,   0.48450,  -0.93750,   0.79388,   0.01169,  -0.93750,   0.26664,   0.24528
   0.54227,  -0.29902,  -0.17906,   0.48318,  -0.00896,  -0.56643,   0.66137,   0.51670,   0.66326,   0.54142
  -0.79411,   0.74855,   0.93750,  -0.93750,  -0.87194,   0.89816,  -0.69172,   0.87259,  -0.80828,   0.80214
  -0.93750,   0.93750,  -0.93750,   0.93750,   0.22183,  -0.93750,  -0.93750,   0.93750,  -0.46608,  -0.93750
  -0.86023,  -0.86548,  -0.51038,   0.74964,  -0.06659,  -0.92868,   0.61998,  -0.75736,  -0.39781,   0.93746
  -0.41280,   0.57827,  -0.81051,   0.02891,  -0.86457,  -0.12544,  -0.19693,   0.54838,   0.90707,   0.93750
   0.31927,  -0.83874,   0.59489,  -0.04743,   0.59667,  -0.71109,  -0.63180,   0.15244,   0.62300,   0.36749
   0.82686,  -0.83877,  -0.86840,   0.79653,  -0.53392,   0.90643,   0.83423,   0.65101,  -0.75225,  -0.29638
  -0.93750,   0.93750,   0.22552,   0.93750,   0.93750,   0.93750,   0.93750,  -0.33786,   0.86710,   0.62985
   0.68020,  -0.46231,  -0.86225,  -0.93750,   0.50981,  -0.93750,   0.35262,  -0.23530,   0.74564,   0.86562
   0.93146,  -0.11717,   0.93750,  -0.85987,   0.70838,  -0.03499,  -0.48405,  -0.93750,  -0.93711,  -0.74963
  -0.93750,  -0.34457,   0.44749,   0.18317,  -0.68764,  -0.93750,   0.49297,  -0.15329,  -0.66421,   0.77430
  -0.63647,  -0.79092,  -0.68297,  -0.81291,   0.76619,   0.24864,   0.89311,   0.07523,   0.44195,  -0.76303
  -0.26800,   0.30705,  -0.93750,  -0.77883,   0.45273,   0.93750,   0.69206,  -0.47398,  -0.88510,  -0.93750
   0.60862,  -0.34698,   0.93750,  -0.93750,  -0.90890,   0.93750,  -0.73677,  -0.93750,   0.93750,  -0.58524
   0.01308,   0.78517,   0.80413,  -0.71906,  -0.93750,  -0.64390,   0.03182,   0.66544,   0.79902,  -0.70495
  -0.56270,   0.12465,  -0.81296,   0.47875,   0.63715,  -0.93750,   0.49518,  -0.93750,   0.77680,   0.60750
   0.93750,  -0.84110,   0.92547,   0.19371,  -0.05231,   0.59377,   0.52259,  -0.88193,  -0.85408,  -0.40355
  -0.29600,   0.73435,   0.59958,  -0.93750,   0.16819,  -0.83210,   0.59924,  -0.93750,  -0.93750,  -0.93750
  -0.19474,   0.31717,   0.93750,   0.88923,  -0.93750,   0.27578,   0.93750,  -0.93750,  -0.93750,  -0.93750
   0.03983,   0.93750,   0.93750,   0.87119,   0.93750,  -0.93750,   0.81371,   0.93750,   0.86256,  -0.93750
  -0.79504,  -0.81665,  -0.81179,   0.93486,   0.60117,   0.93750,   0.47277,  -0.05200,   0.23412,  -0.22604
   0.03461,   0.82087,   0.26522,  -0.87180,  -0.41451,  -0.80592,   0.13828,   0.93750,  -0.62425,   0.93750
   0.10305,  -0.45459,   0.67636,  -0.74747,   0.93399,  -0.31760,   0.53744,   0.37647,   0.87479,  -0.62538
   0.79451,   0.93750,  -0.93750,   0.08966,   0.93750,   0.15559,   0.93750,   0.30577,   0.93750,  -0.93750
  -0.93396,   0.48861,   0.59253,  -0.91689,  -0.93750,  -0.18869,   0.93565,  -0.81314,  -0.93750,   0.93750
   0.15412,   0.80294,   0.75645,  -0.59474,  -0.82214,   0.63853,  -0.20162,  -0.74217,   0.73608,   0.53028
  -0.21107,   0.25997,   0.93750,  -0.67834,  -0.01750,  -0.30144,   0.87876,  -0.80847,  -0.87284,   0.91050
  -0.93750,  -0.57314,   0.03382,  -0.49274,  -0.93750,   0.55646,  -0.11871,   0.73512,  -0.64632,  -0.10082
   0.93750,  -0.21752,   0.80351,  -0.53091,  -0.51400,  -0.81937,   0.88108,   0.16640,  -0.86730,  -0.23316
  -0.93750,   0.45946,   0.93750,  -0.64265,  -0.16387,  -0.50823,  -0.79128,  -0.93750,  -0.11069,  -0.93750
  -0.27140,  -0.19560,  -0.93750,  -0.93750,   0.93750,   0.93750,  -0.01693,  -0.61525,  -0.69195,   0.93750
   0.51676,  -0.92531,   0.89062,   0.81977,  -0.06200,   0.86896,   0.33604,  -0.40194,  -0.85891,   0.52295
  -0.41097,  -0.05664,   0.54856,  -0.06506,  -0.93394,   0.57474,  -0.50951,   0.93750,   0.85244,   0.66040
  -0.20712,  -0.73207,  -0.24362,  -0.83620,   0.87380,  -0.84301,   0.55692,  -0.72658,   0.93750,   0.03016
  -0.52534,  -0.81374,   0.47219,  -0.88500,  -0.93750,  -0.55114,  -0.81242,  -0.80903,   0.24531,  -0.93750
   0.18755,   0.57212,   0.14669,  -0.63556,  -0.93750,  -0.93750,  -0.93750,   0.93750,   0.86290,  -0.07577
  -0.83108,   0.55929,   0.93484,  -0.76718,  -0.93750,  -0.37619,   0.70396,   0.93750,  -0.82097,  -0.75007
   0.56379,  -0.37045,  -0.92698,   0.60676,  -0.87716,  -0.86376,   0.92603,  -0.34712,  -0.86321,   0.93750
  -0.41953,   0.28159,   0.93750,   0.93750,   0.04359,  -0.49121,   0.86670,   0.83172,   0.65052,  -0.86996
  -0.34252,  -0.89100,   0.10395,   0.61400,   0.21558,   0.51984,  -0.01126,   0.54689,   0.70066,  -0.38862
   0.80508,   0.05222,   0.81088,  -0.47651,  -0.59019,   0.41749,   0.35599,   0.73867,   0.64586,  -0.31057
  -0.73645,   0.93750,  -0.89627,  -0.58303,   0.92520,  -0.93750,  -0.72408,  -0.78889,  -0.82859,   0.75855
  -0.55845,   0.92032,  -0.02229,   0.61421,   0.93750,   0.63708,   0.38351,  -0.73989,  -0.88287,   0.91802
  -0.69498,   0.58366,   0.01432,   0.47205,   0.93750,   0.56862,  -0.77373,   0.04086,   0.78848,  -0.39977
  -0.45663,  -0.56539,   0.93750,  -0.81982,  -0.81486,  -0.75556,  -0.34115,   0.93750,  -0.46495,  -0.68639
  -0.93750,  -0.91277,   0.93750,  -0.78063,   0.14927,   0.76169,  -0.92911,  -0.42965,   0.09209,  -0.29490
  -0.40175,  -0.58200,  -0.93750,  -0.07270,  -0.15056,  -0.07920,   0.59221,   0.93750,  -0.48480,  -0.74079
   0.69019,  -0.33174,   0.68808,   0.18925,  -0.84931,   0.44850,   0.70373,   0.04812,  -0.93750,  -0.91280
  -0.22158,   0.11571,   0.37366,   0.73603,   0.44092,  -0.32400,   0.04937,   0.18118,   0.57546,   0.15017
  -0.42373,  -0.02157,  -0.22169,  -0.19816,   0.61937,   0.91874,  -0.65955,   0.15079,   0.93750,   0.30346
  -0.33050,   0.75505,  -0.93750,   0.45876,   0.91238,  -0.51139,  -0.93750,  -0.85978,  -0.33232,   0.32717
   0.33606,  -0.00933,  -0.01896,  -0.43261,   0.93373,  -0.80445,  -0.36208,  -0.74706,   0.10941,  -0.93750
  -0.18596,  -0.62443,   0.85985,   0.23031,   0.93750,   0.57315,   0.52262,   0.39837,  -0.69541,   0.68592
   0.93750,   0.92531,  -0.91405,   0.31430,  -0.85493,  -0.81932,  -0.77613,  -0.62575,  -0.86803,  -0.62250
  -0.93750,  -0.28741,   0.35931,  -0.81592,  -0.59398,  -0.93750,  -0.93750,  -0.93750,  -0.93750,  -0.22471
   0.93142,  -0.34736,   0.93750,  -0.91778,  -0.14177,   0.05959,  -0.93750,  -0.90854,  -0.92434,  -0.93644
   0.46061,  -0.69297,  -0.17534,   0.89149,   0.93685,  -0.50451,  -0.49791,  -0.31660,   0.41354,  -0.68394
  -0.92330,   0.76355,   0.53406,   0.55684,   0.27759,  -0.05192,  -0.69690,   0.79713,   0.93750,   0.07525
  -0.57956,   0.81089,  -0.80172,  -0.75412,   0.64421,  -0.60804,   0.88201,   0.93750,  -0.41105,  -0.93750
  -0.93750,  -0.09082,   0.74734,   0.70188,  -0.07174,   0.93750,  -0.37360,  -0.47232,  -0.93750,   0.93750
  -0.75907,   0.29497,   0.61927,   0.75453,  -0.73761,   0.70394,   0.93750,  -0.36844,  -0.82937,   0.17397
  -0.49692,  -0.31341,  -0.46132,   0.51337,   0.61544,   0.37201,  -0.25167,  -0.25374,   0.87704,   0.30986
  -0.18197,   0.63684,  -0.28988,   0.06895,   0.76359,   0.93750,   0.39403,  -0.40401,   0.39110,  -0.93212
   0.93750,  -0.06406,  -0.45584,  -0.54391,  -0.44143,  -0.76964,   0.79243,   0.44322,  -0.92723,   0.74252
  -0.93750,  -0.57438,   0.41962,  -0.92121,   0.25741,  -0.93750,  -0.80297,   0.93750,  -0.80215,  -0.93750
   0.80561,  -0.62637,  -0.60774,   0.93750,  -0.77323,  -0.26608,  -0.67580,  -0.03186,   0.66905,   0.49944
   0.58098,   0.93750,  -0.73676,  -0.83708,   0.93750,  -0.76641,  -0.44217,   0.93750,  -0.25394,  -0.93655
  -0.10508,   0.87872,   0.65130,   0.67853,  -0.28258,   0.79218,   0.77137,  -0.01412,  -0.57395,  -0.11506
  -0.33513,  -0.58600,   0.47440,  -0.73180,   0.93750,  -0.51168,  -0.79888,  -0.20414,   0.45432,   0.93750
  -0.60430,  -0.93750,  -0.52258,  -0.09463,   0.20090,   0.93750,   0.93750,   0.10602,   0.57500,  -0.93750
  -0.79685,  -0.64150,  -0.92895,   0.93750,   0.74853,  -0.87274,  -0.56396,  -0.93750,  -0.93750,   0.93595
   0.62834,  -0.45812,   0.81827,  -0.54493,  -0.93750,   0.92679,   0.30792,   0.49386,   0.93750,  -0.02250
  -0.67956,  -0.91582,   0.39208,   0.44134,  -0.72949,  -0.62507,   0.09404,   0.30623,   0.55369,   0.29914
  -0.41287,   0.87622,   0.63990,   0.39113,   0.93750,   0.62889,  -0.76227,   0.05658,  -0.20434,  -0.87380
   0.17394,  -0.91843,   0.75459,  -0.41988,  -0.53427,   0.76529,  -0.70594,   0.68476,   0.59251,  -0.35774
  -0.78224,   0.57791,  -0.86659,   0.93377,  -0.89240,   0.02095,  -0.06219,  -0.00062,  -0.81592,   0.93750
  -0.17569,  -0.87368,  -0.80688,   0.38862,   0.06615,  -0.52745,   0.27274,   0.93646,  -0.62462,   0.63332
   0.06190,  -0.05018,  -0.36914,   0.58780,  -0.03545,   0.76200,   0.32716,   0.07558,   0.81397,  -0.90989
   0.38086,  -0.69280,   0.93299,   0.93750,  -0.73604,  -0.92530,   0.76027,   0.08898,  -0.86353,  -0.07605
  -0.30523,   0.80931,   0.87526,   0.26784,  -0.83219,   0.14746,  -0.22820,   0.70044,   0.80089,   0.35935
  -0.13254,   0.81375,  -0.88081,  -0.68353,   0.53244,   0.68549,  -0.56830,   0.93750,  -0.53102,  -0.69243
   0.32610,   0.93750,  -0.93750,  -0.93750,  -0.48189,   0.93750,  -0.65582,  -0.86681,  -0.26593,   0.93750
  -0.38902,   0.93244,  -0.81125,   0.92705,  -0.92738,   0.93639,   0.11566,   0.00534,   0.73679,  -0.55283
  -0.19469,  -0.54364,  -0.75281,  -0.90574,   0.93750,   0.85081,  -0.44002,   0.05415,  -0.79765,   0.87241
   0.93670,   0.93750,  -0.24508,   0.36581,   0.93750,  -0.47284,  -0.79975,  -0.07184,  -0.88090,   0.72750
  -0.75532,  -0.79754,   0.25929,  -0.19616,   0.74002,   0.93750,   0.88066,  -0.41099,  -0.53536,   0.68335
   0.77425,  -0.56626,   0.14319,   0.76836,   0.81044,   0.79281,  -0.74270,   0.61127,  -0.62838,  -0.93376
   0.27979,   0.80159,   0.48849,   0.61070,   0.03574,   0.47606,   0.24919,  -0.06886,  -0.47879,   0.93659
   0.22771,  -0.86190,  -0.21140,   0.87568,   0.92203,   0.08357,  -0.14747,   0.13461,  -0.93750,  -0.51071
  -0.41554,  -0.88493,  -0.71100,   0.93668,  -0.10331,  -0.86077,   0.80301,  -0.18826,  -0.64911,  -0.93750
   0.93750,  -0.20160,   0.85419,   0.19113,  -0.36442,  -0.87256,  -0.74475,  -0.74697,   0.43156,   0.64184
  -0.35119,   0.81784,   0.72201,  -0.93750,  -0.69526,  -0.92757,   0.60658,  -0.55501,   0.78623,   0.27463
   0.69046,   0.87532,   0.80950,   0.86446,  -0.36297,  -0.79375,  -0.49638,  -0.89567,  -0.09741,   0.83697
   0.93750,   0.29787,   0.93750,  -0.43746,   0.54447,  -0.59211,  -0.84246,  -0.85516,  -0.83279,   0.77294
  -0.92089,  -0.22340,  -0.84369,  -0.54012,   0.93750,  -0.93750,   0.93663,   0.12429,  -0.81185,  -0.92697
   0.53102,   0.12346,  -0.93750,   0.12862,   0.26551,  -0.93750,   0.54089,   0.34610,   0.49206,  -0.57690
  -0.63205,   0.30957,  -0.62130,   0.93750,   0.41555,  -0.65953,   0.93750,   0.93750,   0.27662,  -0.93750
   0.84585,   0.93750,  -0.93750,  -0.35197,  -0.93551,  -0.41071,  -0.60936,   0.44262,  -0.67984,   0.52474
   0.93036,   0.18743,   0.93750,  -0.79791,   0.51844,  -0.52853,  -0.93750,  -0.88933,  -0.81238,  -0.14048
  -0.63752,  -0.75525,   0.92553,  -0.73678,   0.92358,   0.47206,   0.78116,  -0.45485,   0.80687,  -0.86836
  -0.64749,   0.75101,  -0.62394,  -0.29955,  -0.64250,   0.14838,   0.57147,   0.89764,   0.79867,   0.32227
  -0.39402,  -0.88382,  -0.13895,  -0.05031,   0.92820,   0.59059,  -0.37480,   0.57369,   0.93750,  -0.25099
   0.03016,   0.88837,   0.19823,   0.61831,  -0.81576,   0.05352,   0.85268,   0.13425,  -0.68214,   0.17805
   0.76165,   0.00970,   0.69813,   0.27445,  -0.06307,   0.82502,   0.23901,  -0.02976,  -0.87673,   0.31508
  -0.76277,  -0.92577,   0.92674,   0.50605,   0.45341,  -0.01144,   0.55503,   0.57660,  -0.82732,  -0.74333
  -0.69666,  -0.25664,  -0.19134,  -0.65225,   0.55308,  -0.54583,   0.49737,  -0.83327,   0.81645,   0.55598
   0.93750,  -0.24228,  -0.73767,  -0.74923,  -0.00555,  -0.65971,   0.93622,  -0.08395,  -0.28485,   0.13740
   0.87124,   0.36571,   0.92710,   0.82818,   0.65305,  -0.59506,   0.68499,  -0.17335,  -0.80065,  -0.53612
   0.93750,  -0.56637,  -0.93750,   0.58558,  -0.87437,  -0.07185,  -0.81103,  -0.93750,  -0.87905,  -0.04754
   0.93750,   0.86587,  -0.34131,  -0.13026,  -0.66271,  -0.79817,   0.93596,   0.27842,  -0.84187,  -0.28717
  -0.71450,  -0.93750,   0.43627,  -0.33745,   0.08155,   0.93750,   0.93750,  -0.93750,  -0.85042,   0.90150
   0.76301,   0.92864,   0.93750,   0.72162,  -0.93750,  -0.83334,  -0.57195,  -0.93750,   0.74879,  -0.87464
   0.81446,   0.93750,  -0.85345,  -0.87121,   0.58335,   0.19510,  -0.35315,  -0.82051,  -0.20331,  -0.59347
  -0.54900,   0.93750,  -0.40180,   0.36596,   0.93750,  -0.27294,   0.18045,  -0.80367,  -0.32059,   0.61147
  -0.44343,   0.07744,  -0.27424,  -0.24024,  -0.41783,   0.29688,   0.81036,   0.71095,   0.70221,   0.87299
  -0.44882,   0.24773,   0.18664,   0.50369,  -0.93750,   0.73798,  -0.62194,  -0.81885,   0.66560,  -0.87182
  -0.23588,   0.00411,   0.16166,  -0.38086,  -0.11966,  -0.43419,  -0.82305,   0.93750,  -0.80520,   0.68228
  -0.80700,  -0.05448,  -0.80439,   0.64176,   0.03644,  -0.93750,   0.93750,  -0.93750,  -0.93750,  -0.06887
   0.93750,   0.12948,  -0.14070,   0.69203,   0.53637,  -0.32123,  -0.01347,  -0.82370,  -0.90774,   0.47914
   0.93467,  -0.00875,  -0.79533,  -0.55690,   0.60060,  -0.74903,  -0.87774,   0.38256,  -0.92855,  -0.58195
  -0.72047,  -0.82505,   0.48326,   0.36428,  -0.93750,  -0.68317,  -0.55373,   0.91834,  -0.61776,   0.93750
   0.93750,   0.51178,   0.81821,   0.74353,  -0.51231,  -0.90505,   0.55055,  -0.87754,  -0.39518,   0.93246
  -0.92692,  -0.03446,   0.86912,   0.47093,   0.00997,  -0.93750,   0.49291,  -0.93750,  -0.93750,   0.87338
  -0.93750,  -0.93750,  -0.35812,  -0.93750,  -0.64139,   0.57723,  -0.15348,  -0.93750,   0.67917,  -0.93750
  -0.46659,   0.93750,  -0.80470,   0.76744,  -0.83770,   0.56137,  -0.23380,  -0.87091,   0.40876,   0.93750
  -0.81215,   0.93750,  -0.35402,   0.42016,   0.27330,  -0.81836,   0.87560,   0.07168,  -0.62566,   0.85555
  -0.93750,   0.59993,   0.93750,   0.65956,  -0.69632,  -0.62835,  -0.73287,   0.88075,   0.93750,  -0.79056
   0.93750,  -0.54929,  -0.93750,  -0.54411,  -0.58854,  -0.56353,  -0.87093,   0.93750,   0.93750,  -0.22506
   0.93750,   0.00192,   0.93750,  -0.28592,   0.00345,  -0.46026,  -0.45732,   0.87651,   0.93750,   0.44305
   0.15106,  -0.93750,  -0.48996,  -0.31594,  -0.93750,  -0.13023,   0.65162,   0.93750,  -0.02079,  -0.93750
  -0.05718,  -0.86105,  -0.01680,   0.57360,  -0.87127,  -0.52862,   0.93750,   0.31234,  -0.65241,   0.93750
   0.16826,   0.24589,  -0.84690,   0.27681,   0.33138,  -0.28321,  -0.90227,   0.93750,   0.67454,   0.72658
   0.21867,   0.17813,   0.44614,  -0.68518,   0.88350,   0.93750,  -0.16490,  -0.69935,  -0.93750,   0.81110
  -0.11389,   0.92801,  -0.04875,  -0.93750,  -0.93750,  -0.38350,  -0.93750,   0.14413,  -0.74568,   0.02828
  -0.55546,  -0.65513,  -0.93750,   0.68857,  -0.82429,   0.07096,   0.93750,   0.20208,  -0.18467,   0.93750
  -0.69749,  -0.69039,   0.58514,  -0.70007,   0.93750,   0.07220,   0.87978,  -0.78663,   0.93750,  -0.87767
  -0.79497,   0.75374,  -0.93750,  -0.84281,   0.14990,   0.17460,  -0.53029,   0.38479,  -0.56074,  -0.88252
   0.92543,  -0.77926,  -0.93750,   0.93750,   0.69083,  -0.88359,  -0.51492,  -0.85380,  -0.73882,   0.81738
   0.93750,  -0.93750,  -0.79391,   0.62882,  -0.84404,  -0.93750,   0.93750,  -0.30729,  -0.42331,  -0.14340
   0.39483,   0.88296,  -0.76477,  -0.80961,  -0.26494,  -0.93750,   0.93750,  -0.12809,   0.61879,   0.45604
  -0.76173,   0.85121,  -0.12896,  -0.28557,  -0.46938,  -0.65612,   0.93750,   0.44982,   0.93750,   0.28556
   0.42870,  -0.01052,  -0.81525,   0.93580,   0.65174,  -0.73311,  -0.26667,  -0.93282,   0.42825,  -0.63790
   0.86876,  -0.74530,  -0.87843,  -0.70790,   0.33901,  -0.74457,   0.87500,  -0.47665,   0.93750,  -0.42173
  -0.93750,  -0.17305,  -0.67425,  -0.39273,  -0.78337,   0.87634,   0.76079,  -0.93750,  -0.87694,   0.93750
   0.93750,   0.04158,   0.93750,  -0.83999,   0.27818,  -0.89745,  -0.39231,   0.59876,  -0.25469,   0.93076
  -0.14368,  -0.65007,   0.93750,   0.16901,   0.93750,  -0.93750,   0.88886,   0.38550,  -0.17886,   0.86610
  -0.70396,  -0.20546,   0.93750,  -0.86287,  -0.09112,  -0.77407,   0.44518,  -0.93750,  -0.87913,   0.76609
  -0.93750,  -0.71904,  -0.78650,  -0.93750,   0.19040,  -0.85136,  -0.26897,  -0.93750,  -0.29717,  -0.75745
   0.87161,   0.83849,  -0.86517,   0.74583,  -0.89302,  -0.50767,   0.93750,   0.58543,  -0.85353,  -0.52505
   0.93750,   0.88801,  -0.31668,  -0.01478,  -0.65626,   0.75760,   0.89946,   0.04194,   0.91882,   0.78661
  -0.17846,  -0.33678,   0.08209,   0.93750,  -0.24553,   0.35102,  -0.57812,  -0.93750,   0.37836,   0.93750
  -0.93208,   0.36146,   0.52395,  -0.45651,   0.87065,   0.93659,   0.93750,   0.81008,  -0.64915,  -0.93750
  -0.51728,  -0.03399,   0.93750,   0.93750,  -0.81419,  -0.93750,  -0.59150,  -0.73990,  -0.66613,   0.21836
  -0.80034,  -0.93476,   0.10843,   0.31174,  -0.93750,  -0.67057,   0.71282,   0.87613,   0.87280,   0.73143
  -0.80830,   0.92837,   0.22210,   0.49250,   0.15530,  -0.28759,  -0.81672,   0.21855,   0.91522,  -0.17299
   0.58676,  -0.89867,   0.46553,   0.93750,  -0.10799,  -0.11144,   0.76552,  -0.82108,   0.11684,  -0.67532
   0.57343,   0.93750,  -0.93750,  -0.66605,   0.93750,  -0.08497,  -0.39422,   0.37455,  -0.92760,   0.85782
  -0.35205,  -0.29472,  -0.61199,  -0.65823,  -0.24359,  -0.86557,   0.93750,   0.28909,  -0.73508,   0.13472
  -0.17233,   0.34889,  -0.54278,  -0.06874,   0.93750,   0.23786,   0.00767,  -0.04293,   0.76708,  -0.93750
  -0.45529,   0.61307,   0.50150,  -0.21534,   0.81280,  -0.93750,   0.07512,   0.49832,  -0.74654,   0.74779
   0.93613,  -0.01860,  -0.84516,  -0.09862,  -0.47924,  -0.85128,   0.93750,  -0.62805,  -0.93589,  -0.28472
   0.58062,  -0.52977,  -0.93750,   0.12265,   0.64020,   0.87436,  -0.35140,  -0.64930,  -0.17497,   0.93750
  -0.82017,   0.21567,  -0.49678,  -0.24132,  -0.44387,   0.71943,   0.93750,  -0.93750,  -0.93750,  -0.61193
   0.41315,  -0.10648,  -0.68241,   0.93750,  -0.13161,  -0.69388,   0.37091,   0.59591,  -0.36990,   0.70500
   0.22807,  -0.72934,   0.92481,   0.01217,  -0.90705,   0.92257,  -0.38963,  -0.80392,   0.35593,  -0.80346
   0.74130,   0.67249,   0.93750,   0.93750,  -0.66456,  -0.60432,  -0.51416,   0.93750,  -0.62030,  -0.93750
  -0.82298,  -0.70725,   0.93310,  -0.76991,   0.93750,  -0.68083,  -0.78881,   0.50884,  -0.93506,   0.80269
  -0.28408,   0.93750,   0.93750,   0.34201,  -0.39993,  -0.43465,  -0.47386,  -0.84404,  -0.64933,  -0.31088
  -0.70599,   0.93750,  -0.93750,  -0.00210,  -0.06387,   0.09085,  -0.29632,  -0.26636,  -0.92150,  -0.58365
   0.59795,  -0.36870,   0.87561,   0.42681,  -0.36793,   0.24869,   0.62137,  -0.59622,   0.12397,  -0.91414
  -0.86053,  -0.55453,   0.93750,   0.66392,   0.55028,  -0.20620,  -0.39723,   0.51336,   0.09393,  -0.26365
   0.09619,   0.92199,   0.87211,   0.83486,  -0.13385,  -0.34017,   0.33827,  -0.64283,  -0.49908,   0.74171
  -0.91430,  -0.13288,  -0.43130,   0.92950,  -0.74969,  -0.79521,   0.93213,  -0.17214,  -0.60692,   0.92807
  -0.34674,   0.24327,  -0.93750,  -0.76007,  -0.44465,   0.77828,  -0.91978,  -0.35142,  -0.93750,  -0.93750
   0.29939,   0.88328,   0.37562,  -0.07999,  -0.93468,  -0.61285,   0.50611,  -0.75950,   0.93750,   0.53325
   0.46797,   0.92651,  -0.93750,  -0.37168,  -0.89947,  -0.06128,  -0.73128,  -0.32257,  -0.89236,   0.87394
   0.63304,  -0.93750,   0.44370,  -0.93750,  -0.78261,   0.27342,   0.30414,   0.05392,  -0.00679,   0.12293
  -0.32831,  -0.73101,   0.69863,   0.14922,   0.15800,  -0.54112,   0.82357,   0.28687,   0.28886,  -0.71382
  -0.61728,   0.86053,  -0.04288,   0.56766,  -0.03710,  -0.80274,  -0.93750,   0.93750,  -0.31168,   0.27744
  -0.75576,  -0.93750,   0.93750,  -0.93750,  -0.93750,  -0.93361,  -0.68821,  -0.93750,  -0.07679,  -0.85928
  -0.24238,  -0.05552,  -0.47695,   0.79267,   0.85399,   0.56943,  -0.57146,   0.32713,   0.37024,   0.31478
   0.87217,  -0.52675,   0.46273,   0.10916,   0.44804,  -0.28923,   0.71401,   0.12677,   0.92157,  -0.83962
   0.40198,   0.60953,   0.93750,  -0.93750,   0.73383,  -0.93026,  -0.87835,  -0.93750,  -0.00624,   0.93750
  -0.11765,   0.87500,  -0.24241,   0.69115,   0.60620,   0.81943,  -0.35704,   0.87442,  -0.17967,  -0.48702
   0.67714,  -0.43020,  -0.88837,  -0.24507,   0.54396,  -0.68974,   0.56810,  -0.58005,   0.83468,   0.66758
  -0.93750,  -0.93750,  -0.93750,  -0.01473,  -0.16287,   0.18336,  -0.18339,  -0.02562,   0.67546,   0.14310
  -0.73601,   0.10368,   0.83638,   0.16787,  -0.93991,   0.01884,   0.85297,  -0.48069,  -0.69871,   0.93750
  -0.17225,   0.37646,   0.75537,   0.60635,   0.37311,   0.85233,   0.06209,  -0.03639,  -0.86667,   0.61195
   0.81915,  -0.61732,  -0.32581,   0.88406,   0.77022,  -0.92219,   0.57520,   0.87303,  -0.63952,   0.93611
  -0.65515,   0.02215,  -0.67231,   0.05912,  -0.18515,  -0.93750,   0.93750,   0.40977,  -0.87096,  -0.58225
  -0.93750,  -0.90182,  -0.64755,  -0.90757,  -0.90395,   0.21082,  -0.69752,   0.34853,  -0.46910,  -0.93750
   0.87332,   0.56066,  -0.93750,  -0.47170,  -0.69267,   0.25952,  -0.03110,   0.00480,  -0.79241,  -0.93750
  -0.54894,   0.81951,   0.48881,  -0.66556,   0.93022,   0.92723,  -0.79665,  -0.71198,  -0.93750,   0.05193
  -0.51034,  -0.80368,  -0.93750,   0.46783,   0.61912,   0.10225,  -0.93750,   0.93750,   0.03119,  -0.16424
  -0.75482,   0.48597,   0.62174,   0.93750,  -0.64671,  -0.89258,  -0.82808,   0.90721,   0.05990,  -0.01191
   0.93750,  -0.93750,  -0.83466,  -0.10008,   0.30064,  -0.10412,  -0.93750,   0.93750,   0.65816,   0.19784
  -0.70442,   0.76886,  -0.07567,   0.37246,  -0.92401,   0.55893,  -0.80165,   0.15188,   0.87355,   0.07986
   0.93750,  -0.43258,  -0.93750,   0.60791,  -0.93750,   0.93750,  -0.93750,  -0.33107,   0.61963,  -0.15850
   0.85953,   0.93750,   0.84992,  -0.86006,  -0.56569,   0.88231,  -0.65088,  -0.29993,  -0.49842,  -0.93750
   0.69775,   0.82484,   0.48996,  -0.00827,  -0.09512,  -0.06663,   0.24802,   0.93750,  -0.69172,  -0.75380
   0.07190,   0.93750,  -0.93750,   0.08738,  -0.93750,  -0.93750,  -0.93750,  -0.68655,  -0.93750,  -0.76208
  -0.60956,  -0.45641,  -0.70566,  -0.22056,   0.54449,   0.20742,  -0.73689,   0.93750,  -0.62816,  -0.46473
  -0.61118,   0.87383,  -0.79320,   0.41079,  -0.20202,  -0.26648,  -0.87579,  -0.17026,   0.70269,   0.93750
  -0.93750,   0.93750,   0.85464,  -0.93750,   0.32645,  -0.70905,   0.75843,  -0.93750,   0.93750,  -0.51221
   0.35014,  -0.65599,  -0.90435,  -0.69056,  -0.93750,  -0.93750,   0.53511,  -0.69786,  -0.17154,   0.86566
   0.87117,  -0.76114,  -0.49615,  -0.42654,   0.05410,   0.71326,   0.30848,  -0.29387,   0.49320,  -0.79046
   0.60188,  -0.03975,  -0.93750,  -0.51220,  -0.93750,  -0.93750,  -0.80402,  -0.30531,   0.93750,  -0.16896
   0.75850,   0.27713,  -0.73818,   0.93750,  -0.75628,  -0.93750,   0.66003,   0.93750,  -0.54198,   0.13744
  -0.44491,   0.88393,   0.07764,  -0.93750,   0.93750,  -0.63361,   0.74537,  -0.40573,  -0.68820,  -0.87355
  -0.69623,  -0.13429,   0.93750,  -0.93750,   0.93750,   0.83255,  -0.10211,   0.14185,  -0.93750,  -0.93750
   0.86834,  -0.70304,  -0.87268,  -0.93750,  -0.73321,  -0.73899,  -0.75729,   0.93750,   0.93750,  -0.86445
  -0.81387,   0.84121,  -0.18420,  -0.40395,  -0.89138,   0.93750,  -0.87002,  -0.80709,  -0.52367,   0.27234
   0.93750,  -0.11871,  -0.50977,  -0.90298,   0.13551,  -0.41530,  -0.07029,  -0.39685,   0.39124,  -0.83808
  -0.65041,   0.93750,  -0.93750,   0.53833,   0.47269,  -0.73629,  -0.87080,  -0.69248,  -0.92871,   0.45011
  -0.89826,  -0.57239,   0.92587,   0.20111,  -0.62639,   0.50746,  -0.14714,  -0.57179,  -0.66634,   0.92654
   0.93750,  -0.93750,   0.44118,  -0.93750,   0.89520,   0.08576,   0.51009,  -0.93750,  -0.63015,  -0.21704
   0.51499,  -0.13812,  -0.93750,  -0.72332,  -0.15513,  -0.89772,   0.69724,  -0.13807,  -0.93750,  -0.93750
  -0.74928,   0.81644,   0.28504,   0.19339,  -0.93750,  -0.93004,   0.88051,  -0.53437,  -0.60172,   0.89563
  -0.64153,   0.67786,   0.87006,   0.81464,   0.51646,   0.93750,  -0.49671,   0.22940,  -0.71774,  -0.93750
   0.08775,   0.34092,   0.10807,  -0.86278,   0.88281,   0.93750,  -0.93750,  -0.84552,  -0.75770,  -0.93750
  -0.93750,  -0.93750,   0.47480,   0.61656,  -0.62551,  -0.66494,  -0.65003,   0.93750,  -0.80411,  -0.86847
   0.93750,   0.10003,  -0.73633,  -0.92593,  -0.70238,   0.93750,  -0.93153,   0.26648,  -0.77843,  -0.93749
  -0.36768,   0.55799,  -0.81796,   0.20551,   0.93750,   0.22319,  -0.74659,  -0.02203,   0.93750,  -0.93075
  -0.13286,  -0.40576,  -0.74791,  -0.37677,   0.93750,  -0.57264,  -0.06971,  -0.93750,  -0.12383,  -0.44685
   0.37420,   0.48726,  -0.93750,   0.87738,   0.71021,  -0.87661,  -0.93750,  -0.88154,   0.93750,   0.86951
   0.87751,  -0.28199,  -0.93750,   0.35587,   0.93750,  -0.81191,   0.93750,  -0.59130,  -0.92041,  -0.62195
   0.93750,   0.93750,  -0.01496,   0.93750,   0.53148,  -0.77315,   0.54391,   0.93750,  -0.83208,  -0.87183
   0.75680,  -0.91552,   0.61165,   0.01529,   0.59859,  -0.43295,  -0.35701,   0.45464,   0.50627,   0.20965
   0.93750,   0.20781,   0.12700,  -0.55425,   0.93750,  -0.88284,   0.93750,  -0.93750,  -0.93750,  -0.93750
  -0.50460,   0.27406,   0.22928,   0.54632,   0.80853,  -0.26774,   0.60640,  -0.01247,  -0.87915,   0.64550
  -0.61582,  -0.91220,   0.93140,  -0.93750,  -0.28187,   0.93750,  -0.68676,   0.75798,  -0.70751,  -0.02836
   0.93750,  -0.33058,  -0.93142,   0.70322,  -0.44848,  -0.87940,   0.93750,  -0.01927,  -0.76587,   0.85875
  -0.66925,   0.93750,   0.51588,  -0.61776,  -0.92553,  -0.29489,  -0.69756,  -0.49641,   0.92727,  -0.04437
  -0.86051,   0.92892,  -0.86614,  -0.73513,   0.15504,  -0.29289,   0.02539,   0.93750,   0.48762,  -0.69413
  -0.32519,   0.53150,  -0.83123,   0.47235,   0.17362,   0.93750,   0.86877,   0.32190,  -0.58655,  -0.79503
   0.93750,   0.78498,  -0.86693,   0.11525,  -0.93750,  -0.79435,  -0.82837,  -0.19938,   0.93750,   0.11662
  -0.38267,  -0.93560,   0.91187,  -0.57660,  -0.02177,  -0.54419,   0.40239,   0.93750,   0.92712,  -0.75085
   0.75250,  -0.93750,   0.04855,   0.23967,   0.26270,   0.58551,   0.89961,   0.38148,  -0.33866,   0.00641
  -0.18704,   0.29778,   0.57450,   0.61811,  -0.11361,   0.44414,  -0.16751,  -0.66834,  -0.07262,   0.69358
  -0.55257,  -0.93750,  -0.87261,   0.10509,   0.49527,   0.68334,   0.81108,   0.93750,   0.82631,   0.15897
  -0.78418,   0.61029,   0.53304,  -0.43010,  -0.93750,  -0.93750,   0.13683,   0.93750,  -0.48736,   0.93180
   0.71299,   0.80437,   0.31099,  -0.31118,  -0.11272,   0.07664,   0.17163,  -0.21546,   0.79685,  -0.53012
   0.45437,  -0.14100,   0.47813,   0.93750,   0.93750,  -0.85870,  -0.00213,  -0.79071,  -0.46501,  -0.93750
   0.60998,   0.06226,   0.93750,   0.87361,  -0.87667,  -0.52796,   0.87644,   0.81887,  -0.62078,  -0.93750
   0.93750,   0.92554,   0.17539,   0.22757,  -0.19726,   0.48767,  -0.07621,  -0.48831,  -0.91331,  -0.21763
  -0.12777,  -0.14215,  -0.12175,   0.93750,  -0.93750,   0.25881,  -0.00301,  -0.93750,   0.93750,  -0.74248
  -0.88545,  -0.48015,  -0.56857,   0.22137,  -0.24229,  -0.83160,  -0.11934,   0.57962,   0.86805,   0.45462
  -0.51381,   0.60606,  -0.70784,   0.93750,  -0.93750,  -0.93750,  -0.93750,  -0.93750,   0.92135,   0.93750
   0.93750,   0.81080,  -0.16412,   0.47178,  -0.16279,   0.36566,  -0.51375,  -0.83925,  -0.72909,   0.06367
  -0.93750,  -0.66489,  -0.77274,  -0.92474,   0.79985,  -0.48058,   0.51727,  -0.05587,   0.93750,  -0.55862
   0.86012,  -0.81225,  -0.47921,   0.18883,   0.86807,   0.37217,   0.44978,  -0.13594,  -0.47176,   0.12606
  -0.82135,  -0.93750,   0.18414,  -0.47579,   0.62601,   0.93750,  -0.50267,  -0.53991,   0.88276,  -0.93750
   0.16288,  -0.62654,   0.56966,  -0.93750,  -0.27760,  -0.93750,  -0.86786,   0.18945,   0.04635,   0.62285
   0.87241,   0.16070,  -0.78928,   0.05259,   0.92684,   0.29887,  -0.93750,   0.83294,   0.52636,   0.80598
  -0.57917,  -0.83724,   0.92945,  -0.74779,   0.86493,  -0.44978,  -0.26191,   0.87722,  -0.87425,   0.81064
  -0.65299,   0.33618,   0.93726,  -0.57256,   0.75062,  -0.74075,   0.93651,   0.35039,  -0.48959,   0.24574
  -0.30309,  -0.68050,  -0.57995,   0.74642,  -0.93750,  -0.34865,  -0.37982,  -0.93750,   0.02003,  -0.45448
   0.66828,   0.81497,  -0.10060,  -0.02103,   0.18399,   0.53521,  -0.49897,   0.88989,   0.93750,  -0.58544
   0.93750,   0.27579,   0.69757,  -0.54578,  -0.58740,  -0.74402,  -0.93750,   0.48624,   0.87182,   0.18665
   0.88266,   0.86797,   0.15066,   0.27175,   0.01619,   0.54889,  -0.78419,   0.36808,   0.05606,  -0.49079
   0.93750,  -0.78490,  -0.93750,   0.93750,   0.64826,  -0.81979,  -0.93360,  -0.82906,   0.93750,  -0.47809
  -0.93750,   0.78406,   0.93665,   0.93750,  -0.56189,   0.93750,   0.93750,  -0.93750,   0.91502,  -0.18580
   0.93750,  -0.46483,   0.93750,   0.38706,   0.55585,  -0.93750,   0.39835,  -0.93750,  -0.57339,  -0.93750
  -0.57279,  -0.33660,   0.93750,   0.51578,  -0.59746,  -0.44848,   0.93750,  -0.93750,   0.76118,   0.00080
  -0.34690,  -0.93750,  -0.93750,  -0.68997,   0.93750,   0.33321,   0.90992,   0.93750,  -0.08185,   0.93750
   0.14722,  -0.89178,   0.09335,   0.56941,   0.63218,  -0.93750,  -0.90098,   0.93750,   0.60149,  -0.80110
  -0.11746,  -0.80453,   0.69785,  -0.55179,   0.67822,   0.87636,  -0.36399,   0.89425,   0.26147,   0.33046
  -0.93750,   0.41948,  -0.26896,  -0.21886,   0.92323,  -0.87605,   0.82516,   0.82239,  -0.71131,   0.23478
   0.93746,   0.80023,  -0.46591,   0.88167,   0.65854,  -0.81841,   0.48370,   0.25236,  -0.91253,  -0.93750
   0.41957,   0.50201,   0.36959,  -0.83556,  -0.37780,   0.18315,  -0.52173,   0.04372,   0.93750,  -0.93750
   0.48518,  -0.92342,   0.93750,  -0.68987,   0.87340,  -0.05140,   0.74432,   0.74043,  -0.78719,  -0.31630
   0.68718,  -0.92193,   0.93750,   0.89855,  -0.89318,  -0.88168,   0.91134,  -0.42763,  -0.55159,  -0.44935
   0.30421,   0.88335,  -0.81678,   0.93748,  -0.81780,   0.92961,  -0.86520,  -0.69405,  -0.75661,  -0.93252
  -0.53458,   0.51108,   0.63145,   0.86800,  -0.11807,   0.93750,   0.34790,  -0.47941,  -0.81313,  -0.06384
   0.73276,  -0.19988,   0.92761,  -0.04280,   0.10851,   0.13577,   0.75331,   0.37285,  -0.47826,  -0.08723
   0.40694,  -0.93750,   0.11109,   0.08483,  -0.73444,  -0.93750,  -0.64087,  -0.67548,  -0.93750,  -0.68507
  -0.86877,  -0.22929,  -0.40861,  -0.49158,   0.93750,  -0.93552,   0.93750,   0.93832,  -0.90614,  -0.93750
   0.89707,  -0.82014,  -0.86892,  -0.46322,   0.58143,  -0.32545,  -0.76461,   0.92682,   0.81869,   0.43676
  -0.09716,   0.79779,   0.30604,   0.21268,  -0.93750,   0.57278,  -0.10773,  -0.32586,  -0.16651,  -0.93750
  -0.42501,   0.72572,   0.17053,   0.30255,   0.93750,   0.80593,  -0.64720,  -0.62310,  -0.82794,   0.29403
  -0.33995,  -0.25495,  -0.28604,  -0.31101,   0.68050,  -0.74158,  -0.69899,  -0.93750,   0.47672,  -0.93750
   0.91863,  -0.21257,  -0.09256,  -0.86453,  -0.34894,   0.93429,   0.20581,  -0.44514,  -0.41814,  -0.93722
  -0.39049,  -0.55208,  -0.92480,   0.70914,   0.87680,   0.84835,  -0.78426,   0.93750,   0.10590,  -0.86670
   0.61666,  -0.16190,   0.09888,  -0.93750,   0.23698,  -0.29649,   0.93750,  -0.93750,  -0.93750,  -0.93750
   0.30166,   0.32309,   0.44110,   0.37336,   0.56815,  -0.40221,  -0.07743,   0.03030,   0.51977,  -0.09935
   0.50544,   0.93750,   0.93750,   0.92760,  -0.92227,  -0.93750,   0.92926,   0.93750,  -0.56361,  -0.34300
  -0.73867,  -0.26976,   0.86996,   0.63374,  -0.45050,   0.58416,  -0.64944,  -0.93750,  -0.24771,   0.93750
   0.86085,  -0.70542,   0.28682,  -0.61735,  -0.64566,  -0.93750,   0.07366,  -0.49534,  -0.16353,  -0.17945
   0.52470,   0.06409,  -0.87186,   0.93750,   0.18033,  -0.76197,   0.47817,   0.02500,  -0.85298,   0.79770
  -0.29728,  -0.86770,   0.54130,  -0.45117,  -0.02615,   0.37474,  -0.11889,  -0.33104,   0.93549,   0.53741
  -0.76041,  -0.31979,   0.62738,  -0.87234,   0.04029,   0.93750,   0.88645,   0.91104,  -0.04130,   0.93645
   0.24566,   0.93750,  -0.93750,  -0.85624,   0.84768,  -0.89063,  -0.61381,   0.83333,   0.93750,   0.27967
  -0.22635,   0.86839,  -0.75389,   0.38300,   0.44563,  -0.86984,   0.65583,   0.93330,  -0.45980,  -0.73828
   0.55551,  -0.64156,   0.55344,   0.13307,   0.92933,   0.70855,   0.11095,  -0.74794,  -0.45022,  -0.46054
   0.29965,  -0.41912,  -0.93750,  -0.72920,   0.93750,  -0.93750,  -0.93750,  -0.87420,   0.02839,   0.48881
  -0.87399,   0.32185,  -0.06166,   0.63097,  -0.08846,  -0.34413,   0.55607,   0.88240,  -0.52898,   0.37858
  -0.65053,   0.73098,   0.81704,  -0.13579,   0.93750,   0.87180,  -0.86335,  -0.74822,  -0.74940,   0.31772
  -0.06848,  -0.87199,   0.93750,  -0.83135,   0.87014,   0.23846,   0.16645,  -0.93750,  -0.32513,   0.68721
  -0.93750,   0.93750,   0.93750,  -0.31449,   0.20375,  -0.42587,  -0.05922,  -0.40492,  -0.93750,  -0.30768
  -0.34626,   0.32036,   0.16293,  -0.25801,   0.29131,   0.32783,  -0.13661,   0.93750,   0.93750,   0.93750
  -0.54169,  -0.46064,  -0.38330,  -0.73418,  -0.81854,   0.92173,   0.87416,  -0.46537,  -0.22724,  -0.90381
  -0.93750,   0.86164,   0.93750,  -0.93750,  -0.93750,   0.90177,  -0.93750,  -0.93750,   0.93750,  -0.93750
  -0.50466,  -0.77836,  -0.93750,   0.93750,   0.93750,  -0.93750,  -0.93750,  -0.93750,   0.93750,   0.46655
   0.06407,  -0.68576,  -0.17709,   0.61709,  -0.10719,   0.93750,  -0.84132,  -0.00775,   0.93750,  -0.93610
   0.21427,   0.74010,   0.37079,   0.88331,  -0.93750,  -0.18880,  -0.46411,   0.13891,  -0.75228,   0.91871
  -0.52585,   0.93750,  -0.86546,   0.93750,  -0.20539,  -0.54761,  -0.85903,  -0.66660,   0.93604,  -0.48921
   0.93750,  -0.71175,   0.93750,  -0.89412,   0.67017,  -0.64354,  -0.93750,  -0.07260,   0.93750,  -0.92926
   0.83306,   0.62935,   0.84875,   0.87599,   0.70829,   0.23966,   0.64238,   0.82561,   0.66021,   0.65767
   0.73984,   0.65258,  -0.93750,  -0.93430,  -0.87090,   0.26186,   0.86284,   0.93068,   0.21440,   0.93750
  -0.81358,   0.56389,   0.65963,   0.44906,   0.93750,  -0.04828,   0.86805,  -0.67917,  -0.54694,  -0.85664
   0.18125,  -0.93750,   0.93750,   0.84949,   0.13372,  -0.93750,   0.86291,  -0.93750,   0.93750,   0.54850
  -0.32596,  -0.93750,   0.60518,  -0.93750,  -0.34590,  -0.91279,   0.47582,   0.62917,   0.27293,   0.22296
  -0.93750,   0.92642,   0.40806,   0.21358,  -0.85186,   0.93750,   0.12717,  -0.93750,  -0.93750,  -0.93750
   0.93750,  -0.92889,  -0.68845,  -0.68084,  -0.43476,   0.73561,  -0.93744,  -0.26737,   0.93750,  -0.87728
  -0.66199,  -0.93750,   0.40697,  -0.48588,  -0.93750,   0.10996,  -0.81780,   0.71913,   0.07287,  -0.93750
   0.88505,  -0.87809,   0.87897,   0.93750,   0.79560,  -0.14004,  -0.91661,  -0.87484,  -0.81355,  -0.49476
  -0.68882,  -0.74398,  -0.78758,   0.08115,  -0.01335,   0.79827,  -0.85146,   0.93750,   0.93193,   0.25292
  -0.79191,   0.79389,   0.53040,   0.70857,   0.89141,   0.93750,  -0.55306,  -0.08121,  -0.69075,  -0.93750
  -0.06058,  -0.20927,  -0.93750,  -0.18951,  -0.93750,  -0.80652,  -0.43974,   0.25034,  -0.55475,   0.93750
  -0.05751,  -0.72853,   0.65201,   0.00436,  -0.93750,  -0.87288,   0.18591,  -0.38693,  -0.89932,   0.93750
   0.09533,   0.77510,  -0.09101,  -0.78337,   0.25202,   0.63425,   0.35241,   0.61738,   0.85978,  -0.82328
   0.93750,   0.88761,  -0.93750,  -0.51869,  -0.80651,  -0.39722,  -0.93750,  -0.80874,  -0.25698,   0.07971
   0.68552,  -0.80085,  -0.12999,   0.02465,  -0.55140,   0.53861,  -0.74204,  -0.43123,   0.63376,  -0.53823
   0.80528,  -0.92605,   0.73527,   0.81371,   0.93750,  -0.66232,  -0.53059,   0.06550,  -0.87384,   0.38400
  -0.43546,  -0.91599,   0.77595,   0.15209,   0.93232,  -0.48573,   0.15580,   0.15159,   0.61442,   0.38783
  -0.93750,  -0.93750,   0.34114,   0.93750,   0.69420,   0.77742,  -0.32739,  -0.07530,   0.87740,  -0.93750
  -0.62603,  -0.70710,   0.87282,  -0.50018,   0.88029,  -0.55170,   0.93736,  -0.24529,   0.27666,  -0.87613
   0.93750,  -0.45008,  -0.87256,  -0.05375,   0.84881,  -0.93750,   0.70263,   0.23380,  -0.67475,  -0.70823
   0.88472,  -0.89027,   0.74044,  -0.40081,   0.68443,  -0.27076,  -0.34486,   0.86239,  -0.87639,   0.68149
   0.93750,   0.64326,  -0.61027,  -0.14568,  -0.45612,  -0.26784,  -0.80996,   0.91598,  -0.47428,   0.93750
   0.93750,  -0.93750,  -0.61363,  -0.16258,   0.93750,  -0.93338,   0.80405,  -0.35835,  -0.93587,  -0.79570
   0.03891,   0.53800,   0.87334,   0.09632,  -0.32628,  -0.24850,   0.23263,   0.48909,   0.86416,  -0.67682
  -0.72536,   0.93750,  -0.81544,   0.90601,   0.39286,   0.93750,   0.34026,   0.93750,   0.40741,  -0.80295
   0.37646,   0.56526,   0.56130,   0.40778,   0.04485,   0.26830,  -0.57524,   0.93750,   0.63156,  -0.64886
  -0.93750,  -0.33077,  -0.93750,   0.82295,  -0.37691,  -0.30166,   0.93750,   0.87903,  -0.30728,   0.93218
   0.93750,   0.60252,   0.93750,  -0.80868,   0.33366,   0.11141,  -0.26850,  -0.11918,  -0.93243,  -0.31654
   0.57106,   0.51221,  -0.44950,  -0.62135,  -0.73124,   0.41064,   0.23116,  -0.79868,   0.81975,   0.92936
  -0.93750,   0.09035,   0.74852,   0.18815,  -0.93750,  -0.88459,   0.22736,  -0.44755,  -0.21793,  -0.93750
   0.02769,  -0.61901,  -0.04524,   0.93750,   0.93750,  -0.80991,   0.93750,   0.71063,   0.93750,   0.26080
   0.93750,   0.93643,  -0.43554,   0.66062,  -0.31817,  -0.74425,  -0.93620,  -0.04250,  -0.93750,   0.25385
   0.93750,   0.93750,  -0.35978,  -0.93750,  -0.93750,   0.31560,   0.74666,   0.78885,  -0.09291,   0.93750
  -0.73724,   0.74622,   0.68828,   0.42508,   0.49891,   0.56279,   0.25511,   0.46575,  -0.28054,  -0.93133
   0.86585,  -0.63616,  -0.48706,  -0.80305,  -0.93750,  -0.61552,  -0.59523,  -0.87613,   0.89009,   0.92682
  -0.16235,  -0.45324,   0.33826,   0.63877,   0.93750,   0.59196,  -0.71716,  -0.22992,   0.88138,  -0.17826
  -0.33205,   0.48970,   0.05073,  -0.80072,   0.25945,   0.87885,  -0.00032,  -0.88226,  -0.93110,   0.93750
   0.93750,   0.05140,  -0.44988,  -0.78003,   0.87319,   0.93750,  -0.82573,   0.11609,  -0.93750,  -0.91927
   0.49427,  -0.84623,   0.66510,   0.04468,   0.81105,   0.21270,   0.68808,   0.39723,  -0.79601,   0.28966
   0.93750,  -0.82610,  -0.48328,  -0.14346,   0.27068,   0.93750,  -0.93750,  -0.01502,  -0.74495,  -0.32821
   0.61883,  -0.02245,  -0.80918,  -0.43118,   0.93750,   0.34313,   0.93750,  -0.00184,  -0.75252,  -0.93572
   0.75506,  -0.73821,   0.76474,  -0.24961,   0.82571,  -0.92109,   0.28944,   0.93750,  -0.25712,  -0.68092
   0.93750,   0.69516,  -0.27548,  -0.02956,   0.57230,   0.68209,  -0.43060,   0.52011,  -0.93750,  -0.92942
   0.46613,   0.53786,   0.09774,  -0.26208,   0.93750,  -0.61477,   0.93750,  -0.33938,   0.87058,  -0.93750
   0.04896,   0.18773,   0.27296,  -0.03617,  -0.44210,  -0.64648,  -0.14897,  -0.43793,   0.45861,   0.81616
  -0.34229,   0.74052,   0.93603,  -0.86506,   0.92935,   0.69656,  -0.84096,   0.60940,  -0.86882,  -0.73359
   0.45608,   0.28843,   0.00826,   0.54113,   0.71016,   0.13749,  -0.34401,  -0.20876,   0.93750,  -0.55777
  -0.93750,  -0.74703,   0.93750,   0.60766,   0.27274,  -0.17856,   0.05177,   0.76107,   0.63510,  -0.93305
  -0.73946,  -0.62465,  -0.15789,   0.74764,  -0.78657,  -0.26390,   0.12816,  -0.51727,   0.27246,  -0.45037
  -0.30430,  -0.22592,  -0.93750,  -0.27050,   0.93750,  -0.93750,   0.73362,  -0.93750,   0.71088,   0.06202
  -0.87366,  -0.93750,   0.87500,  -0.89208,   0.93362,   0.43127,  -0.75137,  -0.40850,  -0.89763,  -0.69724
   0.63190,  -0.47265,   0.89596,  -0.19207,   0.88355,   0.93750,   0.93750,   0.62714,  -0.93750,  -0.45087
   0.79176,  -0.48424,   0.29339,  -0.76040,   0.75251,   0.15064,  -0.24106,   0.87298,   0.03810,   0.50682
   0.34725,  -0.93750,  -0.93750,  -0.34143,   0.14422,  -0.93750,  -0.64490,  -0.85283,  -0.93750,  -0.93750
   0.93750,  -0.74385,  -0.93750,  -0.77815,  -0.68490,  -0.80586,  -0.74673,  -0.27855,  -0.25679,   0.63664
  -0.38306,  -0.08080,   0.67257,   0.53479,   0.72414,   0.82627,  -0.55670,   0.52069,   0.21862,  -0.24526
  -0.23128,   0.58818,  -0.93750,  -0.93750,  -0.21573,   0.76352,  -0.93750,  -0.88434,   0.93750,   0.42953
   0.35861,  -0.73750,   0.79204,   0.55869,   0.78509,   0.09692,   0.32963,   0.01856,   0.71153,  -0.36067
  -0.60883,  -0.91356,  -0.80063,   0.93750,   0.49965,  -0.57332,   0.74462,   0.93750,   0.85159,  -0.46792
   0.74453,   0.16947,   0.25996,  -0.51158,  -0.92287,   0.93750,   0.34727,  -0.05353,  -0.93750,   0.93750
  -0.58689,   0.93750,   0.87392,  -0.20600,   0.77431,  -0.09242,   0.10777,  -0.87564,  -0.27913,  -0.87754
  -0.29054,  -0.93154,   0.60570,   0.12200,   0.48478,  -0.47744,  -0.71784,   0.15928,   0.44239,   0.93750
  -0.75206,  -0.49720,  -0.17540,   0.11605,  -0.04261,  -0.87406,   0.93750,   0.26905,   0.10235,   0.58483
   0.26016,  -0.41854,   0.13389,  -0.39169,   0.87812,   0.26881,  -0.05612,   0.93750,  -0.93750,   0.71968
   0.36729,   0.93057,   0.32151,  -0.93750,   0.93750,  -0.93750,  -0.44817,   0.46791,   0.61558,  -0.93750
  -0.93750,   0.93750,   0.23968,  -0.82229,  -0.93750,  -0.58018,  -0.84332,  -0.81094,   0.93750,  -0.93750
   0.93750,   0.38981,  -0.89430,   0.82625,   0.21766,  -0.78677,  -0.52058,   0.93144,  -0.67624,  -0.75037
  -0.88026,  -0.21296,  -0.07344,  -0.82760,   0.93750,  -0.90369,   0.93750,  -0.73432,  -0.90362,   0.93750
   0.93750,   0.81369,  -0.58398,  -0.42895,  -0.92182,  -0.60322,  -0.39067,  -0.37843,   0.93750,  -0.91351
  -0.45006,  -0.82195,   0.75488,  -0.32182,   0.93529,  -0.74443,  -0.61656,   0.75186,   0.55907,  -0.93750
   0.74885,  -0.27633,   0.12741,   0.60268,  -0.93750,   0.93750,   0.83321,   0.93750,  -0.93750,   0.81179
  -0.93750,   0.53759,  -0.74392,  -0.56510,   0.93750,   0.93750,   0.16287,   0.17415,   0.02977,  -0.88158
   0.86265,   0.93750,  -0.93750,  -0.62143,   0.93750,   0.65607,  -0.81107,   0.81472,  -0.73478,  -0.92732
  -0.26916,   0.62807,   0.10675,   0.19308,   0.29910,  -0.03347,  -0.36123,  -0.15154,   0.31945,  -0.05147
   0.34074,  -0.37151,   0.93750,   0.93750,   0.93750,   0.38790,   0.81403,  -0.16307,  -0.20625,  -0.62927
  -0.93750,  -0.10095,  -0.62134,   0.93750,  -0.02624,  -0.67438,  -0.77718,  -0.09997,  -0.83638,  -0.93750
  -0.52270,  -0.93750,  -0.32248,  -0.87535,  -0.93750,  -0.49957,   0.30112,   0.93750,  -0.40569,   0.44232
  -0.50970,  -0.88873,  -0.87342,   0.09117,   0.93750,  -0.69397,  -0.93420,  -0.85290,  -0.59227,  -0.87886
  -0.93750,   0.86448,   0.20032,   0.10593,  -0.42749,  -0.87873,  -0.93750,  -0.25129,   0.93737,  -0.09077
   0.58139,  -0.73279,  -0.54732,  -0.02529,  -0.08967,   0.20785,   0.06866,   0.65276,   0.23889,   0.64426
   0.32231,  -0.73893,   0.68015,  -0.48263,  -0.53768,   0.62278,   0.02997,   0.19551,  -0.06098,  -0.35219
  -0.26553,   0.55369,  -0.75404,   0.87607,  -0.38115,   0.65281,  -0.80266,  -0.03173,  -0.00216,  -0.87672
  -0.60838,  -0.06182,  -0.91186,   0.93750,  -0.19411,   0.42492,  -0.88344,  -0.90221,  -0.26499,  -0.56300
   0.93750,  -0.79517,  -0.93750,   0.70610,  -0.93750,  -0.60058,   0.77570,   0.90809,   0.33924,  -0.93750
   0.29204,  -0.93750,   0.63841,   0.81670,  -0.67294,  -0.93750,   0.87550,   0.41806,  -0.73336,   0.34445
   0.31351,  -0.93750,   0.68655,  -0.01973,  -0.93750,  -0.93750,  -0.64163,   0.42018,  -0.71036,  -0.93750
   0.18592,  -0.92708,   0.86928,  -0.93750,   0.73020,   0.92355,  -0.69820,   0.66610,  -0.84930,   0.25802
   0.87651,   0.87800,   0.86763,  -0.84183,   0.93750,  -0.45459,   0.58957,  -0.62160,  -0.58260,  -0.86819
   0.41066,  -0.81388,  -0.50650,   0.93750,   0.93750,   0.47076,   0.93750,   0.13025,   0.25905,   0.53171
   0.87593,   0.92356,   0.93750,  -0.93750,   0.04073,  -0.00036,  -0.88857,  -0.83199,  -0.88451,   0.26535
   0.30430,  -0.93750,   0.18050,  -0.16583,  -0.24651,  -0.49103,   0.25679,   0.93750,  -0.93750,   0.41745
  -0.54059,   0.02763,  -0.21654,   0.93750,   0.93750,  -0.88544,  -0.93750,  -0.83035,   0.00873,  -0.87918
   0.62739,   0.39894,  -0.86558,   0.29485,   0.84436,   0.87242,   0.50886,  -0.29790,  -0.74378,  -0.30748
   0.82391,   0.15142,   0.87778,   0.90451,  -0.78425,   0.59827,  -0.76608,   0.88020,   0.88522,   0.68506
  -0.79707,  -0.78700,   0.72287,   0.46334,  -0.16139,  -0.92866,   0.93750,  -0.17000,   0.59482,  -0.36041
   0.36805,   0.93750,   0.55282,  -0.82697,  -0.86292,   0.42546,   0.31178,  -0.81407,  -0.06953,  -0.62600
  -0.81249,  -0.32951,   0.93750,  -0.86217,   0.34709,  -0.41925,   0.92471,  -0.27669,  -0.81562,  -0.63694
   0.02719,   0.12367,  -0.93435,   0.87815,   0.59228,  -0.87039,   0.93750,   0.93750,   0.86141,   0.68229
   0.87699,  -0.81027,   0.82038,   0.86872,  -0.93750,   0.18527,  -0.25919,  -0.60499,   0.39658,   0.81418
  -0.75495,  -0.70140,   0.09084,   0.87344,  -0.42091,  -0.93750,  -0.89747,   0.84687,   0.37737,  -0.35596
   0.35024,   0.92382,  -0.68766,   0.93750,  -0.39563,  -0.15666,   0.07379,   0.93705,  -0.60505,   0.36812
  -0.60957,   0.93750,  -0.61223,   0.58291,   0.65289,  -0.72938,  -0.93750,   0.31471,  -0.16136,   0.16437
  -0.65706,   0.43091,  -0.33373,  -0.93750,  -0.53037,   0.73008,   0.50646,   0.66251,   0.33522,   0.51319
  -0.93750,  -0.78573,   0.90916,  -0.93750,   0.62819,   0.93750,   0.74266,   0.93750,   0.88398,   0.68052
   0.93750,   0.11408,  -0.18835,  -0.38719,  -0.93750,   0.33585,   0.34684,  -0.31903,  -0.80990,   0.93750
  -0.29161,   0.62474,  -0.87462,   0.75888,   0.62514,  -0.64160,  -0.12438,   0.47778,  -0.28226,   0.81818
  -0.64455,  -0.93750,   0.69884,  -0.86755,  -0.22405,   0.53253,  -0.77316,  -0.93750,   0.89692,  -0.76267
  -0.84406,  -0.70736,   0.93750,   0.28365,  -0.46527,  -0.54298,   0.36939,   0.42502,  -0.60838,   0.93080
  -0.93750,   0.21185,  -0.25948,  -0.46551,  -0.93750,   0.93750,  -0.23753,   0.30157,   0.51454,  -0.93750
   0.54107,   0.80060,  -0.02570,  -0.67878,  -0.43249,  -0.28597,  -0.02944,  -0.54933,   0.75010,   0.81823
  -0.09734,   0.93750,  -0.34488,  -0.29306,   0.13033,  -0.69728,  -0.75431,   0.87244,  -0.80530,  -0.87922
   0.33700,   0.93388,  -0.54282,  -0.67531,   0.35327,   0.80888,   0.82123,  -0.62981,  -0.81673,  -0.56650
  -0.39572,   0.77690,   0.28381,   0.22134,  -0.42058,   0.84865,  -0.39263,  -0.93750,  -0.07812,   0.92186
  -0.67436,   0.55055,   0.74576,  -0.31597,  -0.88666,   0.26963,  -0.36674,  -0.36996,   0.93750,   0.27890
  -0.00972,   0.58084,   0.81270,   0.27046,  -0.04368,   0.63958,   0.12500,   0.38400,  -0.50992,  -0.39371
   0.93750,  -0.53301,  -0.51272,   0.61223,   0.82900,  -0.60598,  -0.83627,  -0.04166,   0.86313,  -0.77132
  -0.60581,  -0.36050,  -0.93750,  -0.93750,   0.18554,   0.93750,  -0.78539,  -0.93750,   0.93750,  -0.30795
  -0.88304,   0.83221,  -0.58880,   0.93750,  -0.87127,  -0.16590,   0.82096,   0.82534,   0.52453,  -0.62477
   0.87048,   0.65284,  -0.46949,  -0.64745,  -0.61589,   0.46106,   0.80203,   0.93750,   0.74249,   0.18523
  -0.80413,  -0.93750,  -0.00760,  -0.66323,   0.57593,   0.82124,   0.93750,   0.93750,   0.16047,   0.91200
  -0.68299,   0.42400,   0.26877,   0.30985,   0.81770,  -0.57615,  -0.23625,  -0.72658,   0.76041,   0.25330
   0.29883,  -0.86700,  -0.86776,   0.93750,  -0.72926,  -0.93750,  -0.20286,   0.88067,  -0.48501,  -0.93254
   0.81465,   0.93750,  -0.21507,  -0.25448,   0.54401,  -0.71408,  -0.93750,   0.06017,   0.88474,  -0.17449
  -0.30717,  -0.26211,   0.93750,   0.17289,  -0.39473,  -0.44051,   0.05660,   0.56407,   0.20632,   0.18628
   0.87982,  -0.66273,  -0.87578,  -0.87218,   0.12750,  -0.86826,  -0.49357,  -0.42742,  -0.68700,  -0.56398
  -0.01634,   0.93750,  -0.91478,  -0.50608,  -0.93750,  -0.41286,   0.20531,  -0.21905,  -0.48668,   0.93750
  -0.61622,   0.56131,  -0.76925,  -0.53546,   0.37571,  -0.50328,   0.56609,   0.88120,   0.92501,   0.13824
  -0.17898,  -0.10639,   0.02559,   0.36134,  -0.70830,   0.22187,   0.26555,  -0.09609,   0.93747,   0.37033
   0.08018,   0.66823,  -0.55674,   0.53313,   0.18312,  -0.13529,  -0.61523,   0.54787,   0.79538,  -0.66996
   0.28690,  -0.93750,  -0.51363,   0.93750,   0.93750,  -0.93750,   0.84384,   0.22511,   0.60095,  -0.93750
   0.93002,  -0.09762,   0.05286,  -0.32946,   0.93750,   0.87951,  -0.93750,   0.49462,   0.25534,   0.93750
  -0.60545,   0.01351,  -0.73890,   0.93750,  -0.10085,  -0.87977,   0.72196,  -0.93750,  -0.78508,  -0.92854
  -0.37150,  -0.93750,   0.86488,  -0.87463,   0.93114,  -0.30746,  -0.28636,   0.87461,   0.43879,  -0.16108
  -0.80192,  -0.49839,  -0.23425,  -0.67968,   0.32378,   0.63833,  -0.93237,  -0.20398,   0.64690,   0.92856
  -0.75382,   0.93526,   0.12011,  -0.65668,   0.73369,  -0.52197,   0.61961,  -0.49164,  -0.82737,   0.63032
  -0.73910,   0.93750,  -0.93750,   0.93750,  -0.54037,   0.81026,  -0.29045,  -0.93750,   0.93750,  -0.88701
  -0.63556,   0.58239,  -0.53576,  -0.14657,   0.92921,   0.14651,  -0.80586,  -0.23426,  -0.14088,  -0.20767
  -0.62629,  -0.54908,  -0.32318,   0.29856,  -0.67125,   0.86297,  -0.45988,   0.93750,  -0.41875,  -0.91910
   0.87107,  -0.86839,  -0.41027,   0.47129,  -0.62011,   0.85927,  -0.68885,   0.43173,  -0.64443,   0.34839
  -0.87635,   0.93750,   0.57976,  -0.93750,   0.51445,  -0.00485,   0.68596,  -0.86545,  -0.81099,   0.93750
   0.90148,  -0.05487,  -0.17578,   0.26603,  -0.92903,  -0.93750,   0.90078,  -0.85957,   0.75164,   0.48304
  -0.93750,   0.02273,   0.74896,   0.48486,  -0.93750,   0.93750,  -0.25146,  -0.87226,   0.05642,  -0.02103
   0.85688,  -0.59910,   0.79864,   0.04960,   0.06250,   0.06209,  -0.22030,   0.93396,   0.42469,  -0.37555
   0.81246,   0.93750,  -0.93750,  -0.92223,  -0.77546,   0.63037,  -0.93750,  -0.32540,  -0.93750,   0.11028
   0.34858,  -0.93750,  -0.12964,  -0.39536,   0.82409,  -0.93750,  -0.73048,   0.87381,   0.87858,   0.87313
  -0.44400,   0.27420,  -0.67556,  -0.62553,   0.82217,   0.17604,   0.18258,  -0.93750,   0.48637,  -0.49072
   0.87729,  -0.57621,   0.50609,  -0.05802,   0.11099,   0.16508,  -0.10160,   0.52992,  -0.55557,   0.38900
  -0.62107,   0.48944,  -0.88362,  -0.81134,  -0.32957,  -0.02833,  -0.86231,   0.93750,  -0.93750,   0.93750
   0.75610,   0.53565,   0.55340,   0.74941,  -0.57333,   0.91808,   0.79258,  -0.10545,   0.15241,  -0.60101
  -0.86748,   0.61793,   0.77321,  -0.93628,  -0.70663,   0.93750,   0.00385,  -0.68072,  -0.88720,  -0.93750
  -0.68724,  -0.93750,  -0.63261,  -0.12429,   0.80748,   0.93750,   0.36018,   0.88006,  -0.67778,  -0.68588
  -0.28074,   0.93750,  -0.76514,  -0.34460,   0.93750,  -0.91808,  -0.76277,  -0.00675,  -0.81368,  -0.82081
   0.29798,  -0.48194,   0.11821,   0.46642,  -0.93750,  -0.93750,  -0.72202,   0.46952,  -0.93750,  -0.60882
  -0.93750,   0.93750,  -0.61757,  -0.60663,  -0.87670,  -0.87145,  -0.93750,  -0.81117,  -0.73997,  -0.45796
   0.88801,   0.07149,   0.93750,  -0.89525,  -0.86528,   0.93750,  -0.36964,   0.93750,  -0.11046,  -0.66865
  -0.55361,   0.93750,   0.79839,   0.86812,  -0.45551,   0.15398,   0.93750,  -0.69474,   0.26784,   0.93750
   0.90746,   0.67770,   0.93750,  -0.62988,  -0.60422,  -0.92833,   0.93750,  -0.88259,  -0.87287,   0.11149
   0.79256,   0.93750,  -0.87351,  -0.60188,   0.34635,   0.81652,  -0.67001,   0.32175,   0.71683,  -0.93741
  -0.12572,  -0.87409,   0.85717,  -0.61161,   0.59497,  -0.87416,   0.41259,   0.87739,  -0.67384,   0.88727
   0.93750,  -0.53986,   0.01996,  -0.83440,  -0.19848,   0.32398,  -0.60427,  -0.18757,  -0.62941,  -0.22723
   0.14504,   0.93750,   0.93750,  -0.32652,   0.85248,  -0.75380,  -0.93750,  -0.34543,  -0.93750,   0.01427
  -0.68586,  -0.93750,   0.67765,  -0.87068,  -0.85880,   0.42045,  -0.93750,  -0.62168,  -0.92136,   0.34037
   0.93750,  -0.93750,   0.08405,  -0.90602,  -0.93750,  -0.63048,  -0.20097,  -0.28153,  -0.93750,   0.61616
   0.92954,  -0.93750,   0.80239,   0.93750,   0.81421,  -0.93750,  -0.93750,   0.80586,   0.79572,   0.76141
  -0.41279,   0.59588,   0.81566,  -0.04253,   0.36769,   0.87556,  -0.86628,  -0.93750,   0.34684,  -0.93750
   0.93750,   0.88024,  -0.55884,   0.09483,  -0.92509,  -0.44598,   0.82124,   0.93750,  -0.81963,  -0.44707
   0.93750,   0.86962,   0.31790,  -0.44657,  -0.85826,  -0.60578,   0.67813,  -0.45783,   0.55420,   0.11092
   0.39845,   0.92422,  -0.84324,  -0.21600,  -0.91870,   0.62903,   0.93750,   0.93750,  -0.73011,   0.71206
   0.93750,  -0.93750,   0.76602,   0.39479,   0.93750,   0.68474,  -0.88024,  -0.44331,   0.33050,  -0.33763
   0.00302,  -0.79940,  -0.72836,   0.93149,   0.37444,   0.81782,   0.82457,  -0.87347,  -0.69257,  -0.50427
  -0.44349,   0.69229,   0.74577,   0.07062,  -0.87052,   0.72211,   0.75438,   0.93750,  -0.88220,   0.11499
   0.31861,   0.24306,   0.24666,  -0.10358,   0.02960,   0.68714,   0.78612,   0.93075,  -0.27847,  -0.03605
   0.56712,   0.92690,  -0.87427,   0.75249,   0.93750,  -0.66693,  -0.87225,  -0.59293,   0.15092,   0.68242
   0.65779,  -0.93750,   0.10980,  -0.37893,  -0.86486,   0.73556,  -0.52857,   0.91317,   0.55497,  -0.03187
  -0.87535,  -0.69410,  -0.51564,  -0.60062,   0.45785,   0.93750,  -0.20419,  -0.36071,  -0.67176,  -0.30271
   0.38003,   0.34469,   0.93750,  -0.28198,  -0.93750,  -0.04251,   0.02822,  -0.19059,  -0.19354,  -0.93750
   0.87927,  -0.74777,   0.52844,   0.92916,   0.89737,  -0.87052,  -0.57731,  -0.87919,  -0.75491,   0.26862
  -0.77158,  -0.00465,   0.15079,  -0.87376,  -0.93750,  -0.54654,   0.93750,  -0.69019,   0.00183,  -0.93750
   0.54020,  -0.76733,  -0.32092,  -0.79099,   0.74729,  -0.93750,   0.93750,   0.93146,  -0.93750,  -0.78553
   0.93750,   0.93560,   0.93750,  -0.93750,  -0.83152,   0.58233,   0.87327,  -0.89626,  -0.85687,   0.92391
  -0.75056,   0.93750,  -0.90249,   0.93672,  -0.78161,  -0.71678,   0.85760,  -0.81462,  -0.80525,   0.08430
   0.81416,   0.54225,  -0.84451,  -0.93750,  -0.87220,  -0.09087,  -0.02129,   0.69520,   0.02467,   0.93750
  -0.93750,  -0.93350,  -0.44263,   0.54149,  -0.84514,   0.67772,  -0.90554,   0.93750,  -0.29905,  -0.81321
   0.55469,  -0.92010,  -0.86247,   0.25601,   0.74737,  -0.42931,   0.34466,   0.28310,   0.42437,   0.07521
   0.29072,   0.70025,  -0.22808,  -0.54748,   0.09213,   0.27855,   0.80177,   0.03969,   0.93750,  -0.64892
   0.33585,   0.93750,  -0.28206,  -0.35014,   0.71187,  -0.42987,  -0.35632,   0.93750,  -0.33448,   0.84820
  -0.90223,   0.78998,  -0.41346,   0.41954,   0.93750,   0.80002,   0.73312,   0.36078,   0.43516,  -0.85155
   0.45711,  -0.21887,   0.93142,  -0.41358,   0.12508,  -0.06984,  -0.47606,  -0.38736,   0.93750,  -0.75787
   0.82068,   0.17721,   0.43627,   0.61075,  -0.33680,  -0.27417,  -0.61807,   0.03051,   0.04919,   0.66784
  -0.93750,  -0.80871,   0.52574,  -0.49029,   0.93750,   0.93750,   0.82033,   0.93750,   0.17073,   0.88823
   0.91135,   0.87073,   0.32297,  -0.67586,  -0.93750,   0.29947,  -0.93750,   0.44975,   0.90401,  -0.93750
   0.55816,   0.73284,   0.64616,  -0.31805,   0.51929,   0.57179,   0.61378,  -0.69925,   0.88160,  -0.73608
   0.93750,   0.93750,   0.40015,  -0.48743,  -0.24305,  -0.41740,  -0.82298,  -0.41712,  -0.93750,  -0.29951
  -0.93750,   0.29730,   0.80374,   0.11462,   0.00850,   0.12129,  -0.93750,  -0.57460,  -0.76423,  -0.11845
   0.64693,   0.93750,  -0.48309,  -0.37206,  -0.80989,   0.51706,   0.00934,  -0.47767,   0.90006,   0.16472
  -0.88636,   0.93750,   0.43895,  -0.82302,   0.07489,  -0.74886,   0.68515,  -0.71114,   0.34879,  -0.76171
   0.93750,  -0.39986,  -0.81324,   0.30712,   0.66594,  -0.86885,  -0.34269,  -0.93750,   0.21007,  -0.91495
   0.83827,  -0.86968,  -0.89474,  -0.80332,  -0.75106,  -0.72856,   0.53868,   0.93750,  -0.24531,  -0.01573
   0.42348,  -0.90473,   0.62236,   0.26370,   0.20413,   0.34067,  -0.12799,   0.93750,   0.17899,  -0.87549
   0.79986,  -0.68838,  -0.73823,  -0.35749,   0.12385,  -0.93750,   0.93750,  -0.87730,   0.76368,   0.33487
   0.93750,  -0.93750,   0.07058,  -0.93750,   0.24512,   0.93750,  -0.37465,  -0.93750,  -0.93750,  -0.64307
   0.05822,  -0.54633,   0.87707,  -0.38484,  -0.62954,   0.21412,   0.48138,  -0.49926,   0.86700,  -0.93750
   0.48223,   0.88764,  -0.25324,  -0.82546,   0.22877,   0.32179,  -0.04220,   0.93750,  -0.06356,  -0.88622
  -0.73825,  -0.38434,   0.66325,   0.54749,   0.50221,   0.67575,   0.79037,  -0.53380,   0.29857,   0.76860
   0.88100,  -0.72808,  -0.83133,  -0.32230,   0.93727,   0.69233,   0.06296,   0.10048,  -0.93750,  -0.12020
  -0.93750,   0.00883,   0.84314,   0.34649,   0.93750,   0.93750,  -0.15429,  -0.88103,   0.79045,   0.52156
   0.03615,  -0.37976,   0.26153,  -0.29805,  -0.32037,   0.37439,   0.44029,  -0.50459,   0.64536,   0.01023
   0.00183,  -0.89899,  -0.59152,  -0.62242,  -0.59409,   0.93750,   0.93750,  -0.93750,  -0.03247,  -0.53751
  -0.28451,   0.93750,  -0.93750,   0.01278,  -0.63613,  -0.67976,  -0.29577,   0.27888,  -0.37765,  -0.93750
  -0.80596,   0.83096,  -0.82035,  -0.75549,  -0.93750,  -0.49406,   0.49886,   0.25565,   0.49308,  -0.61164
   0.93750,  -0.46426,  -0.33435,   0.52204,   0.57610,  -0.72310,   0.08909,  -0.17846,   0.87966,  -0.38530
  -0.67231,  -0.29169,  -0.74793,  -0.40742,   0.93750,  -0.41589,   0.73936,   0.54151,  -0.93750,   0.80744
   0.09786,  -0.87208,   0.10117,   0.54217,  -0.93750,   0.93750,  -0.93750,  -0.93750,  -0.93750,  -0.93750
  -0.41682,   0.67964,   0.80126,  -0.50074,   0.56788,  -0.04163,  -0.71069,  -0.05423,   0.88119,  -0.09591
  -0.44560,  -0.73196,  -0.70408,  -0.52353,  -0.10629,   0.37532,   0.93750,  -0.62969,   0.92627,   0.21847
   0.57476,  -0.80506,   0.42968,   0.93576,   0.93750,  -0.90789,  -0.70315,   0.93750,  -0.55051,  -0.93750
  -0.48789,   0.56121,   0.69465,   0.46886,   0.92365,   0.51866,   0.22652,   0.28421,   0.01664,  -0.60706
   0.55141,  -0.06111,  -0.67830,   0.93750,  -0.93750,   0.34135,   0.93750,  -0.93750,   0.59619,   0.47436
  -0.09953,   0.45497,  -0.17537,   0.75421,   0.35494,  -0.81599,  -0.81556,  -0.68299,  -0.59955,  -0.11333
  -0.51679,   0.74727,  -0.86110,   0.93750,   0.93750,  -0.86662,   0.70600,  -0.05606,  -0.34365,  -0.85374
  -0.82347,   0.22266,   0.92667,  -0.45095,   0.82638,  -0.35496,  -0.78386,  -0.63870,   0.93750,   0.05373
  -0.93750,  -0.78718,   0.15070,   0.55634,   0.01968,   0.77156,   0.93750,   0.93750,  -0.72632,  -0.79436
  -0.44622,  -0.74989,   0.92739,  -0.87148,   0.04095,  -0.31244,  -0.89776,   0.84132,  -0.79136,   0.93383
   0.82445,   0.93750,  -0.93586,   0.87690,   0.63487,   0.11948,  -0.87128,  -0.74949,  -0.87114,   0.67416
  -0.44316,  -0.86592,   0.87854,   0.74434,  -0.93750,  -0.59050,  -0.88170,   0.80152,   0.65086,   0.03139
   0.70493,   0.48615,  -0.87872,  -0.58493,  -0.84782,   0.93750,  -0.81840,  -0.28258,  -0.66799,   0.48221
  -0.93750,  -0.93750,  -0.08558,  -0.01845,   0.93750,  -0.93750,  -0.74200,   0.08483,  -0.84119,  -0.93750
  -0.62149,   0.27158,  -0.11953,   0.57809,  -0.57476,   0.25855,   0.39625,  -0.44451,   0.42018,   0.66151
   0.56412,  -0.55496,   0.31390,   0.76337,   0.36245,   0.43522,  -0.12664,   0.56867,  -0.28474,   0.33194
   0.07647,   0.05913,   0.67976,  -0.87839,  -0.34516,   0.10724,   0.42669,   0.00535,   0.80585,   0.87642
  -0.55204,   0.93750,   0.93750,  -0.93343,   0.01832,   0.41176,  -0.15394,  -0.93750,  -0.86213,   0.93282
  -0.93750,  -0.93750,  -0.93750,   0.93750,   0.93750,  -0.10702,  -0.61777,  -0.93750,   0.29898,   0.91269
  -0.93750,  -0.93750,  -0.48101,  -0.50240,   0.91282,   0.52211,  -0.87723,  -0.58153,  -0.87018,  -0.93750
   0.75348,   0.77295,   0.93750,  -0.83350,   0.86082,   0.43409,   0.68619,  -0.26656,  -0.93750,  -0.87514
   0.93750,   0.23932,   0.74250,  -0.93750,   0.93750,   0.47303,   0.93750,   0.24809,   0.60475,   0.93750
  -0.93750,  -0.79814,   0.75428,  -0.09293,  -0.00490,   0.25921,   0.09000,   0.52099,   0.88105,  -0.28399
  -0.93750,   0.34275,  -0.71016,  -0.93750,   0.87362,  -0.81862,  -0.62365,   0.86560,   0.18244,   0.58992
  -0.60931,   0.86131,   0.93277,   0.73351,  -0.89009,   0.93750,  -0.19946,   0.93750,  -0.74728,   0.27531
  -0.17990,   0.13726,   0.93750,  -0.93750,  -0.93750,   0.38339,  -0.87371,  -0.93750,   0.80259,   0.93750
  -0.88679,  -0.27468,   0.82814,   0.85371,   0.87669,  -0.91921,   0.92765,  -0.06177,  -0.71771,   0.54249
  -0.20357,   0.93750,  -0.56829,  -0.20744,   0.93750,  -0.93750,  -0.86264,  -0.93750,  -0.84466,   0.93750
  -0.36135,  -0.64114,  -0.68237,   0.83212,   0.48131,   0.54780,  -0.50455,   0.92581,   0.93750,  -0.56612
  -0.65039,   0.80831,  -0.87101,   0.93750,  -0.55693,   0.93462,  -0.88148,  -0.93750,   0.10616,  -0.62897
   0.90507,  -0.92860,   0.93750,  -0.40046,  -0.89562,  -0.23111,  -0.87302,  -0.32253,  -0.86759,  -0.88093
  -0.93750,  -0.93750,  -0.44686,   0.28249,  -0.84698,  -0.59242,  -0.08303,   0.93750,   0.83694,  -0.24334
  -0.92927,   0.80622,  -0.66284,  -0.69895,   0.22750,   0.15713,   0.67338,  -0.61545,   0.93750,  -0.93750
  -0.93750,  -0.35550,  -0.37625,   0.93750,  -0.74402,  -0.93750,  -0.48918,   0.19619,   0.22459,  -0.54430
  -0.17624,  -0.78143,   0.93750,  -0.44745,  -0.49845,  -0.74409,   0.93363,  -0.75365,  -0.93750,   0.91140
  -0.87100,  -0.13907,   0.93750,  -0.93750,  -0.85611,   0.24071,  -0.38160,   0.93750,  -0.64300,   0.93317
  -0.81495,   0.43459,   0.77345,   0.69936,  -0.41264,  -0.29177,   0.72122,   0.55894,  -0.86808,  -0.22027
  -0.41188,  -0.11262,   0.93750,  -0.31563,   0.02634,   0.93750,  -0.24144,   0.42218,   0.16745,   0.87110
   0.24180,   0.59633,   0.19599,   0.86583,   0.05312,  -0.02052,   0.87683,  -0.13138,   0.93750,  -0.46561
  -0.15339,  -0.03265,  -0.93750,  -0.53383,  -0.93750,   0.01957,   0.76326,  -0.45665,   0.01389,  -0.61873
  -0.59580,  -0.89705,  -0.41640,   0.32359,   0.72801,   0.52949,  -0.16106,  -0.36751,   0.17488,   0.05195
   0.33784,  -0.30192,   0.34231,   0.40203,   0.09043,  -0.01189,   0.15642,   0.47218,  -0.43178,   0.40283
  -0.93750,  -0.19027,  -0.02065,  -0.76149,   0.86767,  -0.93750,   0.09824,  -0.93750,  -0.05820,   0.85706
   0.93750,  -0.74905,  -0.61033,  -0.68186,  -0.09994,   0.93750,  -0.93035,   0.35960,  -0.37966,   0.01633
  -0.03702,  -0.67634,  -0.78808,  -0.28952,   0.87783,   0.68044,   0.49227,   0.47338,  -0.87315,  -0.50825
  -0.76131,  -0.93750,  -0.62678,  -0.93689,  -0.84637,   0.93454,   0.93750,  -0.65580,   0.16907,  -0.01723
  -0.60257,  -0.37973,   0.42826,   0.92723,  -0.13726,   0.88474,  -0.69165,  -0.86165,  -0.86289,  -0.10101
   0.93750,  -0.20883,  -0.93750,  -0.43075,   0.45199,   0.31640,  -0.87559,   0.93750,   0.80767,   0.93750
  -0.83635,  -0.62176,   0.84990,  -0.66738,  -0.93750,   0.87413,  -0.73178,   0.87211,  -0.74902,   0.93750
   0.46331,  -0.77200,   0.93750,  -0.93750,  -0.24034,  -0.76662,  -0.25690,   0.93750,  -0.10013,   0.35887
  -0.09526,  -0.93750,  -0.75466,  -0.75682,   0.93750,  -0.45522,   0.09114,  -0.82790,  -0.93750,   0.92199
  -0.42135,   0.43872,   0.76296,   0.55331,  -0.02111,  -0.09347,  -0.28472,   0.24661,  -0.42252,   0.07610
   0.93750,   0.75563,  -0.93418,   0.36502,  -0.93658,  -0.02388,  -0.93572,  -0.06239,  -0.84993,   0.91412
   0.39838,   0.68305,  -0.61526,   0.45137,  -0.66465,   0.86916,   0.66271,  -0.33355,   0.08377,  -0.04424
  -0.14427,   0.77236,  -0.74686,   0.79083,  -0.78199,  -0.80586,  -0.11430,   0.30274,   0.00236,   0.86936
  -0.47578,   0.15097,  -0.36912,   0.93750,   0.13633,  -0.93750,   0.93750,   0.93750,   0.48841,  -0.93750
  -0.87623,  -0.79456,  -0.26160,  -0.10898,  -0.83878,   0.93750,   0.93750,   0.93750,  -0.93750,  -0.93750
  -0.45897,   0.07513,  -0.86932,   0.93750,  -0.14207,  -0.71922,  -0.87797,   0.17103,   0.93750,   0.00774
   0.40551,  -0.62831,   0.79313,  -0.68866,   0.69865,  -0.86784,   0.93750,  -0.93750,  -0.93739,   0.93747
   0.08114,   0.05731,  -0.93750,  -0.93750,  -0.19779,   0.44390,  -0.93750,   0.32761,  -0.50529,   0.27008
  -0.55476,   0.93750,  -0.18176,  -0.66368,   0.93750,   0.36567,  -0.70546,  -0.87765,  -0.81112,  -0.70233
   0.80497,   0.10525,  -0.93750,  -0.93750,   0.93750,  -0.88449,   0.87743,   0.36220,  -0.55672,  -0.93750
   0.74033,  -0.78827,  -0.76974,   0.93368,   0.74428,   0.79584,  -0.87583,  -0.93750,  -0.45964,  -0.78308
   0.93750,  -0.16955,  -0.26964,   0.89028,  -0.70181,  -0.93373,   0.70869,  -0.79289,  -0.79942,   0.10893
   0.16462,  -0.65333,   0.56754,  -0.79540,  -0.23348,   0.93750,  -0.93750,  -0.87780,  -0.82467,   0.92970
  -0.87473,  -0.67600,   0.92932,   0.85999,  -0.29930,  -0.44434,   0.72691,   0.14974,  -0.55318,   0.92393
  -0.86423,   0.56114,  -0.86088,   0.02927,  -0.74624,  -0.81931,   0.58288,   0.93750,   0.80069,   0.92523
   0.31881,  -0.93750,  -0.93750,   0.93750,   0.31197,   0.93750,  -0.93750,  -0.37655,  -0.68393,   0.55812
   0.57153,  -0.79745,   0.57434,  -0.85094,  -0.11520,  -0.88823,   0.80165,   0.93750,   0.92086,  -0.75557
   0.77892,  -0.93750,   0.93750,  -0.89446,   0.07514,  -0.29639,   0.93750,  -0.23855,   0.14545,  -0.72979
   0.19070,  -0.35674,  -0.81690,   0.92218,  -0.72686,  -0.71461,   0.14921,  -0.89559,  -0.22450,   0.93750
   0.34312,  -0.88232,   0.64372,   0.61985,  -0.05746,  -0.21768,  -0.26062,   0.86820,   0.53770,  -0.93397
   0.35420,   0.06671,  -0.49042,  -0.56045,   0.55789,  -0.93750,   0.56220,   0.30920,   0.93207,   0.45563
  -0.92271,   0.92881,  -0.64791,  -0.25713,  -0.92082,  -0.93238,   0.93750,  -0.61576,   0.73498,   0.76141
   0.39929,   0.93283,   0.68458,   0.02513,   0.92819,   0.01672,   0.49665,   0.87455,   0.48853,   0.55728
  -0.93750,   0.64858,   0.59935,  -0.93750,  -0.93750,  -0.49683,  -0.28647,  -0.67823,   0.35560,  -0.43018
  -0.06253,  -0.72344,   0.67218,   0.59085,   0.64011,  -0.44100,   0.82818,   0.51558,  -0.74106,   0.64847
   0.65897,  -0.48633,   0.27046,  -0.93750,  -0.67650,   0.93750,  -0.69107,  -0.71760,   0.93750,   0.17920
   0.19737,  -0.51554,  -0.77240,  -0.76231,   0.37306,   0.86736,   0.93750,  -0.64182,  -0.63831,  -0.93750
  -0.04179,   0.47464,   0.15561,   0.93750,  -0.93750,  -0.70287,  -0.93750,   0.05818,  -0.93750,   0.87727
   0.16932,   0.80803,  -0.80146,  -0.80278,   0.59001,   0.45814,   0.93750,  -0.68852,  -0.93657,   0.41302
   0.38676,  -0.81287,  -0.44479,  -0.19958,   0.93750,   0.80845,  -0.29234,  -0.83345,   0.64465,   0.62263
   0.93750,  -0.45850,  -0.14790,   0.11763,  -0.93750,   0.40631,  -0.46305,   0.58416,   0.93750,  -0.93750
   0.62659,   0.76289,   0.37135,  -0.88125,  -0.56327,   0.80264,  -0.76907,  -0.14520,  -0.07365,   0.66865
   0.93750,  -0.93750,  -0.22314,  -0.75589,   0.93750,   0.93103,  -0.78538,  -0.30614,  -0.76463,   0.56534
   0.93750,   0.66559,  -0.93622,   0.93750,  -0.65470,   0.17191,  -0.87483,  -0.42965,  -0.81202,   0.71443
   0.87479,   0.92538,  -0.10100,   0.93750,  -0.86506,  -0.02209,  -0.03822,   0.62126,  -0.82308,   0.67317
   0.79991,  -0.93750,   0.89404,  -0.40795,  -0.02816,   0.17775,  -0.81717,   0.36534,   0.93750,  -0.73777
  -0.69324,   0.81855,   0.81475,   0.93750,   0.50671,   0.10088,  -0.69284,  -0.76177,   0.76499,  -0.34521
   0.00308,  -0.60797,   0.86851,  -0.50568,   0.88001,  -0.17802,   0.12080,   0.78695,   0.48502,   0.74611
  -0.48813,  -0.31405,   0.37152,  -0.90441,   0.87128,  -0.58324,  -0.72564,   0.64086,  -0.76675,   0.91858
  -0.92460,   0.55829,  -0.89095,   0.72132,   0.89282,  -0.73887,  -0.72166,   0.63687,  -0.91172,   0.87047
   0.08317,   0.93750,  -0.13110,   0.40647,  -0.79700,   0.41123,  -0.92943,  -0.18296,   0.03440,   0.93750
   0.93750,   0.23219,   0.71616,  -0.12983,   0.93750,   0.66204,  -0.72950,   0.91578,  -0.06571,  -0.69615
  -0.81760,   0.48384,  -0.75273,   0.26979,   0.87268,   0.93750,  -0.93750,  -0.87454,  -0.93750,   0.93750
  -0.93750,   0.00165,  -0.06536,  -0.58709,  -0.93750,  -0.10558,  -0.93750,   0.22214,  -0.93750,  -0.69327
   0.93750,  -0.93750,   0.84367,  -0.33846,   0.65669,   0.00997,   0.02233,   0.57226,  -0.86935,   0.93750
  -0.88651,  -0.92895,   0.60944,   0.93750,   0.28710,   0.55414,   0.29417,   0.06386,  -0.90918,   0.02611
   0.17432,  -0.70978,   0.65662,   0.93750,   0.21243,  -0.63433,  -0.02247,  -0.92569,   0.37272,  -0.93750
  -0.86921,  -0.70133,  -0.09437,  -0.57921,  -0.35208,   0.93747,   0.00833,  -0.53200,  -0.47982,   0.55599
  -0.36551,  -0.93750,  -0.17813,   0.51696,  -0.91928,  -0.93750,  -0.93750,   0.93750,  -0.56198,   0.72596
   0.86851,  -0.47222,  -0.60271,   0.36289,  -0.30044,   0.80816,   0.19484,   0.88625,  -0.62311,   0.93750
  -0.82105,  -0.75761,  -0.04670,   0.15759,   0.93750,  -0.83537,  -0.64566,   0.93750,   0.27438,  -0.33098
  -0.92777,  -0.75334,  -0.19694,  -0.74740,   0.93750,  -0.74536,  -0.09354,  -0.87306,  -0.40647,   0.93597
   0.56453,  -0.81033,   0.29093,   0.82274,   0.92425,   0.92496,  -0.53142,  -0.13752,  -0.81399,  -0.75552
  -0.93750,   0.93750,   0.33281,  -0.24969,   0.59145,  -0.93750,  -0.83865,  -0.93750,  -0.87041,  -0.66105
   0.75386,   0.22854,   0.56537,   0.93750,  -0.63290,  -0.41400,  -0.21823,  -0.42011,   0.26002,   0.19248
  -0.17255,  -0.64901,   0.39838,   0.47651,   0.41693,   0.22525,  -0.27316,   0.78909,   0.83898,  -0.50519
  -0.29692,  -0.16060,  -0.93750,  -0.54513,  -0.62938,  -0.93750,  -0.35379,  -0.54717,  -0.05026,   0.93750
  -0.70192,   0.87901,  -0.76555,  -0.60917,  -0.66221,   0.67512,   0.73759,   0.07400,   0.87729,  -0.64829
  -0.93750,  -0.87571,  -0.43409,   0.07483,   0.93750,   0.93750,   0.53990,  -0.76352,  -0.74232,  -0.17754
   0.89351,  -0.00092,  -0.38103,   0.82096,   0.89469,  -0.93750,  -0.93750,   0.23540,   0.93750,   0.05974
  -0.05015,   0.93687,   0.67043,  -0.46764,  -0.61388,   0.93750,  -0.38628,  -0.32937,  -0.75600,  -0.68435
   0.93750,   0.76065,   0.18124,  -0.93750,   0.45826,   0.35318,   0.36342,  -0.93750,  -0.40414,  -0.93750
